{"learner":{"attributes":{"best_iteration":"18","best_score":"4.509681122486081"},"feature_names":[],"feature_types":[],"gradient_booster":{"model":{"gbtree_model_param":{"num_parallel_tree":"1","num_trees":"34"},"iteration_indptr":[0,1,2,3,4,5,6,7,8,9,10,11,12,13,14,15,16,17,18,19,20,21,22,23,24,25,26,27,28,29,30,31,32,33,34],"tree_info":[0,0,0,0,0,0,0,0,0,0,0,0,0,0,0,0,0,0,0,0,0,0,0,0,0,0,0,0,0,0,0,0,0,0],"trees":[{"base_weights":[1.0356839E-3,-5.106296E-1,7.803582E0,-1.343854E0,1.8264273E0,3.7240365E0,1.8085217E1,-1.4138885E0,1.5742042E1,8.665438E0,1.6861793E-1,2.7583742E0,8.869091E0,1.4210407E1,2.9844292E1,-1.5595935E-1,4.8404105E-2,-1.8796034E-2,2.4998786E0,9.42114E-1,1.6788077E-1,2.4261324E0,6.7378366E-3,1.7398018E-1,6.2069297E-1,6.5705436E-1,1.448346E0,9.902326E-1,2.1695993E0,1.4080064E0,3.9186275E0],"categories":[],"categories_nodes":[],"categories_segments":[],"categories_sizes":[],"default_left":[0,1,1,1,0,1,0,1,0,1,0,0,1,1,0,0,0,0,0,0,0,0,0,0,0,0,0,0,0,0,0],"id":0,"left_children":[1,3,5,7,9,11,13,15,17,19,21,23,25,27,29,-1,-1,-1,-1,-1,-1,-1,-1,-1,-1,-1,-1,-1,-1,-1,-1],"loss_changes":[1.907406E7,8.731072E6,1.2332676E7,3.9551265E6,1.3360672E7,1.0458405E6,3.805232E6,9.103025E5,1.989682E6,1.213924E6,2.3135205E6,6.22563E5,4.2918575E5,2.025765E6,3.047918E6,0E0,0E0,0E0,0E0,0E0,0E0,0E0,0E0,0E0,0E0,0E0,0E0,0E0,0E0,0E0,0E0],"parents":[2147483647,0,0,1,1,2,2,3,3,4,4,5,5,6,6,7,7,8,8,9,9,10,10,11,11,12,12,13,13,14,14],"right_children":[2,4,6,8,10,12,14,16,18,20,22,24,26,28,30,-1,-1,-1,-1,-1,-1,-1,-1,-1,-1,-1,-1,-1,-1,-1,-1],"split_conditions":[1.45565E2,6.3870435E2,4.3453815E2,2.18E3,2.61E2,3.7433383E-1,-3.7642E1,1.905E2,2.392072E1,8.535E1,4E1,-3.6785E1,8.511721E1,4E1,4.360872E-1,-1.5595935E-1,4.8404105E-2,-1.8796034E-2,2.4998786E0,9.42114E-1,1.6788077E-1,2.4261324E0,6.7378366E-3,1.7398018E-1,6.2069297E-1,6.5705436E-1,1.448346E0,9.902326E-1,2.1695993E0,1.4080064E0,3.9186275E0],"split_indices":[105,6,6,106,106,5,104,81,104,93,157,104,6,121,5,0,0,0,0,0,0,0,0,0,0,0,0,0,0,0,0],"split_type":[0,0,0,0,0,0,0,0,0,0,0,0,0,0,0,0,0,0,0,0,0,0,0,0,0,0,0,0,0,0,0],"sum_hessian":[4.77772E6,4.483695E6,2.94025E5,3.305275E6,1.17842E6,2.10503E5,8.3522E4,3.291783E6,1.3492E4,2.2992E5,9.485E5,1.77239E5,3.3264E4,6.2823E4,2.0699E4,3.057089E6,2.34694E5,4.959E3,8.533E3,2.07478E5,2.2442E4,3.968E3,9.44532E5,1.36827E5,4.0412E4,2.3603E4,9.661E3,3.9876E4,2.2947E4,7.703E3,1.2996E4],"tree_param":{"num_deleted":"0","num_feature":"158","num_nodes":"31","size_leaf_vector":"1"}},{"base_weights":[-4.4952554E-5,6.6628537E0,-5.3567433E-1,3.1876724E0,1.4711817E1,-1.3155478E0,1.5180886E0,2.6101062E0,2.2749283E1,7.537193E0,1.9919273E1,-1.5364553E0,-2.7394414E-1,7.0528097E0,-2.0641409E-1,3.8382426E-2,4.0714645E-1,1.5196608E0,3.4454274E0,2.9173653E0,6.0432166E-1,8.5223484E-1,2.6257188E0,-1.631171E-1,-5.072936E-2,-9.3183845E-2,2.20102E-1,8.219916E-1,1.3482939E-1,-4.2204827E-2,4.4004685E-1],"categories":[],"categories_nodes":[],"categories_segments":[],"categories_sizes":[],"default_left":[0,1,1,0,1,1,0,1,0,0,0,1,1,1,1,0,0,0,0,0,0,0,0,0,0,0,0,0,0,0,0],"id":1,"left_children":[1,3,5,7,9,11,13,15,17,19,21,23,25,27,29,-1,-1,-1,-1,-1,-1,-1,-1,-1,-1,-1,-1,-1,-1,-1,-1],"loss_changes":[1.7051492E7,9.944221E6,7.0831895E6,2.8053432E6,4.00527E6,7.375185E5,1.1617004E7,7.846751E5,6.2900125E5,1.457296E6,4.486802E6,2.5777E5,9.131931E5,1.925019E6,9.218625E5,0E0,0E0,0E0,0E0,0E0,0E0,0E0,0E0,0E0,0E0,0E0,0E0,0E0,0E0,0E0,0E0],"parents":[2147483647,0,0,1,1,2,2,3,3,4,4,5,5,6,6,7,7,8,8,9,9,10,10,11,11,12,12,13,13,14,14],"right_children":[2,4,6,8,10,12,14,16,18,20,22,24,26,28,30,-1,-1,-1,-1,-1,-1,-1,-1,-1,-1,-1,-1,-1,-1,-1,-1],"split_conditions":[4E0,3.342376E2,6.0861273E2,2.18E3,9.773406E3,1.9E1,-5.019568E0,9.773406E3,6.047893E0,6.047893E0,3.020231E-1,1.113E2,1.735753E2,8.2E1,3.2634827E1,3.8382426E-2,4.0714645E-1,1.5196608E0,3.4454274E0,2.9173653E0,6.0432166E-1,8.5223484E-1,2.6257188E0,-1.631171E-1,-5.072936E-2,-9.3183845E-2,2.20102E-1,8.219916E-1,1.3482939E-1,-4.2204827E-2,4.4004685E-1],"split_indices":[138,6,6,106,134,138,105,134,120,120,67,26,6,91,114,0,0,0,0,0,0,0,0,0,0,0,0,0,0,0,0],"split_type":[0,0,0,0,0,0,0,0,0,0,0,0,0,0,0,0,0,0,0,0,0,0,0,0,0,0,0,0,0,0,0],"sum_hessian":[4.777873E6,3.55512E5,4.422361E6,2.48306E5,1.07206E5,3.205239E6,1.217122E6,2.41186E5,7.12E3,4.5088E4,6.2118E4,2.644403E6,5.60836E5,2.89139E5,9.27983E5,9.5579E4,1.45607E5,4.329E3,2.791E3,2.911E3,4.2177E4,2.22E4,3.9918E4,2.421543E6,2.2286E5,4.43062E5,1.17774E5,2.4003E5,4.9109E4,8.8649E5,4.1493E4],"tree_param":{"num_deleted":"0","num_feature":"158","num_nodes":"31","size_leaf_vector":"1"}},{"base_weights":[-4.3644006E-5,6.0057683E0,-4.8284832E-1,3.3896127E0,1.4765508E1,-1.1530031E0,1.4624957E0,2.8662076E0,2.0399664E1,2.628029E1,1.1628987E1,-1.2706984E0,7.2989595E-1,6.5280623E0,-1.2710693E-1,1.9081642E-1,7.023091E-1,1.4462776E0,2.9520767E0,1.9286797E0,4.323608E0,6.1469334E-1,1.624786E0,-1.4399743E-1,-4.6556693E-2,5.376751E-1,-4.7026407E-2,7.6405346E-1,1.3244706E-1,2.6436827E-1,-4.6567917E-2],"categories":[],"categories_nodes":[],"categories_segments":[],"categories_sizes":[],"default_left":[0,1,1,0,0,1,0,1,0,1,0,1,1,1,0,0,0,0,0,0,0,0,0,0,0,0,0,0,0,0,0],"id":2,"left_children":[1,3,5,7,9,11,13,15,17,19,21,23,25,27,29,-1,-1,-1,-1,-1,-1,-1,-1,-1,-1,-1,-1,-1,-1,-1,-1],"loss_changes":[1.3854249E7,8.147254E6,5.765421E6,2.4372482E6,2.95253E6,7.28935E5,9.12424E6,1.0576802E6,4.4209525E5,2.074558E6,1.626971E6,4.2192E5,1.0792018E6,1.566748E6,8.0910525E5,0E0,0E0,0E0,0E0,0E0,0E0,0E0,0E0,0E0,0E0,0E0,0E0,0E0,0E0,0E0,0E0],"parents":[2147483647,0,0,1,1,2,2,3,3,4,4,5,5,6,6,7,7,8,8,9,9,10,10,11,11,12,12,13,13,14,14],"right_children":[2,4,6,8,10,12,14,16,18,20,22,24,26,28,30,-1,-1,-1,-1,-1,-1,-1,-1,-1,-1,-1,-1,-1,-1,-1,-1],"split_conditions":[4E0,5.7183325E2,6.5729736E2,2.18E3,3.7643E1,2.4633333E2,-5.019568E0,1.1811599E2,6.047893E0,5.908706E-1,3E0,1.9E1,5E0,8.446667E1,2.944E0,1.9081642E-1,7.023091E-1,1.4462776E0,2.9520767E0,1.9286797E0,4.323608E0,6.1469334E-1,1.624786E0,-1.4399743E-1,-4.6556693E-2,5.376751E-1,-4.7026407E-2,7.6405346E-1,1.3244706E-1,2.6436827E-1,-4.6567917E-2],"split_indices":[138,6,6,106,127,81,105,6,120,5,141,138,114,93,113,0,0,0,0,0,0,0,0,0,0,0,0,0,0,0,0],"split_type":[0,0,0,0,0,0,0,0,0,0,0,0,0,0,0,0,0,0,0,0,0,0,0,0,0,0,0,0,0,0,0],"sum_hessian":[4.777928E6,3.55515E5,4.422413E6,2.73757E5,8.1758E4,3.289283E6,1.13313E6,2.65586E5,8.171E3,1.7501E4,6.4257E4,3.095774E6,1.93509E5,2.7065E5,8.6248E5,2.15842E5,4.9744E4,4.951E3,3.22E3,1.2392E4,5.109E3,2.9384E4,3.4873E4,2.55797E6,5.37804E5,3.9719E4,1.5379E5,2.22979E5,4.7671E4,9.3913E4,7.68567E5],"tree_param":{"num_deleted":"0","num_feature":"158","num_nodes":"31","size_leaf_vector":"1"}},{"base_weights":[-1.7612255E-3,5.3889837E0,-4.3522665E-1,3.0403464E0,1.3244296E1,-1.1434553E0,1.0629282E0,2.5724313E0,1.8245604E1,6.642167E0,1.8217598E1,-1.226252E0,5.8759266E-1,5.3735948E0,-2.6286703E-1,1.8851529E-1,7.7446294E-1,1.2911527E0,2.6502995E0,1.3476548E0,2.4758084E-1,2.442119E0,7.622877E-1,-7.636663E-2,-1.3612509E-1,2.0887092E-1,-6.257265E-2,2.2176479E-1,7.039761E-1,9.371611E-2,-8.045802E-2],"categories":[],"categories_nodes":[],"categories_segments":[],"categories_sizes":[],"default_left":[0,1,1,0,1,1,0,1,0,0,1,1,1,1,1,0,0,0,0,0,0,0,0,0,0,0,0,0,0,0,0],"id":3,"left_children":[1,3,5,7,9,11,13,15,17,19,21,23,25,27,29,-1,-1,-1,-1,-1,-1,-1,-1,-1,-1,-1,-1,-1,-1,-1,-1],"loss_changes":[1.116663E7,6.56165E6,4.693111E6,1.9479755E6,2.687767E6,4.304565E5,8.114171E6,9.442205E5,3.596865E5,1.00149975E6,3.068528E6,1.789925E5,2.4969697E5,1.756051E6,7.0586675E5,0E0,0E0,0E0,0E0,0E0,0E0,0E0,0E0,0E0,0E0,0E0,0E0,0E0,0E0,0E0,0E0],"parents":[2147483647,0,0,1,1,2,2,3,3,4,4,5,5,6,6,7,7,8,8,9,9,10,10,11,11,12,12,13,13,14,14],"right_children":[2,4,6,8,10,12,14,16,18,20,22,24,26,28,30,-1,-1,-1,-1,-1,-1,-1,-1,-1,-1,-1,-1,-1,-1,-1,-1],"split_conditions":[4E0,5.7183325E2,4.857137E2,2.18E3,9.773406E3,1.1004115E2,-5.019568E0,5.0345E-1,6.047893E0,2E1,7.34E1,4.2E1,1.8E1,4.343232E-1,8E1,1.8851529E-1,7.7446294E-1,1.2911527E0,2.6502995E0,1.3476548E0,2.4758084E-1,2.442119E0,7.622877E-1,-7.636663E-2,-1.3612509E-1,2.0887092E-1,-6.257265E-2,2.2176479E-1,7.039761E-1,9.371611E-2,-8.045802E-2],"split_indices":[138,6,6,106,134,82,105,19,120,109,2,109,116,69,109,0,0,0,0,0,0,0,0,0,0,0,0,0,0,0,0],"split_type":[0,0,0,0,0,0,0,0,0,0,0,0,0,0,0,0,0,0,0,0,0,0,0,0,0,0,0,0,0,0,0],"sum_hessian":[4.778798E6,3.5566E5,4.423138E6,2.73799E5,8.1861E4,3.003352E6,1.419786E6,2.65626E5,8.173E3,3.5172E4,4.6689E4,2.866258E6,1.37094E5,3.33958E5,1.085828E6,2.34471E5,3.1155E4,4.967E3,3.206E3,1.332E4,2.1852E4,2.9446E4,1.7243E4,6.47511E5,2.218747E6,6.1279E4,7.5815E4,1.15392E5,2.18566E5,3.37712E5,7.48116E5],"tree_param":{"num_deleted":"0","num_feature":"158","num_nodes":"31","size_leaf_vector":"1"}},{"base_weights":[3.6487557E-4,4.858179E0,-3.9049405E-1,2.2111156E0,1.0599513E1,-8.8301307E-1,1.4124289E0,1.6888563E1,1.7749164E0,1.96165E1,8.0186825E0,8.114732E-1,-1.0335845E0,5.8843613E0,4.2065743E-2,1.0662655E0,2.6574466E0,4.504039E-2,3.6995152E-1,3.4600303E0,1.4899135E0,4.5562345E-1,1.3340241E0,-6.7571916E-2,4.6403247E-1,-1.10521786E-1,4.007637E-2,6.704713E-1,7.6477E-2,2.6209685E-1,-2.709197E-2],"categories":[],"categories_nodes":[],"categories_segments":[],"categories_sizes":[],"default_left":[0,1,1,0,0,0,0,0,1,0,1,1,1,1,0,0,0,0,0,0,0,0,0,0,0,0,0,0,0,0,0],"id":4,"left_children":[1,3,5,7,9,11,13,15,17,19,21,23,25,27,29,-1,-1,-1,-1,-1,-1,-1,-1,-1,-1,-1,-1,-1,-1,-1,-1],"loss_changes":[9.074052E6,5.408616E6,3.9276442E6,1.5594596E6,2.613304E6,8.8638725E5,5.8159345E6,4.2365062E5,6.030112E5,1.76588E6,1.608772E6,1.614405E6,3.278245E5,9.349185E5,5.86355E5,0E0,0E0,0E0,0E0,0E0,0E0,0E0,0E0,0E0,0E0,0E0,0E0,0E0,0E0,0E0,0E0],"parents":[2147483647,0,0,1,1,2,2,3,3,4,4,5,5,6,6,7,7,8,8,9,9,10,10,11,11,12,12,13,13,14,14],"right_children":[2,4,6,8,10,12,14,16,18,20,22,24,26,28,30,-1,-1,-1,-1,-1,-1,-1,-1,-1,-1,-1,-1,-1,-1,-1,-1],"split_conditions":[4E0,2.9853732E2,7.6520685E2,2.6E0,3.7643E1,3.1661333E1,-5.019568E0,6.047893E0,3.25E2,6.112E1,1.1795314E5,1.9608476E2,7.574462E2,8.675E1,2.944E0,1.0662655E0,2.6574466E0,4.504039E-2,3.6995152E-1,3.4600303E0,1.4899135E0,4.5562345E-1,1.3340241E0,-6.7571916E-2,4.6403247E-1,-1.10521786E-1,4.007637E-2,6.704713E-1,7.6477E-2,2.6209685E-1,-2.709197E-2],"split_indices":[138,6,6,112,127,128,105,120,111,2,134,6,51,93,113,0,0,0,0,0,0,0,0,0,0,0,0,0,0,0,0],"split_type":[0,0,0,0,0,0,0,0,0,0,0,0,0,0,0,0,0,0,0,0,0,0,0,0,0,0,0,0,0,0,0],"sum_hessian":[4.779035E6,3.55885E5,4.42315E6,2.43582E5,1.12303E5,3.474102E6,9.49048E5,7.029E3,2.36553E5,2.4989E4,8.7314E4,2.83514E5,3.190588E6,2.22607E5,7.26441E5,4.28E3,2.749E3,1.40122E5,9.6431E4,5.982E3,1.9007E4,5.2898E4,3.4416E4,2.042E5,7.9314E4,3.038825E6,1.51763E5,1.91863E5,3.0744E4,7.8621E4,6.4782E5],"tree_param":{"num_deleted":"0","num_feature":"158","num_nodes":"31","size_leaf_vector":"1"}},{"base_weights":[3.2514177E-4,4.384834E0,-3.525185E-1,2.6402469E0,1.1832876E1,-7.708978E-1,1.3732246E0,2.247676E0,1.5020466E1,6.040609E0,1.636954E1,8.5899925E-1,-9.1605586E-1,5.57116E0,1.0325788E-1,-6.2484303E-3,3.73966E-1,3.969734E0,1.3615042E0,2.5234632E0,4.6647832E-1,2.0884001E0,3.6058748E-1,-5.9415128E-2,4.339256E-1,-9.8103374E-2,4.493972E-2,1.00776255E-1,6.3433987E-1,-8.200995E-3,4.042943E-1],"categories":[],"categories_nodes":[],"categories_segments":[],"categories_sizes":[],"default_left":[0,1,1,0,1,0,0,1,0,0,1,1,1,0,1,0,0,0,0,0,0,0,0,0,0,0,0,0,0,0,0],"id":5,"left_children":[1,3,5,7,9,11,13,15,17,19,21,23,25,27,29,-1,-1,-1,-1,-1,-1,-1,-1,-1,-1,-1,-1,-1,-1,-1,-1],"loss_changes":[7.3919705E6,4.6241865E6,3.1929248E6,1.4013414E6,1.774661E6,8.4211325E5,4.600351E6,9.6329375E5,3.0680675E5,7.832911E5,2.182266E6,1.4720468E6,2.89975E5,7.062695E5,4.83549E5,0E0,0E0,0E0,0E0,0E0,0E0,0E0,0E0,0E0,0E0,0E0,0E0,0E0,0E0,0E0,0E0],"parents":[2147483647,0,0,1,1,2,2,3,3,4,4,5,5,6,6,7,7,8,8,9,9,10,10,11,11,12,12,13,13,14,14],"right_children":[2,4,6,8,10,12,14,16,18,20,22,24,26,28,30,-1,-1,-1,-1,-1,-1,-1,-1,-1,-1,-1,-1,-1,-1,-1,-1],"split_conditions":[4E0,6.9622284E2,8.167283E2,2.18E3,9.773406E3,3.1661333E1,-5.019568E0,9.773406E3,5.3766666E1,6.047893E0,7.81E1,2.0836655E2,8.49E2,4.052342E-1,3.2634827E1,-6.2484303E-3,3.73966E-1,3.969734E0,1.3615042E0,2.5234632E0,4.6647832E-1,2.0884001E0,3.6058748E-1,-5.9415128E-2,4.339256E-1,-9.8103374E-2,4.493972E-2,1.00776255E-1,6.3433987E-1,-8.200995E-3,4.042943E-1],"split_indices":[138,6,6,106,134,128,105,134,95,120,2,6,51,67,114,0,0,0,0,0,0,0,0,0,0,0,0,0,0,0,0],"split_type":[0,0,0,0,0,0,0,0,0,0,0,0,0,0,0,0,0,0,0,0,0,0,0,0,0,0,0,0,0,0,0],"sum_hessian":[4.778117E6,3.55879E5,4.422238E6,2.88341E5,6.7538E4,3.559334E6,8.62904E5,2.7948E5,8.861E3,2.9665E4,3.7873E4,2.9107E5,3.268264E6,2.00416E5,6.62488E5,1.0967E5,1.6981E5,4.76E2,8.385E3,1.983E3,2.7682E4,2.7977E4,9.896E3,2.05335E5,8.5735E4,3.119802E6,1.48462E5,2.9007E4,1.71409E5,6.32734E5,2.9754E4],"tree_param":{"num_deleted":"0","num_feature":"158","num_nodes":"31","size_leaf_vector":"1"}},{"base_weights":[9.635332E-4,3.9408395E0,-3.1606895E-1,1.6196922E0,8.593468E0,-8.76386E-1,7.5362456E-1,1.2748735E0,1.347879E1,1.654403E0,1.1697072E1,-9.6154916E-1,1.6282625E-1,4.387316E0,-1.2163414E-1,7.798955E-3,2.7907908E-1,7.6147383E-1,2.2631326E0,8.310721E-2,1.2635694E0,2.095964E0,8.83087E-1,-5.886667E-2,-1.0763045E-1,2.0312165E-1,-6.0432553E-2,6.413278E-1,2.23485E-1,9.291344E-2,-6.75908E-2],"categories":[],"categories_nodes":[],"categories_segments":[],"categories_sizes":[],"default_left":[0,1,1,0,0,1,0,1,0,0,0,1,0,1,1,0,0,0,0,0,0,0,0,0,0,0,0,0,0,0,0],"id":6,"left_children":[1,3,5,7,9,11,13,15,17,19,21,23,25,27,29,-1,-1,-1,-1,-1,-1,-1,-1,-1,-1,-1,-1,-1,-1,-1,-1],"loss_changes":[5.9683235E6,3.84304E6,2.6506205E6,9.7082956E5,2.550782E6,2.5685E5,4.834843E6,4.1859106E5,3.5985238E5,3.3094394E5,2.172509E6,1.1477825E5,3.150763E5,1.286832E6,7.1351425E5,0E0,0E0,0E0,0E0,0E0,0E0,0E0,0E0,0E0,0E0,0E0,0E0,0E0,0E0,0E0,0E0],"parents":[2147483647,0,0,1,1,2,2,3,3,4,4,5,5,6,6,7,7,8,8,9,9,10,10,11,11,12,12,13,13,14,14],"right_children":[2,4,6,8,10,12,14,16,18,20,22,24,26,28,30,-1,-1,-1,-1,-1,-1,-1,-1,-1,-1,-1,-1,-1,-1,-1,-1],"split_conditions":[4E0,2.406487E2,4.226475E2,2.18E3,2.9012337E-1,1.1720016E2,2.61E2,2.87E2,6.047893E0,2.18E3,3.7643E1,4.2E1,-5.019568E0,2.3E0,8E1,7.798955E-3,2.7907908E-1,7.6147383E-1,2.2631326E0,8.310721E-2,1.2635694E0,2.095964E0,8.83087E-1,-5.886667E-2,-1.0763045E-1,2.0312165E-1,-6.0432553E-2,6.413278E-1,2.23485E-1,9.291344E-2,-6.75908E-2],"split_indices":[138,6,6,106,5,50,106,111,120,106,127,109,105,123,109,0,0,0,0,0,0,0,0,0,0,0,0,0,0,0,0],"split_type":[0,0,0,0,0,0,0,0,0,0,0,0,0,0,0,0,0,0,0,0,0,0,0,0,0,0,0,0,0,0,0],"sum_hessian":[4.778217E6,3.55856E5,4.422361E6,2.37414E5,1.18442E5,2.902172E6,1.520189E6,2.30707E5,6.707E3,3.6604E4,8.1838E4,2.682354E6,2.19818E5,2.95092E5,1.225097E6,1.2892E5,1.01787E5,4.089E3,2.618E3,3.4052E4,2.552E3,1.9338E4,6.25E4,6.31237E5,2.051117E6,6.3984E4,1.55834E5,1.52012E5,1.4308E5,4.23066E5,8.02031E5],"tree_param":{"num_deleted":"0","num_feature":"158","num_nodes":"31","size_leaf_vector":"1"}},{"base_weights":[1.0505156E-3,3.1618927E0,-3.2555112E-1,6.6831756E0,1.0075579E0,-6.3475823E-1,1.2194383E0,5.1673875E0,1.5216936E1,1.1145344E1,7.5433964E-1,-7.660293E-1,6.3234955E-1,4.907987E0,3.0962828E-1,2.9121366E-1,9.639395E-1,1.0784042E0,2.7273538E0,1.0193422E0,2.7113311E0,-4.692919E-2,2.7519688E-1,-9.679589E-2,-4.2513978E-2,-1.8087069E-2,3.9793506E-1,1.362199E-1,5.8824515E-1,9.4180316E-1,2.0114435E-2],"categories":[],"categories_nodes":[],"categories_segments":[],"categories_sizes":[],"default_left":[0,1,1,0,0,0,0,0,1,0,0,1,1,1,0,0,0,0,0,0,0,0,0,0,0,0,0,0,0,0,0],"id":7,"left_children":[1,3,5,7,9,11,13,15,17,19,21,23,25,27,29,-1,-1,-1,-1,-1,-1,-1,-1,-1,-1,-1,-1,-1,-1,-1,-1],"loss_changes":[4.932368E6,3.394366E6,2.0687359E6,2.1968905E6,7.126363E5,6.001816E5,2.423426E6,1.4545628E6,1.368823E6,1.02553375E5,6.6204694E5,2.2506162E5,9.2195356E5,4.9367725E5,5.7237875E5,0E0,0E0,0E0,0E0,0E0,0E0,0E0,0E0,0E0,0E0,0E0,0E0,0E0,0E0,0E0,0E0],"parents":[2147483647,0,0,1,1,2,2,3,3,4,4,5,5,6,6,7,7,8,8,9,9,10,10,11,11,12,12,13,13,14,14],"right_children":[2,4,6,8,10,12,14,16,18,20,22,24,26,28,30,-1,-1,-1,-1,-1,-1,-1,-1,-1,-1,-1,-1,-1,-1,-1,-1],"split_conditions":[5E0,7.34E1,8.882996E2,1.45584E2,2E1,2.0000002E2,-5.019568E0,3E0,9.4658356E2,1.6772982E1,2.2340956E-1,2.069599E1,4.1343826E-1,3.7666667E-1,-3.7888E1,2.9121366E-1,9.639395E-1,1.0784042E0,2.7273538E0,1.0193422E0,2.7113311E0,-4.692919E-2,2.7519688E-1,-9.679589E-2,-4.2513978E-2,-1.8087069E-2,3.9793506E-1,1.362199E-1,5.8824515E-1,9.4180316E-1,2.0114435E-2],"split_indices":[117,2,6,105,119,116,105,141,6,102,5,6,19,71,104,0,0,0,0,0,0,0,0,0,0,0,0,0,0,0,0],"split_type":[0,0,0,0,0,0,0,0,0,0,0,0,0,0,0,0,0,0,0,0,0,0,0,0,0,0,0,0,0,0,0],"sum_hessian":[4.777868E6,4.4745E5,4.330418E6,1.69841E5,2.77609E5,3.608275E6,7.22143E5,1.44225E5,2.5616E4,6.764E3,2.70845E5,3.269553E6,3.38722E5,1.42879E5,5.79264E5,9.5876E4,4.8349E4,1.8731E4,6.885E3,6.385E3,3.79E2,1.67962E5,1.02883E5,2.053273E6,1.21628E6,2.72511E5,6.6211E4,3.0802E4,1.12077E5,6.817E3,5.72447E5],"tree_param":{"num_deleted":"0","num_feature":"158","num_nodes":"31","size_leaf_vector":"1"}},{"base_weights":[3.7564684E-4,3.2249227E0,-2.5895542E-1,9.697155E0,2.0129077E0,-5.607501E-1,1.1513448E0,3.3457122E0,1.4131451E1,8.972723E-1,4.5450277E0,7.4455984E-2,-7.954361E-1,4.4268584E0,1.5430431E-1,1.1842332E-1,1.7316598E0,2.5379062E0,1.1267E0,6.6523515E-2,1.0183481E0,1.5867704E0,3.3060172E-1,-2.3451274E-2,4.0302745E-1,-6.0334306E-2,-9.901856E-2,2.4663548E-1,6.053707E-1,5.108267E-1,2.5576118E-3],"categories":[],"categories_nodes":[],"categories_segments":[],"categories_sizes":[],"default_left":[0,0,1,1,1,0,0,0,0,0,0,1,1,0,0,0,0,0,0,0,0,0,0,0,0,0,0,0,0,0,0],"id":8,"left_children":[1,3,5,7,9,11,13,15,17,19,21,23,25,27,29,-1,-1,-1,-1,-1,-1,-1,-1,-1,-1,-1,-1,-1,-1,-1,-1],"loss_changes":[3.9952452E6,2.789786E6,1.8821288E6,1.579794E6,8.461959E5,5.4301475E5,2.5456698E6,6.964307E5,1.063946E6,4.4804022E5,1.2851924E6,1.2011111E6,9.9504875E4,5.80148E5,3.810911E5,0E0,0E0,0E0,0E0,0E0,0E0,0E0,0E0,0E0,0E0,0E0,0E0,0E0,0E0,0E0,0E0],"parents":[2147483647,0,0,1,1,2,2,3,3,4,4,5,5,6,6,7,7,8,8,9,9,10,10,11,11,12,12,13,13,14,14],"right_children":[2,4,6,8,10,12,14,16,18,20,22,24,26,28,30,-1,-1,-1,-1,-1,-1,-1,-1,-1,-1,-1,-1,-1,-1,-1,-1],"split_conditions":[4E0,6.82E1,8.674783E2,1.96E4,1.1811599E2,-5.019568E0,-5.019568E0,2.18E3,3.14E1,2.18E3,3.758E1,5.371674E2,1E2,3E0,2.2E1,1.1842332E-1,1.7316598E0,2.5379062E0,1.1267E0,6.6523515E-2,1.0183481E0,1.5867704E0,3.3060172E-1,-2.3451274E-2,4.0302745E-1,-6.0334306E-2,-9.901856E-2,2.4663548E-1,6.053707E-1,5.108267E-1,2.5576118E-3],"split_indices":[138,2,6,134,6,105,105,106,120,106,127,50,109,132,115,0,0,0,0,0,0,0,0,0,0,0,0,0,0,0,0],"split_type":[0,0,0,0,0,0,0,0,0,0,0,0,0,0,0,0,0,0,0,0,0,0,0,0,0,0,0,0,0,0,0],"sum_hessian":[4.777713E6,3.5564E5,4.422073E6,5.6093E4,2.99547E5,3.642585E6,7.79488E5,2.3062E4,3.3031E4,2.07934E5,9.1613E4,9.82724E5,2.659861E6,1.819E5,5.97588E5,1.9973E4,3.089E3,6.703E3,2.6328E4,2.02866E5,5.068E3,9.035E3,8.2578E4,9.1153E5,7.1194E4,1.339065E6,1.320796E6,8.2492E4,9.9408E4,1.5134E4,5.82454E5],"tree_param":{"num_deleted":"0","num_feature":"158","num_nodes":"31","size_leaf_vector":"1"}},{"base_weights":[5.892681E-4,-3.642302E-1,1.9310421E0,-3.9935982E-1,1.1164821E1,6.82225E-1,5.7544355E0,-6.021431E-1,8.976494E-1,9.472827E0,2.3527546E1,-1.8416433E-2,3.2209032E0,4.9655128E0,1.6269897E1,-8.83491E-2,-3.195891E-2,3.5507265E-1,1.7084325E-2,8.0159485E-1,1.558192E0,4.4867826E0,1.7377688E0,-1.978769E-2,8.1900465E-1,1.3962188E-1,6.933562E-1,4.0582663E-1,1.1158007E0,1.112308E0,2.6199348E0],"categories":[],"categories_nodes":[],"categories_segments":[],"categories_sizes":[],"default_left":[0,1,1,1,1,0,0,0,0,1,0,1,1,1,1,0,0,0,0,0,0,0,0,0,0,0,0,0,0,0,0],"id":9,"left_children":[1,3,5,7,9,11,13,15,17,19,21,23,25,27,29,-1,-1,-1,-1,-1,-1,-1,-1,-1,-1,-1,-1,-1,-1,-1,-1],"loss_changes":[3.365089E6,1.6276198E6,3.6261895E6,1.0537524E6,2.5513975E5,1.0182611E6,1.5511175E6,2.7543538E5,1.04455825E6,9.546331E4,1.920115E5,6.6090994E5,8.388139E5,9.77148E5,6.665785E5,0E0,0E0,0E0,0E0,0E0,0E0,0E0,0E0,0E0,0E0,0E0,0E0,0E0,0E0,0E0,0E0],"parents":[2147483647,0,0,1,1,2,2,3,3,4,4,5,5,6,6,7,7,8,8,9,9,10,10,11,11,12,12,13,13,14,14],"right_children":[2,4,6,8,10,12,14,16,18,20,22,24,26,28,30,-1,-1,-1,-1,-1,-1,-1,-1,-1,-1,-1,-1,-1,-1,-1,-1],"split_conditions":[2.0000002E2,2.18E3,5.047815E-1,9.751324E2,1.4883801E1,1.45584E2,1.45584E2,1.56E1,-4.968905E0,3.8420823E-1,1.706E1,9.2416E5,3.1685545E1,1.1795314E5,8.167283E2,-8.83491E-2,-3.195891E-2,3.5507265E-1,1.7084325E-2,8.0159485E-1,1.558192E0,4.4867826E0,1.7377688E0,-1.978769E-2,8.1900465E-1,1.3962188E-1,6.933562E-1,4.0582663E-1,1.1158007E0,1.112308E0,2.6199348E0],"split_indices":[116,106,5,6,102,105,105,1,105,21,122,134,6,134,6,0,0,0,0,0,0,0,0,0,0,0,0,0,0,0,0],"split_type":[0,0,0,0,0,0,0,0,0,0,0,0,0,0,0,0,0,0,0,0,0,0,0,0,0,0,0,0,0,0,0],"sum_hessian":[4.778144E6,4.018688E6,7.59456E5,4.006481E6,1.2207E4,5.72473E5,1.86983E5,3.464775E6,5.41706E5,1.0739E4,1.468E3,4.48652E5,1.23821E5,1.73935E5,1.3048E4,1.736092E6,1.728683E6,1.16487E5,4.25219E5,8.673E3,2.066E3,3.27E2,1.141E3,4.39054E5,9.598E3,8.302E4,4.0801E4,1.5171E5,2.2225E4,8.595E3,4.453E3],"tree_param":{"num_deleted":"0","num_feature":"158","num_nodes":"31","size_leaf_vector":"1"}},{"base_weights":[6.873137E-4,2.3179898E0,-2.386825E-1,1.5287477E-1,4.473263E0,-6.5641546E-1,4.5352006E-1,-1.5297738E-1,8.48249E0,1.5177418E0,7.3568816E0,-2.7535826E-1,-7.371829E-1,-7.963236E-2,2.8728535E0,-4.4182498E-2,4.8743078E-1,7.606497E-1,2.3690774E0,5.271188E-2,2.8462633E-1,2.590071E-1,1.1228514E0,1.4411327E-1,-3.7559964E-2,1.9147323E-2,-7.630076E-2,8.201172E-2,-5.3878646E-2,4.235211E-1,8.593275E-2],"categories":[],"categories_nodes":[],"categories_segments":[],"categories_sizes":[],"default_left":[0,0,1,0,1,0,0,0,0,1,1,0,0,1,1,0,0,0,0,0,0,0,0,0,0,0,0,0,0,0,0],"id":10,"left_children":[1,3,5,7,9,11,13,15,17,19,21,23,25,27,29,-1,-1,-1,-1,-1,-1,-1,-1,-1,-1,-1,-1,-1,-1,-1,-1],"loss_changes":[2.6503092E6,2.0874778E6,1.2522301E6,5.6853556E5,1.9105845E6,8.31215E4,2.1023278E6,3.1258388E5,1.05119625E5,1.4570123E5,2.0940975E6,8.127175E4,5.3443125E4,5.5174944E5,8.07353E5,0E0,0E0,0E0,0E0,0E0,0E0,0E0,0E0,0E0,0E0,0E0,0E0,0E0,0E0,0E0,0E0],"parents":[2147483647,0,0,1,1,2,2,3,3,4,4,5,5,6,6,7,7,8,8,9,9,10,10,11,11,12,12,13,13,14,14],"right_children":[2,4,6,8,10,12,14,16,18,20,22,24,26,28,30,-1,-1,-1,-1,-1,-1,-1,-1,-1,-1,-1,-1,-1,-1,-1,-1],"split_conditions":[5E0,3.4537798E-1,3.2255478E2,2.18E3,1.5172487E2,3.2255478E2,1.1306471E1,1.4584972E2,1.7013885E1,1.03E1,7.80892E3,2.9985964E1,1.5273E1,8E1,2.3E0,-4.4182498E-2,4.8743078E-1,7.606497E-1,2.3690774E0,5.271188E-2,2.8462633E-1,2.590071E-1,1.1228514E0,1.4411327E-1,-3.7559964E-2,1.9147323E-2,-7.630076E-2,8.201172E-2,-5.3878646E-2,4.235211E-1,8.593275E-2],"split_indices":[117,5,6,106,6,6,107,105,102,123,134,128,104,109,123,0,0,0,0,0,0,0,0,0,0,0,0,0,0,0,0],"split_type":[0,0,0,0,0,0,0,0,0,0,0,0,0,0,0,0,0,0,0,0,0,0,0,0,0,0,0,0,0,0,0],"sum_hessian":[4.777979E6,4.4734E5,4.330639E6,2.23161E5,2.24179E5,2.700769E6,1.62987E6,2.15258E5,7.903E3,1.1071E5,1.13469E5,4.72332E5,2.228437E6,1.335553E6,2.94317E5,2.03563E5,1.1695E4,7.474E3,4.29E2,6.3421E4,4.7289E4,5.0856E4,6.2613E4,2.6061E4,4.46271E5,6.0293E4,2.168144E6,4.51264E5,8.84289E5,1.75543E5,1.18774E5],"tree_param":{"num_deleted":"0","num_feature":"158","num_nodes":"31","size_leaf_vector":"1"}},{"base_weights":[-1.3755673E-3,-1.722193E-1,2.6015902E0,-3.8855946E-1,9.9906707E-1,1.37029E0,7.830272E0,-4.1382274E-1,5.846321E0,3.7706964E0,2.5608245E-1,3.9083478E0,5.4829454E-1,2.176016E0,1.0803328E1,6.730097E-2,-5.1828887E-2,1.5499298E-2,8.8977873E-1,5.776032E-1,2.100627E-1,1.3934112E-1,-2.9049132E-2,5.9412427E-2,5.920966E-1,-1.8303128E-2,3.0928525E-1,-8.893002E-2,4.4584137E-1,1.315288E0,1.4030103E-1],"categories":[],"categories_nodes":[],"categories_segments":[],"categories_sizes":[],"default_left":[1,1,1,1,0,0,1,0,0,1,1,1,0,0,1,0,0,0,0,0,0,0,0,0,0,0,0,0,0,0,0],"id":11,"left_children":[1,3,5,7,9,11,13,15,17,19,21,23,25,27,29,-1,-1,-1,-1,-1,-1,-1,-1,-1,-1,-1,-1,-1,-1,-1,-1],"loss_changes":[2.1244442E6,1.1359782E6,1.8943225E6,5.96046E5,1.4392922E6,4.9685812E5,9.42755E5,4.279003E5,2.6520847E5,4.9482E5,3.42632E5,3.886197E5,3.3476922E5,1.3522788E5,8.117945E5,0E0,0E0,0E0,0E0,0E0,0E0,0E0,0E0,0E0,0E0,0E0,0E0,0E0,0E0,0E0,0E0],"parents":[2147483647,0,0,1,1,2,2,3,3,4,4,5,5,6,6,7,7,8,8,9,9,10,10,11,11,12,12,13,13,14,14],"right_children":[2,4,6,8,10,12,14,16,18,20,22,24,26,28,30,-1,-1,-1,-1,-1,-1,-1,-1,-1,-1,-1,-1,-1,-1,-1,-1],"split_conditions":[1E1,9.1725824E2,7.1483093E2,2.18E3,2.86E2,8.396667E1,7.80892E3,3.1661333E1,2.392072E1,2.3E0,5.673069E3,2.1979424E4,-3.6785E1,2E0,8.5333336E1,6.730097E-2,-5.1828887E-2,1.5499298E-2,8.8977873E-1,5.776032E-1,2.100627E-1,1.3934112E-1,-2.9049132E-2,5.9412427E-2,5.920966E-1,-1.8303128E-2,3.0928525E-1,-8.893002E-2,4.4584137E-1,1.315288E0,1.4030103E-1],"split_indices":[135,6,6,106,106,91,134,128,104,123,134,134,104,147,91,0,0,0,0,0,0,0,0,0,0,0,0,0,0,0,0],"split_type":[0,0,0,0,0,0,0,0,0,0,0,0,0,0,0,0,0,0,0,0,0,0,0,0,0,0,0,0,0,0,0],"sum_hessian":[4.777246E6,4.483008E6,2.94238E5,3.784078E6,6.9893E5,2.38156E5,5.6082E4,3.768808E6,1.527E4,1.47752E5,5.51178E5,5.8261E4,1.79895E5,1.9327E4,3.6755E4,3.3049E5,3.438318E6,5.33E3,9.94E3,6.7136E4,8.0616E4,1.78905E5,3.72273E5,2.2013E4,3.6248E4,1.39735E5,4.016E4,8.249E3,1.1078E4,2.9405E4,7.35E3],"tree_param":{"num_deleted":"0","num_feature":"158","num_nodes":"31","size_leaf_vector":"1"}},{"base_weights":[-1.9154513E-5,-2.66813E-1,1.4120599E0,-2.9375252E-1,8.612181E0,-3.821075E-2,3.5299401E0,-4.2572597E-1,9.387582E-1,6.622949E0,1.61361E1,-9.7398263E-1,5.4150224E-1,-8.387271E-1,4.631786E0,-6.36645E-2,-4.4246977E-3,3.1347972E-1,2.9972842E-2,-5.9884423E-1,7.3180145E-1,3.7199752E0,1.157517E0,-1.2476341E-1,-3.9077878E-2,-7.1759294E-3,1.9588083E-1,-1.0610129E-1,2.000998E0,3.1860152E-1,9.043751E-1],"categories":[],"categories_nodes":[],"categories_segments":[],"categories_sizes":[],"default_left":[0,1,1,1,1,0,0,1,1,0,0,0,1,0,1,0,0,0,0,0,0,0,0,0,0,0,0,0,0,0,0],"id":12,"left_children":[1,3,5,7,9,11,13,15,17,19,21,23,25,27,29,-1,-1,-1,-1,-1,-1,-1,-1,-1,-1,-1,-1,-1,-1,-1,-1],"loss_changes":[1.8005949E6,9.615606E5,2.3328655E6,6.5190506E5,1.8188962E5,2.4455825E5,1.48599E6,2.912833E5,5.439833E5,8.436147E4,2.4377906E5,2.7521453E4,2.4195095E5,2.8818188E5,1.572497E6,0E0,0E0,0E0,0E0,0E0,0E0,0E0,0E0,0E0,0E0,0E0,0E0,0E0,0E0,0E0,0E0],"parents":[2147483647,0,0,1,1,2,2,3,3,4,4,5,5,6,6,7,7,8,8,9,9,10,10,11,11,12,12,13,13,14,14],"right_children":[2,4,6,8,10,12,14,16,18,20,22,24,26,28,30,-1,-1,-1,-1,-1,-1,-1,-1,-1,-1,-1,-1,-1,-1,-1,-1],"split_conditions":[2.0000002E2,2.18E3,1.5172487E2,1.0684225E3,3.9599222E-1,2.7556103E-2,2.3116414E-1,6.1688334E-1,1.3689E3,6.712484E-2,5.4E0,1.3926654E-1,1.5949952E4,1.46581E2,2.5E1,-6.36645E-2,-4.4246977E-3,3.1347972E-1,2.9972842E-2,-5.9884423E-1,7.3180145E-1,3.7199752E0,1.157517E0,-1.2476341E-1,-3.9077878E-2,-7.1759294E-3,1.9588083E-1,-1.0610129E-1,2.000998E0,3.1860152E-1,9.043751E-1],"split_indices":[116,106,6,6,71,70,5,69,134,77,120,19,134,105,121,0,0,0,0,0,0,0,0,0,0,0,0,0,0,0,0],"split_type":[0,0,0,0,0,0,0,0,0,0,0,0,0,0,0,0,0,0,0,0,0,0,0,0,0,0,0,0,0,0,0],"sum_hessian":[4.779484E6,4.019965E6,7.59519E5,4.007806E6,1.2159E4,4.50814E5,3.08705E5,3.62017E6,3.87636E5,9.618E3,2.541E3,1.72448E5,2.78366E5,6.2178E4,2.46527E5,2.331234E6,1.288936E6,8.7373E4,3.00263E5,5.02E2,9.116E3,4.51E2,2.09E3,1.17373E5,5.5075E4,1.94296E5,8.407E4,6.1523E4,6.55E2,1.85682E5,6.0845E4],"tree_param":{"num_deleted":"0","num_feature":"158","num_nodes":"31","size_leaf_vector":"1"}},{"base_weights":[3.8208053E-4,9.0876013E-1,-3.4074223E-1,-4.4013187E-2,2.548001E0,-5.1366806E-1,6.5468484E-1,6.815636E0,-1.0287027E-1,1.9931897E0,8.076987E0,8.3301926E-1,-5.7174206E-1,4.273271E0,-9.377268E-2,1.7481889E-1,1.4703233E0,-3.207319E-2,1.5490113E-1,1.8441911E-1,1.4475582E0,2.217423E0,5.1234126E-1,1.5861744E-2,4.3661752E-1,-2.8839207E-1,-5.52719E-2,2.8571364E-1,7.473891E-1,-1.1758021E-1,2.9606005E-2],"categories":[],"categories_nodes":[],"categories_segments":[],"categories_sizes":[],"default_left":[1,1,1,0,1,0,0,0,0,1,0,1,0,0,0,0,0,0,0,0,0,0,0,0,0,0,0,0,0,0,0],"id":13,"left_children":[1,3,5,7,9,11,13,15,17,19,21,23,25,27,29,-1,-1,-1,-1,-1,-1,-1,-1,-1,-1,-1,-1,-1,-1,-1,-1],"loss_changes":[1.4805525E6,2.0372885E6,5.9792075E5,3.330639E5,1.4708162E6,2.3145075E5,1.392408E6,2.804836E5,2.9435844E5,8.104199E5,1.820517E6,2.915213E5,1.2478725E5,3.993515E5,1.7969289E5,0E0,0E0,0E0,0E0,0E0,0E0,0E0,0E0,0E0,0E0,0E0,0E0,0E0,0E0,0E0,0E0],"parents":[2147483647,0,0,1,1,2,2,3,3,4,4,5,5,6,6,7,7,8,8,9,9,10,10,11,11,12,12,13,13,14,14],"right_children":[2,4,6,8,10,12,14,16,18,20,22,24,26,28,30,-1,-1,-1,-1,-1,-1,-1,-1,-1,-1,-1,-1,-1,-1,-1,-1],"split_conditions":[4.2E1,2.9853732E2,3.988889E2,3.8354924E0,1.03E1,3.1661333E1,8E1,2.958E1,1.45584E2,9.2416E5,1.12E1,7.6520685E2,3.8354924E0,3.5767465E2,1.326875E-1,1.7481889E-1,1.4703233E0,-3.207319E-2,1.5490113E-1,1.8441911E-1,1.4475582E0,2.217423E0,5.1234126E-1,1.5861744E-2,4.3661752E-1,-2.8839207E-1,-5.52719E-2,2.8571364E-1,7.473891E-1,-1.1758021E-1,2.9606005E-2],"split_indices":[109,6,81,107,123,128,109,124,105,134,123,6,107,124,45,0,0,0,0,0,0,0,0,0,0,0,0,0,0,0,0],"split_type":[0,0,0,0,0,0,0,0,0,0,0,0,0,0,0,0,0,0,0,0,0,0,0,0,0,0,0,0,0,0,0],"sum_hessian":[4.77798E6,1.304427E6,3.473553E6,8.24946E5,4.79481E5,2.959439E6,5.14114E5,7.017E3,8.17929E5,4.35756E5,4.3725E4,1.22345E5,2.837094E6,8.8112E4,4.26002E5,4.273E3,2.744E3,7.22625E5,9.5304E4,4.30617E5,5.139E3,7.573E3,3.6152E4,1.02736E5,1.9609E4,2.315E4,2.813944E6,6.1086E4,2.7026E4,1.12829E5,3.13173E5],"tree_param":{"num_deleted":"0","num_feature":"158","num_nodes":"31","size_leaf_vector":"1"}},{"base_weights":[-1.5332327E-4,-3.350232E-1,7.64404E-1,-3.4900028E-1,6.8388124E0,-1.4531744E-1,1.9138249E0,4.275573E0,-3.691383E-1,5.5509286E0,3.1786745E1,-2.9623738E-1,2.4837527E0,5.979463E-1,3.5126903E0,1.0351007E0,1.7136905E-1,-6.5435424E-2,-1.2136854E-2,2.2897923E-1,1.198532E0,1.2793659E0,3.8915462E0,-3.175993E-2,4.9130735E-1,1.3273808E-2,4.965026E-1,1.8163987E-1,1.0993215E-2,2.991154E-1,7.91166E-1],"categories":[],"categories_nodes":[],"categories_segments":[],"categories_sizes":[],"default_left":[0,1,1,0,1,0,0,0,1,0,0,1,1,0,0,0,0,0,0,0,0,0,0,0,0,0,0,0,0,0,0],"id":14,"left_children":[1,3,5,7,9,11,13,15,17,19,21,23,25,27,29,-1,-1,-1,-1,-1,-1,-1,-1,-1,-1,-1,-1,-1,-1,-1,-1],"loss_changes":[1.2234502E6,3.3320766E5,1.52194E6,3.0887944E5,2.0744788E5,3.2236872E5,1.352879E6,2.2380044E5,2.3336388E5,1.2893667E5,4.242275E4,8.550476E4,2.5729797E5,2.0974203E5,6.6598925E5,0E0,0E0,0E0,0E0,0E0,0E0,0E0,0E0,0E0,0E0,0E0,0E0,0E0,0E0,0E0,0E0],"parents":[2147483647,0,0,1,1,2,2,3,3,4,4,5,5,6,6,7,7,8,8,9,9,10,10,11,11,12,12,13,13,14,14],"right_children":[2,4,6,8,10,12,14,16,18,20,22,24,26,28,30,-1,-1,-1,-1,-1,-1,-1,-1,-1,-1,-1,-1,-1,-1,-1,-1],"split_conditions":[2.8192198E0,1.52E2,1.735753E2,1.7567759E0,7.665E0,1.45584E2,3E1,7.545E1,3.1833333E-1,2.3920202E-1,1.5856804E-1,1.52E2,1.03E1,-4.968905E0,1.45584E2,1.0351007E0,1.7136905E-1,-6.5435424E-2,-1.2136854E-2,2.2897923E-1,1.198532E0,1.2793659E0,3.8915462E0,-3.175993E-2,4.9130735E-1,1.3273808E-2,4.965026E-1,1.8163987E-1,1.0993215E-2,2.991154E-1,7.91166E-1],"split_indices":[64,120,6,133,25,105,114,101,69,5,5,120,123,105,105,0,0,0,0,0,0,0,0,0,0,0,0,0,0,0,0],"split_type":[0,0,0,0,0,0,0,0,0,0,0,0,0,0,0,0,0,0,0,0,0,0,0,0,0,0,0,0,0,0,0],"sum_hessian":[4.778593E6,3.323102E6,1.455491E6,3.316641E6,6.461E3,8.12461E5,6.4303E5,1.4379E4,3.302262E6,6.145E3,3.16E2,7.68355E5,4.4106E4,3.52731E5,2.90299E5,4.264E3,1.0115E4,1.535126E6,1.767136E6,4.079E3,2.066E3,8.7E1,2.29E2,7.65218E5,3.137E3,2.2648E4,2.1458E4,1.00873E5,2.51858E5,2.59531E5,3.0768E4],"tree_param":{"num_deleted":"0","num_feature":"158","num_nodes":"31","size_leaf_vector":"1"}},{"base_weights":[1.2299916E-3,-2.0196095E-1,1.076038E0,-2.2388363E-1,7.0234666E0,2.839951E-1,4.040852E0,-3.1832325E-1,9.0611047E-1,5.319584E0,1.708594E1,-9.618429E-1,1.0498155E0,3.4659126E0,1.379341E1,-6.0760826E-2,-1.1716726E-2,5.776896E-1,6.570754E-2,3.909716E-1,1.087876E0,3.2076051E0,1.276708E0,-1.105906E-1,2.3447858E-1,9.0989016E-2,1.0150204E0,1.5948695E-1,4.7711563E-1,1.9624007E0,2.269634E-1],"categories":[],"categories_nodes":[],"categories_segments":[],"categories_sizes":[],"default_left":[0,1,1,1,1,0,1,0,0,1,0,0,1,0,0,0,0,0,0,0,0,0,0,0,0,0,0,0,0,0,0],"id":15,"left_children":[1,3,5,7,9,11,13,15,17,19,21,23,25,27,29,-1,-1,-1,-1,-1,-1,-1,-1,-1,-1,-1,-1,-1,-1,-1,-1],"loss_changes":[1.04362825E6,6.366038E5,1.7841455E6,4.2758856E5,2.0834412E5,5.7206756E5,8.98102E5,2.151766E5,3.7486062E5,8.145391E4,1.1353325E5,1.0873772E5,4.728396E5,3.6940425E5,5.99093E5,0E0,0E0,0E0,0E0,0E0,0E0,0E0,0E0,0E0,0E0,0E0,0E0,0E0,0E0,0E0,0E0],"parents":[2147483647,0,0,1,1,2,2,3,3,4,4,5,5,6,6,7,7,8,8,9,9,10,10,11,11,12,12,13,13,14,14],"right_children":[2,4,6,8,10,12,14,16,18,20,22,24,26,28,30,-1,-1,-1,-1,-1,-1,-1,-1,-1,-1,-1,-1,-1,-1,-1,-1],"split_conditions":[2.0000002E2,2.18E3,5.908706E-1,1.1126636E3,1.4361721E1,1.722E-1,7.6E1,1.37E1,2.3E0,3.743E-1,5.4E0,1.46581E2,1.52E2,5E0,3.14E1,-6.0760826E-2,-1.1716726E-2,5.776896E-1,6.570754E-2,3.909716E-1,1.087876E0,3.2076051E0,1.276708E0,-1.105906E-1,2.3447858E-1,9.0989016E-2,1.0150204E0,1.5948695E-1,4.7711563E-1,1.9624007E0,2.269634E-1],"split_indices":[116,106,5,6,102,5,110,7,123,22,120,105,120,147,120,0,0,0,0,0,0,0,0,0,0,0,0,0,0,0,0],"split_type":[0,0,0,0,0,0,0,0,0,0,0,0,0,0,0,0,0,0,0,0,0,0,0,0,0,0,0,0,0,0,0],"sum_hessian":[4.778707E6,4.018934E6,7.59773E5,4.006778E6,1.2156E4,5.99594E5,1.60179E5,3.697739E6,3.09039E5,1.0397E4,1.759E3,2.2826E5,3.71334E5,1.51263E5,8.916E3,1.516639E6,2.1811E6,1.5031E4,2.94008E5,8.295E3,2.102E3,3.92E2,1.367E3,2.18731E5,9.529E3,3.65712E5,5.622E3,6.216E4,8.9103E4,5.92E3,2.996E3],"tree_param":{"num_deleted":"0","num_feature":"158","num_nodes":"31","size_leaf_vector":"1"}},{"base_weights":[-6.3190045E-4,7.153294E-1,-2.6938045E-1,-2.2297242E-1,1.8046076E0,-4.0710074E-1,5.927859E-1,4.5778484E0,-2.6224655E-1,3.973794E0,9.220285E-1,4.4481638E-1,-4.730584E-1,3.7677536E0,-5.6792323E-2,-8.5232176E-2,1.2986473E0,-3.9044145E-2,1.1557498E-1,-7.396058E-3,5.487001E-1,5.250551E-3,2.180635E-1,-9.49975E-3,2.256733E-1,-2.3395665E-1,-4.5411926E-2,2.5169334E-1,6.594848E-1,-9.491327E-2,3.5218135E-2],"categories":[],"categories_nodes":[],"categories_segments":[],"categories_sizes":[],"default_left":[1,1,1,0,0,0,0,0,1,0,1,1,0,0,0,0,0,0,0,0,0,0,0,0,0,0,0,0,0,0,0],"id":16,"left_children":[1,3,5,7,9,11,13,15,17,19,21,23,25,27,29,-1,-1,-1,-1,-1,-1,-1,-1,-1,-1,-1,-1,-1,-1,-1,-1],"loss_changes":[9.190881E5,1.3324191E6,4.1237475E5,1.3205256E5,1.1549762E6,1.6826988E5,9.8655475E5,2.5949828E5,1.26278766E5,1.0686575E6,4.692907E5,2.10479E5,9.8252375E4,2.872845E5,1.4492312E5,0E0,0E0,0E0,0E0,0E0,0E0,0E0,0E0,0E0,0E0,0E0,0E0,0E0,0E0,0E0,0E0],"parents":[2147483647,0,0,1,1,2,2,3,3,4,4,5,5,6,6,7,7,8,8,9,9,10,10,11,11,12,12,13,13,14,14],"right_children":[2,4,6,8,10,12,14,16,18,20,22,24,26,28,30,-1,-1,-1,-1,-1,-1,-1,-1,-1,-1,-1,-1,-1,-1,-1,-1],"split_conditions":[4.2E1,2.069599E1,4.311425E2,3.8354924E0,2.35E0,6.512747E2,8E1,6.047893E0,1.22E1,2.4758591E-1,8.047808E-1,5.7183325E2,4E0,3.4306976E2,1.426492E-1,-8.5232176E-2,1.2986473E0,-3.9044145E-2,1.1557498E-1,-7.396058E-3,5.487001E-1,5.250551E-3,2.180635E-1,-9.49975E-3,2.256733E-1,-2.3395665E-1,-4.5411926E-2,2.5169334E-1,6.594848E-1,-9.491327E-2,3.5218135E-2],"split_indices":[109,6,81,107,125,108,109,120,123,5,69,6,138,124,44,0,0,0,0,0,0,0,0,0,0,0,0,0,0,0,0],"split_type":[0,0,0,0,0,0,0,0,0,0,0,0,0,0,0,0,0,0,0,0,0,0,0,0,0,0,0,0,0,0,0],"sum_hessian":[4.776627E6,1.303644E6,3.472983E6,7.00358E5,6.03286E5,2.994629E6,4.78354E5,5.682E3,6.94676E5,1.74471E5,4.28815E5,2.15191E5,2.779438E6,8.1245E4,3.97109E5,3.453E3,2.229E3,6.37081E5,5.7595E4,4.7476E4,1.26995E5,2.53608E5,1.75207E5,1.65797E5,4.9394E4,2.7918E4,2.75152E6,5.6326E4,2.4919E4,1.24802E5,2.72307E5],"tree_param":{"num_deleted":"0","num_feature":"158","num_nodes":"31","size_leaf_vector":"1"}},{"base_weights":[1.2811212E-4,-7.090213E-2,2.4040024E0,-8.965744E-2,6.581737E0,1.7263154E0,1.2298514E1,-2.0701404E-1,9.0075016E-1,4.7770677E0,2.747266E1,-2.5007668E0,2.4114995E0,1.9217884E1,3.2108724E0,5.5140424E-1,-2.2190632E-2,7.294362E-1,7.100969E-2,2.2481464E-1,8.133985E-1,3.2390478E0,1.3311799E0,-1.739059E-1,-5.305597E-1,5.197656E-1,9.158572E-2,6.370277E-1,3.2265365E0,6.5739745E-1,-2.9114574E-1],"categories":[],"categories_nodes":[],"categories_segments":[],"categories_sizes":[],"default_left":[0,1,1,1,1,0,0,0,0,1,1,1,0,0,1,0,0,0,0,0,0,0,0,0,0,0,0,0,0,0,0],"id":17,"left_children":[1,3,5,7,9,11,13,15,17,19,21,23,25,27,29,-1,-1,-1,-1,-1,-1,-1,-1,-1,-1,-1,-1,-1,-1,-1,-1],"loss_changes":[8.1565125E5,5.7892375E5,9.1927994E5,5.377765E5,4.916433E5,3.7163975E5,5.525346E5,3.5244038E5,5.974855E5,1.0192216E5,7.178606E4,3.8229156E4,4.601048E5,8.36095E5,7.826122E4,0E0,0E0,0E0,0E0,0E0,0E0,0E0,0E0,0E0,0E0,0E0,0E0,0E0,0E0,0E0,0E0],"parents":[2147483647,0,0,1,1,2,2,3,3,4,4,5,5,6,6,7,7,8,8,9,9,10,10,11,11,12,12,13,13,14,14],"right_children":[2,4,6,8,10,12,14,16,18,20,22,24,26,28,30,-1,-1,-1,-1,-1,-1,-1,-1,-1,-1,-1,-1,-1,-1,-1,-1],"split_conditions":[1.45584E2,1.52E2,6.897695E-1,1.0398467E3,7.665E0,9.02E1,1.3E0,2.6E0,1.49E2,1.07839E2,8.47E1,4.3453815E2,2.8266763E3,2.84E1,7.554024E2,5.5140424E-1,-2.2190632E-2,7.294362E-1,7.100969E-2,2.2481464E-1,8.133985E-1,3.2390478E0,1.3311799E0,-1.739059E-1,-5.305597E-1,5.197656E-1,9.158572E-2,6.370277E-1,3.2265365E0,6.5739745E-1,-2.9114574E-1],"split_indices":[105,120,5,6,26,124,125,112,111,6,2,6,6,120,6,0,0,0,0,0,0,0,0,0,0,0,0,0,0,0,0],"split_type":[0,0,0,0,0,0,0,0,0,0,0,0,0,0,0,0,0,0,0,0,0,0,0,0,0,0,0,0,0,0,0],"sum_hessian":[4.776934E6,4.639836E6,1.37098E5,4.626793E6,1.3043E4,1.28311E5,8.787E3,4.136631E6,4.90162E5,1.2007E4,1.036E3,1.7897E4,1.10414E5,4.988E3,3.799E3,1.0739E4,4.125892E6,1.4192E4,4.7597E5,6.849E3,5.158E3,7.68E2,2.68E2,1.4076E4,3.821E3,3.8567E4,7.1847E4,2.514E3,2.474E3,2.452E3,1.347E3],"tree_param":{"num_deleted":"0","num_feature":"158","num_nodes":"31","size_leaf_vector":"1"}},{"base_weights":[-1.6171135E-3,-2.7413592E-1,5.5941945E-1,4.744506E0,-2.8803283E-1,-4.0388264E-2,1.5640581E0,2.1186563E1,3.8434086E0,-2.9847947E-1,5.134639E0,-1.5607274E-1,2.0181878E0,5.127305E-1,2.8983634E0,3.916031E0,7.95991E-2,4.2808804E-1,-1.2250426E0,-1.52875725E-2,-5.926856E-2,4.0458146E-1,2.7747107E0,-2.5736118E-2,1.0824229E-1,-1.5298741E-2,4.230829E-1,1.694493E-1,1.5442522E-2,2.4306928E-1,6.6334033E-1],"categories":[],"categories_nodes":[],"categories_segments":[],"categories_sizes":[],"default_left":[0,0,1,0,1,0,0,0,0,1,1,1,1,1,1,0,0,0,0,0,0,0,0,0,0,0,0,0,0,0,0],"id":18,"left_children":[1,3,5,7,9,11,13,15,17,19,21,23,25,27,29,-1,-1,-1,-1,-1,-1,-1,-1,-1,-1,-1,-1,-1,-1,-1,-1],"loss_changes":[7.3023625E5,2.2420192E5,9.4093525E5,1.314392E5,1.8160378E5,2.3284423E5,8.1887425E5,1.6892303E5,5.9313164E4,1.3706288E5,1.5165156E5,1.1612723E5,2.4991598E5,1.3824847E5,4.4934325E5,0E0,0E0,0E0,0E0,0E0,0E0,0E0,0E0,0E0,0E0,0E0,0E0,0E0,0E0,0E0,0E0],"parents":[2147483647,0,0,1,1,2,2,3,3,4,4,5,5,6,6,7,7,8,8,9,9,10,10,11,11,12,12,13,13,14,14],"right_children":[2,4,6,8,10,12,14,16,18,20,22,24,26,28,30,-1,-1,-1,-1,-1,-1,-1,-1,-1,-1,-1,-1,-1,-1,-1,-1],"split_conditions":[2.7130618E0,2.6E0,4.0217212E2,5.4375E1,9.2416E5,1.45584E2,3E1,8.08E0,9.3172935E1,1.452E1,7.9296665E0,9.7907E1,1.03E1,7.4E0,1.03E1,3.916031E0,7.95991E-2,4.2808804E-1,-1.2250426E0,-1.52875725E-2,-5.926856E-2,4.0458146E-1,2.7747107E0,-2.5736118E-2,1.0824229E-1,-1.5298741E-2,4.230829E-1,1.694493E-1,1.5442522E-2,2.4306928E-1,6.6334033E-1],"split_indices":[64,112,6,95,134,105,114,63,101,103,79,49,123,121,123,0,0,0,0,0,0,0,0,0,0,0,0,0,0,0,0],"split_type":[0,0,0,0,0,0,0,0,0,0,0,0,0,0,0,0,0,0,0,0,0,0,0,0,0,0,0,0,0,0,0],"sum_hessian":[4.776124E6,3.21464E6,1.561484E6,8.876E3,3.205764E6,9.77738E5,5.83746E5,4.6E2,8.416E3,3.199601E6,6.163E3,9.25717E5,5.2021E4,3.26495E5,2.57251E5,2.44E2,2.16E2,8.194E3,2.22E2,2.14034E6,1.059261E6,5.881E3,2.82E2,8.55733E5,6.9984E4,2.6257E4,2.5764E4,7.596E4,2.50535E5,2.28626E5,2.8625E4],"tree_param":{"num_deleted":"0","num_feature":"158","num_nodes":"31","size_leaf_vector":"1"}},{"base_weights":[7.8387564E-4,-3.003713E-1,4.2245188E-1,3.964527E0,-3.1182367E-1,-1.8965998E-1,1.0987412E0,2.9391592E0,1.5004427E1,-3.208863E-1,4.4082413E0,7.225032E-1,-3.2743886E-1,2.5212462E0,5.582354E-1,-4.626915E-2,5.1428825E-1,3.8771362E0,1.0374731E0,-5.7589438E-2,-1.7120361E-2,1.3624571E-1,1.0657864E0,1.9692823E-3,1.7033081E-1,-3.388044E-2,3.107801E-1,3.3060226E-1,-8.015813E-3,4.779449E-1,3.506596E-2],"categories":[],"categories_nodes":[],"categories_segments":[],"categories_sizes":[],"default_left":[0,0,1,0,1,0,1,1,0,1,0,1,1,1,0,0,0,0,0,0,0,0,0,0,0,0,0,0,0,0,0],"id":19,"left_children":[1,3,5,7,9,11,13,15,17,19,21,23,25,27,29,-1,-1,-1,-1,-1,-1,-1,-1,-1,-1,-1,-1,-1,-1,-1,-1],"loss_changes":[6.066083E5,1.3611158E5,8.2388975E5,8.443673E4,1.1888575E5,1.3129356E5,7.2700725E5,5.1205098E4,6.9359125E4,1.0587997E5,1.0136589E5,9.449881E4,3.5436766E4,5.315164E5,6.003855E5,0E0,0E0,0E0,0E0,0E0,0E0,0E0,0E0,0E0,0E0,0E0,0E0,0E0,0E0,0E0,0E0],"parents":[2147483647,0,0,1,1,2,2,3,3,4,4,5,5,6,6,7,7,8,8,9,9,10,10,11,11,12,12,13,13,14,14],"right_children":[2,4,6,8,10,12,14,16,18,20,22,24,26,28,30,-1,-1,-1,-1,-1,-1,-1,-1,-1,-1,-1,-1,-1,-1,-1,-1],"split_conditions":[2.3423238E0,2.6E0,4.1935707E1,1.07409725E1,1.52E2,5E0,2.2E1,1.829E0,1.3561714E0,2.0530662E-1,2.2745596E-1,1.05E1,5.1E-1,7.7E1,2E0,-4.626915E-2,5.1428825E-1,3.8771362E0,1.0374731E0,-5.7589438E-2,-1.7120361E-2,1.3624571E-1,1.0657864E0,1.9692823E-3,1.7033081E-1,-3.388044E-2,3.107801E-1,3.3060226E-1,-8.015813E-3,4.779449E-1,3.506596E-2],"split_indices":[64,112,6,65,120,138,115,148,66,69,67,123,149,2,123,0,0,0,0,0,0,0,0,0,0,0,0,0,0,0,0],"split_type":[0,0,0,0,0,0,0,0,0,0,0,0,0,0,0,0,0,0,0,0,0,0,0,0,0,0,0,0,0,0,0],"sum_hessian":[4.776912E6,2.786672E6,1.99024E6,7.462E3,2.77921E6,1.044689E6,9.45551E5,6.829E3,6.33E2,2.773885E6,5.325E3,1.37089E5,9.076E5,2.60352E5,6.85199E5,2.685E3,4.144E3,1.02E2,5.31E2,1.025974E6,1.747911E6,3.581E3,1.744E3,7.9863E4,5.7226E4,9.04608E5,2.992E3,2.00013E5,6.0339E4,3.2114E4,6.53085E5],"tree_param":{"num_deleted":"0","num_feature":"158","num_nodes":"31","size_leaf_vector":"1"}},{"base_weights":[6.1965204E-4,-5.758284E-2,1.9661907E0,-7.329495E-2,5.4829926E0,1.2058018E1,1.4809133E0,-2.846586E-1,3.1677604E-1,3.8911805E0,2.3246016E1,2.1022385E1,-2.4638636E-1,1.0355582E0,6.833563E0,-3.2326285E-2,2.0687369E-1,1.8382911E-1,-4.425806E-3,6.58247E-1,1.0433497E-1,2.7535295E0,7.723942E-1,6.4617586E-1,3.5240154E0,3.3967647E-1,-4.315729E-1,6.748836E-2,6.5931123E-1,3.2723233E-1,1.1773607E0],"categories":[],"categories_nodes":[],"categories_segments":[],"categories_sizes":[],"default_left":[0,1,0,1,1,0,1,1,0,1,1,0,1,1,0,0,0,0,0,0,0,0,0,0,0,0,0,0,0,0,0],"id":20,"left_children":[1,3,5,7,9,11,13,15,17,19,21,23,25,27,29,-1,-1,-1,-1,-1,-1,-1,-1,-1,-1,-1,-1,-1,-1,-1,-1],"loss_changes":[5.465794E5,4.039612E5,6.7290056E5,3.814995E5,3.7093934E5,6.95344E5,3.1251778E5,2.7265044E5,8.932776E5,9.2302375E4,7.16255E4,7.547729E5,3.9420125E4,2.4260244E5,1.7711978E5,0E0,0E0,0E0,0E0,0E0,0E0,0E0,0E0,0E0,0E0,0E0,0E0,0E0,0E0,0E0,0E0],"parents":[2147483647,0,0,1,1,2,2,3,3,4,4,5,5,6,6,7,7,8,8,9,9,10,10,11,11,12,12,13,13,14,14],"right_children":[2,4,6,8,10,12,14,16,18,20,22,24,26,28,30,-1,-1,-1,-1,-1,-1,-1,-1,-1,-1,-1,-1,-1,-1,-1,-1],"split_conditions":[1.45584E2,9.2416E5,5.721E1,6.2005615E-1,7.9296665E0,1.3E0,2.2254214E0,1.2526181E0,3.36E2,8.71E1,8.9E1,1.01089E1,7.554024E2,1.0947732E3,1.46582E2,-3.2326285E-2,2.0687369E-1,1.8382911E-1,-4.425806E-3,6.58247E-1,1.0433497E-1,2.7535295E0,7.723942E-1,6.4617586E-1,3.5240154E0,3.3967647E-1,-4.315729E-1,6.748836E-2,6.5931123E-1,3.2723233E-1,1.1773607E0],"split_indices":[105,134,2,67,79,125,80,71,106,2,2,123,6,6,105,0,0,0,0,0,0,0,0,0,0,0,0,0,0,0,0],"split_type":[0,0,0,0,0,0,0,0,0,0,0,0,0,0,0,0,0,0,0,0,0,0,0,0,0,0,0,0,0,0,0],"sum_hessian":[4.777742E6,4.640338E6,1.37404E5,4.627217E6,1.3121E4,6.303E3,1.31101E5,3.001063E6,1.626154E6,1.2043E4,1.078E3,3.646E3,2.657E3,1.21032E5,1.0069E4,2.95263E6,4.8433E4,3.11862E5,1.314292E6,6.191E3,5.852E3,8.44E2,2.34E2,1.802E3,1.844E3,1.402E3,1.255E3,1.13657E5,7.375E3,5.852E3,4.217E3],"tree_param":{"num_deleted":"0","num_feature":"158","num_nodes":"31","size_leaf_vector":"1"}},{"base_weights":[-1.0931629E-3,-6.3460626E-2,1.5912545E0,3.7947795E-1,-2.2757693E-1,1.2940187E0,9.786519E0,1.0855156E0,-1.8506867E-1,-3.2138687E-1,3.602458E-1,6.8267956E0,1.0229175E0,6.593751E0,2.3297274E1,2.5777185E-1,4.7833983E-2,-2.2278478E-2,2.7784088E-1,3.4140624E-2,-3.718184E-2,2.646358E-1,-7.905508E-3,1.5389012E0,3.7847748E-1,1.8293016E-1,1.5119917E-2,1.6194962E0,3.0151048E-1,3.8641663E0,-6.734036E-1],"categories":[],"categories_nodes":[],"categories_segments":[],"categories_sizes":[],"default_left":[1,1,0,0,1,0,1,0,1,0,0,0,1,0,0,0,0,0,0,0,0,0,0,0,0,0,0,0,0,0,0],"id":21,"left_children":[1,3,5,7,9,11,13,15,17,19,21,23,25,27,29,-1,-1,-1,-1,-1,-1,-1,-1,-1,-1,-1,-1,-1,-1,-1,-1],"loss_changes":[4.743683E5,3.3414094E5,4.3853678E5,4.9532034E5,1.8494622E5,2.6058397E5,2.716508E5,5.002602E5,7.718183E4,9.667781E4,4.635629E5,2.1130856E5,1.1642061E5,1.7511505E5,5.550779E5,0E0,0E0,0E0,0E0,0E0,0E0,0E0,0E0,0E0,0E0,0E0,0E0,0E0,0E0,0E0,0E0],"parents":[2147483647,0,0,1,1,2,2,3,3,4,4,5,5,6,6,7,7,8,8,9,9,10,10,11,11,12,12,13,13,14,14],"right_children":[2,4,6,8,10,12,14,16,18,20,22,24,26,28,30,-1,-1,-1,-1,-1,-1,-1,-1,-1,-1,-1,-1,-1,-1,-1,-1],"split_conditions":[1.1976703E3,4.2E1,1.45584E2,1.1976703E3,3.810775E2,1.49E2,9.1178155E-1,2.35E0,2E1,6.512747E2,8E1,3.5767465E2,5.673069E3,1.94E1,3.14E1,2.5777185E-1,4.7833983E-2,-2.2278478E-2,2.7784088E-1,3.4140624E-2,-3.718184E-2,2.646358E-1,-7.905508E-3,1.5389012E0,3.7847748E-1,1.8293016E-1,1.5119917E-2,1.6194962E0,3.0151048E-1,3.8641663E0,-6.734036E-1],"split_indices":[6,109,105,6,83,111,5,125,122,108,109,124,134,110,120,0,0,0,0,0,0,0,0,0,0,0,0,0,0,0,0],"split_type":[0,0,0,0,0,0,0,0,0,0,0,0,0,0,0,0,0,0,0,0,0,0,0,0,0,0,0,0,0,0,0],"sum_hessian":[4.776607E6,4.596574E6,1.80033E5,1.242676E6,3.353898E6,1.73733E5,6.3E3,5.52146E5,6.9053E5,2.892317E6,4.61581E5,8.114E3,1.65619E5,5.097E3,1.203E3,1.59689E5,3.92457E5,6.81853E5,8.677E3,2.04513E5,2.687804E6,7.44E4,3.87181E5,2.126E3,5.988E3,8.6033E4,7.9586E4,1.383E3,3.714E3,7.96E2,4.07E2],"tree_param":{"num_deleted":"0","num_feature":"158","num_nodes":"31","size_leaf_vector":"1"}},{"base_weights":[-6.8497827E-4,-4.97429E-2,1.660232E0,-3.1477016E-1,2.2103198E-1,1.2098571E0,1.02046385E1,-3.2948637E-1,3.6186647E0,-6.392126E-2,1.3619828E0,-2.3230786E0,1.8181283E0,1.6941368E1,1.2729015E0,2.9508004E-1,-3.4317806E-2,1.437668E-1,9.881749E-1,-5.4317452E-2,3.1109309E-2,1.21718526E-1,8.9861023E-1,-1.3516977E-1,-4.6109912E-1,4.1932923E-1,5.831731E-2,5.339405E-1,2.8451958E0,4.7298717E-1,-3.9121678E-1],"categories":[],"categories_nodes":[],"categories_segments":[],"categories_sizes":[],"default_left":[0,1,1,1,0,0,0,0,1,0,1,1,0,0,1,0,0,0,0,0,0,0,0,0,0,0,0,0,0,0,0],"id":22,"left_children":[1,3,5,7,9,11,13,15,17,19,21,23,25,27,29,-1,-1,-1,-1,-1,-1,-1,-1,-1,-1,-1,-1,-1,-1,-1,-1],"loss_changes":[3.8917962E5,3.3292794E5,5.273006E5,1.3571478E5,7.460674E5,2.7973525E5,4.128097E5,1.049075E5,1.19358484E5,3.300103E5,5.06247E5,4.248671E4,3.2573175E5,5.2214438E5,5.2914082E4,0E0,0E0,0E0,0E0,0E0,0E0,0E0,0E0,0E0,0E0,0E0,0E0,0E0,0E0,0E0,0E0],"parents":[2147483647,0,0,1,1,2,2,3,3,4,4,5,5,6,6,7,7,8,8,9,9,10,10,11,11,12,12,13,13,14,14],"right_children":[2,4,6,8,10,12,14,16,18,20,22,24,26,28,30,-1,-1,-1,-1,-1,-1,-1,-1,-1,-1,-1,-1,-1,-1,-1,-1],"split_conditions":[1.45584E2,4.045164E-1,8.019738E-1,1.52E2,3.3E1,1.01089E1,1.3E0,2.6E0,4.767669E2,1.8E-1,2.6244E5,3.458187E2,2.8266763E3,2.84E1,7.554024E2,2.9508004E-1,-3.4317806E-2,1.437668E-1,9.881749E-1,-5.4317452E-2,3.1109309E-2,1.21718526E-1,8.9861023E-1,-1.3516977E-1,-4.6109912E-1,4.1932923E-1,5.831731E-2,5.339405E-1,2.8451958E0,4.7298717E-1,-3.9121678E-1],"split_indices":[105,69,5,120,121,123,125,112,6,48,134,6,6,120,6,0,0,0,0,0,0,0,0,0,0,0,0,0,0,0,0],"split_type":[0,0,0,0,0,0,0,0,0,0,0,0,0,0,0,0,0,0,0,0,0,0,0,0,0,0,0,0,0,0,0],"sum_hessian":[4.776314E6,4.639286E6,1.37028E5,2.344526E6,2.29476E6,1.30168E5,6.86E3,2.335788E6,8.738E3,1.836175E6,4.58585E5,1.9119E4,1.11049E5,3.91E3,2.95E3,9.708E3,2.32608E6,6.482E3,2.256E3,8.06061E5,1.030114E6,4.50039E5,8.546E3,1.3422E4,5.697E3,3.7987E4,7.3062E4,1.948E3,1.962E3,1.77E3,1.18E3],"tree_param":{"num_deleted":"0","num_feature":"158","num_nodes":"31","size_leaf_vector":"1"}},{"base_weights":[5.6020155E-5,-5.7491854E-2,1.3281218E0,-1.9211462E-1,3.2273504E-1,1.0838941E0,8.437978E0,-2.0110838E0,-1.7401533E-1,2.2925381E-1,3.1431637E0,5.8896747E0,8.5576093E-1,1.7716658E1,3.418276E0,-1.4424704E-1,-3.173947E-1,-1.9480523E-2,1.4617823E-1,3.764464E-3,1.3869388E-1,6.5874654E-1,1.7333959E-1,1.3790134E0,3.2139438E-1,4.0537855E-1,6.733913E-2,2.9046504E0,1.0055772E-1,1.1553209E0,2.9158836E-2],"categories":[],"categories_nodes":[],"categories_segments":[],"categories_sizes":[],"default_left":[1,1,0,0,0,0,0,1,1,1,0,0,0,1,0,0,0,0,0,0,0,0,0,0,0,0,0,0,0,0,0],"id":23,"left_children":[1,3,5,7,9,11,13,15,17,19,21,23,25,27,29,-1,-1,-1,-1,-1,-1,-1,-1,-1,-1,-1,-1,-1,-1,-1,-1],"loss_changes":[3.6527697E5,2.3448348E5,3.4467097E5,1.1137787E5,3.1581125E5,2.1039588E5,3.0696978E5,2.2034531E4,1.1391898E5,2.5717873E5,1.8657725E5,1.838059E5,1.0685122E5,4.3808962E5,1.0883467E5,0E0,0E0,0E0,0E0,0E0,0E0,0E0,0E0,0E0,0E0,0E0,0E0,0E0,0E0,0E0,0E0],"parents":[2147483647,0,0,1,1,2,2,3,3,4,4,5,5,6,6,7,7,8,8,9,9,10,10,11,11,12,12,13,13,14,14],"right_children":[2,4,6,8,10,12,14,16,18,20,22,24,26,28,30,-1,-1,-1,-1,-1,-1,-1,-1,-1,-1,-1,-1,-1,-1,-1,-1],"split_conditions":[1.1899934E3,2.0073116E0,1.45584E2,1.1E0,1.45584E2,1.49E2,1.12E1,2.9853732E2,7.54E1,5.373788E2,1.1899934E3,3.5767465E2,2.3E0,5.943E1,1.94E1,-1.4424704E-1,-3.173947E-1,-1.9480523E-2,1.4617823E-1,3.764464E-3,1.3869388E-1,6.5874654E-1,1.7333959E-1,1.3790134E0,3.2139438E-1,4.0537855E-1,6.733913E-2,2.9046504E0,1.0055772E-1,1.1553209E0,2.9158836E-2],"split_indices":[6,62,105,125,105,111,123,6,110,49,6,124,123,2,110,0,0,0,0,0,0,0,0,0,0,0,0,0,0,0,0],"split_type":[0,0,0,0,0,0,0,0,0,0,0,0,0,0,0,0,0,0,0,0,0,0,0,0,0,0,0,0,0,0,0],"sum_hessian":[4.779398E6,4.580899E6,1.98499E5,3.383087E6,1.197812E6,1.91908E5,6.591E3,3.333E4,3.349757E6,1.159386E6,3.8426E4,8.696E3,1.83212E5,2.313E3,4.278E3,2.2386E4,1.0944E4,3.307719E6,4.2038E4,9.94746E5,1.6464E5,1.1159E4,2.7267E4,2.199E3,6.497E3,9.883E3,1.73329E5,1.378E3,9.35E2,1.187E3,3.091E3],"tree_param":{"num_deleted":"0","num_feature":"158","num_nodes":"31","size_leaf_vector":"1"}},{"base_weights":[-2.8091812E-4,-2.7822497E-1,2.4488445E-1,4.548412E0,-3.0162504E-1,1.1412102E0,5.8785924E-3,2.1172752E1,3.5909355E0,-3.1255636E-1,2.8889382E0,2.3696263E0,4.2884773E-1,-5.0658196E-1,2.7748626E-1,4.7883983E0,1.279693E0,8.8313097E-1,2.301179E-1,-1.4542559E-1,-2.939533E-2,1.8891893E-1,2.2218602E0,2.1270089E-1,8.6337566E-1,2.7808115E-1,2.1755751E-2,8.7757865E-3,-6.493317E-2,-8.607238E-3,7.741734E-2],"categories":[],"categories_nodes":[],"categories_segments":[],"categories_sizes":[],"default_left":[0,0,1,0,1,0,0,0,0,0,1,1,0,0,1,0,0,0,0,0,0,0,0,0,0,0,0,0,0,0,0],"id":24,"left_children":[1,3,5,7,9,11,13,15,17,19,21,23,25,27,29,-1,-1,-1,-1,-1,-1,-1,-1,-1,-1,-1,-1,-1,-1,-1,-1],"loss_changes":[3.2549088E5,2.5284447E5,5.437028E5,1.7184794E5,7.770214E4,4.675398E5,2.788902E5,1.3093959E5,6.9014125E4,4.7155875E4,1.4696184E5,2.980255E5,1.680554E5,5.8888375E4,2.3648022E5,0E0,0E0,0E0,0E0,0E0,0E0,0E0,0E0,0E0,0E0,0E0,0E0,0E0,0E0,0E0,0E0],"parents":[2147483647,0,0,1,1,2,2,3,3,4,4,5,5,6,6,7,7,8,8,9,9,10,10,11,11,12,12,13,13,14,14],"right_children":[2,4,6,8,10,12,14,16,18,20,22,24,26,28,30,-1,-1,-1,-1,-1,-1,-1,-1,-1,-1,-1,-1,-1,-1,-1,-1],"split_conditions":[1.527E1,2.6E0,1.8E1,5.315E1,1.52E2,6.874E1,1.694704E-1,5.4E0,5.4E0,1.1E0,1.1429334E1,7.6E1,3.758E1,1.24E2,7.3807317E-1,4.7883983E0,1.279693E0,8.8313097E-1,2.301179E-1,-1.4542559E-1,-2.939533E-2,1.8891893E-1,2.2218602E0,2.1270089E-1,8.6337566E-1,2.7808115E-1,2.1755751E-2,8.7757865E-3,-6.493317E-2,-8.607238E-3,7.741734E-2],"split_indices":[1,112,116,95,120,2,48,120,120,125,79,110,127,119,69,0,0,0,0,0,0,0,0,0,0,0,0,0,0,0,0],"split_type":[0,0,0,0,0,0,0,0,0,0,0,0,0,0,0,0,0,0,0,0,0,0,0,0,0,0,0,0,0,0,0],"sum_hessian":[4.776636E6,2.238663E6,2.537973E6,1.08E4,2.227863E6,5.34284E5,2.003689E6,5.87E2,1.0213E4,2.220257E6,7.606E3,1.96108E5,3.38176E5,6.94094E5,1.309595E6,1.39E2,4.48E2,2.016E3,8.197E3,3.5596E4,2.184661E6,7.233E3,3.73E2,1.88797E5,7.311E3,2.7875E4,3.10301E5,1.34423E5,5.59671E5,7.56132E5,5.53463E5],"tree_param":{"num_deleted":"0","num_feature":"158","num_nodes":"31","size_leaf_vector":"1"}},{"base_weights":[8.185461E-4,-6.26911E-2,9.2928463E-1,4.0843453E0,-7.33855E-2,4.2618904E0,6.166365E-1,2.490863E0,1.1861483E1,-3.1385913E-1,8.6913794E-2,5.5206065E0,-4.79897E0,1.376183E0,-9.4899245E-2,1.268461E-1,8.105866E-1,2.1245801E0,9.0107995E-1,-1.990752E-1,-2.9575942E-2,3.6871027E-2,-1.9913409E-2,1.0633537E-2,8.469119E-1,-8.0955935E-1,-2.3964103E-1,-4.6918654E-1,1.5220083E-1,-8.9104995E-2,3.8275693E-2],"categories":[],"categories_nodes":[],"categories_segments":[],"categories_sizes":[],"default_left":[1,0,0,1,0,1,1,1,0,0,0,1,1,0,0,0,0,0,0,0,0,0,0,0,0,0,0,0,0,0,0],"id":25,"left_children":[1,3,5,7,9,11,13,15,17,19,21,23,25,27,29,-1,-1,-1,-1,-1,-1,-1,-1,-1,-1,-1,-1,-1,-1,-1,-1],"loss_changes":[2.817664E5,1.9835497E5,3.187559E5,1.4253644E5,1.7196066E5,2.9928362E5,1.5115816E5,6.5532047E4,5.2134906E4,5.4154656E4,2.1576134E5,3.677948E5,2.5333586E4,1.197147E5,5.4917863E4,0E0,0E0,0E0,0E0,0E0,0E0,0E0,0E0,0E0,0E0,0E0,0E0,0E0,0E0,0E0,0E0],"parents":[2147483647,0,0,1,1,2,2,3,3,4,4,5,5,6,6,7,7,8,8,9,9,10,10,11,11,12,12,13,13,14,14],"right_children":[2,4,6,8,10,12,14,16,18,20,22,24,26,28,30,-1,-1,-1,-1,-1,-1,-1,-1,-1,-1,-1,-1,-1,-1,-1,-1],"split_conditions":[1.1400675E3,2.6E0,4.21E2,1.3873917E1,1.321E1,8.01E1,5.673069E3,3.8420823E-1,5.4E0,3.8354924E0,1.1400675E3,7.80892E3,1.0354109E-2,3.802E-2,1.8E-1,1.268461E-1,8.105866E-1,2.1245801E0,9.0107995E-1,-1.990752E-1,-2.9575942E-2,3.6871027E-2,-1.9913409E-2,1.0633537E-2,8.469119E-1,-8.0955935E-1,-2.3964103E-1,-4.6918654E-1,1.5220083E-1,-8.9104995E-2,3.8275693E-2],"split_indices":[6,112,111,102,7,2,134,21,120,107,6,134,68,48,48,0,0,0,0,0,0,0,0,0,0,0,0,0,0,0,0],"split_type":[0,0,0,0,0,0,0,0,0,0,0,0,0,0,0,0,0,0,0,0,0,0,0,0,0,0,0,0,0,0,0],"sum_hessian":[4.778408E6,4.472479E6,3.05929E5,1.1503E4,4.460976E6,2.6238E4,2.79691E5,9.548E3,1.955E3,1.78428E6,2.676696E6,2.3038E4,3.2E3,1.35281E5,1.4441E5,7.842E3,1.706E3,4.54E2,1.501E3,1.9052E4,1.765228E6,1.348368E6,1.328328E6,8.123E3,1.4915E4,1.348E3,1.852E3,3.174E3,1.32107E5,5.4151E4,9.0259E4],"tree_param":{"num_deleted":"0","num_feature":"158","num_nodes":"31","size_leaf_vector":"1"}},{"base_weights":[1.7175598E-4,-2.0624259E-1,2.6374465E-1,-4.199764E-1,-1.0766202E-1,1.8044902E-1,2.1228006E0,-4.607985E-1,4.220835E-1,-2.1793357E-1,4.532694E-1,3.6973115E-2,9.856228E-1,-6.426574E-2,4.2735643E0,-3.9262448E-2,-1.3018085E-1,3.3464748E-1,-9.450034E-3,6.3397706E-2,-2.6822502E-2,4.1411962E-2,5.138447E-1,-8.172017E-4,2.6441756E-1,1.8950215E-1,-2.914377E-2,-1.4985104E-1,9.490677E-2,6.88889E-1,2.1736085E-1],"categories":[],"categories_nodes":[],"categories_segments":[],"categories_sizes":[],"default_left":[0,1,0,1,0,1,1,0,0,0,1,1,1,0,1,0,0,0,0,0,0,0,0,0,0,0,0,0,0,0,0],"id":26,"left_children":[1,3,5,7,9,11,13,15,17,19,21,23,25,27,29,-1,-1,-1,-1,-1,-1,-1,-1,-1,-1,-1,-1,-1,-1,-1,-1],"loss_changes":[2.5989931E5,5.644733E4,3.2488712E5,2.9068281E4,1.1340556E5,2.3198062E5,4.2322084E5,4.6241766E4,5.9068426E4,6.564568E4,5.5247062E4,2.0061017E5,3.5271403E5,6.483762E4,2.4912175E5,0E0,0E0,0E0,0E0,0E0,0E0,0E0,0E0,0E0,0E0,0E0,0E0,0E0,0E0,0E0,0E0],"parents":[2147483647,0,0,1,1,2,2,3,3,4,4,5,5,6,6,7,7,8,8,9,9,10,10,11,11,12,12,13,13,14,14],"right_children":[2,4,6,8,10,12,14,16,18,20,22,24,26,28,30,-1,-1,-1,-1,-1,-1,-1,-1,-1,-1,-1,-1,-1,-1,-1,-1],"split_conditions":[2.2623415E0,1.7079538E-1,1.45584E2,1.2727922E0,7.074177E4,5.373788E2,1.03E1,1.45572E2,3E0,6.512747E2,1.52E2,2.6244E5,1.2985616E4,1.2924E2,8.21E1,-3.9262448E-2,-1.3018085E-1,3.3464748E-1,-9.450034E-3,6.3397706E-2,-2.6822502E-2,4.1411962E-2,5.138447E-1,-8.172017E-4,2.6441756E-1,1.8950215E-1,-2.914377E-2,-1.4985104E-1,9.490677E-2,6.88889E-1,2.1736085E-1],"split_indices":[64,71,105,58,134,49,123,105,117,108,120,134,134,124,2,0,0,0,0,0,0,0,0,0,0,0,0,0,0,0,0],"split_type":[0,0,0,0,0,0,0,0,0,0,0,0,0,0,0,0,0,0,0,0,0,0,0,0,0,0,0,0,0,0,0],"sum_hessian":[4.7771E6,2.679039E6,2.098061E6,8.45625E5,1.833414E6,2.008089E6,8.9972E4,8.06526E5,3.9099E4,1.532204E6,3.0121E5,1.704382E6,3.03707E5,4.461E4,4.5362E4,7.46051E5,6.0475E4,5.869E3,3.323E4,8.5409E4,1.446795E6,2.98715E5,2.495E3,1.675373E6,2.9009E4,1.77388E5,1.26319E5,1.8469E4,2.6141E4,2.0201E4,2.5161E4],"tree_param":{"num_deleted":"0","num_feature":"158","num_nodes":"31","size_leaf_vector":"1"}},{"base_weights":[8.655757E-4,-2.7348167E-1,1.5974544E-1,-2.9143968E-1,2.1277478E0,1.0815924E0,-1.4443022E-2,-3.0160686E-1,3.137194E0,-9.046422E-1,6.127312E0,4.378266E0,8.3680123E-1,-4.2335573E-1,1.8714121E-1,2.2911294E-1,-3.1465422E-2,-8.011969E-2,6.458999E-1,2.2508089E-1,-1.23934045E-1,4.9669367E-1,1.6086152E0,7.142393E-1,1.4686306E-1,2.5864115E-1,4.1408688E-2,-5.1477034E-2,2.4056638E-2,-6.8603095E-4,7.72182E-2],"categories":[],"categories_nodes":[],"categories_segments":[],"categories_sizes":[],"default_left":[0,0,1,1,1,0,0,0,0,0,1,0,0,1,1,0,0,0,0,0,0,0,0,0,0,0,0,0,0,0,0],"id":27,"left_children":[1,3,5,7,9,11,13,15,17,19,21,23,25,27,29,-1,-1,-1,-1,-1,-1,-1,-1,-1,-1,-1,-1,-1,-1,-1,-1],"loss_changes":[2.0828933E5,7.5569516E4,4.8591553E5,6.0637875E4,1.5778183E5,3.881012E5,2.0979942E5,5.866997E4,6.728881E4,7.8181055E3,6.4749203E4,2.6734162E5,3.3109947E5,5.1006297E4,1.9348866E5,0E0,0E0,0E0,0E0,0E0,0E0,0E0,0E0,0E0,0E0,0E0,0E0,0E0,0E0,0E0,0E0],"parents":[2147483647,0,0,1,1,2,2,3,3,4,4,5,5,6,6,7,7,8,8,9,9,10,10,11,11,12,12,13,13,14,14],"right_children":[2,4,6,8,10,12,14,16,18,20,22,24,26,28,30,-1,-1,-1,-1,-1,-1,-1,-1,-1,-1,-1,-1,-1,-1,-1,-1],"split_conditions":[4.0448612E-1,1.46581E2,4.5E2,1.2354337E0,2.5E0,7.703106E0,1.7856143E-1,2.6E0,2.0000002E2,1.364E1,1.70753E1,1.7237917E1,3E0,3.5E1,1.0292301E0,2.2911294E-1,-3.1465422E-2,-8.011969E-2,6.458999E-1,2.2508089E-1,-1.23934045E-1,4.9669367E-1,1.6086152E0,7.142393E-1,1.4686306E-1,2.5864115E-1,4.1408688E-2,-5.1477034E-2,2.4056638E-2,-6.8603095E-4,7.72182E-2],"split_indices":[5,105,111,76,87,120,47,112,2,103,3,65,117,119,69,0,0,0,0,0,0,0,0,0,0,0,0,0,0,0,0],"split_type":[0,0,0,0,0,0,0,0,0,0,0,0,0,0,0,0,0,0,0,0,0,0,0,0,0,0,0,0,0,0,0],"sum_hessian":[4.778564E6,1.75247E6,3.026094E6,1.739462E6,1.3008E4,4.80924E5,2.54517E6,1.73432E6,5.142E3,7.399E3,5.609E3,3.3241E4,4.47683E5,8.40407E5,1.704763E6,8.683E3,1.725637E6,2.353E3,2.789E3,7.09E2,6.69E3,5.025E3,5.84E2,1.7046E4,1.6195E4,8.7114E4,3.60569E5,7.38697E5,1.0171E5,1.280234E6,4.24529E5],"tree_param":{"num_deleted":"0","num_feature":"158","num_nodes":"31","size_leaf_vector":"1"}},{"base_weights":[-4.3170704E-4,-4.201125E-2,1.057801E0,-5.0967075E-2,3.4001467E0,8.551184E-1,6.633679E0,3.256587E0,-5.9650965E-2,2.093254E0,1.8947786E1,4.4431047E0,6.8035066E-1,1.51350355E1,2.1268923E0,2.0702684E-1,1.1812571E0,7.5131976E-3,-2.7911052E-2,1.0310919E0,1.4939456E-1,-7.81798E-2,2.1749866E0,1.1394246E0,2.0082478E-1,3.3326775E-1,5.227032E-2,1.0261815E-2,2.6394293E0,-6.440653E-1,4.8881736E-1],"categories":[],"categories_nodes":[],"categories_segments":[],"categories_sizes":[],"default_left":[1,1,0,0,1,0,0,1,1,1,0,0,0,0,0,0,0,0,0,0,0,0,0,0,0,0,0,0,0,0,0],"id":28,"left_children":[1,3,5,7,9,11,13,15,17,19,21,23,25,27,29,-1,-1,-1,-1,-1,-1,-1,-1,-1,-1,-1,-1,-1,-1,-1,-1],"loss_changes":[2.1024619E5,1.4173167E5,2.041485E5,1.3171139E5,2.4238742E5,1.09301164E5,2.4272403E5,1.21858234E5,1.3528583E5,5.419316E4,5.1154594E4,1.3700219E5,6.949857E4,3.7150953E5,9.802045E4,0E0,0E0,0E0,0E0,0E0,0E0,0E0,0E0,0E0,0E0,0E0,0E0,0E0,0E0,0E0,0E0],"parents":[2147483647,0,0,1,1,2,2,3,3,4,4,5,5,6,6,7,7,8,8,9,9,10,10,11,11,12,12,13,13,14,14],"right_children":[2,4,6,8,10,12,14,16,18,20,22,24,26,28,30,-1,-1,-1,-1,-1,-1,-1,-1,-1,-1,-1,-1,-1,-1,-1,-1],"split_conditions":[1.1976703E3,9.2416E5,1.45584E2,2.6E0,7.665E0,1.49E2,1.12E1,1.4883801E1,1.211E1,1.574E0,1.1E-1,3.5767465E2,2E0,1.01089E1,5.2367506E0,2.0702684E-1,1.1812571E0,7.5131976E-3,-2.7911052E-2,1.0310919E0,1.4939456E-1,-7.81798E-2,2.1749866E0,1.1394246E0,2.0082478E-1,3.3326775E-1,5.227032E-2,1.0261815E-2,2.6394293E0,-6.440653E-1,4.8881736E-1],"split_indices":[6,134,105,112,26,111,123,102,103,7,5,124,123,123,60,0,0,0,0,0,0,0,0,0,0,0,0,0,0,0,0],"split_type":[0,0,0,0,0,0,0,0,0,0,0,0,0,0,0,0,0,0,0,0,0,0,0,0,0,0,0,0,0,0,0],"sum_hessian":[4.77823E6,4.597585E6,1.80645E5,4.585655E6,1.193E4,1.7431E5,6.335E3,1.2007E4,4.573648E6,1.1006E4,9.24E2,8.095E3,1.66215E5,2.194E3,4.141E3,1.0546E4,1.461E3,2.833457E6,1.740191E6,7.47E2,1.0259E4,1.15E2,8.09E2,2.099E3,5.996E3,9.324E3,1.56891E5,9.4E2,1.254E3,1.009E3,3.132E3],"tree_param":{"num_deleted":"0","num_feature":"158","num_nodes":"31","size_leaf_vector":"1"}},{"base_weights":[-3.389221E-4,-2.2951154E-1,1.6020809E-1,-2.5989857E-1,3.3001277E-1,5.0873864E-1,-1.5984495E-1,-2.3683663E-1,-1.0108073E0,-1.765224E-1,1.1069517E0,1.5703134E-1,1.2202722E0,-2.1870777E-1,2.5673905E-1,-1.6952932E-2,-4.5573544E-2,-1.3545354E-1,6.989725E-2,7.17799E-3,-1.3478933E-1,8.718296E-2,4.5199415E-1,1.2514417E-1,4.781182E-3,4.2172942E-1,9.857284E-2,3.0284896E-1,-2.274266E-2,1.3829139E-2,2.8297713E-1],"categories":[],"categories_nodes":[],"categories_segments":[],"categories_sizes":[],"default_left":[0,1,0,0,1,0,1,1,0,1,0,0,0,0,1,0,0,0,0,0,0,0,0,0,0,0,0,0,0,0,0],"id":29,"left_children":[1,3,5,7,9,11,13,15,17,19,21,23,25,27,29,-1,-1,-1,-1,-1,-1,-1,-1,-1,-1,-1,-1,-1,-1,-1,-1],"loss_changes":[1.7581412E5,3.3469344E4,3.1344556E5,3.2333375E4,3.9906246E4,3.3662166E5,3.5919383E4,2.6689383E4,3.2697E4,1.7853594E4,3.2110082E4,1.0759945E5,3.1276862E5,3.633799E4,5.52705E4,0E0,0E0,0E0,0E0,0E0,0E0,0E0,0E0,0E0,0E0,0E0,0E0,0E0,0E0,0E0,0E0],"parents":[2147483647,0,0,1,1,2,2,3,3,4,4,5,5,6,6,7,7,8,8,9,9,10,10,11,11,12,12,13,13,14,14],"right_children":[2,4,6,8,10,12,14,16,18,20,22,24,26,28,30,-1,-1,-1,-1,-1,-1,-1,-1,-1,-1,-1,-1,-1,-1,-1,-1],"split_conditions":[1.7860506E0,3.3E1,2.8266763E3,1.45572E2,2.0530662E-1,3E1,3.675375E4,6.3870435E2,8.72781E-1,9.421667E1,2.6244E5,4E1,1.94E1,2.6E0,7.54E1,-1.6952932E-2,-4.5573544E-2,-1.3545354E-1,6.989725E-2,7.17799E-3,-1.3478933E-1,8.718296E-2,4.5199415E-1,1.2514417E-1,4.781182E-3,4.2172942E-1,9.857284E-2,3.0284896E-1,-2.274266E-2,1.3829139E-2,2.8297713E-1],"split_indices":[64,121,6,105,69,114,134,6,58,2,134,157,110,112,110,0,0,0,0,0,0,0,0,0,0,0,0,0,0,0,0],"split_type":[0,0,0,0,0,0,0,0,0,0,0,0,0,0,0,0,0,0,0,0,0,0,0,0,0,0,0,0,0,0,0],"sum_hessian":[4.778467E6,1.968514E6,2.809953E6,1.867114E6,1.014E5,1.345133E6,1.46482E6,1.811481E6,5.5633E4,6.1382E4,4.0018E4,9.0018E5,4.44953E5,1.283468E6,1.81352E5,1.385475E6,4.26006E5,4.6321E4,9.312E3,5.0647E4,1.0735E4,3.744E4,2.578E3,8.1683E4,8.18497E5,3.2293E4,4.1266E5,3.436E3,1.280032E6,1.73372E5,7.98E3],"tree_param":{"num_deleted":"0","num_feature":"158","num_nodes":"31","size_leaf_vector":"1"}},{"base_weights":[-6.830692E-4,1.3224547E-1,-2.5546554E-1,9.225217E-1,-8.31709E-3,-3.0542788E-1,3.2856137E-1,5.8311045E-1,2.5094554E0,1.286133E0,-5.6204487E-2,-1.4103816E0,-2.8378442E-1,6.724855E-2,5.5800576E0,2.0661047E-2,2.9022363E-1,-1.2732735E-1,4.0836093E-1,-1.3875993E-3,3.2356682E-1,-1.4618258E-1,-2.5588565E-3,-1.2359577E-1,-3.4147844E-1,-2.0981103E-2,-6.239012E-2,-7.6118233E-3,2.585751E-1,2.4107854E-1,1.4036975E0],"categories":[],"categories_nodes":[],"categories_segments":[],"categories_sizes":[],"default_left":[1,1,1,1,0,0,0,1,0,1,0,1,1,1,1,0,0,0,0,0,0,0,0,0,0,0,0,0,0,0,0],"id":30,"left_children":[1,3,5,7,9,11,13,15,17,19,21,23,25,27,29,-1,-1,-1,-1,-1,-1,-1,-1,-1,-1,-1,-1,-1,-1,-1,-1],"loss_changes":[1.6173195E5,3.4859253E5,4.7774344E4,2.552391E5,1.6515086E5,3.606908E4,1.7706122E5,3.4086262E5,4.9717825E5,2.4088589E5,1.10563914E5,1.0125906E4,3.7217508E4,4.437999E4,1.6388888E5,0E0,0E0,0E0,0E0,0E0,0E0,0E0,0E0,0E0,0E0,0E0,0E0,0E0,0E0,0E0,0E0],"parents":[2147483647,0,0,1,1,2,2,3,3,4,4,5,5,6,6,7,7,8,8,9,9,10,10,11,11,12,12,13,13,14,14],"right_children":[2,4,6,8,10,12,14,16,18,20,22,24,26,28,30,-1,-1,-1,-1,-1,-1,-1,-1,-1,-1,-1,-1,-1,-1,-1,-1],"split_conditions":[7.9066666E1,2.2E1,8.308028E-1,2.5E1,2E0,1.1E0,1.46581E2,3.32E2,1.1E0,9.713189E-1,4E0,2.384E0,5.82407E1,1.1795314E5,1.70753E1,2.0661047E-2,2.9022363E-1,-1.2732735E-1,4.0836093E-1,-1.3875993E-3,3.2356682E-1,-1.4618258E-1,-2.5588565E-3,-1.2359577E-1,-3.4147844E-1,-2.0981103E-2,-6.239012E-2,-7.6118233E-3,2.585751E-1,2.4107854E-1,1.4036975E0],"split_indices":[91,115,56,121,123,125,105,79,125,71,123,3,4,134,3,0,0,0,0,0,0,0,0,0,0,0,0,0,0,0,0],"split_type":[0,0,0,0,0,0,0,0,0,0,0,0,0,0,0,0,0,0,0,0,0,0,0,0,0,0,0,0,0,0,0],"sum_hessian":[4.77538E6,3.138119E6,1.637261E6,4.73875E5,2.664244E6,1.508235E6,1.29026E5,3.90382E5,8.3493E4,9.5045E4,2.569199E6,2.8974E4,1.479261E6,1.22911E5,6.115E3,3.35858E5,5.4524E4,2.4535E4,5.8958E4,5.7022E4,3.8023E4,5.4766E4,2.514433E6,2.6656E4,2.318E3,1.215006E6,2.64255E5,1.16292E5,6.619E3,4.449E3,1.666E3],"tree_param":{"num_deleted":"0","num_feature":"158","num_nodes":"31","size_leaf_vector":"1"}},{"base_weights":[1.6437697E-6,-4.7654506E-2,6.54722E-1,8.174446E-1,-7.66991E-2,1.1862458E0,-3.560325E-1,6.968441E-2,4.014269E0,8.952922E-2,-2.0687085E-1,9.00239E-1,1.3169188E1,-4.1121438E-1,1.8273952E1,-1.1691762E-2,6.873661E-1,7.27123E-2,6.898376E-1,1.0241617E-1,1.8496203E-3,-1.2576899E-1,-1.5540867E-2,1.10027924E-1,-1.6247992E-1,1.9540821E0,-2.4342947E-1,-6.12326E-1,-2.5535619E-2,-1.7370728E0,2.2972133E0],"categories":[],"categories_nodes":[],"categories_segments":[],"categories_sizes":[],"default_left":[1,0,1,1,0,1,0,1,1,1,0,1,1,0,0,0,0,0,0,0,0,0,0,0,0,0,0,0,0,0,0],"id":31,"left_children":[1,3,5,7,9,11,13,15,17,19,21,23,25,27,29,-1,-1,-1,-1,-1,-1,-1,-1,-1,-1,-1,-1,-1,-1,-1,-1],"loss_changes":[1.4908989E5,1.1191562E5,1.7417742E5,3.4585838E5,9.324805E4,7.281796E5,1.148743E5,1.4887448E5,2.6001612E5,1.2564856E5,1.3069538E5,1.0482305E5,4.924732E5,9.9178875E4,5.5662523E4,0E0,0E0,0E0,0E0,0E0,0E0,0E0,0E0,0E0,0E0,0E0,0E0,0E0,0E0,0E0,0E0],"parents":[2147483647,0,0,1,1,2,2,3,3,4,4,5,5,6,6,7,7,8,8,9,9,10,10,11,11,12,12,13,13,14,14],"right_children":[2,4,6,8,10,12,14,16,18,20,22,24,26,28,30,-1,-1,-1,-1,-1,-1,-1,-1,-1,-1,-1,-1,-1,-1,-1,-1],"split_conditions":[1.1313137E3,7.703106E0,1.23974E1,4.961987E2,2.16E1,1.03E1,1.46582E2,2E1,3.802E-2,1.6E0,2.35E0,8.42E1,6.82E1,4.21E2,4.0230778E1,-1.1691762E-2,6.873661E-1,7.27123E-2,6.898376E-1,1.0241617E-1,1.8496203E-3,-1.2576899E-1,-1.5540867E-2,1.10027924E-1,-1.6247992E-1,1.9540821E0,-2.4342947E-1,-6.12326E-1,-2.5535619E-2,-1.7370728E0,2.2972133E0],"split_indices":[6,120,123,6,123,123,105,122,47,113,125,2,2,111,90,0,0,0,0,0,0,0,0,0,0,0,0,0,0,0,0],"split_type":[0,0,0,0,0,0,0,0,0,0,0,0,0,0,0,0,0,0,0,0,0,0,0,0,0,0,0,0,0,0,0],"sum_hessian":[4.778298E6,4.454092E6,3.24206E5,1.44682E5,4.30941E6,2.12473E5,1.11733E5,1.17256E5,2.7426E4,1.892589E6,2.416821E6,2.07521E5,4.952E3,1.11404E5,3.29E2,1.14127E5,3.129E3,1.2818E4,1.4608E4,1.33678E5,1.758911E6,1.12833E5,2.303988E6,1.92288E5,1.5233E4,3.516E3,1.436E3,2.958E3,1.08446E5,3.8E1,2.91E2],"tree_param":{"num_deleted":"0","num_feature":"158","num_nodes":"31","size_leaf_vector":"1"}},{"base_weights":[-2.9808082E-4,8.760285E-2,-3.077037E-1,5.54833E-1,-5.5348497E-2,-2.2171237E-1,-1.4075663E0,3.5916466E-1,2.8871818E0,-6.4088464E-2,5.6002674E0,-8.389672E-1,-1.5675268E-1,-1.1823459E0,-3.8638504E0,7.9305865E-2,-1.6203437E-2,6.65009E-1,1.3162203E-1,6.300144E-2,-1.2203251E-2,6.924136E-2,1.8717417E0,-1.3961443E-1,2.0952707E-3,2.302049E-2,-2.8626962E-2,4.9843588E-1,-1.2265171E-1,-5.739779E-1,3.3005196E-1],"categories":[],"categories_nodes":[],"categories_segments":[],"categories_sizes":[],"default_left":[1,1,1,1,1,0,0,0,0,0,1,1,0,0,1,0,0,0,0,0,0,0,0,0,0,0,0,0,0,0,0],"id":32,"left_children":[1,3,5,7,9,11,13,15,17,19,21,23,25,27,29,-1,-1,-1,-1,-1,-1,-1,-1,-1,-1,-1,-1,-1,-1,-1,-1],"loss_changes":[1.2908052E5,2.4811466E5,1.0046314E5,3.9716903E5,1.4060347E5,3.9502953E4,4.260664E4,1.8157836E5,3.98182E5,1.14226695E5,2.825379E5,4.4946523E4,4.467426E4,1.9225469E4,8.696129E4,0E0,0E0,0E0,0E0,0E0,0E0,0E0,0E0,0E0,0E0,0E0,0E0,0E0,0E0,0E0,0E0],"parents":[2147483647,0,0,1,1,2,2,3,3,4,4,5,5,6,6,7,7,8,8,9,9,10,10,11,11,12,12,13,13,14,14],"right_children":[2,4,6,8,10,12,14,16,18,20,22,24,26,28,30,-1,-1,-1,-1,-1,-1,-1,-1,-1,-1,-1,-1,-1,-1,-1,-1],"split_conditions":[8.773333E1,4E1,7.862532E2,1.03E1,5E0,-3.6785E1,1.45572E2,2.8266763E3,1.2E1,6.512747E2,3.97432E2,1.3264073E-1,4.452286E1,2.6E0,3.0599563E0,7.9305865E-2,-1.6203437E-2,6.65009E-1,1.3162203E-1,6.300144E-2,-1.2203251E-2,6.924136E-2,1.8717417E0,-1.3961443E-1,2.0952707E-3,2.302049E-2,-2.8626962E-2,4.9843588E-1,-1.2265171E-1,-5.739779E-1,3.3005196E-1],"split_indices":[91,109,6,123,147,104,105,6,123,108,49,5,90,112,92,0,0,0,0,0,0,0,0,0,0,0,0,0,0,0,0],"split_type":[0,0,0,0,0,0,0,0,0,0,0,0,0,0,0,0,0,0,0,0,0,0,0,0,0,0,0,0,0,0,0],"sum_hessian":[4.777E6,3.71478E6,1.06222E6,8.70286E5,2.844494E6,9.85195E5,7.7025E4,8.02927E5,6.7359E4,2.840106E6,4.388E3,9.3808E4,8.91387E5,7.0557E4,6.468E3,4.38161E5,3.64766E5,1.9838E4,4.7521E4,2.18825E5,2.621281E6,3.194E3,1.194E3,5.6924E4,3.6884E4,2.23534E5,6.67853E5,5.01E2,7.0056E4,5.126E3,1.342E3],"tree_param":{"num_deleted":"0","num_feature":"158","num_nodes":"31","size_leaf_vector":"1"}},{"base_weights":[2.2408447E-5,-5.082389E-2,4.8849154E-1,-1.2804488E0,-3.548678E-2,1.4224178E-1,1.5268029E0,-1.0494608E0,-4.0736136E0,-5.7080336E-2,1.2358322E0,7.1569955E-1,-2.789354E-1,1.8161006E0,-3.705625E0,-7.5002424E-2,-3.2014236E-1,-1.19174734E-1,-5.5941516E-1,-8.76136E-3,6.380051E-2,-4.444015E-4,2.82334E-1,5.20174E-3,1.3628791E-1,-1.1296403E-1,-4.3699197E-3,1.0086657E-1,4.232627E-1,-6.0261035E-1,-1.7364548E-1],"categories":[],"categories_nodes":[],"categories_segments":[],"categories_sizes":[],"default_left":[1,0,0,1,1,1,1,0,1,1,0,0,0,1,0,0,0,0,0,0,0,0,0,0,0,0,0,0,0,0,0],"id":33,"left_children":[1,3,5,7,9,11,13,15,17,19,21,23,25,27,29,-1,-1,-1,-1,-1,-1,-1,-1,-1,-1,-1,-1,-1,-1,-1,-1],"loss_changes":[1.18620766E5,8.157825E4,1.6188153E5,3.437778E4,1.1728816E5,8.15577E4,1.7046019E5,3.171443E4,1.7828016E4,8.916046E4,1.4049628E5,6.141635E4,3.8960047E4,2.0819919E5,2.6949094E4,0E0,0E0,0E0,0E0,0E0,0E0,0E0,0E0,0E0,0E0,0E0,0E0,0E0,0E0,0E0,0E0],"parents":[2147483647,0,0,1,1,2,2,3,3,4,4,5,5,6,6,7,7,8,8,9,9,10,10,11,11,12,12,13,13,14,14],"right_children":[2,4,6,8,10,12,14,16,18,20,22,24,26,28,30,-1,-1,-1,-1,-1,-1,-1,-1,-1,-1,-1,-1,-1,-1,-1,-1],"split_conditions":[1.0684225E3,1.1E0,3E1,1.3378E1,7.54E1,6.182575E3,8.71E1,9.344001E1,7.34E1,3.3E1,1.722E-1,1.859092E-1,1.4E-1,7.80892E3,-2.3283333E1,-7.5002424E-2,-3.2014236E-1,-1.19174734E-1,-5.5941516E-1,-8.76136E-3,6.380051E-2,-4.444015E-4,2.82334E-1,5.20174E-3,1.3628791E-1,-1.1296403E-1,-4.3699197E-3,1.0086657E-1,4.232627E-1,-6.0261035E-1,-1.7364548E-1],"split_indices":[6,125,114,3,110,134,2,11,110,121,5,48,48,134,104,0,0,0,0,0,0,0,0,0,0,0,0,0,0,0,0],"split_type":[0,0,0,0,0,0,0,0,0,0,0,0,0,0,0,0,0,0,0,0,0,0,0,0,0,0,0,0,0,0,0],"sum_hessian":[4.775997E6,4.32572E6,4.50277E5,5.3289E4,4.272431E6,3.37673E5,1.12604E5,4.922E4,4.069E3,4.201076E6,7.1355E4,1.42987E5,1.94686E5,1.06705E5,5.899E3,4.3209E4,6.011E3,1.406E3,2.663E3,4.0243E6,1.76776E5,4.0059E4,3.1296E4,7.0594E4,7.2393E4,4.2172E4,1.52514E5,7.9982E4,2.6723E4,2.707E3,3.192E3],"tree_param":{"num_deleted":"0","num_feature":"158","num_nodes":"31","size_leaf_vector":"1"}}]},"name":"gbtree"},"learner_model_param":{"base_score":"2.2578058E0","boost_from_average":"1","num_class":"0","num_feature":"158","num_target":"1"},"objective":{"name":"reg:squarederror","reg_loss_param":{"scale_pos_weight":"1"}}},"version":[3,0,2]}