{"learner":{"attributes":{"best_iteration":"11","best_score":"3.756381029309331"},"feature_names":[],"feature_types":[],"gradient_booster":{"model":{"gbtree_model_param":{"num_parallel_tree":"1","num_trees":"27"},"iteration_indptr":[0,1,2,3,4,5,6,7,8,9,10,11,12,13,14,15,16,17,18,19,20,21,22,23,24,25,26,27],"tree_info":[0,0,0,0,0,0,0,0,0,0,0,0,0,0,0,0,0,0,0,0,0,0,0,0,0,0,0],"trees":[{"base_weights":[-6.042119E-3,-2.0021646E0,6.4407425E0,-2.3332844E0,9.0945154E-1,5.7396927E0,2.325171E1,-2.4835405E0,5.785286E-1,5.785336E-1,9.064246E0,1.8714459E0,7.1332397E0,2.020891E1,4.597184E1,-2.605873E-1,3.887025E-3,-1.7776966E-2,3.554624E-1,-1.570674E-1,1.5574653E-1,3.7501395E-1,1.1843976E0,1.4425038E-2,4.2081317E-1,8.211195E-1,1.21741615E-1,7.8762156E-1,2.3898995E0,4.1783485E-1,5.4151945E0],"categories":[],"categories_nodes":[],"categories_segments":[],"categories_sizes":[],"default_left":[1,1,1,0,1,1,0,1,0,1,1,1,1,0,1,0,0,0,0,0,0,0,0,0,0,0,0,0,0,0,0],"id":0,"left_children":[1,3,5,7,9,11,13,15,17,19,21,23,25,27,29,-1,-1,-1,-1,-1,-1,-1,-1,-1,-1,-1,-1,-1,-1,-1,-1],"loss_changes":[1.6211312E6,9.274016E4,3.5088075E5,3.7789875E4,2.6502787E4,1.5411956E5,8.147731E4,2.5343875E4,9.541839E3,1.9865627E4,5.613176E3,3.0567404E4,1.340345E5,4.7732375E4,4.763622E4,0E0,0E0,0E0,0E0,0E0,0E0,0E0,0E0,0E0,0E0,0E0,0E0,0E0,0E0,0E0,0E0],"parents":[2147483647,0,0,1,1,2,2,3,3,4,4,5,5,6,6,7,7,8,8,9,9,10,10,11,11,12,12,13,13,14,14],"right_children":[2,4,6,8,10,12,14,16,18,20,22,24,26,28,30,-1,-1,-1,-1,-1,-1,-1,-1,-1,-1,-1,-1,-1,-1,-1,-1],"split_conditions":[4.4329E2,2.4311E2,5E0,9E0,5E0,6.1E-1,4.689E-1,5E0,2.4311E2,4.2652744E-1,2.0913708E1,1.2933333E2,3E0,1.9819681E1,2.1550333E1,-2.605873E-1,3.887025E-3,-1.7776966E-2,3.554624E-1,-1.570674E-1,1.5574653E-1,3.7501395E-1,1.1843976E0,1.4425038E-2,4.2081317E-1,8.211195E-1,1.21741615E-1,7.8762156E-1,2.3898995E0,4.1783485E-1,5.4151945E0],"split_indices":[4,49,111,103,111,5,46,111,4,5,65,83,111,65,57,0,0,0,0,0,0,0,0,0,0,0,0,0,0,0,0],"split_type":[0,0,0,0,0,0,0,0,0,0,0,0,0,0,0,0,0,0,0,0,0,0,0,0,0,0,0,0,0,0,0],"sum_hessian":[1.25974E5,9.6191E4,2.9783E4,8.6369E4,9.822E3,2.8592E4,1.191E3,8.2131E4,4.238E3,9.44E3,3.82E2,7.573E3,2.1019E4,1.052E3,1.39E2,7.8332E4,3.799E3,3.38E3,8.58E2,2.954E3,6.486E3,1.32E2,2.5E2,4.355E3,3.218E3,1.7779E4,3.24E3,2.43E2,8.09E2,2.3E1,1.16E2],"tree_param":{"num_deleted":"0","num_feature":"115","num_nodes":"31","size_leaf_vector":"1"}},{"base_weights":[-2.2014575E-3,-1.8152406E0,5.8388524E0,-2.17834E0,3.18459E-1,5.190314E0,2.1767328E1,-2.2828064E0,4.3333463E-2,-1.1285311E0,1.6561276E0,2.9628332E0,6.660874E0,1.8720037E1,4.3564125E1,-2.3518617E-1,4.2684805E-2,-1.3902812E-2,9.801723E-1,-2.0636824E-1,-3.6662523E-2,-4.7741037E-2,3.3843538E-1,9.191074E-2,4.1818747E-1,7.5663614E-1,1.1899676E-1,7.990536E-1,2.1794782E0,1.6610857E0,5.498792E0],"categories":[],"categories_nodes":[],"categories_segments":[],"categories_sizes":[],"default_left":[1,1,1,1,1,1,0,0,1,0,1,1,1,0,1,0,0,0,0,0,0,0,0,0,0,0,0,0,0,0,0],"id":1,"left_children":[1,3,5,7,9,11,13,15,17,19,21,23,25,27,29,-1,-1,-1,-1,-1,-1,-1,-1,-1,-1,-1,-1,-1,-1,-1,-1],"loss_changes":[1.3396742E6,7.4793E4,3.094323E5,1.9147344E4,2.7177598E4,9.4299125E4,7.703006E4,1.4744625E4,6.596395E3,4.805037E3,2.6903693E4,2.8527508E4,8.5905375E4,3.380603E4,4.311753E4,0E0,0E0,0E0,0E0,0E0,0E0,0E0,0E0,0E0,0E0,0E0,0E0,0E0,0E0,0E0,0E0],"parents":[2147483647,0,0,1,1,2,2,3,3,4,4,5,5,6,6,7,7,8,8,9,9,10,10,11,11,12,12,13,13,14,14],"right_children":[2,4,6,8,10,12,14,16,18,20,22,24,26,28,30,-1,-1,-1,-1,-1,-1,-1,-1,-1,-1,-1,-1,-1,-1,-1,-1],"split_conditions":[4.435E2,5.3125637E1,5E0,5E0,1.9924E1,9.466E2,4.689E-1,9E0,3.071642E2,3.4E-1,4.472E1,1.805E1,3E0,1.9819681E1,3.6391E2,-2.3518617E-1,4.2684805E-2,-1.3902812E-2,9.801723E-1,-2.0636824E-1,-3.6662523E-2,-4.7741037E-2,3.3843538E-1,9.191074E-2,4.1818747E-1,7.5663614E-1,1.1899676E-1,7.990536E-1,2.1794782E0,1.6610857E0,5.498792E0],"split_indices":[49,80,111,111,1,4,46,103,49,5,3,57,111,65,3,0,0,0,0,0,0,0,0,0,0,0,0,0,0,0,0],"split_type":[0,0,0,0,0,0,0,0,0,0,0,0,0,0,0,0,0,0,0,0,0,0,0,0,0,0,0,0,0,0,0],"sum_hessian":[1.26501E5,9.6537E4,2.9964E4,8.2498E4,1.4039E4,2.8793E4,1.171E3,7.8793E4,3.705E3,6.744E3,7.295E3,1.1451E4,1.7342E4,1.029E3,1.42E2,7.6835E4,1.958E3,3.638E3,6.7E1,3.027E3,3.717E3,3.265E3,4.03E3,4.279E3,7.172E3,1.4879E4,2.463E3,2.3E2,7.99E2,4.3E1,9.9E1],"tree_param":{"num_deleted":"0","num_feature":"115","num_nodes":"31","size_leaf_vector":"1"}},{"base_weights":[-9.564857E-3,-1.7030826E0,5.029378E0,-2.0036967E0,-4.8450798E-2,4.4652753E0,1.8956873E1,-2.091113E0,5.5679236E-2,-9.30739E-1,1.4671615E0,1.2291181E0,5.742603E0,1.6178194E1,3.9610023E1,-2.2455187E-1,-1.1290355E-1,-3.1013642E-2,3.904949E-1,-1.0484852E-1,2.891046E-1,3.0284274E-1,2.8561084E-2,-7.5277025E-3,3.3447292E-1,6.619056E-1,8.258617E-2,4.380816E-1,1.885088E0,2.422777E0,5.508306E0],"categories":[],"categories_nodes":[],"categories_segments":[],"categories_sizes":[],"default_left":[1,1,1,1,1,1,0,1,1,1,0,1,1,0,0,0,0,0,0,0,0,0,0,0,0,0,0,0,0,0,0],"id":2,"left_children":[1,3,5,7,9,11,13,15,17,19,21,23,25,27,29,-1,-1,-1,-1,-1,-1,-1,-1,-1,-1,-1,-1,-1,-1,-1,-1],"loss_changes":[1.0783238E6,4.704303E4,2.4964325E5,1.4408406E4,1.9447027E4,1.2627544E5,7.034869E4,1.1402719E4,4.591692E3,4.1394355E3,9.870204E3,2.3862451E4,9.438531E4,3.4348906E4,3.341492E4,0E0,0E0,0E0,0E0,0E0,0E0,0E0,0E0,0E0,0E0,0E0,0E0,0E0,0E0,0E0,0E0],"parents":[2147483647,0,0,1,1,2,2,3,3,4,4,5,5,6,6,7,7,8,8,9,9,10,10,11,11,12,12,13,13,14,14],"right_children":[2,4,6,8,10,12,14,16,18,20,22,24,26,28,30,-1,-1,-1,-1,-1,-1,-1,-1,-1,-1,-1,-1,-1,-1,-1,-1],"split_conditions":[3.76292E2,1.0315874E0,5E0,5E0,5.634E1,4.8333332E-1,4.7046E-1,4.2E1,5.3125637E1,8.5671655E2,3.7919223E2,1.02416664E2,3E0,1.9184187E1,8.086134E-1,-2.2455187E-1,-1.1290355E-1,-3.1013642E-2,3.904949E-1,-1.0484852E-1,2.891046E-1,3.0284274E-1,2.8561084E-2,-7.5277025E-3,3.3447292E-1,6.619056E-1,8.258617E-2,4.380816E-1,1.885088E0,2.422777E0,5.508306E0],"split_indices":[4,67,111,111,4,67,46,79,80,6,89,85,111,63,75,0,0,0,0,0,0,0,0,0,0,0,0,0,0,0,0],"split_type":[0,0,0,0,0,0,0,0,0,0,0,0,0,0,0,0,0,0,0,0,0,0,0,0,0,0,0,0,0,0,0],"sum_hessian":[1.26361E5,9.4576E4,3.1785E4,8.0035E4,1.4541E4,3.0549E4,1.236E3,7.6776E4,3.259E3,9.191E3,5.35E3,8.646E3,2.1903E4,1.091E3,1.45E2,6.6157E4,1.0619E4,2.977E3,2.82E2,8.917E3,2.74E2,2.304E3,3.046E3,5.349E3,3.297E3,1.8589E4,3.314E3,2.02E2,8.89E2,7.4E1,7.1E1],"tree_param":{"num_deleted":"0","num_feature":"115","num_nodes":"31","size_leaf_vector":"1"}},{"base_weights":[-7.641885E-3,-1.4796339E0,4.7483783E0,-1.7253168E0,3.685377E-1,3.3582711E0,7.224445E0,-1.9470352E0,-7.2700554E-1,-9.038146E-1,1.9954308E0,1.5227154E0,4.650946E0,5.2075806E0,1.1540037E1,-2.0150892E-1,-7.4771814E-2,-9.6709214E-2,1.4197098E-1,-1.9893587E-1,-3.0556118E-2,1.7255496E-2,3.144644E-1,-2.960143E-2,2.3898874E-1,3.120634E-1,7.4986976E-1,7.096614E-1,2.229548E-1,3.6437783E-1,1.339195E0],"categories":[],"categories_nodes":[],"categories_segments":[],"categories_sizes":[],"default_left":[1,1,1,1,1,1,1,1,1,0,1,1,1,0,1,0,0,0,0,0,0,0,0,0,0,0,0,0,0,0,0],"id":3,"left_children":[1,3,5,7,9,11,13,15,17,19,21,23,25,27,29,-1,-1,-1,-1,-1,-1,-1,-1,-1,-1,-1,-1,-1,-1,-1,-1],"loss_changes":[8.820408E5,4.368753E4,1.024715E5,1.8796E4,2.3371893E4,4.5248906E4,9.312456E4,5.6701562E3,7.9565347E3,4.114183E3,1.0379549E4,1.2433391E4,4.874639E4,4.1039844E4,4.9801656E4,0E0,0E0,0E0,0E0,0E0,0E0,0E0,0E0,0E0,0E0,0E0,0E0,0E0,0E0,0E0,0E0],"parents":[2147483647,0,0,1,1,2,2,3,3,4,4,5,5,6,6,7,7,8,8,9,9,10,10,11,11,12,12,13,13,14,14],"right_children":[2,4,6,8,10,12,14,16,18,20,22,24,26,28,30,-1,-1,-1,-1,-1,-1,-1,-1,-1,-1,-1,-1,-1,-1,-1,-1],"split_conditions":[4.435E2,9.139066E1,2E0,7.256376E-1,1.9329166E1,4.3563E2,4.4874667E2,9.6380975E2,1.878E1,2.9E-1,6.4E1,1.2E2,5.498021E1,3E0,1.9657333E1,-2.0150892E-1,-7.4771814E-2,-9.6709214E-2,1.4197098E-1,-1.9893587E-1,-3.0556118E-2,1.7255496E-2,3.144644E-1,-2.960143E-2,2.3898874E-1,3.120634E-1,7.4986976E-1,7.096614E-1,2.229548E-1,3.6437783E-1,1.339195E0],"split_indices":[49,79,105,5,61,3,79,6,3,5,3,83,101,104,61,0,0,0,0,0,0,0,0,0,0,0,0,0,0,0,0],"split_type":[0,0,0,0,0,0,0,0,0,0,0,0,0,0,0,0,0,0,0,0,0,0,0,0,0,0,0,0,0,0,0],"sum_hessian":[1.25989E5,9.6212E4,2.9777E4,8.4923E4,1.1289E4,1.9072E4,1.0705E4,6.9489E4,1.5434E4,6.335E3,4.954E3,7.882E3,1.119E4,7.297E3,3.408E3,6.5757E4,3.732E3,1.3882E4,1.552E3,2.25E3,4.085E3,1.916E3,3.038E3,2.545E3,5.337E3,7.28E3,3.91E3,4.464E3,2.833E3,6.48E2,2.76E3],"tree_param":{"num_deleted":"0","num_feature":"115","num_nodes":"31","size_leaf_vector":"1"}},{"base_weights":[1.0450324E-2,-1.2415549E0,4.6709695E0,-1.6041486E0,4.2733955E-1,4.108262E0,1.804449E1,-1.7306123E0,-1.4654154E-1,-3.340366E-1,3.2157452E0,3.7021127E0,1.168419E1,1.2716343E1,2.8577347E1,-1.8035327E-1,5.3252594E-4,-7.257279E-2,1.5610094E-1,-9.9359654E-2,2.229576E-2,2.7848813E-1,1.1462649E0,-1.2613484E-1,4.2127115E-1,2.0412615E-1,1.3057555E0,9.962838E-1,3.286757E0,1.1641035E0,3.5451558E0],"categories":[],"categories_nodes":[],"categories_segments":[],"categories_sizes":[],"default_left":[1,1,1,1,1,1,1,1,1,0,1,0,0,1,1,0,0,0,0,0,0,0,0,0,0,0,0,0,0,0,0],"id":4,"left_children":[1,3,5,7,9,11,13,15,17,19,21,23,25,27,29,-1,-1,-1,-1,-1,-1,-1,-1,-1,-1,-1,-1,-1,-1,-1,-1],"loss_changes":[7.372456E5,6.026808E4,2.0126738E5,1.5081609E4,3.7742098E4,7.896075E4,6.0246875E4,9.530125E3,6.462206E3,5.1305576E3,1.3516777E4,6.1769656E4,1.7269031E4,3.9567344E4,4.173272E4,0E0,0E0,0E0,0E0,0E0,0E0,0E0,0E0,0E0,0E0,0E0,0E0,0E0,0E0,0E0,0E0],"parents":[2147483647,0,0,1,1,2,2,3,3,4,4,5,5,6,6,7,7,8,8,9,9,10,10,11,11,12,12,13,13,14,14],"right_children":[2,4,6,8,10,12,14,16,18,20,22,24,26,28,30,-1,-1,-1,-1,-1,-1,-1,-1,-1,-1,-1,-1,-1,-1,-1,-1],"split_conditions":[5.6751E2,8.778492E-1,5E0,1.4666667E2,2.4311E2,3E0,7.623449E1,5E0,2.6544E2,5E0,5E0,2E0,2.25425E-1,3.4044568E2,2.334E1,-1.8035327E-1,5.3252594E-4,-7.257279E-2,1.5610094E-1,-9.9359654E-2,2.229576E-2,2.7848813E-1,1.1462649E0,-1.2613484E-1,4.2127115E-1,2.0412615E-1,1.3057555E0,9.962838E-1,3.286757E0,1.1641035E0,3.5451558E0],"split_indices":[4,5,111,81,4,105,101,111,4,111,111,111,44,88,1,0,0,0,0,0,0,0,0,0,0,0,0,0,0,0,0],"split_type":[0,0,0,0,0,0,0,0,0,0,0,0,0,0,0,0,0,0,0,0,0,0,0,0,0,0,0,0,0,0,0],"sum_hessian":[1.26347E5,9.9593E4,2.6754E4,8.1817E4,1.7776E4,2.5675E4,1.079E3,7.5285E4,6.532E3,1.3964E4,3.812E3,2.437E4,1.305E3,7.18E2,3.61E2,7.225E4,3.035E3,4.878E3,1.654E3,6.393E3,7.571E3,3.624E3,1.88E2,2.273E3,2.2097E4,1.63E2,1.142E3,6.33E2,8.5E1,1.05E2,2.56E2],"tree_param":{"num_deleted":"0","num_feature":"115","num_nodes":"31","size_leaf_vector":"1"}},{"base_weights":[4.671786E-3,-1.1360561E0,4.131992E0,-1.4159378E0,5.94754E-1,3.6272767E0,1.6002686E1,-1.5253575E0,-2.0254652E-1,3.8134396E-2,4.549091E0,4.2606273E0,-3.9680433E-1,1.3652554E1,3.500005E1,-1.5897274E-1,-5.50545E-3,-1.5811343E-1,2.5623826E-2,-1.7909532E-2,3.669419E-1,2.2485207E-1,7.003843E-1,3.277943E-1,1.1639313E0,-1.5322292E-1,1.4278014E-1,9.7290355E-1,2.0435166E0,-6.862015E-1,4.005573E0],"categories":[],"categories_nodes":[],"categories_segments":[],"categories_sizes":[],"default_left":[1,1,1,1,1,1,0,1,0,1,0,1,1,0,1,0,0,0,0,0,0,0,0,0,0,0,0,0,0,0,0],"id":5,"left_children":[1,3,5,7,9,11,13,15,17,19,21,23,25,27,29,-1,-1,-1,-1,-1,-1,-1,-1,-1,-1,-1,-1,-1,-1,-1,-1],"loss_changes":[5.9406006E5,4.78884E4,1.6363684E5,1.1297656E4,3.0288633E4,6.679934E4,4.9258156E4,7.3873906E3,4.4530303E3,9.517018E3,9.573418E3,1.6415884E5,7.3878076E3,2.622661E4,2.6095094E4,0E0,0E0,0E0,0E0,0E0,0E0,0E0,0E0,0E0,0E0,0E0,0E0,0E0,0E0,0E0,0E0],"parents":[2147483647,0,0,1,1,2,2,3,3,4,4,5,5,6,6,7,7,8,8,9,9,10,10,11,11,12,12,13,13,14,14],"right_children":[2,4,6,8,10,12,14,16,18,20,22,24,26,28,30,-1,-1,-1,-1,-1,-1,-1,-1,-1,-1,-1,-1,-1,-1,-1,-1],"split_conditions":[5.388586E2,2.38E1,5E0,2.655184E2,1.5E2,3E0,4.7046E-1,5E0,3.7123072E-1,5E0,6.472669E1,2E0,2.4886543E2,7.426643E1,2.11E1,-1.5897274E-1,-5.50545E-3,-1.5811343E-1,2.5623826E-2,-1.7909532E-2,3.669419E-1,2.2485207E-1,7.003843E-1,3.277943E-1,1.1639313E0,-1.5322292E-1,1.4278014E-1,9.7290355E-1,2.0435166E0,-6.862015E-1,4.005573E0],"split_indices":[4,1,111,50,3,111,46,111,5,111,99,111,90,99,7,0,0,0,0,0,0,0,0,0,0,0,0,0,0,0,0],"split_type":[0,0,0,0,0,0,0,0,0,0,0,0,0,0,0,0,0,0,0,0,0,0,0,0,0,0,0,0,0,0,0],"sum_hessian":[1.26175E5,9.8854E4,2.7321E4,8.5094E4,1.376E4,2.6208E4,1.113E3,7.8055E4,7.039E3,1.2063E4,1.697E3,2.2644E4,3.564E3,9.92E2,1.21E2,7.4781E4,3.274E3,1.757E3,5.282E3,1.1383E4,6.8E2,8.77E2,8.2E2,1.9984E4,2.66E3,2.197E3,1.367E3,6.3E2,3.62E2,1.3E1,1.08E2],"tree_param":{"num_deleted":"0","num_feature":"115","num_nodes":"31","size_leaf_vector":"1"}},{"base_weights":[3.221674E-4,-1.035853E0,3.7552996E0,-1.2220584E0,9.5340693E-1,3.3326037E0,1.3961989E1,-1.2992663E0,4.9237716E-1,9.68298E-2,3.9398E0,-1.4670969E0,3.7944062E0,3.863578E0,1.7780874E1,-1.4788407E-1,-6.188349E-2,-1.0217329E-2,4.238014E-1,2.6468977E-1,-1.9752497E-2,1.9256008E-1,6.1325425E-1,8.743539E-2,-3.1290284E-1,1.0860784E0,2.9163715E-1,1.8141071E-1,4.2545958E0,1.1949565E0,3.56661E0],"categories":[],"categories_nodes":[],"categories_segments":[],"categories_sizes":[],"default_left":[1,1,1,1,1,0,0,1,1,0,0,0,0,0,0,0,0,0,0,0,0,0,0,0,0,0,0,0,0,0,0],"id":6,"left_children":[1,3,5,7,9,11,13,15,17,19,21,23,25,27,29,-1,-1,-1,-1,-1,-1,-1,-1,-1,-1,-1,-1,-1,-1,-1,-1],"loss_changes":[4.9100138E5,3.6635906E4,1.1770003E5,1.197175E4,2.165629E4,5.8096E4,4.1774E4,1.0573359E4,8.681162E3,4.9396323E3,8.322354E3,8.9566875E3,1.4830606E5,2.3627062E4,8.165342E4,0E0,0E0,0E0,0E0,0E0,0E0,0E0,0E0,0E0,0E0,0E0,0E0,0E0,0E0,0E0,0E0],"parents":[2147483647,0,0,1,1,2,2,3,3,4,4,5,5,6,6,7,7,8,8,9,9,10,10,11,11,12,12,13,13,14,14],"right_children":[2,4,6,8,10,12,14,16,18,20,22,24,26,28,30,-1,-1,-1,-1,-1,-1,-1,-1,-1,-1,-1,-1,-1,-1,-1,-1],"split_conditions":[5.3892E2,2.544E1,5E0,5E0,1.26E2,2E0,2.0745556E1,3.1443333E1,1.0878E2,2.243896E1,5.671097E1,3.8249896E2,3E0,8.733921E1,4.4345E-1,-1.4788407E-1,-6.188349E-2,-1.0217329E-2,4.238014E-1,2.6468977E-1,-1.9752497E-2,1.9256008E-1,6.1325425E-1,8.743539E-2,-3.1290284E-1,1.0860784E0,2.9163715E-1,1.8141071E-1,4.2545958E0,1.1949565E0,3.56661E0],"split_indices":[49,1,111,111,3,111,65,79,49,61,101,86,111,101,114,0,0,0,0,0,0,0,0,0,0,0,0,0,0,0,0],"split_type":[0,0,0,0,0,0,0,0,0,0,0,0,0,0,0,0,0,0,0,0,0,0,0,0,0,0,0,0,0,0,0],"sum_hessian":[1.26193E5,9.8902E4,2.7291E4,9.0437E4,8.465E3,2.6207E4,1.084E3,8.654E4,3.897E3,6.579E3,1.886E3,2.3E3,2.3907E4,2.98E2,7.86E2,6.8469E4,1.8071E4,3.364E3,5.33E2,6.8E2,5.899E3,9.84E2,9.02E2,9.55E2,1.345E3,2.641E3,2.1266E4,2.84E2,1.4E1,5.94E2,1.92E2],"tree_param":{"num_deleted":"0","num_feature":"115","num_nodes":"31","size_leaf_vector":"1"}},{"base_weights":[1.0542284E-2,-8.2118154E-1,3.9206553E0,-1.1322576E0,7.0690775E-1,3.47425E0,1.446795E1,-1.3062198E0,-2.5459126E-1,-3.542532E-2,2.7454858E0,4.114612E0,-4.6794114E-1,9.689083E0,2.2547142E1,-1.3571593E-1,-8.683397E-3,-9.874523E-2,1.05623186E-1,-4.134109E-2,1.1225983E-1,4.4748092E-1,1.0679424E-1,3.218288E-1,1.0652937E0,-1.6592321E-1,1.1811047E-1,1.9528874E0,5.486536E-1,1.0634577E0,4.130318E0],"categories":[],"categories_nodes":[],"categories_segments":[],"categories_sizes":[],"default_left":[1,1,1,1,1,1,1,1,1,1,0,1,1,0,0,0,0,0,0,0,0,0,0,0,0,0,0,0,0,0,0],"id":7,"left_children":[1,3,5,7,9,11,13,15,17,19,21,23,25,27,29,-1,-1,-1,-1,-1,-1,-1,-1,-1,-1,-1,-1,-1,-1,-1,-1],"loss_changes":[4.101851E5,4.943978E4,1.0411291E5,1.319343E4,2.6622135E4,5.358547E4,3.4452766E4,4.4795312E3,1.3734511E4,5.64569E3,1.3618387E4,1.0697766E5,5.8306113E3,2.3298191E4,7.396378E4,0E0,0E0,0E0,0E0,0E0,0E0,0E0,0E0,0E0,0E0,0E0,0E0,0E0,0E0,0E0,0E0],"parents":[2147483647,0,0,1,1,2,2,3,3,4,4,5,5,6,6,7,7,8,8,9,9,10,10,11,11,12,12,13,13,14,14],"right_children":[2,4,6,8,10,12,14,16,18,20,22,24,26,28,30,-1,-1,-1,-1,-1,-1,-1,-1,-1,-1,-1,-1,-1,-1,-1,-1],"split_conditions":[7.4224E2,9.42021E-1,5E0,1.4164E2,2.79048E2,3E0,2.407125E1,5E0,3.4E-1,2.1E1,3.987361E2,2E0,1.2443056E2,2.53074E-1,4.4517E-1,-1.3571593E-1,-8.683397E-3,-9.874523E-2,1.05623186E-1,-4.134109E-2,1.1225983E-1,4.4748092E-1,1.0679424E-1,3.218288E-1,1.0652937E0,-1.6592321E-1,1.1811047E-1,1.9528874E0,5.486536E-1,1.0634577E0,4.130318E0],"split_indices":[4,5,111,4,4,111,61,111,5,3,89,111,89,43,43,0,0,0,0,0,0,0,0,0,0,0,0,0,0,0,0],"split_type":[0,0,0,0,0,0,0,0,0,0,0,0,0,0,0,0,0,0,0,0,0,0,0,0,0,0,0,0,0,0,0],"sum_hessian":[1.26126E5,1.04004E5,2.2122E4,8.6413E4,1.7591E4,2.1225E4,8.97E2,7.2118E4,1.4295E4,1.2896E4,4.695E3,1.8259E4,2.966E3,5.65E2,3.32E2,6.9226E4,2.892E3,9.169E3,5.126E3,9.723E3,3.173E3,2.311E3,2.384E3,1.6059E4,2.2E3,1.722E3,1.244E3,1.68E2,3.97E2,2.04E2,1.28E2],"tree_param":{"num_deleted":"0","num_feature":"115","num_nodes":"31","size_leaf_vector":"1"}},{"base_weights":[-3.0411112E-3,-7.578476E-1,3.41134E0,-1.0119148E0,6.7263395E-1,3.0130765E0,1.2731656E1,-1.0927088E0,3.7391418E-1,5.4058827E-2,2.9603224E0,1.3129408E0,4.322507E0,1.0054844E1,2.6293774E1,-1.13149405E-1,1.2342604E-1,-7.432737E-2,9.860893E-2,-1.3089271E-2,3.0683547E-1,4.6944022E-1,9.154175E-2,1.700175E-1,-1.8595456E-1,5.56006E-1,-4.5302067E-2,1.8439983E0,6.4820594E-1,4.6570163E-2,3.56609E0],"categories":[],"categories_nodes":[],"categories_segments":[],"categories_sizes":[],"default_left":[1,1,1,1,1,1,0,0,1,1,0,1,1,0,1,0,0,0,0,0,0,0,0,0,0,0,0,0,0,0,0],"id":8,"left_children":[1,3,5,7,9,11,13,15,17,19,21,23,25,27,29,-1,-1,-1,-1,-1,-1,-1,-1,-1,-1,-1,-1,-1,-1,-1,-1],"loss_changes":[3.2594328E5,3.764382E4,8.4954E4,9.848336E3,2.2106645E4,4.888189E4,3.3788047E4,7.502125E3,3.3149834E3,6.85652E3,1.1786244E4,1.174266E4,7.331569E4,2.339775E4,3.724136E4,0E0,0E0,0E0,0E0,0E0,0E0,0E0,0E0,0E0,0E0,0E0,0E0,0E0,0E0,0E0,0E0],"parents":[2147483647,0,0,1,1,2,2,3,3,4,4,5,5,6,6,7,7,8,8,9,9,10,10,11,11,12,12,13,13,14,14],"right_children":[2,4,6,8,10,12,14,16,18,20,22,24,26,28,30,-1,-1,-1,-1,-1,-1,-1,-1,-1,-1,-1,-1,-1,-1,-1,-1],"split_conditions":[7.1876E2,2.38E1,5E0,2.1620137E2,1.44E2,5.5357384E1,4.6384E-1,9E0,8.2476E1,5E0,3.7919223E2,4.334802E0,3E0,6.8866485E-1,2.4639166E1,-1.13149405E-1,1.2342604E-1,-7.432737E-2,9.860893E-2,-1.3089271E-2,3.0683547E-1,4.6944022E-1,9.154175E-2,1.700175E-1,-1.8595456E-1,5.56006E-1,-4.5302067E-2,1.8439983E0,6.4820594E-1,4.6570163E-2,3.56609E0],"split_indices":[4,1,111,81,3,97,45,103,4,111,89,77,111,77,63,0,0,0,0,0,0,0,0,0,0,0,0,0,0,0,0],"split_type":[0,0,0,0,0,0,0,0,0,0,0,0,0,0,0,0,0,0,0,0,0,0,0,0,0,0,0,0,0,0,0],"sum_hessian":[1.2647E5,1.03574E5,2.2896E4,8.7953E4,1.5621E4,2.1959E4,9.37E2,8.3108E4,4.845E3,1.2297E4,3.324E3,9.555E3,1.2404E4,7.84E2,1.53E2,8.1746E4,1.362E3,1.715E3,3.13E3,1.1587E4,7.1E2,1.798E3,1.526E3,8.516E3,1.039E3,9.851E3,2.553E3,2.33E2,5.51E2,4.1E1,1.12E2],"tree_param":{"num_deleted":"0","num_feature":"115","num_nodes":"31","size_leaf_vector":"1"}},{"base_weights":[-6.5594557E-4,-7.566708E-1,2.8277915E0,-8.912045E-1,9.993879E-1,2.508399E0,1.0381861E1,-1.038435E0,4.0355172E-2,1.7441773E-1,2.8798885E0,-1.9970086E0,2.9437068E0,1.4678384E0,1.3571594E1,-1.0975033E-1,1.5805325E-2,-1.7189067E-2,4.511523E-1,1.4364673E-1,-5.1845707E-2,5.4663926E-1,9.408182E-2,9.672998E-3,-3.4570226E-1,8.711303E-1,2.2115031E-1,3.1328976E0,-6.887868E-3,9.2196274E-1,2.6408415E0],"categories":[],"categories_nodes":[],"categories_segments":[],"categories_sizes":[],"default_left":[1,0,1,1,1,0,0,1,1,0,1,0,0,0,0,0,0,0,0,0,0,0,0,0,0,0,0,0,0,0,0],"id":9,"left_children":[1,3,5,7,9,11,13,15,17,19,21,23,25,27,29,-1,-1,-1,-1,-1,-1,-1,-1,-1,-1,-1,-1,-1,-1,-1,-1],"loss_changes":[2.7025084E5,2.3561305E4,6.4287188E4,1.270475E4,1.1009479E4,5.01665E4,3.0716531E4,5.6533594E3,1.1998814E4,4.3152427E3,1.0848211E4,6.8905596E3,9.847503E4,1.3126161E4,4.4225406E4,0E0,0E0,0E0,0E0,0E0,0E0,0E0,0E0,0E0,0E0,0E0,0E0,0E0,0E0,0E0,0E0],"parents":[2147483647,0,0,1,1,2,2,3,3,4,4,5,5,6,6,7,7,8,8,9,9,10,10,11,11,12,12,13,13,14,14],"right_children":[2,4,6,8,10,12,14,16,18,20,22,24,26,28,30,-1,-1,-1,-1,-1,-1,-1,-1,-1,-1,-1,-1,-1,-1,-1,-1],"split_conditions":[5.6751E2,9E0,5E0,1.6261E2,4.697449E2,2E0,2.0745556E1,5E0,5E0,2.6304224E2,2.9649057E0,3.8249896E2,3E0,2.5597224E-1,4.4345E-1,-1.0975033E-1,1.5805325E-2,-1.7189067E-2,4.511523E-1,1.4364673E-1,-5.1845707E-2,5.4663926E-1,9.408182E-2,9.672998E-3,-3.4570226E-1,8.711303E-1,2.2115031E-1,3.1328976E0,-6.887868E-3,9.2196274E-1,2.6408415E0],"split_indices":[49,103,111,49,6,111,65,111,111,86,22,86,111,77,43,0,0,0,0,0,0,0,0,0,0,0,0,0,0,0,0],"split_type":[0,0,0,0,0,0,0,0,0,0,0,0,0,0,0,0,0,0,0,0,0,0,0,0,0,0,0,0,0,0,0],"sum_hessian":[1.26381E5,9.9726E4,2.6655E4,9.263E4,7.096E3,2.5575E4,1.08E3,7.9988E4,1.2642E4,4.933E3,2.163E3,2.253E3,2.3322E4,2.85E2,7.95E2,7.6225E4,3.763E3,1.207E4,5.72E2,1.748E3,3.185E3,9.26E2,1.237E3,9.26E2,1.327E3,2.626E3,2.0696E4,1.3E1,2.72E2,5.95E2,2E2],"tree_param":{"num_deleted":"0","num_feature":"115","num_nodes":"31","size_leaf_vector":"1"}},{"base_weights":[7.2422053E-4,-5.8909607E-1,3.0069087E0,-8.603894E-1,5.1380503E-1,1.1233693E0,4.527036E0,-6.5433997E-1,-1.1830047E0,-3.464233E-1,1.8881954E0,1.5152844E0,-1.1349064E0,-1.5814234E0,5.458254E0,-8.144529E-2,2.5680607E-2,-1.20814875E-1,1.9697545E-2,2.3992417E-2,-1.0504241E-1,3.086208E-1,2.0681908E-2,1.7919882E-1,-2.0335495E-1,-2.3514016E-1,2.60485E-1,-3.0797902E-1,1.0158952E-1,2.8405095E-2,6.8638843E-1],"categories":[],"categories_nodes":[],"categories_segments":[],"categories_sizes":[],"default_left":[1,1,1,1,1,1,0,1,1,0,0,0,0,1,1,0,0,0,0,0,0,0,0,0,0,0,0,0,0,0,0],"id":10,"left_children":[1,3,5,7,9,11,13,15,17,19,21,23,25,27,29,-1,-1,-1,-1,-1,-1,-1,-1,-1,-1,-1,-1,-1,-1,-1,-1],"loss_changes":[2.236209E5,3.1546719E4,5.9223484E4,5.6241836E3,2.4610012E4,8.1796025E3,6.5122703E4,7.5337754E3,1.1445469E3,5.2851904E3,1.6140029E4,7.735717E3,6.2251494E3,5.8991084E3,7.2240875E4,0E0,0E0,0E0,0E0,0E0,0E0,0E0,0E0,0E0,0E0,0E0,0E0,0E0,0E0,0E0,0E0],"parents":[2147483647,0,0,1,1,2,2,3,3,4,4,5,5,6,6,7,7,8,8,9,9,10,10,11,11,12,12,13,13,14,14],"right_children":[2,4,6,8,10,12,14,16,18,20,22,24,26,28,30,-1,-1,-1,-1,-1,-1,-1,-1,-1,-1,-1,-1,-1,-1,-1,-1],"split_conditions":[8.00149E2,2.255E1,5.671097E1,8.130214E1,3.192E1,3.413639E1,2E0,1.6261E2,4.756075E-1,7.41E1,3.987361E2,3E0,1.7426105E1,1.3934723E2,1.73E1,-8.144529E-2,2.5680607E-2,-1.20814875E-1,1.9697545E-2,2.3992417E-2,-1.0504241E-1,3.086208E-1,2.0681908E-2,1.7919882E-1,-2.0335495E-1,-2.3514016E-1,2.60485E-1,-3.0797902E-1,1.0158952E-1,2.8405095E-2,6.8638843E-1],"split_indices":[4,1,101,2,3,65,111,4,114,2,89,104,102,89,8,0,0,0,0,0,0,0,0,0,0,0,0,0,0,0,0],"split_type":[0,0,0,0,0,0,0,0,0,0,0,0,0,0,0,0,0,0,0,0,0,0,0,0,0,0,0,0,0,0,0],"sum_hessian":[1.26116E5,1.05431E5,2.0685E4,8.4617E4,2.0814E4,9.239E3,1.1446E4,5.1639E4,3.2978E4,1.2802E4,8.012E3,7.873E3,1.366E3,1.514E3,9.932E3,4.3921E4,7.718E3,3.2388E4,5.9E2,6.985E3,5.817E3,4.678E3,3.334E3,7.304E3,5.69E2,1.031E3,3.35E2,9.6E2,5.54E2,2.122E3,7.81E3],"tree_param":{"num_deleted":"0","num_feature":"115","num_nodes":"31","size_leaf_vector":"1"}},{"base_weights":[-4.8672077E-3,-5.4470325E-1,2.7221303E0,-8.728307E-1,2.2340985E-1,7.8052646E-1,4.1583776E0,-9.102117E-1,1.0086039E0,-3.375409E-1,1.48541E0,1.4124682E0,-6.3595706E-1,2.2772074E0,6.0310054E0,-9.5870376E-2,-1.4650906E-2,-5.136931E-3,5.1401424E-1,-4.652886E-2,1.3996945E-1,1.8072201E-1,-1.5192781E-1,-5.747844E-1,1.5909396E-1,-9.976884E-2,1.1606611E-1,-8.32813E-2,2.8952554E-1,-1.3780588E-1,6.4217466E-1],"categories":[],"categories_nodes":[],"categories_segments":[],"categories_sizes":[],"default_left":[1,1,1,0,1,1,1,1,1,1,1,0,0,1,1,0,0,0,0,0,0,0,0,0,0,0,0,0,0,0,0],"id":11,"left_children":[1,3,5,7,9,11,13,15,17,19,21,23,25,27,29,-1,-1,-1,-1,-1,-1,-1,-1,-1,-1,-1,-1,-1,-1,-1,-1],"loss_changes":[1.8533548E5,2.6487477E4,5.801128E4,5.1797383E3,2.226954E4,7.920158E3,4.2111094E4,2.673754E3,6.284588E3,4.8337954E3,9.362715E3,7.8274023E3,1.775366E3,1.1471832E4,1.7355844E4,0E0,0E0,0E0,0E0,0E0,0E0,0E0,0E0,0E0,0E0,0E0,0E0,0E0,0E0,0E0,0E0],"parents":[2147483647,0,0,1,1,2,2,3,3,4,4,5,5,6,6,7,7,8,8,9,9,10,10,11,11,12,12,13,13,14,14],"right_children":[2,4,6,8,10,12,14,16,18,20,22,24,26,28,30,-1,-1,-1,-1,-1,-1,-1,-1,-1,-1,-1,-1,-1,-1,-1,-1],"split_conditions":[8.0005E2,5.8E-1,5.526586E1,9E0,2.4E1,3.4129963E0,2.3098196E2,1.0395829E3,6.7391907E2,8.5671655E2,3.355611E1,1.4619445E1,5.8164667E2,1.68E1,1.21E1,-9.5870376E-2,-1.4650906E-2,-5.136931E-3,5.1401424E-1,-4.652886E-2,1.3996945E-1,1.8072201E-1,-1.5192781E-1,-5.747844E-1,1.5909396E-1,-9.976884E-2,1.1606611E-1,-8.32813E-2,2.8952554E-1,-1.3780588E-1,6.4217466E-1],"split_indices":[49,5,99,103,3,20,90,6,6,6,65,65,87,7,10,0,0,0,0,0,0,0,0,0,0,0,0,0,0,0,0],"split_type":[0,0,0,0,0,0,0,0,0,0,0,0,0,0,0,0,0,0,0,0,0,0,0,0,0,0,0,0,0,0,0],"sum_hessian":[1.25894E5,1.05091E5,2.0803E4,7.3635E4,3.1456E4,8.846E3,1.1957E4,7.2201E4,1.434E3,2.1777E4,9.679E3,6.117E3,2.729E3,5.966E3,5.991E3,6.789E4,4.311E3,1.142E3,2.92E2,2.0286E4,1.491E3,8.743E3,9.36E2,1.48E2,5.969E3,2.272E3,4.57E2,9.89E2,4.977E3,3E2,5.691E3],"tree_param":{"num_deleted":"0","num_feature":"115","num_nodes":"31","size_leaf_vector":"1"}},{"base_weights":[1.3298896E-3,-4.8402357E-1,2.4558263E0,-6.8342596E-1,5.793293E-1,7.69398E-1,3.8099158E0,-7.423359E-1,7.331295E-1,8.872391E-2,2.541283E0,1.2494776E0,-7.5710064E-1,1.5344108E0,6.075737E0,-8.0082856E-2,5.7813223E-2,6.4344304E-3,1.6600306E-1,-5.8685252E-3,2.70506E-1,2.983198E-1,-2.0029037E-1,1.5355083E-1,-1.9121447E-1,4.505755E-4,-1.460734E-1,3.8620168E-1,-1.5838261E-1,3.7002054E-1,1.2538224E0],"categories":[],"categories_nodes":[],"categories_segments":[],"categories_sizes":[],"default_left":[1,1,1,1,1,1,0,1,1,1,1,0,0,0,1,0,0,0,0,0,0,0,0,0,0,0,0,0,0,0,0],"id":12,"left_children":[1,3,5,7,9,11,13,15,17,19,21,23,25,27,29,-1,-1,-1,-1,-1,-1,-1,-1,-1,-1,-1,-1,-1,-1,-1,-1],"loss_changes":[1.5055153E5,2.2372645E4,4.764158E4,7.4150938E3,1.60377E4,6.8112373E3,5.965458E4,6.5891445E3,2.1992905E3,5.141165E3,6.699121E3,6.3964844E3,1.1918295E3,4.192122E4,8.896359E4,0E0,0E0,0E0,0E0,0E0,0E0,0E0,0E0,0E0,0E0,0E0,0E0,0E0,0E0,0E0,0E0],"parents":[2147483647,0,0,1,1,2,2,3,3,4,4,5,5,6,6,7,7,8,8,9,9,10,10,11,11,12,12,13,13,14,14],"right_children":[2,4,6,8,10,12,14,16,18,20,22,24,26,28,30,-1,-1,-1,-1,-1,-1,-1,-1,-1,-1,-1,-1,-1,-1,-1,-1],"split_conditions":[8.0005E2,1.8835658E-1,5.671097E1,2.5682983E2,1.5E2,3.3665E1,5E0,5E0,1.45E1,5E0,3.413639E1,3E0,3.851E1,3E0,2.1335667E-1,-8.0082856E-2,5.7813223E-2,6.4344304E-3,1.6600306E-1,-5.8685252E-3,2.70506E-1,2.983198E-1,-2.0029037E-1,1.5355083E-1,-1.9121447E-1,4.505755E-4,-1.460734E-1,3.8620168E-1,-1.5838261E-1,3.7002054E-1,1.2538224E0],"split_indices":[49,68,101,81,3,57,111,111,11,111,65,104,55,111,47,0,0,0,0,0,0,0,0,0,0,0,0,0,0,0,0],"split_type":[0,0,0,0,0,0,0,0,0,0,0,0,0,0,0,0,0,0,0,0,0,0,0,0,0,0,0,0,0,0,0],"sum_hessian":[1.26374E5,1.05511E5,2.0863E4,8.885E4,1.6661E4,9.292E3,1.1571E4,8.5303E4,3.547E3,1.3329E4,3.332E3,7.069E3,2.223E3,5.774E3,5.797E3,8.1685E4,3.618E3,2.061E3,1.486E3,1.2619E4,7.1E2,3.037E3,2.95E2,6.483E3,5.86E2,1.068E3,1.155E3,3.306E3,2.468E3,4.24E3,1.557E3],"tree_param":{"num_deleted":"0","num_feature":"115","num_nodes":"31","size_leaf_vector":"1"}},{"base_weights":[3.592048E-3,-4.3643925E-1,2.2331855E0,-7.1910226E-1,2.1838395E-1,-2.356318E0,2.6830378E0,-7.5066453E-1,8.48283E-1,-2.5851402E-1,1.2872037E0,-3.2712076E0,-7.6460487E-1,1.3979999E0,5.4942017E0,-7.959442E-2,-2.992656E-3,-4.1355966E-3,4.4565797E-1,-3.9356496E-2,1.3879958E-1,5.7900723E-2,2.3133765E-1,-3.4032726E-1,4.1607228E-1,-6.290975E-1,2.935337E-2,4.0143866E-2,2.6999933E-1,9.0427446E-1,1.4865904E-1],"categories":[],"categories_nodes":[],"categories_segments":[],"categories_sizes":[],"default_left":[1,1,0,0,1,1,1,1,1,1,1,1,0,1,1,0,0,0,0,0,0,0,0,0,0,0,0,0,0,0,0],"id":13,"left_children":[1,3,5,7,9,11,13,15,17,19,21,23,25,27,29,-1,-1,-1,-1,-1,-1,-1,-1,-1,-1,-1,-1,-1,-1,-1,-1],"loss_changes":[1.2358506E5,1.9472822E4,4.287358E4,3.6359062E3,1.6169095E4,2.697371E3,6.83038E4,2.3507852E3,4.6580117E3,4.8780713E3,7.1111855E3,1.1693838E3,3.9665637E3,1.6839377E4,8.434659E4,0E0,0E0,0E0,0E0,0E0,0E0,0E0,0E0,0E0,0E0,0E0,0E0,0E0,0E0,0E0,0E0],"parents":[2147483647,0,0,1,1,2,2,3,3,4,4,5,5,6,6,7,7,8,8,9,9,10,10,11,11,12,12,13,13,14,14],"right_children":[2,4,6,8,10,12,14,16,18,20,22,24,26,28,30,-1,-1,-1,-1,-1,-1,-1,-1,-1,-1,-1,-1,-1,-1,-1,-1],"split_conditions":[8.0005E2,5.8E-1,2E0,9E0,2.4E1,1.2443056E2,2E0,1.0395829E3,6.7391907E2,5E0,6.129608E1,8.906533E1,1.9819681E1,5.3815834E1,3E0,-7.959442E-2,-2.992656E-3,-4.1355966E-3,4.4565797E-1,-3.9356496E-2,1.3879958E-1,5.7900723E-2,2.3133765E-1,-3.4032726E-1,4.1607228E-1,-6.290975E-1,2.935337E-2,4.0143866E-2,2.6999933E-1,9.0427446E-1,1.4865904E-1],"split_indices":[49,5,111,103,3,89,105,6,6,111,95,101,65,99,111,0,0,0,0,0,0,0,0,0,0,0,0,0,0,0,0],"split_type":[0,0,0,0,0,0,0,0,0,0,0,0,0,0,0,0,0,0,0,0,0,0,0,0,0,0,0,0,0,0,0],"sum_hessian":[1.25965E5,1.05203E5,2.0762E4,7.3483E4,3.172E4,1.853E3,1.8909E4,7.2033E4,1.45E3,2.1934E4,9.786E3,1.176E3,6.77E2,1.2978E4,5.931E3,6.7775E4,4.258E3,1.164E3,2.86E2,2.0272E4,1.662E3,5.791E3,3.995E3,1.156E3,2E1,1.08E2,5.69E2,7.352E3,5.626E3,3.145E3,2.786E3],"tree_param":{"num_deleted":"0","num_feature":"115","num_nodes":"31","size_leaf_vector":"1"}},{"base_weights":[1.5039175E-3,-3.7798852E-1,2.2532659E0,-5.3582054E-1,7.782969E-1,1.940276E0,9.346672E0,-6.0412943E-1,4.1277707E-1,1.9406278E-1,2.0001092E0,2.5196538E0,-1.5321268E0,6.8916087E0,2.0442019E1,-6.534239E-2,4.659046E-2,-1.19563654E-1,7.377689E-2,-1.6099104E-1,4.2822972E-2,4.4338714E-2,3.837732E-1,8.6204275E-2,4.252843E-1,-2.5757656E-1,-3.211921E-2,1.7758623E0,4.0964967E-1,5.143391E-1,3.3810499E0],"categories":[],"categories_nodes":[],"categories_segments":[],"categories_sizes":[],"default_left":[1,1,1,1,1,1,0,1,0,0,0,1,1,0,0,0,0,0,0,0,0,0,0,0,0,0,0,0,0,0,0],"id":14,"left_children":[1,3,5,7,9,11,13,15,17,19,21,23,25,27,29,-1,-1,-1,-1,-1,-1,-1,-1,-1,-1,-1,-1,-1,-1,-1,-1],"loss_changes":[1.079942E5,1.9738035E4,4.044879E4,6.16659E3,9.272191E3,3.5126445E4,2.083375E4,4.6826895E3,3.3426396E3,3.713434E3,1.2018824E4,4.298147E4,3.1548267E3,1.912395E4,2.8254293E4,0E0,0E0,0E0,0E0,0E0,0E0,0E0,0E0,0E0,0E0,0E0,0E0,0E0,0E0,0E0,0E0],"parents":[2147483647,0,0,1,1,2,2,3,3,4,4,5,5,6,6,7,7,8,8,9,9,10,10,11,11,12,12,13,13,14,14],"right_children":[2,4,6,8,10,12,14,16,18,20,22,24,26,28,30,-1,-1,-1,-1,-1,-1,-1,-1,-1,-1,-1,-1,-1,-1,-1,-1],"split_conditions":[9.466E2,2.544E1,5E0,2.2453052E2,1.5E2,3E0,4.599875E-1,5E0,1.683E1,2E0,5.918006E1,5.5907043E1,7.819825E1,6.295385E-1,7.6555675E-1,-6.534239E-2,4.659046E-2,-1.19563654E-1,7.377689E-2,-1.6099104E-1,4.2822972E-2,4.4338714E-2,3.837732E-1,8.6204275E-2,4.252843E-1,-2.5757656E-1,-3.211921E-2,1.7758623E0,4.0964967E-1,5.143391E-1,3.3810499E0],"split_indices":[4,1,111,81,3,111,46,111,1,111,99,99,82,75,75,0,0,0,0,0,0,0,0,0,0,0,0,0,0,0,0],"split_type":[0,0,0,0,0,0,0,0,0,0,0,0,0,0,0,0,0,0,0,0,0,0,0,0,0,0,0,0,0,0,0],"sum_hessian":[1.26377E5,1.08151E5,1.8226E4,9.5162E4,1.2989E4,1.7457E4,7.69E2,8.877E4,6.392E3,8.788E3,4.201E3,1.4961E4,2.496E3,6.31E2,1.38E2,8.4861E4,3.909E3,1.074E3,5.318E3,1.009E3,7.779E3,2.275E3,1.926E3,7.648E3,7.313E3,1.34E3,1.156E3,1.28E2,5.03E2,6.5E1,7.3E1],"tree_param":{"num_deleted":"0","num_feature":"115","num_nodes":"31","size_leaf_vector":"1"}},{"base_weights":[9.3433104E-4,-3.3410376E-1,2.0716007E0,-4.9722022E-1,6.170092E-1,3.2084055E0,5.8632135E-1,-5.6786644E-1,2.0164832E-1,8.5949264E-2,1.845434E0,-1.840681E0,3.5993502E0,9.0815216E-1,-1.8923718E0,-6.456038E-2,-1.3773057E-2,-4.312035E-2,1.01815514E-1,1.366428E-1,-1.04726935E-2,5.251498E-2,3.7741336E-1,-5.399678E-1,-6.442935E-2,4.6233264E-1,1.954835E-1,-5.2495235E-1,1.06816046E-1,-2.4037527E-1,3.2259154E-1],"categories":[],"categories_nodes":[],"categories_segments":[],"categories_sizes":[],"default_left":[1,1,0,1,1,1,1,1,1,0,0,0,0,0,0,0,0,0,0,0,0,0,0,0,0,0,0,0,0,0,0],"id":15,"left_children":[1,3,5,7,9,11,13,15,17,19,21,23,25,27,29,-1,-1,-1,-1,-1,-1,-1,-1,-1,-1,-1,-1,-1,-1,-1,-1],"loss_changes":[8.7538336E4,1.6849984E4,2.9669648E4,4.577385E3,1.03724795E4,1.9654953E4,6.080344E3,2.815293E3,4.3988267E3,2.710772E3,1.2218344E4,3.045206E3,1.5548914E4,6.6513154E3,2.3005918E3,0E0,0E0,0E0,0E0,0E0,0E0,0E0,0E0,0E0,0E0,0E0,0E0,0E0,0E0,0E0,0E0],"parents":[2147483647,0,0,1,1,2,2,3,3,4,4,5,5,6,6,7,7,8,8,9,9,10,10,11,11,12,12,13,13,14,14],"right_children":[2,4,6,8,10,12,14,16,18,20,22,24,26,28,30,-1,-1,-1,-1,-1,-1,-1,-1,-1,-1,-1,-1,-1,-1,-1,-1],"split_conditions":[9.87238E2,2.446E1,4.4251924E0,8.7171674E2,1.5E2,1.39E1,4.334802E0,7.47E1,2.6E-1,2.2605833E1,6.452328E1,7.7748E0,4.987814E2,1.5723125E1,3.8444983E2,-6.456038E-2,-1.3773057E-2,-4.312035E-2,1.01815514E-1,1.366428E-1,-1.04726935E-2,5.251498E-2,3.7741336E-1,-5.399678E-1,-6.442935E-2,4.6233264E-1,1.954835E-1,-5.2495235E-1,1.06816046E-1,-2.4037527E-1,3.2259154E-1],"split_indices":[4,1,64,6,3,9,77,27,19,61,101,10,87,63,90,0,0,0,0,0,0,0,0,0,0,0,0,0,0,0,0],"split_type":[0,0,0,0,0,0,0,0,0,0,0,0,0,0,0,0,0,0,0,0,0,0,0,0,0,0,0,0,0,0,0],"sum_hessian":[1.26179E5,1.08607E5,1.7572E4,9.2708E4,1.5899E4,9.953E3,7.619E3,8.4197E4,8.511E3,1.1101E4,4.798E3,7.15E2,9.238E3,6.744E3,8.75E2,7.1309E4,1.2888E4,4.795E3,3.716E3,1.438E3,9.663E3,2.849E3,1.949E3,1.79E2,5.36E2,5.692E3,3.546E3,1.7E2,6.574E3,7.96E2,7.9E1],"tree_param":{"num_deleted":"0","num_feature":"115","num_nodes":"31","size_leaf_vector":"1"}},{"base_weights":[-6.2241047E-3,-2.8601345E-1,1.9846469E0,-4.201525E-1,8.131533E-1,-2.6823869E0,2.436474E0,-6.399405E-1,-1.8265793E-1,1.9044844E0,2.008307E-1,-3.4777114E0,-1.1796702E0,7.5930375E-1,4.2108145E0,-6.0239E-2,-1.7283322E-1,-4.261202E-2,6.1088957E-2,5.9881505E-2,3.6434087E-1,8.8896364E-2,-6.42046E-2,-3.590842E-1,3.406202E-1,-5.555346E-1,-5.961697E-3,1.2888007E-1,-8.261182E-2,5.933797E-1,8.898457E-2],"categories":[],"categories_nodes":[],"categories_segments":[],"categories_sizes":[],"default_left":[1,1,0,0,0,1,1,1,1,1,0,1,0,1,1,0,0,0,0,0,0,0,0,0,0,0,0,0,0,0,0],"id":16,"left_children":[1,3,5,7,9,11,13,15,17,19,21,23,25,27,29,-1,-1,-1,-1,-1,-1,-1,-1,-1,-1,-1,-1,-1,-1,-1,-1],"loss_changes":[7.019123E4,1.6290232E4,3.274821E4,5.13976E3,8.029939E3,1.6344443E3,4.212621E4,2.0890332E3,9.144169E3,9.803937E3,4.466077E3,7.100176E2,2.3325396E3,6.111611E3,3.935614E4,0E0,0E0,0E0,0E0,0E0,0E0,0E0,0E0,0E0,0E0,0E0,0E0,0E0,0E0,0E0,0E0],"parents":[2147483647,0,0,1,1,2,2,3,3,4,4,5,5,6,6,7,7,8,8,9,9,10,10,11,11,12,12,13,13,14,14],"right_children":[2,4,6,8,10,12,14,16,18,20,22,24,26,28,30,-1,-1,-1,-1,-1,-1,-1,-1,-1,-1,-1,-1,-1,-1,-1,-1],"split_conditions":[1.0963204E3,2.6154E1,2E0,1.85E1,3.5505582E2,1.2443056E2,5.745222E1,6.9594E2,1.6261E2,3.25556E2,2.6530924E0,8.992744E1,6.403115E1,3.519E1,3E0,-6.0239E-2,-1.7283322E-1,-4.261202E-2,6.1088957E-2,5.9881505E-2,3.6434087E-1,8.8896364E-2,-6.42046E-2,-3.590842E-1,3.406202E-1,-5.555346E-1,-5.961697E-3,1.2888007E-1,-8.261182E-2,5.933797E-1,8.898457E-2],"split_indices":[4,1,111,1,89,89,101,4,4,4,69,101,101,55,111,0,0,0,0,0,0,0,0,0,0,0,0,0,0,0,0],"split_type":[0,0,0,0,0,0,0,0,0,0,0,0,0,0,0,0,0,0,0,0,0,0,0,0,0,0,0,0,0,0,0],"sum_hessian":[1.26009E5,1.10483E5,1.5526E4,9.8467E4,1.2016E4,1.37E3,1.4156E4,5.1139E4,4.7328E4,4.318E3,7.698E3,8.95E2,4.75E2,7.278E3,6.878E3,4.9435E4,1.704E3,3.6217E4,1.1111E4,2.467E3,1.851E3,4.238E3,3.46E3,8.81E2,1.4E1,9.6E1,3.79E2,5.456E3,1.822E3,4.528E3,2.35E3],"tree_param":{"num_deleted":"0","num_feature":"115","num_nodes":"31","size_leaf_vector":"1"}},{"base_weights":[2.4858827E-3,-3.8751695E-1,1.1576252E0,-5.093037E-1,3.83716E-2,9.3029654E-1,6.6201153E0,-5.13135E-1,8.010294E-1,-1.2810065E-1,1.1994187E0,1.3695276E0,-1.8086159E0,-2.3934515E0,8.624468E0,-5.5243533E-2,-1.0058015E-2,-2.6594361E-2,1.8085964E-1,2.6720956E-1,3.544014E-2,9.015811E-2,4.9151978E-1,-2.4732928E-1,-1.07312374E-1,5.65426E-1,-4.9260974E-1,5.565712E-1,1.6947578E0],"categories":[],"categories_nodes":[],"categories_segments":[],"categories_sizes":[],"default_left":[1,1,1,1,1,1,0,1,0,1,1,1,1,0,0,0,0,0,0,0,0,0,0,0,0,0,0,0,0],"id":17,"left_children":[1,3,5,7,9,11,13,15,-1,17,19,21,23,25,27,-1,-1,-1,-1,-1,-1,-1,-1,-1,-1,-1,-1,-1,-1],"loss_changes":[5.6786934E4,4.8877607E3,3.950233E4,2.3960723E3,4.0505737E3,3.674979E4,2.2983004E4,1.1875547E3,0E0,4.8935923E3,3.2694343E3,4.3673582E4,2.061332E3,4.756478E3,2.6382375E4,0E0,0E0,0E0,0E0,0E0,0E0,0E0,0E0,0E0,0E0,0E0,0E0,0E0,0E0],"parents":[2147483647,0,0,1,1,2,2,3,3,4,4,5,5,6,6,7,7,9,9,10,10,11,11,12,12,13,13,14,14],"right_children":[2,4,6,8,10,12,14,16,-1,18,20,22,24,26,28,-1,-1,-1,-1,-1,-1,-1,-1,-1,-1,-1,-1,-1,-1],"split_conditions":[3.76292E2,7.256376E-1,5E0,1.2964985E3,3.7425284E2,3E0,1.9184187E1,4.5049834E-1,8.010294E-1,5E0,1.2051675E0,2E0,2.0562E2,2.46075E-1,4.4576666E-1,-5.5243533E-2,-1.0058015E-2,-2.6594361E-2,1.8085964E-1,2.6720956E-1,3.544014E-2,9.015811E-2,4.9151978E-1,-2.4732928E-1,-1.07312374E-1,5.65426E-1,-4.9260974E-1,5.565712E-1,1.6947578E0],"split_indices":[4,5,111,6,6,111,63,46,0,111,23,111,3,48,46,0,0,0,0,0,0,0,0,0,0,0,0,0,0],"split_type":[0,0,0,0,0,0,0,0,0,0,0,0,0,0,0,0,0,0,0,0,0,0,0,0,0,0,0,0,0],"sum_hessian":[1.26049E5,9.4234E4,3.1815E4,7.3279E4,2.0955E4,3.0545E4,1.27E3,7.3247E4,3.2E1,1.8328E4,2.627E3,2.6324E4,4.221E3,2.31E2,1.039E3,6.6876E4,6.371E3,1.7111E4,1.217E3,9.57E2,1.67E3,2.3256E4,3.068E3,2.216E3,2.005E3,5.5E1,1.76E2,7.61E2,2.78E2],"tree_param":{"num_deleted":"0","num_feature":"115","num_nodes":"29","size_leaf_vector":"1"}},{"base_weights":[-1.279075E-3,-2.580455E-1,1.5972947E0,-3.8995272E-1,4.8722443E-1,-2.5317583E0,2.0076833E0,-4.332508E-1,6.190877E-1,-1.589535E0,7.4027026E-1,-1.2240586E0,-3.3840392E0,1.0150231E0,4.06989E0,-6.26721E-2,-2.7475718E-2,5.4025613E-3,3.370194E-1,-1.0797258E-1,-2.4548797E-1,1.8034812E-2,1.8149035E-1,-5.4703355E-1,-7.6028467E-3,-4.0834078E-1,-2.9053342E-1,2.1169296E-1,2.0495346E-2,7.8807014E-1,8.370842E-2],"categories":[],"categories_nodes":[],"categories_segments":[],"categories_sizes":[],"default_left":[1,1,0,1,0,0,1,0,1,1,1,0,0,0,1,0,0,0,0,0,0,0,0,0,0,0,0,0,0,0,0],"id":18,"left_children":[1,3,5,7,9,11,13,15,17,19,21,23,25,27,29,-1,-1,-1,-1,-1,-1,-1,-1,-1,-1,-1,-1,-1,-1,-1,-1],"loss_changes":[5.1820176E4,1.0693676E4,2.9611672E4,4.0380547E3,8.597557E3,1.7568115E3,3.252996E4,2.7171914E3,5.911756E3,7.81292E2,8.77382E3,3.0463677E3,3.0819727E2,9.577389E3,6.3611883E4,0E0,0E0,0E0,0E0,0E0,0E0,0E0,0E0,0E0,0E0,0E0,0E0,0E0,0E0,0E0,0E0],"parents":[2147483647,0,0,1,1,2,2,3,3,4,4,5,5,6,6,7,7,8,8,9,9,10,10,11,11,12,12,13,13,14,14],"right_children":[2,4,6,8,10,12,14,16,18,20,22,24,26,28,30,-1,-1,-1,-1,-1,-1,-1,-1,-1,-1,-1,-1,-1,-1,-1,-1],"split_conditions":[9.87238E2,1.08E0,2E0,5E0,2E0,3.8249896E2,2.14375E-1,3.818899E-1,1.3245E2,1.948E2,6.181375E1,1.9819681E1,1.4677712E0,4.817765E0,3E0,-6.26721E-2,-2.7475718E-2,5.4025613E-3,3.370194E-1,-1.0797258E-1,-2.4548797E-1,1.8034812E-2,1.8149035E-1,-5.4703355E-1,-7.6028467E-3,-4.0834078E-1,-2.9053342E-1,2.1169296E-1,2.0495346E-2,7.8807014E-1,8.370842E-2],"split_indices":[4,5,111,111,111,86,114,5,4,54,97,65,5,66,111,0,0,0,0,0,0,0,0,0,0,0,0,0,0,0,0],"split_type":[0,0,0,0,0,0,0,0,0,0,0,0,0,0,0,0,0,0,0,0,0,0,0,0,0,0,0,0,0,0,0],"sum_hessian":[1.26247E5,1.08776E5,1.7471E4,9.2419E4,1.6357E4,1.579E3,1.5892E4,8.8617E4,3.802E3,1.776E3,1.4581E4,6.24E2,9.55E2,1.0729E4,5.163E3,3.9904E4,4.8713E4,3.155E3,6.47E2,1.119E3,6.57E2,9.587E3,4.994E3,1.32E2,4.92E2,3.85E2,5.7E2,4.545E3,6.184E3,2.369E3,2.794E3],"tree_param":{"num_deleted":"0","num_feature":"115","num_nodes":"31","size_leaf_vector":"1"}},{"base_weights":[6.974131E-4,-2.0441805E-1,1.63375E0,-3.2377943E-1,7.1289474E-1,1.3659847E0,9.680833E0,-3.709989E-1,7.1495897E-1,1.2273328E0,-1.1073412E0,4.2395484E-1,2.9915E0,1.0160071E0,1.6903255E1,-5.6474324E-2,-2.1657648E-2,8.159604E-3,3.2712525E-1,-1.893402E-1,1.7664142E-1,-2.0472954E-1,2.3585322E-1,9.264601E-2,-8.646688E-2,3.857157E-1,-7.389631E-2,-9.4479315E-2,2.6177237E0,8.8977003E-1,2.5301654E0],"categories":[],"categories_nodes":[],"categories_segments":[],"categories_sizes":[],"default_left":[1,1,1,1,1,1,0,0,1,0,0,1,1,0,0,0,0,0,0,0,0,0,0,0,0,0,0,0,0,0,0],"id":19,"left_children":[1,3,5,7,9,11,13,15,17,19,21,23,25,27,29,-1,-1,-1,-1,-1,-1,-1,-1,-1,-1,-1,-1,-1,-1,-1,-1],"loss_changes":[4.224168E4,1.2267248E4,3.0308129E4,4.862801E3,1.2080901E4,2.0854818E4,2.8332027E4,2.836956E3,6.979507E3,1.692422E4,9.266648E3,5.5851875E3,1.6139664E4,1.0237314E4,1.6381633E4,0E0,0E0,0E0,0E0,0E0,0E0,0E0,0E0,0E0,0E0,0E0,0E0,0E0,0E0,0E0,0E0],"parents":[2147483647,0,0,1,1,2,2,3,3,4,4,5,5,6,6,7,7,8,8,9,9,10,10,11,11,12,12,13,13,14,14],"right_children":[2,4,6,8,10,12,14,16,18,20,22,24,26,28,30,-1,-1,-1,-1,-1,-1,-1,-1,-1,-1,-1,-1,-1,-1,-1,-1],"split_conditions":[4.4874667E2,2.6154E1,5E0,5E0,3E0,5.982235E1,2.2857E1,4.1667834E-1,1.2471E2,2E0,5E0,4.0111213E0,3E0,5.642596E0,4.4517E-1,-5.6474324E-2,-2.1657648E-2,8.159604E-3,3.2712525E-1,-1.893402E-1,1.7664142E-1,-2.0472954E-1,2.3585322E-1,9.264601E-2,-8.646688E-2,3.857157E-1,-7.389631E-2,-9.4479315E-2,2.6177237E0,8.8977003E-1,2.5301654E0],"split_indices":[79,1,111,111,111,97,65,5,49,111,111,19,111,66,43,0,0,0,0,0,0,0,0,0,0,0,0,0,0,0,0],"split_type":[0,0,0,0,0,0,0,0,0,0,0,0,0,0,0,0,0,0,0,0,0,0,0,0,0,0,0,0,0,0,0],"sum_hessian":[1.26106E5,1.12035E5,1.4071E4,9.9136E4,1.2899E4,1.3619E4,4.52E2,9.4826E4,4.31E3,1.0057E4,2.842E3,8.623E3,4.996E3,2.06E2,2.46E2,4.2057E4,5.2769E4,3.455E3,8.55E2,1.481E3,8.576E3,2.236E3,6.06E2,6.204E3,2.419E3,4.055E3,9.41E2,1.92E2,1.4E1,1.27E2,1.19E2],"tree_param":{"num_deleted":"0","num_feature":"115","num_nodes":"31","size_leaf_vector":"1"}},{"base_weights":[-4.2416016E-3,-1.5268657E-1,1.8380495E0,-3.2843968E-1,5.015421E-1,1.5086704E0,1.0791855E1,-4.8558635E-1,-1.7155176E-1,-1.3707167E0,7.590525E-1,6.5662956E-1,3.0952353E0,1.2117025E0,1.8690168E1,-4.1570175E-2,-1.9709396E-1,-3.5524182E-2,2.822869E-2,2.6444307E-2,-1.9401956E-1,1.2543218E-1,-5.1892903E-2,1.07214175E-1,-1.0052719E-1,-3.2629034E-1,3.6423293E-1,-1.2609965E-1,2.7747562E0,9.496956E-1,2.7680228E0],"categories":[],"categories_nodes":[],"categories_segments":[],"categories_sizes":[],"default_left":[1,1,1,0,0,1,0,1,1,0,1,1,0,0,0,0,0,0,0,0,0,0,0,0,0,0,0,0,0,0,0],"id":20,"left_children":[1,3,5,7,9,11,13,15,17,19,21,23,25,27,29,-1,-1,-1,-1,-1,-1,-1,-1,-1,-1,-1,-1,-1,-1,-1,-1],"loss_changes":[3.4540656E4,1.3439689E4,2.775925E4,2.2714014E3,1.1934144E4,1.2279236E4,2.5250148E4,4.777039E3,3.8437568E3,2.7875615E3,1.3772901E4,4.083552E3,1.1052641E4,1.0008498E4,1.4861617E4,0E0,0E0,0E0,0E0,0E0,0E0,0E0,0E0,0E0,0E0,0E0,0E0,0E0,0E0,0E0,0E0],"parents":[2147483647,0,0,1,1,2,2,3,3,4,4,5,5,6,6,7,7,8,8,9,9,10,10,11,11,12,12,13,13,14,14],"right_children":[2,4,6,8,10,12,14,16,18,20,22,24,26,28,30,-1,-1,-1,-1,-1,-1,-1,-1,-1,-1,-1,-1,-1,-1,-1,-1],"split_conditions":[6.262E2,2.334E1,5E0,1.73E1,2E0,5.982235E1,2.2857E1,2.4019E2,3.9827383E2,5.0785E2,3E0,3.768E1,1.57E1,8.788543E1,4.4517E-1,-4.1570175E-2,-1.9709396E-1,-3.5524182E-2,2.822869E-2,2.6444307E-2,-1.9401956E-1,1.2543218E-1,-5.1892903E-2,1.07214175E-1,-1.0052719E-1,-3.2629034E-1,3.6423293E-1,-1.2609965E-1,2.7747562E0,9.496956E-1,2.7680228E0],"split_indices":[3,1,111,1,111,97,65,25,6,81,111,1,7,101,43,0,0,0,0,0,0,0,0,0,0,0,0,0,0,0,0],"split_type":[0,0,0,0,0,0,0,0,0,0,0,0,0,0,0,0,0,0,0,0,0,0,0,0,0,0,0,0,0,0,0],"sum_hessian":[1.26299E5,1.16882E5,9.417E3,9.2132E4,2.475E4,9.084E3,3.33E2,4.6027E4,4.6105E4,2.992E3,2.1758E4,5.911E3,3.173E3,1.51E2,1.82E2,4.396E4,2.067E3,3.2821E4,1.3284E4,7.73E2,2.219E3,1.5681E4,6.077E3,4.729E3,1.182E3,2.51E2,2.922E3,1.39E2,1.2E1,9.1E1,9.1E1],"tree_param":{"num_deleted":"0","num_feature":"115","num_nodes":"31","size_leaf_vector":"1"}},{"base_weights":[-3.613815E-4,-1.7508815E-1,1.3539559E0,-2.6061603E-1,5.395512E-1,-2.3027973E0,1.7097067E0,-2.9823914E-1,6.1680305E-1,-3.2378668E-1,1.2119412E0,-3.069484E0,-1.5444268E0,7.35794E-1,3.4954746E0,-3.3677556E-2,5.422596E-2,1.00371934E-1,-1.2962736E-1,1.4802574E-1,-7.2643705E-2,9.569303E-3,2.4034011E-1,-2.6213485E-1,-4.9323717E-1,4.8108872E-2,-2.1752906E-1,1.4618342E-1,-1.4805876E-2,4.9088284E-1,9.498406E-2],"categories":[],"categories_nodes":[],"categories_segments":[],"categories_sizes":[],"default_left":[1,1,0,1,0,1,1,1,1,0,0,0,0,1,1,0,0,0,0,0,0,0,0,0,0,0,0,0,0,0,0],"id":21,"left_children":[1,3,5,7,9,11,13,15,17,19,21,23,25,27,29,-1,-1,-1,-1,-1,-1,-1,-1,-1,-1,-1,-1,-1,-1,-1,-1],"loss_changes":[2.9863162E4,6.8321914E3,1.8764113E4,3.2957266E3,6.936205E3,7.389116E2,2.2855504E4,3.1007588E3,3.0398242E3,3.8015945E3,8.933145E3,5.1718506E2,8.2524316E2,5.458623E3,1.66823E4,0E0,0E0,0E0,0E0,0E0,0E0,0E0,0E0,0E0,0E0,0E0,0E0,0E0,0E0,0E0,0E0],"parents":[2147483647,0,0,1,1,2,2,3,3,4,4,5,5,6,6,7,7,8,8,9,9,10,10,11,11,12,12,13,13,14,14],"right_children":[2,4,6,8,10,12,14,16,18,20,22,24,26,28,30,-1,-1,-1,-1,-1,-1,-1,-1,-1,-1,-1,-1,-1,-1,-1,-1],"split_conditions":[1.166E3,2.64E1,2E0,3.2769083E2,5.671097E1,2.468E1,6.464167E1,5E0,4.3401165E0,2.6289627E2,5E0,4.5277E-1,2.7090445E2,5.0180545E0,3E0,-3.3677556E-2,5.422596E-2,1.00371934E-1,-1.2962736E-1,1.4802574E-1,-7.2643705E-2,9.569303E-3,2.4034011E-1,-2.6213485E-1,-4.9323717E-1,4.8108872E-2,-2.1752906E-1,1.4618342E-1,-1.4805876E-2,4.9088284E-1,9.498406E-2],"split_indices":[4,1,111,81,101,8,97,111,64,90,111,47,89,66,111,0,0,0,0,0,0,0,0,0,0,0,0,0,0,0,0],"split_type":[0,0,0,0,0,0,0,0,0,0,0,0,0,0,0,0,0,0,0,0,0,0,0,0,0,0,0,0,0,0,0],"sum_hessian":[1.26197E5,1.11777E5,1.442E4,9.983E4,1.1947E4,1.278E3,1.3142E4,9.5726E4,4.104E3,5.231E3,6.716E3,6.34E2,6.44E2,8.505E3,4.637E3,9.153E4,4.196E3,3.414E3,6.9E2,9.54E2,4.277E3,3.468E3,3.248E3,5.13E2,1.21E2,1.53E2,4.91E2,4.669E3,3.836E3,2.981E3,1.656E3],"tree_param":{"num_deleted":"0","num_feature":"115","num_nodes":"31","size_leaf_vector":"1"}},{"base_weights":[8.344968E-3,-1.7181312E-1,1.1270958E0,-3.5220674E-1,1.4315511E-1,-2.6230682E-2,1.9336987E0,-3.7193152E-1,7.801569E-1,-1.5849464E-1,6.991862E-1,1.380308E-1,-4.6513815E0,-1.055097E0,2.2344804E0,-1.9898796E-2,-4.7314744E-2,1.3133868E-2,4.2133632E-1,-2.0733474E-2,2.2935751E-1,-7.942849E-3,1.4562914E-1,1.315001E-1,-3.6717337E-2,-6.0693574E-1,1.5116921E-1,-4.461467E-1,-4.247057E-2,3.5135463E-1,1.2761381E-1],"categories":[],"categories_nodes":[],"categories_segments":[],"categories_sizes":[],"default_left":[1,1,1,0,1,1,0,1,1,1,0,1,1,0,0,0,0,0,0,0,0,0,0,0,0,0,0,0,0,0,0],"id":22,"left_children":[1,3,5,7,9,11,13,15,17,19,21,23,25,27,29,-1,-1,-1,-1,-1,-1,-1,-1,-1,-1,-1,-1,-1,-1,-1,-1],"loss_changes":[2.5422955E4,6.172843E3,1.6275234E4,1.5431904E3,6.636048E3,5.4714873E3,9.257305E3,1.1884014E3,2.6346108E3,3.0723018E3,8.202913E3,4.1359966E3,2.16773E3,2.020905E3,1.1461496E4,0E0,0E0,0E0,0E0,0E0,0E0,0E0,0E0,0E0,0E0,0E0,0E0,0E0,0E0,0E0,0E0],"parents":[2147483647,0,0,1,1,2,2,3,3,4,4,5,5,6,6,7,7,8,8,9,9,10,10,11,11,12,12,13,13,14,14],"right_children":[2,4,6,8,10,12,14,16,18,20,22,24,26,28,30,-1,-1,-1,-1,-1,-1,-1,-1,-1,-1,-1,-1,-1,-1,-1,-1],"split_conditions":[9.87238E2,4.8940143E-1,4.0434E1,9E0,1.3245E2,4.4969E-1,1.31E1,8.64E0,6.851351E2,1.0395829E3,6.452328E1,4.2038946E0,2.6978162E2,8.2E0,3.987361E2,-1.9898796E-2,-4.7314744E-2,1.3133868E-2,4.2133632E-1,-2.0733474E-2,2.2935751E-1,-7.942849E-3,1.4562914E-1,1.315001E-1,-3.6717337E-2,-6.0693574E-1,1.5116921E-1,-4.461467E-1,-4.247057E-2,3.5135463E-1,1.2761381E-1],"split_indices":[49,5,2,103,4,114,10,1,6,6,101,66,87,10,89,0,0,0,0,0,0,0,0,0,0,0,0,0,0,0,0],"split_type":[0,0,0,0,0,0,0,0,0,0,0,0,0,0,0,0,0,0,0,0,0,0,0,0,0,0,0,0,0,0,0],"sum_hessian":[1.26134E5,1.0864E5,1.7494E4,6.9077E4,3.9563E4,7.2E3,1.0294E4,6.7895E4,1.182E3,2.5649E4,1.3914E4,6.954E3,2.46E2,9.41E2,9.353E3,2.5067E4,4.2828E4,9.95E2,1.87E2,2.5149E4,5E2,6.86E3,7.054E3,2.088E3,4.866E3,2E2,4.6E1,1.46E2,7.95E2,4.005E3,5.348E3],"tree_param":{"num_deleted":"0","num_feature":"115","num_nodes":"31","size_leaf_vector":"1"}},{"base_weights":[6.217763E-3,-2.1895617E-1,7.4315596E-1,-2.9659823E-1,3.5673475E-1,1.6765222E-1,1.9834744E0,-3.2444468E0,-2.9125544E-1,1.791827E-1,2.7641497E0,-1.8493165E0,3.4454927E-1,4.540436E-1,3.9063098E0,-9.687233E-2,-5.5075896E-1,-3.3492945E-2,3.9583687E-3,5.307142E-2,-9.2852466E-2,-9.970525E-2,4.6466467E-1,-9.842302E-2,-2.973638E-1,6.4921014E-2,-1.1583077E-1,1.9829805E-1,-1.6030757E-1,1.8169743E-1,7.750301E-1],"categories":[],"categories_nodes":[],"categories_segments":[],"categories_sizes":[],"default_left":[1,1,1,0,1,0,0,1,1,1,0,1,1,0,1,0,0,0,0,0,0,0,0,0,0,0,0,0,0,0,0],"id":23,"left_children":[1,3,5,7,9,11,13,15,17,19,21,23,25,27,29,-1,-1,-1,-1,-1,-1,-1,-1,-1,-1,-1,-1,-1,-1,-1,-1],"loss_changes":[2.0941533E4,4.320778E3,2.1082697E4,1.3405698E3,4.909953E3,7.19935E3,2.7527469E4,7.878086E2,1.2285308E3,4.167009E3,5.5911084E3,1.5795508E3,8.494087E3,1.6405426E4,3.3292074E4,0E0,0E0,0E0,0E0,0E0,0E0,0E0,0E0,0E0,0E0,0E0,0E0,0E0,0E0,0E0,0E0],"parents":[2147483647,0,0,1,1,2,2,3,3,4,4,5,5,6,6,7,7,8,8,9,9,10,10,11,11,12,12,13,13,14,14],"right_children":[2,4,6,8,10,12,14,16,18,20,22,24,26,28,30,-1,-1,-1,-1,-1,-1,-1,-1,-1,-1,-1,-1,-1,-1,-1,-1],"split_conditions":[1.08E0,9.175138E2,6.464167E1,3.1944E1,5E0,2E0,5E0,1.31E2,2.0045683E2,3E0,1.9329166E1,3.25556E2,3.355611E1,3E0,2.1191E-1,-9.687233E-2,-5.5075896E-1,-3.3492945E-2,3.9583687E-3,5.307142E-2,-9.2852466E-2,-9.970525E-2,4.6466467E-1,-9.842302E-2,-2.973638E-1,6.4921014E-2,-1.1583077E-1,1.9829805E-1,-1.6030757E-1,1.8169743E-1,7.750301E-1],"split_indices":[5,6,97,2,111,111,111,3,83,111,61,4,65,111,114,0,0,0,0,0,0,0,0,0,0,0,0,0,0,0,0],"split_type":[0,0,0,0,0,0,0,0,0,0,0,0,0,0,0,0,0,0,0,0,0,0,0,0,0,0,0,0,0,0,0],"sum_hessian":[1.26198E5,9.6663E4,2.9535E4,8.5176E4,1.1487E4,2.0175E4,9.36E3,1.53E2,8.5023E4,1.0699E4,7.88E2,1.626E3,1.8549E4,5.214E3,4.146E3,7.7E1,7.6E1,7.5108E4,9.915E3,8.122E3,2.577E3,2.63E2,5.25E2,9.2E2,7.06E2,1.5423E4,3.126E3,2.991E3,2.223E3,2.687E3,1.459E3],"tree_param":{"num_deleted":"0","num_feature":"115","num_nodes":"31","size_leaf_vector":"1"}},{"base_weights":[7.957053E-4,-1.14188194E-1,1.2069124E0,-1.612642E-1,9.3648136E-1,-2.1682196E0,1.5240406E0,-2.7616552E-1,1.4176852E-1,1.0228805E-1,3.3871336E0,-2.7031355E0,-1.5225222E0,7.125054E-1,3.3968055E0,-7.038244E-2,-2.2720974E-2,-7.461976E-2,5.1315285E-2,3.898825E-1,-6.649977E-3,9.19877E-1,1.2695603E-1,-2.2354119E-1,-3.795165E-1,-4.5731183E-2,-1.8962526E-1,4.88992E-2,3.090143E-1,5.486751E-1,6.3529074E-2],"categories":[],"categories_nodes":[],"categories_segments":[],"categories_sizes":[],"default_left":[1,1,0,1,1,0,1,0,0,1,0,0,0,1,1,0,0,0,0,0,0,0,0,0,0,0,0,0,0,0,0],"id":24,"left_children":[1,3,5,7,9,11,13,15,17,19,21,23,25,27,29,-1,-1,-1,-1,-1,-1,-1,-1,-1,-1,-1,-1,-1,-1,-1,-1],"loss_changes":[1.750511E4,5.699926E3,1.176216E4,3.84042E3,1.0102672E4,3.2193604E2,1.5261082E4,1.6741846E3,1.0000531E4,2.3635637E3,1.543306E4,2.5456201E2,1.7031647E2,3.7227773E3,1.7518531E4,0E0,0E0,0E0,0E0,0E0,0E0,0E0,0E0,0E0,0E0,0E0,0E0,0E0,0E0,0E0,0E0],"parents":[2147483647,0,0,1,1,2,2,3,3,4,4,5,5,6,6,7,7,8,8,9,9,10,10,11,11,12,12,13,13,14,14],"right_children":[2,4,6,8,10,12,14,16,18,20,22,24,26,28,30,-1,-1,-1,-1,-1,-1,-1,-1,-1,-1,-1,-1,-1,-1,-1,-1],"split_conditions":[1.333E3,5E0,2E0,3.5E1,1.6261E2,2.4234E1,6.801903E1,2E0,1.6716667E1,2.6E0,2.53074E-1,4.344425E-1,2.7792096E2,3.38204E-1,3E0,-7.038244E-2,-2.2720974E-2,-7.461976E-2,5.1315285E-2,3.898825E-1,-6.649977E-3,9.19877E-1,1.2695603E-1,-2.2354119E-1,-3.795165E-1,-4.5731183E-2,-1.8962526E-1,4.88992E-2,3.090143E-1,5.486751E-1,6.3529074E-2],"split_indices":[4,111,111,3,49,9,101,111,57,9,114,114,89,43,111,0,0,0,0,0,0,0,0,0,0,0,0,0,0,0,0],"split_type":[0,0,0,0,0,0,0,0,0,0,0,0,0,0,0,0,0,0,0,0,0,0,0,0,0,0,0,0,0,0,0],"sum_hessian":[1.26221E5,1.15236E5,1.0985E4,1.10295E5,4.941E3,9.43E2,1.0042E4,7.9972E4,3.0323E4,3.687E3,1.254E3,5.14E2,4.29E2,7.007E3,3.035E3,8.213E3,7.1759E4,8.942E3,2.1381E4,1.56E2,3.531E3,3.34E2,9.2E2,3.62E2,1.52E2,1.12E2,3.17E2,6.406E3,6.01E2,1.727E3,1.308E3],"tree_param":{"num_deleted":"0","num_feature":"115","num_nodes":"31","size_leaf_vector":"1"}},{"base_weights":[5.1261066E-3,-9.4866924E-2,1.2430977E0,-2.7146468E-1,1.8095262E-1,9.823533E-1,8.70025E0,-2.7528283E-1,6.212841E0,-1.114987E0,3.6122715E-1,2.0574827E-1,1.904441E0,5.0733733E0,2.6807343E1,-2.4931228E-2,-1.02028504E-1,7.3096067E-1,-1.586021E-1,-4.9141802E-2,-2.327607E-1,-3.5955333E-3,9.972475E-2,3.37001E-2,-5.7454807E-1,2.54224E-1,-9.266102E-2,2.639061E-1,2.013426E0,3.7084386E0,1.0640401E0],"categories":[],"categories_nodes":[],"categories_segments":[],"categories_sizes":[],"default_left":[1,1,1,1,0,1,1,1,1,1,1,1,1,0,0,0,0,0,0,0,0,0,0,0,0,0,0,0,0,0,0],"id":25,"left_children":[1,3,5,7,9,11,13,15,17,19,21,23,25,27,29,-1,-1,-1,-1,-1,-1,-1,-1,-1,-1,-1,-1,-1,-1,-1,-1],"loss_changes":[1.5645997E4,5.696434E3,1.8358355E4,1.7669062E3,1.066538E4,6.5361504E3,2.0813424E4,1.3784346E3,3.708413E2,4.2144053E3,1.012388E4,3.8731423E3,7.537298E3,9.735861E3,8.411273E3,0E0,0E0,0E0,0E0,0E0,0E0,0E0,0E0,0E0,0E0,0E0,0E0,0E0,0E0,0E0,0E0],"parents":[2147483647,0,0,1,1,2,2,3,3,4,4,5,5,6,6,7,7,8,8,9,9,10,10,11,11,12,12,13,13,14,14],"right_children":[2,4,6,8,10,12,14,16,18,20,22,24,26,28,30,-1,-1,-1,-1,-1,-1,-1,-1,-1,-1,-1,-1,-1,-1,-1,-1],"split_conditions":[6.262E2,5.1E-1,5E0,1.2830433E3,2E0,4.3953E1,2.6717958E1,7.4224E2,2.468E1,3.25556E2,2.6544E2,4.5560166E-1,3E0,6.496019E-1,4.780875E-1,-2.4931228E-2,-1.02028504E-1,7.3096067E-1,-1.586021E-1,-4.9141802E-2,-2.327607E-1,-3.5955333E-3,9.972475E-2,3.37001E-2,-5.7454807E-1,2.54224E-1,-9.266102E-2,2.639061E-1,2.013426E0,3.7084386E0,1.0640401E0],"split_indices":[3,5,111,6,111,17,61,4,1,4,4,43,111,78,47,0,0,0,0,0,0,0,0,0,0,0,0,0,0,0,0],"split_type":[0,0,0,0,0,0,0,0,0,0,0,0,0,0,0,0,0,0,0,0,0,0,0,0,0,0,0,0,0,0,0],"sum_hessian":[1.26391E5,1.16946E5,9.445E3,7.1297E4,4.5649E4,9.127E3,3.18E2,7.1256E4,4.1E1,5.574E3,4.0075E4,4.955E3,4.172E3,2.66E2,5.2E1,6.8857E4,2.399E3,3.6E1,5E0,3.682E3,1.892E3,2.467E4,1.5405E4,4.849E3,1.06E2,3.405E3,7.67E2,2.3E2,3.6E1,3.1E1,2.1E1],"tree_param":{"num_deleted":"0","num_feature":"115","num_nodes":"31","size_leaf_vector":"1"}},{"base_weights":[7.0636114E-4,-1.8760817E-1,5.3627115E-1,-2.2020301E-1,6.088434E-1,5.5027876E-2,1.4855351E0,-2.2328319E-1,4.798501E0,1.3694435E-1,4.2372212E0,2.7135533E-1,-1.2356836E0,3.2095096E-1,2.8935125E0,-2.6881093E-2,5.8051883E-3,-4.640643E-2,6.606793E-1,4.4034418E-1,-3.5345182E-3,1.2684804E0,1.8436989E-1,-7.304318E-2,8.0014534E-2,-1.9891523E-1,6.0822982E-2,1.5772997E-1,-1.4269231E-1,1.2950999E-1,5.940721E-1],"categories":[],"categories_nodes":[],"categories_segments":[],"categories_sizes":[],"default_left":[1,1,1,1,1,1,0,1,0,0,0,0,0,0,1,0,0,0,0,0,0,0,0,0,0,0,0,0,0,0,0],"id":26,"left_children":[1,3,5,7,9,11,13,15,17,19,21,23,25,27,29,-1,-1,-1,-1,-1,-1,-1,-1,-1,-1,-1,-1,-1,-1,-1,-1],"loss_changes":[1.2713332E4,2.4212615E3,1.4980642E4,1.3861074E3,6.2781597E3,6.076641E3,1.8088332E4,1.1469316E3,5.2645996E2,2.3862021E3,8.509231E3,9.874315E3,4.3414805E3,1.3263527E4,2.4316562E4,0E0,0E0,0E0,0E0,0E0,0E0,0E0,0E0,0E0,0E0,0E0,0E0,0E0,0E0,0E0,0E0],"parents":[2147483647,0,0,1,1,2,2,3,3,4,4,5,5,6,6,7,7,8,8,9,9,10,10,11,11,12,12,13,13,14,14],"right_children":[2,4,6,8,10,12,14,16,18,20,22,24,26,28,30,-1,-1,-1,-1,-1,-1,-1,-1,-1,-1,-1,-1,-1,-1,-1,-1],"split_conditions":[9.6918064E-1,5E0,6.464167E1,1.2830433E3,3.76292E2,3.355611E1,5E0,1.71E2,3.53E2,7.4319444E0,2.53074E-1,5E0,1.7426105E1,3E0,2.1335667E-1,-2.6881093E-2,5.8051883E-3,-4.640643E-2,6.606793E-1,4.4034418E-1,-3.5345182E-3,1.2684804E0,1.8436989E-1,-7.304318E-2,8.0014534E-2,-1.9891523E-1,6.0822982E-2,1.5772997E-1,-1.4269231E-1,1.2950999E-1,5.940721E-1],"split_indices":[5,111,97,6,4,65,111,28,25,65,45,111,102,111,48,0,0,0,0,0,0,0,0,0,0,0,0,0,0,0,0],"split_type":[0,0,0,0,0,0,0,0,0,0,0,0,0,0,0,0,0,0,0,0,0,0,0,0,0,0,0,0,0,0,0],"sum_hessian":[1.26054E5,9.3262E4,3.2792E4,8.9596E4,3.666E3,2.1761E4,1.1031E4,8.9542E4,5.4E1,3.245E3,4.21E2,1.8638E4,3.123E3,6.038E3,4.993E3,7.707E4,1.2472E4,1.4E1,4E1,1.25E2,3.12E3,9.2E1,3.29E2,6.439E3,1.2199E4,2.217E3,9.06E2,3.513E3,2.525E3,3.276E3,1.717E3],"tree_param":{"num_deleted":"0","num_feature":"115","num_nodes":"31","size_leaf_vector":"1"}}]},"name":"gbtree"},"learner_model_param":{"base_score":"3.184759E0","boost_from_average":"1","num_class":"0","num_feature":"115","num_target":"1"},"objective":{"name":"reg:squarederror","reg_loss_param":{"scale_pos_weight":"1"}}},"version":[3,0,2]}