{"learner":{"attributes":{"best_iteration":"15","best_score":"3.272445450929007"},"feature_names":[],"feature_types":[],"gradient_booster":{"model":{"gbtree_model_param":{"num_parallel_tree":"1","num_trees":"31"},"iteration_indptr":[0,1,2,3,4,5,6,7,8,9,10,11,12,13,14,15,16,17,18,19,20,21,22,23,24,25,26,27,28,29,30,31],"tree_info":[0,0,0,0,0,0,0,0,0,0,0,0,0,0,0,0,0,0,0,0,0,0,0,0,0,0,0,0,0,0,0],"trees":[{"base_weights":[1.3287071E-2,-1.7240139E0,3.7614167E0,6.314192E0,-3.3265868E-1,7.6786866E0,1.5856456E0,-1.8526222E0,1.03738365E1,-3.199319E0,-1.1447297E0,-1.739892E0,1.3151144E0,5.91001E0,9.669577E0,8.890696E0,1.785549E1,-1.2420366E0,3.6811376E0,3.779431E-1,6.6203876E0,1.8571224E0,9.530333E0,8.458261E0,1.6171911E1,4.1528525E0,-9.624944E-1,5.5345124E-1,1.8988489E0,2.883619E1,1.41997E1,3.2725568E0,-5.623384E-2,-2.8406677E0,1.6452357E-1,-1.7694957E0,1.8636305E1,-9.264632E-1,-2.4128633E0,5.7842195E-1,9.802107E-1,1.0951141E1,6.0341387E0,3.4422085E0,7.099561E0,1.2723656E0,-2.4940355E0,1.5267065E1,6.673244E0,3.474935E0,1.4572941E1,2.8976526E1,-4.9672794E-1,-3.385134E0,2.394111E-1,-3.4903622E0,-1.8097066E0,-3.1458642E-2,5.204332E-1,-1.000005E0,9.641216E0,-2.670438E0,1.1637266E1,1.5955583E1,4.12001E1,2.3673077E0,7.0793643E0,4.6715245E0,1.3966831E1,3.8679152E0,2.0696842E1,1.1694248E0,3.0362692E1,7.7935416E-1,4.041361E-1,-9.4777155E-1,4.5123825E0,5.82272E0,2.2649236E0,1.6569518E0,-1.11345224E-1,4.2896852E0,2.5725855E1,-1.93121E-1,2.8210446E-1,-1.2297918E-1,1.0678013E-1,-1.3907572E0,6.7336636E0,2.8277996E-1,7.294459E-1,-1.2609524E0,1.0685503E0,-9.560271E-2,2.1056627E-1,9.7437125E-1,5.1380634E0,7.7400236E0,1.4054303E1,1.8717188E0,1.1414499E0,2.4178709E1,1.29231E0,4.0755043E0,8.595363E0,6.2548003E0,1.7220381E0,5.9884423E-1,2.3383558E0,6.2125194E-1,9.004164E0,1.1738539E0,3.9614294E0,2.286822E0,3.6984533E-1,-3.692713E0,-2.7870395E0,5.420293E-1,3.4179413E0,-1.3152232E0,2.352673E0,8.0074215E-1,2.5866265E0,2.0694248E1,3.1773798E1,4.701097E0,1.883288E1,-2.6267178E0,-2.2277437E-1,3.2831402E0,-1.0527246E0,2.8173158E-1,6.3707703E-1,2.4272415E1,-1.2099304E0,2.2692053E-1,4.1674666E0,1.578808E0,4.773088E0,4.30165E0,9.29478E-2,1.4774104E0,-2.120807E0,-3.7728038E-1,4.707812E0,1.1611435E1,1.6689592E1,-5.0548326E-2,4.917669E0,-3.5295753E0,-2.0663204E0,1.332665E0,7.0956736E0,-3.5916457E-1,-1.6354857E-2,-2.069468E-1,9.709496E0,-2.3181207E-1,2.6418974E1,2.1063209E0,4.384771E0,7.829032E-2,7.74738E-1,2.3358301E1,1.1683959E1,2.1559942E0,4.194304E0,1.4016648E1,3.9870483E1,2.0077221E-1,-2.6402328E-2,4.3454918E-1,6.9845357E0,-6.624908E-2,1.1508944E-1,4.1447315E0,1.2188266E1,3.7772253E0,2.592738E1,3.0729103E0,5.3199987E0,2.071922E0,5.490755E0,-3.0749516E0,-2.0317295E0,-2.0132385E-1,4.039185E-1,-2.0947127E-1,7.4274346E-2,1.4744351E0,9.141874E-1,-2.507958E0,1.0690434E1,-3.3104463E0,-1.4856507E0,-8.978964E-1,1.6516861E0,1.3920343E1,3.861924E1,-2.1455626E-1,1.4962526E-1,8.876833E0,3.0342262E0,1.5555732E-1,-1.9833623E-1,-2.9728847E0,-1.4122168E0,-3.7931552E0,-2.8110867E0,7.0279473E-1,2.0462577E0,-2.0626724E0,-3.30623E0,3.4829742E-1,8.815759E-1,9.278063E-1,2.3243968E0,-2.8939111E0,-2.833951E-1,2.854385E-1,1.3217286E0,2.818226E-1,2.4907646E0,-2.1153023E0,4.186558E0,-1.7054813E0,1.4419125E0,-3.3289163E0,-1.1387748E0,1.7744633E0,9.611396E0,-8.792094E-2,2.9989226E0,1.7637258E0,-1.4160389E0,-1.8063008E0,-8.076984E-2,-2.2011879E-1,2.685447E-1,2.9294608E0,-1.2315201E-1,2.3685423E-1,6.745727E-1,1.4060984E1,1.8712032E1,-1.0368588E-1,-2.569426E-1,2.1857662E0,9.104637E0,1.1344972E0,4.8002977E0,5.3575456E-1,-2.9038996E-2,4.20516E0,8.045045E0,1.0709981E0,3.7103364E0,1.4122888E-2,4.350372E-1,1.3255253E0,5.605542E-1,-2.2061186E-1,2.1661966E-1,-3.6401066E-1,1.2845261E1,6.5448605E-2,4.649666E-1,1.1273056E-1,4.7285286E-1,1.2354654E-1,5.9880334E-1,-3.313383E-1,-1.5135664E-1,9.427511E0,2.1444262E1,6.471279E0,4.2464837E-1,6.2250655E-2,3.2744557E-1,-3.859248E0,-2.426368E0,1.8431251E-1,1.3392733E0,1.7271076E0,6.7219037E-1,-2.0147343E-1,-8.3150705E-3,-3.7801334E-1,-3.041806E-1,-3.1372383E-1,-1.0751434E-1,7.750267E0,1.1322404E1,9.863228E-1,1.6013504E0,-1.8466467E0,5.001566E-1,-1.7202433E-2,3.033907E-1,-3.0687118E0,1.4814447E0,1.181752E1,8.871401E-1,-3.9848564E0,-3.6108708E0,-1.9358777E-1,-3.2414794E-1,-2.6707327E-1,5.4543686E0,-3.1829972E0,-4.0355015E0,1.8983444E1,3.5703394E0,8.3385575E-1,1.8087853E0,2.3486097E-1,1.0065981E0,1.0744209E0,2.9080849E0,1.8379902E0,-2.5057775E-1,-3.3205996E0,-1.4565134E0,8.624595E0,1.4932799E1,2.554289E-1,8.504804E-1,-1.8588085E-1,2.2725618E-1,-3.0860773E-1,-3.7049073E-1,6.418616E0,1.10505905E1,-3.8474086E-1,-2.712449E-1,4.2014566E-1,1.4754425E-2,-3.8984406E-1,1.3649462E0,8.3506365E0,1.2306084E1,-9.46032E-2,1.3126692E-1,-1.4830178E-1,2.3831649E-1,-2.4178064E0,9.2724454E-1,7.5741297E-1,-9.2383005E-2,5.741491E-1,4.9129615E0,-1.0238453E-1,7.681663E-1,-3.8071147E-1,-3.0071923E-1,1.2431556E0,-1.5789303E-1,2.9561937E0,8.56792E0,1.15173474E-1,1.1902179E0,-2.627658E0,-3.5805202E0,9.34062E-1,4.4108334E0,1.8055363E0,2.2967632E0,-3.8422358E-1,-1.2042242E-1,5.6260437E-1,-3.22864E-2,-1.5321068E-1,5.94813E-1,-2.9129538E-1,-1.6572127E-1,8.951406E-1,3.0927489E0,-3.343087E0,-1.6441412E0,-1.855654E-1,8.9860106E-1,2.5914868E-2,5.109224E-1,2.9982018E-1,-2.5219157E-1,-4.332306E0,-3.5187042E0,-3.576388E-1,5.537688E-1,5.911305E-1,1.1340191E0,-3.646073E-1,-2.72053E-1,6.2926835E-1,1.5194558E0,6.4940524E-1,-4.0116754E-1,-3.3098352E-1,-1.2755727E-3,5.2435308E0,2.2434653E-1,-4.6727765E-1,-3.7143974E0,4.3233785E-1,1.1387411E0,-3.964586E-1,-2.7441296E-1,5.8901036E-1,1.241077E0,-4.0860635E-1,-3.8207778E-1,-2.4632661E-1,8.431421E-2,1.0158405E0,1.2677803E0,-4.3433186E-1,4.7331163E-1,2.568813E-1,7.2206014E-1,4.6071115E-1,9.2011404E-1,4.2000012E0,1.0857688E0,-3.7417307E-1,-2.6167077E-1,-2.3075793E-2,2.6181433E-1,-2.895672E-1,6.812503E-2,6.4902824E-1,-6.60151E-2,3.190293E0,-2.7893743E-1,1.0599604E0,-2.3373854E0,2.6334247E-1,-8.70956E-2,-5.1837033E-1,1.911091E0,-3.937395E0,-1.022155E0,1.7746989E0,-2.3905598E-1,4.894651E-1,-8.634529E-2,-4.9043506E-1,-4.0480742E0,2.590211E-1,-3.2316345E-1,1.1647674E-1,-2.3097441E0,-1.3276921E-1,4.6903603E-2,3.396249E-3,-4.094847E-1,4.7325183E-2,-2.9609936E-1,4.9246075E-3,3.808653E-1,2.3945983E-1,3.0394021E-2,2.4473284E-1,9.837644E-2,7.041906E-2,-5.3824365E-2,-4.995489E-3,-9.059378E-2],"categories":[],"categories_nodes":[],"categories_segments":[],"categories_sizes":[],"default_left":[1,1,1,1,1,0,1,0,1,1,1,1,0,1,0,0,0,1,0,1,0,1,1,0,0,1,1,0,0,0,1,0,1,0,1,1,0,1,0,0,0,0,1,1,0,1,0,0,1,0,0,0,1,1,1,0,1,0,0,1,0,0,1,0,0,1,1,1,0,0,0,0,0,0,0,0,1,0,0,0,0,1,0,0,0,0,0,1,0,0,0,0,0,0,0,0,1,0,0,0,0,0,0,0,1,0,0,0,0,0,1,1,0,0,0,1,1,1,0,1,1,0,0,0,0,0,0,1,0,1,1,0,0,0,1,0,1,0,0,0,0,1,1,1,0,0,0,0,0,0,0,1,0,0,0,0,0,0,0,0,0,0,0,0,0,0,0,1,0,0,0,0,1,0,0,0,1,0,1,0,0,1,1,0,1,0,0,0,0,0,0,0,0,0,1,1,1,0,0,0,0,0,1,0,0,1,0,0,0,0,0,1,1,0,0,0,0,1,0,0,0,0,0,1,0,1,0,1,0,0,0,1,1,1,1,1,0,0,0,0,0,0,0,0,0,0,0,0,0,1,0,0,0,0,0,0,0,0,0,0,0,0,0,0,0,0,0,0,0,0,0,0,0,0,0,1,0,0,0,1,0,0,0,0,0,0,0,0,0,0,0,1,0,0,0,0,0,0,0,0,0,0,0,1,0,0,0,0,0,1,0,0,0,0,0,0,0,0,0,0,0,0,0,0,0,0,0,0,0,0,0,0,0,0,0,0,0,0,0,0,0,0,0,0,0,0,0,0,0,0,0,0,0,0,0,0,0,0,0,0,0,1,1,0,0,0,0,0,0,0,0,0,0,0,0,0,0,0,1,0,0,0,0,0,0,0,1,0,0,0,0,0,0,0,0,1,0,0,0,0,1,0,0,0,0,0,0,0,0,0,0,0,0,0,0,0,0,0,0,0,0,0,0,0,0,0,0,0,0,0,0,0,0,0,0,0,0,1,0,0,1,0,0,0,0,0,0,0,0,0,0,0,0,0,0,0,0,0,0,0,0,0,0,0,0,0,0],"id":0,"left_children":[1,7,3,5,17,13,25,9,61,53,11,35,31,19,15,21,29,33,65,141,41,109,23,39,27,49,87,-1,-1,123,167,77,45,149,91,37,101,59,55,-1,-1,47,43,57,73,71,193,99,107,75,51,63,191,115,119,153,83,-1,-1,85,79,299,97,209,139,95,67,175,69,307,163,93,137,-1,-1,133,81,103,111,-1,-1,89,105,-1,-1,-1,-1,127,155,-1,-1,233,117,-1,-1,135,125,201,145,-1,-1,157,263,113,121,-1,-1,-1,-1,257,313,169,131,-1,-1,207,183,171,181,217,151,-1,-1,215,179,253,197,227,129,161,187,-1,-1,147,185,195,177,-1,-1,-1,-1,143,345,199,213,301,243,-1,-1,309,205,231,247,-1,-1,395,331,-1,159,-1,-1,-1,-1,165,283,-1,-1,189,363,-1,-1,173,219,-1,-1,249,273,335,375,-1,-1,277,241,211,223,-1,-1,-1,-1,-1,-1,397,221,333,289,203,269,255,421,-1,-1,229,349,-1,-1,361,225,303,279,-1,-1,271,287,-1,-1,-1,-1,377,295,-1,-1,-1,-1,261,281,285,327,391,239,399,291,341,265,275,235,245,237,-1,-1,-1,-1,-1,-1,323,311,-1,-1,381,315,343,251,-1,-1,267,259,-1,-1,-1,-1,-1,-1,-1,-1,-1,319,-1,-1,-1,-1,-1,-1,-1,-1,389,317,351,411,-1,-1,337,305,-1,-1,-1,-1,-1,-1,-1,-1,-1,-1,325,293,-1,-1,367,297,-1,-1,401,-1,339,431,409,329,-1,-1,427,371,321,385,365,443,-1,-1,-1,-1,-1,-1,-1,-1,353,355,407,393,-1,-1,-1,-1,-1,-1,417,403,-1,-1,-1,-1,-1,-1,419,413,-1,-1,-1,-1,383,347,-1,-1,437,357,-1,-1,-1,-1,-1,-1,369,359,-1,-1,373,405,-1,-1,-1,-1,-1,-1,-1,-1,-1,-1,-1,-1,-1,-1,423,379,-1,-1,-1,-1,-1,-1,415,387,-1,-1,-1,-1,-1,-1,-1,-1,425,-1,-1,-1,429,435,433,439,-1,-1,-1,-1,-1,-1,-1,-1,-1,-1,-1,-1,-1,-1,-1,-1,-1,-1,-1,-1,-1,-1,-1,-1,-1,-1,-1,-1,457,-1,441,447,-1,-1,451,461,445,449,459,-1,-1,-1,465,453,463,-1,-1,455,-1,-1,-1,-1,-1,-1,-1,-1,-1,-1,-1,-1,-1,-1,-1,-1],"loss_changes":[1.2945054E6,2.1136572E5,6.580339E5,2.50206E5,8.8270266E4,1.05918125E5,5.6824355E4,1.28130625E5,2.3581734E4,2.959075E4,1.2898271E5,4.2823562E4,4.607411E4,6.2639375E4,9.010425E4,5.8148938E4,4.892647E4,4.433329E4,1.9927016E4,4.989472E3,3.5798375E4,9.525017E3,8.4245375E4,3.6618562E4,4.9210812E4,3.051511E4,1.437983E4,0E0,0E0,6.6613125E3,3.7830938E3,1.8156664E4,3.2696244E4,4.915414E3,1.3518191E4,3.841778E4,9.869879E3,2.3839111E4,2.6103453E4,0E0,0E0,3.09715E4,3.4339688E4,2.4012156E4,1.8683219E4,1.953107E4,2.9266973E3,1.0911594E4,9.552402E3,1.8651234E4,5.7317508E4,2.0829562E4,2.9518054E3,8.0720625E3,7.8058E3,4.85725E3,1.4498797E4,0E0,0E0,1.4470248E4,1.5814902E4,9.298601E2,1.2165203E4,2.5520547E3,5.0071875E3,1.2434117E4,2.0581734E4,3.6083066E3,2.1804938E4,8.5425244E2,4.356664E3,1.2960427E4,5.0685176E3,0E0,0E0,5.1402095E3,1.5441656E4,9.663469E3,9.379949E3,0E0,0E0,1.4294969E4,9.571354E3,0E0,0E0,0E0,0E0,5.9628467E3,4.752452E3,0E0,0E0,1.9121494E3,7.9384756E3,0E0,0E0,5.1208726E3,6.36241E3,2.653213E3,4.9756562E3,0E0,0E0,4.6913164E3,1.5283411E3,8.630975E3,7.6421367E3,0E0,0E0,0E0,0E0,1.6480342E3,8.105137E2,3.7018433E3,5.4510645E3,0E0,0E0,2.558375E3,3.2393906E3,3.6288203E3,3.2669297E3,2.229191E3,4.8623086E3,0E0,0E0,2.229418E3,3.3567969E3,1.7008398E3,2.670046E3,2.0931865E3,6.1866426E3,4.53673E3,3.217558E3,0E0,0E0,4.961462E3,3.2380913E3,2.7900078E3,3.3581558E3,0E0,0E0,0E0,0E0,7.556925E3,5.0466626E2,2.6601843E3,2.2838164E3,9.177656E2,1.7783125E3,0E0,0E0,8.431836E2,2.5735156E3,1.964925E3,1.7358594E3,0E0,0E0,2.3067831E2,6.39624E2,0E0,5.797215E3,0E0,0E0,0E0,0E0,4.042164E3,1.1591904E3,0E0,0E0,3.1252656E3,3.6428613E2,0E0,0E0,4.055797E3,2.176102E3,0E0,0E0,1.7015508E3,1.3310459E3,6.168501E2,3.1732764E2,0E0,0E0,1.2424429E3,1.7942725E3,2.5225938E3,2.1509746E3,0E0,0E0,0E0,0E0,0E0,0E0,2.2205176E2,2.1682214E3,6.211719E2,1.0780195E3,2.5943374E3,1.3787478E3,1.6865483E3,1.0711035E2,0E0,0E0,2.0854512E3,4.5474078E2,0E0,0E0,3.7258594E2,2.1175962E3,8.955625E2,1.1886836E3,0E0,0E0,1.3767715E3,1.0903672E3,0E0,0E0,0E0,0E0,2.9820264E2,1.016356E3,0E0,0E0,0E0,0E0,1.5865391E3,1.1618882E3,1.1497534E3,6.5127515E2,2.530752E2,1.8566243E3,2.0854453E2,1.0745586E3,5.408778E2,1.4753215E3,1.2517039E3,2.0180933E3,1.7571162E3,5.1499863E3,0E0,0E0,0E0,0E0,0E0,0E0,6.816719E2,8.116875E2,0E0,0E0,2.9719235E2,7.947129E2,5.1340564E2,2.0156641E3,0E0,0E0,1.465376E3,1.6288809E3,0E0,0E0,0E0,0E0,0E0,0E0,0E0,0E0,0E0,7.25756E2,0E0,0E0,0E0,0E0,0E0,0E0,0E0,0E0,2.5578271E2,7.498042E2,4.0703198E2,1.9061444E2,0E0,0E0,5.994375E2,8.636992E2,0E0,0E0,0E0,0E0,0E0,0E0,0E0,0E0,0E0,0E0,6.7613477E2,1.1289395E3,0E0,0E0,3.5049023E2,9.423576E2,0E0,0E0,2.0822778E2,0E0,5.950781E2,8.5107086E1,1.95E2,6.478281E2,0E0,0E0,9.420489E1,3.3338013E2,6.845879E2,2.8861523E2,3.618125E2,3.358491E1,0E0,0E0,0E0,0E0,0E0,0E0,0E0,0E0,3.982578E2,3.8685745E2,1.9608423E2,2.3458008E2,0E0,0E0,0E0,0E0,0E0,0E0,1.327384E2,2.0680957E2,0E0,0E0,0E0,0E0,0E0,0E0,1.2953882E2,1.578164E2,0E0,0E0,0E0,0E0,2.9287256E2,6.221912E2,0E0,0E0,6.525859E1,3.7517822E2,0E0,0E0,0E0,0E0,0E0,0E0,3.3449097E2,4.561139E2,0E0,0E0,3.1771924E2,2.0016797E2,0E0,0E0,0E0,0E0,0E0,0E0,0E0,0E0,0E0,0E0,0E0,0E0,0E0,0E0,1.05166504E2,3.4269464E2,0E0,0E0,0E0,0E0,0E0,0E0,1.4574805E2,4.0011914E2,0E0,0E0,0E0,0E0,0E0,0E0,0E0,0E0,1.0110718E2,0E0,0E0,0E0,9.260968E1,7.617634E1,7.673614E1,5.601184E1,0E0,0E0,0E0,0E0,0E0,0E0,0E0,0E0,0E0,0E0,0E0,0E0,0E0,0E0,0E0,0E0,0E0,0E0,0E0,0E0,0E0,0E0,0E0,0E0,0E0,0E0,0E0,0E0,1.14662285E1,0E0,4.1235813E1,2.8699059E1,0E0,0E0,2.0600973E1,7.5377502E0,3.311328E1,2.803303E1,1.1124573E1,0E0,0E0,0E0,6.868268E-1,1.7131714E1,1.798698E0,0E0,0E0,1.2275845E1,0E0,0E0,0E0,0E0,0E0,0E0,0E0,0E0,0E0,0E0,0E0,0E0,0E0,0E0,0E0,0E0],"parents":[2147483647,0,0,2,2,3,3,1,1,7,7,10,10,5,5,14,14,4,4,13,13,15,15,22,22,6,6,24,24,16,16,12,12,17,17,11,11,35,35,23,23,20,20,42,42,32,32,41,41,25,25,50,50,9,9,38,38,43,43,37,37,8,8,51,51,18,18,66,66,68,68,45,45,44,44,49,49,31,31,60,60,76,76,56,56,59,59,26,26,81,81,34,34,71,71,65,65,62,62,47,47,36,36,77,77,82,82,48,48,21,21,78,78,103,103,53,53,92,92,54,54,104,104,29,29,96,96,87,87,128,128,112,112,75,75,95,95,72,72,64,64,19,19,141,141,98,98,133,133,33,33,120,120,55,55,88,88,101,101,158,158,129,129,70,70,163,163,30,30,111,111,117,117,171,171,67,67,136,136,124,124,118,118,116,116,134,134,130,130,167,167,52,52,46,46,135,135,126,126,143,143,97,97,195,195,150,150,115,115,63,63,183,183,144,144,123,123,119,119,172,172,192,192,184,184,206,206,127,127,201,201,151,151,91,91,234,234,236,236,228,228,182,182,146,146,235,235,152,152,175,175,250,250,125,125,197,197,109,109,254,254,223,223,102,102,232,232,253,253,196,196,211,211,176,176,233,233,181,181,208,208,224,224,164,164,225,225,212,212,194,194,230,230,292,292,218,218,296,296,61,61,145,145,207,207,280,280,69,69,149,149,244,244,110,110,248,248,274,274,264,264,309,309,243,243,291,291,226,226,304,304,156,156,193,193,177,177,279,279,301,301,231,231,249,249,142,142,346,346,202,202,275,275,321,321,322,322,350,350,358,358,205,205,168,168,311,311,295,295,357,357,308,308,361,361,178,178,217,217,378,378,247,247,345,345,310,310,386,386,273,273,227,227,324,324,155,155,191,191,229,229,299,299,332,332,362,362,323,323,303,303,276,276,340,340,385,385,331,331,339,339,198,198,377,377,395,395,307,307,399,399,302,302,401,401,400,400,349,349,402,402,433,433,312,312,439,439,434,434,440,440,437,437,446,446,450,450,431,431,441,441,438,438,447,447,445,445],"right_children":[2,8,4,6,18,14,26,10,62,54,12,36,32,20,16,22,30,34,66,142,42,110,24,40,28,50,88,-1,-1,124,168,78,46,150,92,38,102,60,56,-1,-1,48,44,58,74,72,194,100,108,76,52,64,192,116,120,154,84,-1,-1,86,80,300,98,210,140,96,68,176,70,308,164,94,138,-1,-1,134,82,104,112,-1,-1,90,106,-1,-1,-1,-1,128,156,-1,-1,234,118,-1,-1,136,126,202,146,-1,-1,158,264,114,122,-1,-1,-1,-1,258,314,170,132,-1,-1,208,184,172,182,218,152,-1,-1,216,180,254,198,228,130,162,188,-1,-1,148,186,196,178,-1,-1,-1,-1,144,346,200,214,302,244,-1,-1,310,206,232,248,-1,-1,396,332,-1,160,-1,-1,-1,-1,166,284,-1,-1,190,364,-1,-1,174,220,-1,-1,250,274,336,376,-1,-1,278,242,212,224,-1,-1,-1,-1,-1,-1,398,222,334,290,204,270,256,422,-1,-1,230,350,-1,-1,362,226,304,280,-1,-1,272,288,-1,-1,-1,-1,378,296,-1,-1,-1,-1,262,282,286,328,392,240,400,292,342,266,276,236,246,238,-1,-1,-1,-1,-1,-1,324,312,-1,-1,382,316,344,252,-1,-1,268,260,-1,-1,-1,-1,-1,-1,-1,-1,-1,320,-1,-1,-1,-1,-1,-1,-1,-1,390,318,352,412,-1,-1,338,306,-1,-1,-1,-1,-1,-1,-1,-1,-1,-1,326,294,-1,-1,368,298,-1,-1,402,-1,340,432,410,330,-1,-1,428,372,322,386,366,444,-1,-1,-1,-1,-1,-1,-1,-1,354,356,408,394,-1,-1,-1,-1,-1,-1,418,404,-1,-1,-1,-1,-1,-1,420,414,-1,-1,-1,-1,384,348,-1,-1,438,358,-1,-1,-1,-1,-1,-1,370,360,-1,-1,374,406,-1,-1,-1,-1,-1,-1,-1,-1,-1,-1,-1,-1,-1,-1,424,380,-1,-1,-1,-1,-1,-1,416,388,-1,-1,-1,-1,-1,-1,-1,-1,426,-1,-1,-1,430,436,434,440,-1,-1,-1,-1,-1,-1,-1,-1,-1,-1,-1,-1,-1,-1,-1,-1,-1,-1,-1,-1,-1,-1,-1,-1,-1,-1,-1,-1,458,-1,442,448,-1,-1,452,462,446,450,460,-1,-1,-1,466,454,464,-1,-1,456,-1,-1,-1,-1,-1,-1,-1,-1,-1,-1,-1,-1,-1,-1,-1,-1],"split_conditions":[4.2387857E2,7.61425E2,4.8968516E-2,7.596333E1,9.994992E2,7.4135834E2,4.0969227E1,1.28001E0,2.6E-1,9.42E1,1.8463037E1,8.51E0,7.85E1,1.1416667E1,1.2543008E3,9.69E-1,8.4271914E-1,4.895755E-1,2.09286E3,5.166667E-1,8.3360146E1,8.445021E0,8.253333E1,7.6001373E2,2.8915E0,1E2,2.73E1,5.5345124E-1,1.8988489E0,1.478593E-1,3.1290855E1,5.633712E-1,3.4407253E1,2.632638E-1,8.759321E0,1.1137344E1,4.5003703E-1,5.71E0,2.4026225E0,5.7842195E-1,9.802107E-1,1.52E0,1.337086E0,1.8829371E0,1.2893083E0,6.903E0,4.008366E0,6.064815E-1,8.721062E1,1.7393667E1,3.4444443E1,1.0732942E0,2.3649218E1,8.728678E-2,3.6054197E-1,1.7120833E0,1E2,-3.1458642E-2,5.204332E-1,1.504E0,8.34688E0,3.3192356E0,5.14624E2,5.0269276E-1,1.6043333E1,2.5113E1,2.2307E0,8.88294E0,8.203542E0,5.2861E2,6.58E1,2.066483E0,6.1E0,7.7935416E-1,4.041361E-1,1.015E-1,6.903E0,4.5266666E0,1.6616133E0,1.6569518E0,-1.11345224E-1,2.0715329E-1,1.6706945E-1,-1.93121E-1,2.8210446E-1,-1.2297918E-1,1.0678013E-1,1.0341593E1,1.0482931E0,2.8277996E-1,7.294459E-1,1.207E-1,2.811E1,-9.560271E-2,2.1056627E-1,3.3967975E2,4.526325E-1,3.3542834E2,3.5429E-1,1.8717188E0,1.1414499E0,5.5449257E1,4.56E0,5.779861E1,6.291E0,6.2548003E0,1.7220381E0,5.9884423E-1,2.3383558E0,4.92789E0,3.2847595E0,1.4E0,3.237E2,2.286822E0,3.6984533E-1,2.87E0,1.722E0,3.8879144E2,6.822593E1,3.943706E-1,8.3168625E1,8.0074215E-1,2.5866265E0,5.748E1,1.1338586E0,3.6882297E2,9.25E1,2.7600476E-1,9.404088E1,2.4177413E0,4.8742563E2,2.8173158E-1,6.3707703E-1,4.4E0,1.6922175E0,1.5450833E1,8.837217E2,1.578808E0,4.773088E0,4.30165E0,9.29478E-2,2.6104624E0,3.1666667E0,3.9360914E-1,4.8865976E0,9.01E1,1.2692757E0,-5.0548326E-2,4.917669E0,3.67E-1,9.8672264E1,1.557E2,2.763E1,-3.5916457E-1,-1.6354857E-2,2.905E1,6.532143E1,-2.3181207E-1,2.6009147E0,2.1063209E0,4.384771E0,7.829032E-2,7.74738E-1,6.1659074E0,1.9734596E-1,2.1559942E0,4.194304E0,2.2632917E1,2.763E1,2.0077221E-1,-2.6402328E-2,9.2575E2,6.558E1,-6.624908E-2,1.1508944E-1,2.0732353E0,1.6852E3,3.96E-1,2.176E0,3.0729103E0,5.3199987E0,1.06E0,1.4146641E-1,4.0723026E2,2.836988E2,-2.0132385E-1,4.039185E-1,-2.0947127E-1,7.4274346E-2,1.4744351E0,9.141874E-1,1.6768111E0,2.169282E0,1.0939538E1,4.7E0,5.3E-2,4.909651E0,8.66332E2,9.92E1,-2.1455626E-1,1.4962526E-1,1.3255E1,4.708333E1,1.5555732E-1,-1.9833623E-1,8.4E1,2.6974874E1,1.2676666E1,3.606E1,7.0279473E-1,2.0462577E0,4.61E-1,1.0475288E1,3.4829742E-1,8.815759E-1,9.278063E-1,2.3243968E0,2.557474E0,6.3941956E0,2.854385E-1,1.3217286E0,2.818226E-1,2.4907646E0,2.337624E0,7.4502914E1,2.6090155E0,9.17E1,3.2368466E-2,6.566666E0,3.91E-1,3.49E-1,1.87E-1,8.44E-1,2.3005102E1,8E-1,1.754E1,1.8487E3,-2.2011879E-1,2.685447E-1,2.9294608E0,-1.2315201E-1,2.3685423E-1,6.745727E-1,1.318028E2,2.29E1,-1.0368588E-1,-2.569426E-1,1.8058E2,2.6502042E0,8.6E0,4.2380304E2,5.3575456E-1,-2.9038996E-2,1.1724796E1,1.47352E-1,1.0709981E0,3.7103364E0,1.4122888E-2,4.350372E-1,1.3255253E0,5.605542E-1,-2.2061186E-1,2.1661966E-1,-3.6401066E-1,8.163525E0,6.5448605E-2,4.649666E-1,1.1273056E-1,4.7285286E-1,1.2354654E-1,5.9880334E-1,-3.313383E-1,-1.5135664E-1,8.832782E0,3.5570343E0,5.197939E1,7.7676575E1,6.2250655E-2,3.2744557E-1,1.956E2,8.74E1,1.8431251E-1,1.3392733E0,1.7271076E0,6.7219037E-1,-2.0147343E-1,-8.3150705E-3,-3.7801334E-1,-3.041806E-1,-3.1372383E-1,-1.0751434E-1,6.666667E-2,2.974E1,9.863228E-1,1.6013504E0,9.994509E0,1.8199634E3,-1.7202433E-2,3.033907E-1,6.6413124E1,1.4814447E0,1.185811E2,2.363636E1,9.964722E0,1.0622222E1,-1.9358777E-1,-3.2414794E-1,9.655502E-2,4.1E0,3.192E0,3.7851795E1,3.791E0,3.471E1,8.3385575E-1,1.8087853E0,2.3486097E-1,1.0065981E0,1.0744209E0,2.9080849E0,1.8379902E0,-2.5057775E-1,3.0497607E-2,1.75E0,5.71E2,4.459335E0,2.554289E-1,8.504804E-1,-1.8588085E-1,2.2725618E-1,-3.0860773E-1,-3.7049073E-1,7.67E1,1.368247E2,-3.8474086E-1,-2.712449E-1,4.2014566E-1,1.4754425E-2,-3.8984406E-1,1.3649462E0,2.0055E1,2.2754E1,-9.46032E-2,1.3126692E-1,-1.4830178E-1,2.3831649E-1,5.3012904E-2,4.3922076E0,7.5741297E-1,-9.2383005E-2,1.274101E0,2.5443333E1,-1.0238453E-1,7.681663E-1,-3.8071147E-1,-3.0071923E-1,1.2431556E0,-1.5789303E-1,6.4471825E1,2.2579223E-1,1.15173474E-1,1.1902179E0,2.45E0,2.2014015E0,9.34062E-1,4.4108334E0,1.8055363E0,2.2967632E0,-3.8422358E-1,-1.2042242E-1,5.6260437E-1,-3.22864E-2,-1.5321068E-1,5.94813E-1,-2.9129538E-1,-1.6572127E-1,8.951406E-1,3.0927489E0,1.405E1,2.6084384E-1,-1.855654E-1,8.9860106E-1,2.5914868E-2,5.109224E-1,2.9982018E-1,-2.5219157E-1,4.689783E0,4.129233E-1,-3.576388E-1,5.537688E-1,5.911305E-1,1.1340191E0,-3.646073E-1,-2.72053E-1,6.2926835E-1,1.5194558E0,3.833333E-1,-4.0116754E-1,-3.3098352E-1,-1.2755727E-3,7.526667E1,3.0483395E2,2.4204736E2,1.7971092E0,4.3233785E-1,1.1387411E0,-3.964586E-1,-2.7441296E-1,5.8901036E-1,1.241077E0,-4.0860635E-1,-3.8207778E-1,-2.4632661E-1,8.431421E-2,1.0158405E0,1.2677803E0,-4.3433186E-1,4.7331163E-1,2.568813E-1,7.2206014E-1,4.6071115E-1,9.2011404E-1,4.2000012E0,1.0857688E0,-3.7417307E-1,-2.6167077E-1,-2.3075793E-2,2.6181433E-1,-2.895672E-1,6.812503E-2,6.4902824E-1,-6.60151E-2,3.28E1,-2.7893743E-1,6.642076E1,6.32E-1,2.6334247E-1,-8.70956E-2,5.2101624E2,3.786265E2,1.45E0,8.4545E-2,1.6138123E0,-2.3905598E-1,4.894651E-1,-8.634529E-2,6.4056E1,1.386363E2,6.093333E1,-3.2316345E-1,1.1647674E-1,4.680191E-2,-1.3276921E-1,4.6903603E-2,3.396249E-3,-4.094847E-1,4.7325183E-2,-2.9609936E-1,4.9246075E-3,3.808653E-1,2.3945983E-1,3.0394021E-2,2.4473284E-1,9.837644E-2,7.041906E-2,-5.3824365E-2,-4.995489E-3,-9.059378E-2],"split_indices":[5,3,43,1,3,82,89,46,108,24,5,34,1,2,5,108,22,4,53,31,89,86,17,5,35,14,0,0,0,73,101,76,89,4,99,62,55,108,65,0,0,30,4,61,71,108,93,76,14,88,80,55,81,69,73,76,17,0,0,35,0,59,2,55,10,0,35,29,62,78,12,63,35,0,0,35,108,34,4,0,0,4,76,0,0,0,0,99,76,0,0,42,0,0,0,85,46,86,42,0,0,84,108,100,35,0,0,0,0,55,91,34,3,0,0,108,30,89,100,4,100,0,0,12,72,83,15,4,89,91,3,0,0,2,55,58,82,0,0,0,0,63,2,59,63,17,68,0,0,46,81,2,0,0,0,11,100,0,65,0,0,0,0,91,72,0,0,58,0,0,0,28,17,0,0,63,51,46,32,0,0,33,110,5,3,0,0,0,0,0,0,61,63,101,11,28,63,78,17,0,0,56,16,0,0,90,62,56,26,0,0,4,101,0,0,0,0,33,97,0,0,0,0,4,98,108,12,67,10,28,46,42,31,2,108,11,51,0,0,0,0,0,0,88,10,0,0,24,61,11,86,0,0,101,67,0,0,0,0,0,0,0,0,0,0,0,0,0,0,0,0,0,0,99,61,16,83,0,0,2,1,0,0,0,0,0,0,0,0,0,0,34,0,0,0,60,53,0,0,98,0,26,10,99,88,0,0,69,0,30,86,34,0,0,0,0,0,0,0,0,0,69,108,24,93,0,0,0,0,0,0,1,2,0,0,0,0,0,0,0,0,0,0,0,0,21,81,0,0,91,58,0,0,0,0,0,0,100,55,0,0,33,65,0,0,0,0,0,0,0,0,0,0,0,0,0,0,0,71,0,0,0,0,0,0,61,69,0,0,0,0,0,0,0,0,108,0,0,0,1,5,85,59,0,0,0,0,0,0,0,0,0,0,0,0,0,0,0,0,0,0,0,0,0,0,0,0,0,0,0,0,1,0,100,51,0,0,88,89,33,42,19,0,0,0,1,24,1,0,0,22,0,0,0,0,0,0,0,0,0,0,0,0,0,0,0,0],"split_type":[0,0,0,0,0,0,0,0,0,0,0,0,0,0,0,0,0,0,0,0,0,0,0,0,0,0,0,0,0,0,0,0,0,0,0,0,0,0,0,0,0,0,0,0,0,0,0,0,0,0,0,0,0,0,0,0,0,0,0,0,0,0,0,0,0,0,0,0,0,0,0,0,0,0,0,0,0,0,0,0,0,0,0,0,0,0,0,0,0,0,0,0,0,0,0,0,0,0,0,0,0,0,0,0,0,0,0,0,0,0,0,0,0,0,0,0,0,0,0,0,0,0,0,0,0,0,0,0,0,0,0,0,0,0,0,0,0,0,0,0,0,0,0,0,0,0,0,0,0,0,0,0,0,0,0,0,0,0,0,0,0,0,0,0,0,0,0,0,0,0,0,0,0,0,0,0,0,0,0,0,0,0,0,0,0,0,0,0,0,0,0,0,0,0,0,0,0,0,0,0,0,0,0,0,0,0,0,0,0,0,0,0,0,0,0,0,0,0,0,0,0,0,0,0,0,0,0,0,0,0,0,0,0,0,0,0,0,0,0,0,0,0,0,0,0,0,0,0,0,0,0,0,0,0,0,0,0,0,0,0,0,0,0,0,0,0,0,0,0,0,0,0,0,0,0,0,0,0,0,0,0,0,0,0,0,0,0,0,0,0,0,0,0,0,0,0,0,0,0,0,0,0,0,0,0,0,0,0,0,0,0,0,0,0,0,0,0,0,0,0,0,0,0,0,0,0,0,0,0,0,0,0,0,0,0,0,0,0,0,0,0,0,0,0,0,0,0,0,0,0,0,0,0,0,0,0,0,0,0,0,0,0,0,0,0,0,0,0,0,0,0,0,0,0,0,0,0,0,0,0,0,0,0,0,0,0,0,0,0,0,0,0,0,0,0,0,0,0,0,0,0,0,0,0,0,0,0,0,0,0,0,0,0,0,0,0,0,0,0,0,0,0,0,0,0,0,0,0,0,0,0,0,0,0,0,0,0,0,0,0,0,0,0,0,0,0,0,0,0,0,0,0,0,0,0,0,0,0,0,0,0,0,0,0,0,0,0],"sum_hessian":[1.98797E5,1.35836E5,6.2961E4,3.878E4,2.4181E4,3.0095E4,8.685E3,1.34408E5,1.428E3,4.6308E4,8.81E4,7.0937E4,1.7163E4,1.5939E4,1.4156E4,1.2928E4,1.228E3,1.9715E4,4.466E3,1.814E3,1.4125E4,1.078E3,1.185E4,1.0205E4,1.645E3,4.326E3,4.359E3,3.45E2,1.3E3,3.05E2,9.23E2,7.07E3,1.0093E4,9.227E3,1.0488E4,7.0835E4,1.02E2,3.0661E4,4.0174E4,3.415E3,6.79E3,1.682E3,1.2443E4,3.626E3,8.817E3,6.533E3,3.56E3,8.36E2,8.46E2,4.063E3,2.63E2,1.34E2,1.29E2,4.3934E4,2.374E3,1.4416E4,2.5758E4,1.158E3,2.468E3,3.045E4,2.11E2,1.26E2,1.302E3,6.6E1,6.8E1,3.222E3,1.244E3,9.23E2,3.21E2,1.29E2,1.92E2,6.511E3,2.2E1,7.185E3,1.632E3,7.72E2,3.291E3,2.001E3,5.069E3,1.28E2,8.3E1,3.258E3,3.3E1,2.51E4,6.58E2,2.7405E4,3.045E3,4.13E3,2.29E2,2.193E3,1.065E3,4.07E3,6.418E3,1.991E3,4.52E3,2.145E3,1.077E3,5E2,8.02E2,4.39E2,3.97E2,7.7E1,2.5E1,1.229E3,7.72E2,5E0,2.8E1,8.14E2,3.2E1,9.2E2,1.58E2,3.086E3,1.983E3,2.3E1,1.206E3,2.901E4,1.4924E4,5.244E3,1.174E3,1.368E3,1.006E3,7.48E2,2.4E1,8.3E1,2.22E2,1.045E3,3.2E1,2.006E3,2.124E3,4.06E2,1.718E3,1.346E3,6.37E2,7E0,7.65E2,1.739E3,4.06E2,1.3E1,9E0,6.5E1,3E0,1.26E3,5.54E2,8.01E2,4.59E2,4.19E2,3.83E2,4E0,3E0,4.881E3,4.346E3,8.29E2,1.77E2,1.399E4,4.26E2,6.9E1,1.6E2,6E0,7.1E1,5.6E1,1.5E1,2.61E2,1.45E2,1.47E2,4.5E1,1.36E2,1.1E1,9.18E2,5E0,1.953E3,1.133E3,5.159E3,8.5E1,2.038E3,3.121E3,8.64E2,5.9E1,4E2,6E0,2.14E2,8E0,7.13E2,4.61E2,1.0803E4,4.121E3,6.64E2,1.01E2,1.087E3,6.31E2,7.97E2,1.21E2,1.1E2,1.9E1,1.966E3,1.594E3,9.72E2,7.67E2,2.7E1,5E0,4.12E2,3.89E2,4.02E2,9.8E1,2.98E2,6.74E2,1.82E3,2.526E3,2.604E4,2.97E3,2.3E1,4.3E1,2.011E3,8.792E3,3.55E2,1.04E2,1.6E1,6.7E1,5.4E2,8.28E2,5.2E1,3.3E1,1.3E1,6E0,4.067E3,5.4E1,2.291E3,2.35E2,1.362E3,6.44E2,3.8E1,3.64E2,4.48E2,3.81E2,1.98E2,3.872E3,2.996E3,8.76E2,4.96E2,3.8E2,1E0,6.43E2,1.33E2,3.28E2,1.7E2,2.13E2,1.493E3,1.503E3,5.2E1,1.25E2,1.55E2,7.09E2,6.39E2,7E1,9.12E2,1.33E2,2.5E1,2E0,8.16E2,1.04E2,4.1E1,9.2E1,3.983E3,8.4E1,1.8E1,7E0,1.58E2,2.23E2,1.33E2,7.79E2,7.01E2,6.6E1,6.12E2,1.399E3,4.7E1,1.2E1,4.3E1,1.55E2,3.24E2,3.89E2,7.95E2,2.175E3,4.4E1,1E1,2E1,2.5E1,1.924E3,3.67E2,3.144E3,5.648E3,3.16E2,1.278E3,1.77E2,1.87E2,1.45E2,4.2E1,2.76E2,5.52E2,4.37E2,1.15E2,1.24E2,2E0,4.11E2,8E0,1.2682E4,1.3358E4,1.36E3,8.15E2,3.6E1,9.3E1,2.901E3,1.98E3,2.09E2,4E0,1.49E2,9E0,1.6E1,1.09E2,6E0,6E0,5E0,2E0,2.686E3,2.15E2,2.5E1,1.45E2,2.3E1,1.54E2,4.7E1,1.88E2,2.035E3,1.1323E4,4.8E1,1.12E2,1.033E3,9.33E2,3.58E2,4.2E1,7.94E2,1E0,5.3E1,3.58E2,2.78E2,1.7E2,5E1,1.05E2,5.05E2,4.9E1,1E1,3.9E1,4.3E1,5.5E1,6E0,3.7E1,1.048E3,1.638E3,1E0,2.14E2,3.7E1,1.8E1,6E0,1.2E1,1.164E3,6.56E2,1E0,4E0,1.74E2,3.5E1,6.6E1,2.1E2,2E1,1.7E1,6E0,8.7E1,8.98E2,2.66E2,2E0,4E0,3.96E2,1.44E2,1.42E2,2E0,3.2E1,2E1,9E0,4.96E2,1.253E3,7.27E2,7.23E2,4E0,1.8E1,2.9E1,8.92E2,4.7E2,5E0,1.4E2,5.7E1,1.2E1,8.3E1,2.7E1,1.1E1,2.7E1,2.5E1,9.9E1,6E0,1.06E2,4.47E2,2.09E2,1.6E1,9E0,7.829E3,4.853E3,1.9E1,1.36E2,5.7E1,3.01E2,1.252E3,1E0,9E0,3.9E1,1.1E1,4.2E1,4E0,1E0,2.53E2,1.43E2,4E1,1.7E1,9E0,2.7E1,9E0,2E0,5E0,3E0,1.4E1,1.1E1,8E0,1.9E1,2.4E1,1.9E1,9.1E1,8E0,1.2E1,2E0,3E0,1E0,3E0,8.8E1,3E0,8E0,3E0,5E0,1.3E1,1.1E1,1E0,8.7E1,1E0,4E0,1E0,4E0,8E0,4E0,1.1E1,8E0,2E0,1E0,2E0,1E0],"tree_param":{"num_deleted":"0","num_feature":"111","num_nodes":"467","size_leaf_vector":"1"}},{"base_weights":[6.5275906E-3,-1.6958387E0,3.1163828E0,5.3130484E0,-4.4883686E-1,6.6961107E0,1.6691116E0,-1.8158801E0,1.0042761E1,4.663772E0,8.162473E0,1.0516294E1,6.1037264E0,-2.9418015E0,-1.2285675E0,-2.321188E0,1.1121451E0,3.8972988E0,-5.9597504E-1,-1.582213E0,7.9394394E-1,1.4661402E1,8.833994E0,7.9921284E0,2.02091E1,4.9167344E-1,5.6067176E0,3.293295E0,1.3833856E1,2.3340334E1,-1.267729E0,1.4165195E0,2.4602008E0,-7.6263493E-1,-2.1840928E0,-8.130282E-1,2.1949814E1,2.98711E0,2.2614758E1,8.9417565E-1,6.744983E0,3.7950418E0,9.773105E0,5.4432386E-1,1.7844133E0,2.4985027E0,-4.4064736E-1,1.2917722E1,3.4139828E1,6.037611E0,3.4261184E0,2.1365698E-1,4.4398394E0,-1.4235649E0,-2.8731728E0,-2.735279E0,1.1302446E1,1.279922E0,4.9699206E0,-3.0871835E0,-9.508407E-2,-7.0350593E-1,1.6282302E0,-1.1070938E0,1.1579211E0,-3.2207042E-1,2.4737394E-1,-1.2342902E0,3.8764591E0,1.79409E-1,6.895876E-1,2.0507922E0,7.1237707E0,8.059335E-1,4.8184425E-1,3.4476316E-1,-1.0094126E-1,5.46418E-1,-2.480173E0,7.5200524E0,4.5333138E0,6.1255093E0,1.1058834E1,-5.2439594E-1,2.6110353E0,1.6127354E1,4.566691E1,-2.0700955E0,-4.824919E-1,1.1456647E-1,-1.4963892E-1,8.3402157E-1,1.1400763E0,2.9795952E0,-1.2170514E0,4.626502E0,1.5176127E0,-2.7926844E-1,-7.876275E-2,4.447048E-1,2.1120579E1,7.9568377E0,1.2190398E0,4.5952816E0,1.1201064E1,1.488568E-1,1.2221729E0,2.0062742E0,5.7640047E0,3.7987846E-1,7.9423374E-1,1.6148453E1,4.7998013E0,-3.177265E0,-1.5231044E0,2.8980183E1,4.4160404E0,7.0123744E0,-1.6688795E-1,-1.3106027E0,3.3309474E0,-9.774301E-2,-3.4444663E-1,1.7048556E0,8.793188E0,7.9483314E0,2.261504E1,-2.9332528E0,3.118306E0,6.941417E-1,3.6484554E1,1.00694016E-1,-2.1715143E-1,7.097724E0,8.0454177E-1,3.3404522E0,5.61222E-1,1.8747507E-1,4.8006654E-1,2.0424432E-1,-2.1339421E0,4.2188856E-1,2.418825E0,-1.0631585E-1,4.031136E-1,2.9969018E0,-8.744401E-1,9.2974E0,1.3864135E1,6.745809E-1,2.9062632E-1,-1.410115E0,1.942934E0,1.8998335E-1,1.7615E0,-3.3684356E0,-2.6074955E0,4.0079713E0,2.363402E0,-1.1590979E0,2.083849E0,-3.2097656E-1,-2.0272194E-1,3.1099663E0,2.600378E1,-1.8241895E0,1.0093428E0,5.644111E-2,6.914273E-1,-3.25073E0,1.9276822E-1,9.646962E-1,1.9327456E-1,3.8598905E0,5.726546E0,6.495733E-1,2.5874004E-1,-1.7186066E-2,4.2786603E0,1.0427274E1,1.6085684E1,1.1579013E0,2.8876414E0,8.5809335E-2,5.197677E-1,6.46062E0,3.2561684E0,2.6814848E-1,7.092422E-1,5.036321E-2,2.8305537E-1,-1.0565726E-1,2.349222E-1,5.028273E0,4.288288E-1,-4.2285538E-1,-1.9931753E0,2.3292434E-1,-9.018653E-2,3.161703E0,1.3704093E0,-2.8259585E0,-1.7346401E0,1.0043495E0,2.5360918E-1,-7.024026E-2,4.0265775E-1,5.4810915E0,1.0350264E1,9.1055626E-1,2.2297326E-1,2.2548678E0,7.52069E0,1.0497972E1,5.499871E0,2.594503E-1,1.3103634E0,2.0785158E0,5.4733796E0,1.8806704E0,4.571615E-1,-1.2588166E-1,3.927314E0,-2.6426048E0,-1.3690885E0,-2.34351E0,-4.813252E-1,-1.7022806E-1,7.916428E-2,-1.0370034E0,-2.6932747E0,-2.0468428E0,2.9018378E-1,-2.1653922E-1,4.7746107E-1,-1.718333E-1,2.7165738E-1,3.5359623E0,2.024274E0,-1.2190422E-2,3.7662816E-1,1.3535146E0,-3.8380076E-3,4.6862003E-1,9.8249453E-1,-3.4555318E0,-2.6058772E0,2.2402499E0,-1.060828E0,-2.728175E-1,-1.2656196E-2,-1.2019453E-1,3.8901997E0,-2.838221E-1,-1.3210689E-1,1.0249698E0,-1.8248713E-1,-3.286829E0,-2.558543E0,-1.8247409E-1,9.277477E-3,1.5775007E1,3.6219368E0,-3.2626667E0,-4.4288868E-1,2.6080337E-1,8.262521E-1,-2.5268064E0,-4.7066233E-1,1.0766296E1,5.648128E0,5.2602714E-1,-2.0821668E-2,1.5660438E-1,8.983243E-1,-3.0681121E0,-1.6177292E0,-2.7260032E-1,-1.6875796E-1,2.2363927E0,-1.6109797E0,-1.588454E-1,3.0085635E-1,-2.4085823E-1,8.5201484E-1,1.2950863E0,-4.6594515E-1,8.466903E-1,5.5270035E-2,1.5843394E0,-1.6707204E-1,1.6154202E1,7.2152677E0,8.637059E0,1.145061E1,-3.1779428E0,-2.0327277E0,-7.6242834E-1,3.532691E0,-2.8499186E0,-7.065385E-1,-2.9071164E0,-3.5165107E0,6.313991E0,1.14051695E1,3.366175E-1,-8.831965E-2,-3.0102226E-1,-1.752601E-1,-9.125663E-2,6.745372E-1,3.317215E0,9.136986E0,-1.2595385E0,1.2252418E0,-1.4685737E-1,1.4907624E0,-3.3322516E-1,-2.1722884E-1,-3.5982025E-1,1.360065E-1,-2.9845872E0,-3.6764889E0,-2.3779933E-1,7.995589E-1,1.3162477E0,2.1068445E-1,2.7029972E0,6.97328E0,1.3773483E-1,5.117662E-1,6.694098E-2,-2.1923272E-1,-3.7200975E-1,-2.5073603E-1,-3.0829556E0,-1.4056816E0,1.1972092E0,1.6721569E0,5.9178524E0,1.2656978E1,-3.2180023E0,5.379048E0,-1.03327215E-1,2.1322154E-1,-3.3734012E-1,-3.6667624E-1,-2.8250968E-1,1.1395767E-2,-3.540881E-1,-2.4342334E-1,1.1091332E0,2.3761168E-1,-5.12629E-2,-2.4970238E0,-3.2533202E-1,-2.4087556E-1,1.922895E-1,6.754027E-1,1.0460312E1,1.4642768E1,9.055924E0,4.4559865E0,-1.015036E-1,9.5219195E-1,8.34372E-1,1.2289438E0,2.2911103E-1,-5.4884862E-2,2.5535932E-1,7.1088547E-1,9.420605E0,1.2098829E1,-2.3284142E-1,2.258551E-2,1.0921886E0,4.9344227E-1,-1.1713634E0,-3.7237601E0,-2.2414973E-1,1.4200965E0,2.3816244E-1,1.1147002E0,-2.760613E-2,4.0874615E-1,-2.769032E-1,-3.3974984E-1,-2.809045E0,-1.0422516E0,5.606674E-1,-1.7104116E-1,-2.3530798E0,3.5235543E0,-6.746813E-2,2.1991383E-1,-2.2929292E0,2.2812511E-1,8.203832E-1,1.161539E0,-3.7418336E-1,1.2003291E-1,1.2206324E0,2.8125745E-1,-3.685476E-1,-2.8739855E-1,-3.1522837E-1,-1.6444695E-1,6.031856E-1,-3.3556755E0,3.834195E-1,-3.2842945E-2,2.6185005E0,-2.6923308E-1,7.1867714E0,1.7063277E0,1.2193122E-1,4.9613056E-1,1.8145412E0,1.1748233E0,-2.8244185E-1,-3.6617678E-1,4.6808143E0,1.9620727E0,1.3940305E0,3.3046767E-1,1.4359617E0,1.0157843E0,1.0871184E0,-3.575497E0,-2.9804596E-1,-4.4437386E-2,7.085681E-3,9.5365906E-1,-6.828469E-1,-3.3242643E0,-1.1068403E-1,3.4610376E-1,4.0598464E-1,8.113021E-1,9.392331E-3,-1.7426349E-1,-3.8420823E-1,-1.9538394E0,2.3585558E-2,-3.16966E-1,1.6748445E-1,-1.3769476E-1,2.4457149E-1,-3.4122262E-2,1.5090746E-1,-5.1133145E-2,-1.4332588E-1,-3.487332E-1,-8.7784916E-2,-2.698515E-1,1.6947655E-1,2.0037342E-2],"categories":[],"categories_nodes":[],"categories_segments":[],"categories_sizes":[],"default_left":[1,1,1,1,1,0,1,0,1,0,1,0,1,1,1,0,1,1,0,1,0,0,0,1,0,1,0,1,0,0,0,0,0,1,1,1,0,1,0,1,0,1,0,0,0,0,1,0,0,1,0,1,0,0,0,0,0,0,0,1,1,1,0,1,0,0,0,0,0,0,0,0,0,0,0,0,0,1,0,1,0,0,0,1,1,0,0,1,1,0,0,0,0,0,1,0,0,0,0,1,0,0,0,0,1,0,0,0,1,0,0,1,0,1,1,0,1,0,0,1,0,0,0,0,0,0,0,1,1,1,0,0,0,0,0,1,1,0,0,0,0,0,0,0,0,0,0,0,1,0,0,1,1,0,0,1,1,0,0,1,0,0,0,0,0,0,0,0,0,0,1,0,0,0,1,0,0,1,1,1,0,0,0,0,0,0,1,0,0,0,0,0,0,0,0,0,0,0,0,0,0,1,1,0,0,0,0,0,0,0,0,0,0,0,0,0,0,0,0,0,0,0,0,1,0,1,0,0,0,1,1,0,1,0,0,0,0,0,0,0,0,0,0,0,0,0,1,0,0,0,0,0,0,0,0,0,0,0,1,0,0,0,0,1,0,0,0,1,1,0,0,0,0,0,0,1,0,0,0,0,1,0,0,0,0,0,0,0,0,0,0,0,0,0,0,0,0,0,0,0,0,1,1,0,0,0,0,0,0,0,0,0,0,1,0,0,0,0,0,0,0,1,1,0,0,0,0,0,0,0,0,0,0,0,0,0,0,0,0,1,1,0,0,0,0,0,0,0,0,0,0,0,0,0,1,0,0,0,0,0,0,0,0,0,0,0,0,0,0,0,0,0,0,0,0,0,0,0,0,0,0,0,0,0,0,0,0,1,0,0,0,0,0,0,0,0,0,0,0,0,0,0,0,0,0,0,0,0,0,0,0,0,0,0,0,0,0,0,0,0,0,0,0,0,0,0,0,0,1,0,0,0,0,0,0,0,0,0,0,0,0,0,0,0,0,0,0,0,0,0,0,0,0,0,0,0,0],"id":1,"left_children":[1,7,3,5,15,9,17,13,55,49,11,21,39,59,19,113,25,27,67,33,45,23,41,43,31,61,103,37,29,47,279,-1,-1,35,53,63,163,57,85,129,71,187,91,-1,-1,95,77,153,157,79,51,119,173,87,127,341,147,75,69,155,151,93,83,121,65,-1,-1,139,123,-1,-1,167,73,-1,-1,-1,-1,99,275,81,107,109,105,169,135,181,193,97,89,-1,-1,-1,-1,133,195,115,159,-1,-1,131,101,-1,-1,185,111,-1,-1,183,149,-1,-1,125,311,263,165,117,141,-1,-1,235,203,-1,-1,221,269,255,237,161,233,143,421,-1,-1,209,287,137,191,-1,-1,145,229,-1,-1,-1,-1,171,227,207,179,-1,-1,267,177,-1,-1,245,201,-1,-1,281,189,-1,-1,285,199,223,247,-1,-1,319,239,-1,-1,205,175,-1,-1,313,211,303,261,-1,-1,-1,-1,213,217,-1,-1,-1,-1,-1,-1,-1,-1,197,253,-1,-1,-1,-1,257,231,-1,-1,-1,-1,327,293,-1,-1,329,273,215,243,-1,-1,367,219,-1,-1,305,271,299,225,323,259,-1,-1,249,317,307,241,-1,-1,-1,-1,-1,-1,-1,-1,-1,-1,-1,-1,301,295,251,353,-1,-1,393,265,-1,-1,-1,-1,385,277,-1,-1,291,-1,321,395,-1,-1,387,297,397,357,-1,-1,-1,-1,349,289,-1,-1,-1,283,-1,-1,-1,-1,-1,-1,-1,-1,-1,-1,337,381,361,371,403,331,309,325,333,373,419,345,413,359,-1,-1,-1,-1,-1,-1,383,351,315,343,-1,-1,-1,-1,-1,-1,335,377,-1,-1,-1,-1,391,339,-1,-1,-1,-1,-1,-1,355,347,-1,-1,369,423,407,425,-1,-1,-1,-1,-1,-1,-1,-1,-1,-1,409,429,-1,-1,-1,-1,375,417,365,363,-1,-1,-1,-1,-1,-1,-1,-1,431,401,-1,-1,-1,-1,379,399,-1,-1,-1,-1,-1,-1,-1,-1,405,389,-1,-1,453,415,-1,-1,433,411,-1,-1,-1,-1,-1,-1,-1,-1,-1,-1,-1,427,-1,-1,435,439,437,447,-1,-1,-1,-1,-1,-1,-1,-1,-1,-1,455,-1,449,441,-1,-1,-1,-1,445,451,-1,-1,-1,-1,-1,-1,-1,443,-1,-1,-1,-1,-1,-1,-1,-1,-1,-1,-1,-1,-1,-1],"loss_changes":[1.0568055E6,1.8179716E5,5.5304606E5,2.2020262E5,7.869061E4,9.4351875E4,6.068286E4,8.443831E4,2.1052703E4,2.2554688E4,8.9086125E4,5.97155E4,3.2785875E4,1.81165E4,6.002736E4,8.358461E3,4.0944535E4,3.633085E4,1.7028094E4,3.523533E4,2.6287578E4,9.144825E4,2.8862062E4,2.8178625E4,3.5521E4,1.7528441E4,1.0026E4,3.3742066E4,4.9845914E4,2.353404E4,1.1310911E3,0E0,0E0,3.4638367E4,2.1580031E4,1.7494412E4,5.03633E3,1.9041207E4,1.257334E4,7.6421455E3,1.5526E4,3.5096025E3,1.1909031E4,0E0,0E0,1.0945217E4,1.4586594E4,5.6594863E3,5.5426953E3,1.39950625E4,2.2752492E4,7.972732E3,3.9410938E3,1.1912109E4,7.787E3,4.7951276E2,5.9781562E3,1.5015384E4,1.5908902E4,5.6100938E3,5.7059004E3,1.1900781E4,1.3994029E4,7.9565273E3,2.258719E4,0E0,0E0,6.7547617E3,7.9395117E3,0E0,0E0,4.723854E3,1.7403094E4,0E0,0E0,0E0,0E0,1.0209086E4,1.1932295E3,1.5561328E4,9.707203E3,9.582617E3,9.931328E3,4.055772E3,6.7876816E3,3.7827207E3,3.4133047E3,1.0753047E4,1.3166712E4,0E0,0E0,0E0,0E0,6.891295E3,3.4022725E3,8.35475E3,5.4481484E3,0E0,0E0,7.1509106E3,1.1556813E4,0E0,0E0,3.750791E3,8.536602E3,0E0,0E0,3.7514556E3,5.8752656E3,0E0,0E0,7.9333477E3,7.413208E2,1.3774922E3,4.8336924E3,1.7771191E4,6.298787E3,0E0,0E0,1.8552039E3,2.9143926E3,0E0,0E0,2.1081E3,1.3540547E3,1.5706328E3,1.8541133E3,5.353078E3,1.8918931E3,6.2906016E3,1.2616113E2,0E0,0E0,2.5796191E3,9.69819E2,7.1586523E3,3.453374E3,0E0,0E0,6.054524E3,1.9673291E3,0E0,0E0,0E0,0E0,3.9443071E3,2.0012615E3,2.6353672E3,3.8025547E3,0E0,0E0,1.3563186E3,3.8229568E3,0E0,0E0,1.7344688E3,2.9312812E3,0E0,0E0,1.1285289E3,3.4983203E3,0E0,0E0,1.0542982E3,3.3639883E3,2.106004E3,1.719855E3,0E0,0E0,6.970117E2,1.84799E3,0E0,0E0,2.789207E3,3.9624414E3,0E0,0E0,7.038509E2,2.4828574E3,7.6061523E2,1.3927188E3,0E0,0E0,0E0,0E0,2.385959E3,2.2890068E3,0E0,0E0,0E0,0E0,0E0,0E0,0E0,0E0,3.6010122E3,1.5819961E3,0E0,0E0,0E0,0E0,1.5092188E3,1.950794E3,0E0,0E0,0E0,0E0,5.9053076E2,8.8890234E2,0E0,0E0,5.8582043E2,1.2574434E3,2.437255E3,1.7522627E3,0E0,0E0,3.2354858E2,3.5811982E3,0E0,0E0,7.566801E2,1.2910171E3,8.0996484E2,3.1494038E3,6.3794727E2,1.4709525E3,0E0,0E0,1.6717826E3,7.005029E2,7.5243066E2,1.7978195E3,0E0,0E0,0E0,0E0,0E0,0E0,0E0,0E0,0E0,0E0,0E0,0E0,7.7759375E2,8.771738E2,1.6478894E3,3.652551E2,0E0,0E0,2.2654054E2,1.3743552E3,0E0,0E0,0E0,0E0,2.494961E2,1.1326094E3,0E0,0E0,8.928906E2,0E0,6.479492E2,2.2397552E2,0E0,0E0,2.4470044E2,8.249954E2,2.0714062E2,3.5778833E2,0E0,0E0,0E0,0E0,4.121289E2,9.1474536E2,0E0,0E0,0E0,1.1033235E3,0E0,0E0,0E0,0E0,0E0,0E0,0E0,0E0,0E0,0E0,5.0452344E2,2.5852106E2,3.2566895E2,3.0183984E2,1.9720703E2,5.832373E2,7.4672974E2,6.3133746E2,5.352783E2,2.9843454E2,1.3712695E2,4.4335938E2,1.5663904E2,3.5463867E2,0E0,0E0,0E0,0E0,0E0,0E0,2.5298987E2,3.700381E2,7.924202E2,4.6924115E2,0E0,0E0,0E0,0E0,0E0,0E0,5.2839453E2,2.6764648E2,0E0,0E0,0E0,0E0,2.2817758E2,4.9497754E2,0E0,0E0,0E0,0E0,0E0,0E0,3.629297E2,4.3819278E2,0E0,0E0,3.104077E2,1.2196045E2,1.6286816E2,1.1731613E2,0E0,0E0,0E0,0E0,0E0,0E0,0E0,0E0,0E0,0E0,1.617202E2,1.0187738E2,0E0,0E0,0E0,0E0,2.8278613E2,1.4167188E2,3.327129E2,5.916975E2,0E0,0E0,0E0,0E0,0E0,0E0,0E0,0E0,8.716455E1,2.012461E2,0E0,0E0,0E0,0E0,7.556511E2,2.0508594E2,0E0,0E0,0E0,0E0,0E0,0E0,0E0,0E0,1.9308105E2,4.360741E2,0E0,0E0,1.7078857E0,1.4634528E2,0E0,0E0,7.74357E1,1.5882506E2,0E0,0E0,0E0,0E0,0E0,0E0,0E0,0E0,0E0,0E0,0E0,1.1229199E2,0E0,0E0,7.6021774E1,5.9557034E1,6.843335E1,1.2945995E1,0E0,0E0,0E0,0E0,0E0,0E0,0E0,0E0,0E0,0E0,1.2592878E0,0E0,4.818492E0,3.8318115E1,0E0,0E0,0E0,0E0,3.5035675E1,3.9442139E0,0E0,0E0,0E0,0E0,0E0,0E0,0E0,4.600628E1,0E0,0E0,0E0,0E0,0E0,0E0,0E0,0E0,0E0,0E0,0E0,0E0,0E0,0E0],"parents":[2147483647,0,0,2,2,3,3,1,1,5,5,10,10,7,7,4,4,6,6,14,14,11,11,21,21,16,16,17,17,28,28,24,24,19,19,33,33,27,27,12,12,22,22,23,23,20,20,29,29,9,9,50,50,34,34,8,8,37,37,13,13,25,25,35,35,64,64,18,18,58,58,40,40,72,72,57,57,46,46,49,49,79,79,62,62,38,38,53,53,88,88,42,42,61,61,45,45,87,87,77,77,100,100,26,26,82,82,80,80,81,81,104,104,15,15,95,95,115,115,51,51,63,63,68,68,111,111,54,54,39,39,99,99,93,93,84,84,135,135,67,67,116,116,129,129,139,139,56,56,108,108,60,60,47,47,59,59,48,48,96,96,127,127,36,36,114,114,71,71,83,83,145,145,52,52,174,174,152,152,148,148,85,85,107,107,103,103,41,41,160,160,136,136,86,86,94,94,195,195,164,164,156,156,120,120,173,173,147,147,133,133,178,178,185,185,213,213,186,186,218,218,123,123,165,165,224,224,146,146,140,140,202,202,128,128,119,119,126,126,170,170,232,232,214,214,155,155,166,166,229,229,247,247,196,196,125,125,201,201,226,226,180,180,113,113,252,252,151,151,124,124,222,222,212,212,78,78,258,258,30,30,159,159,280,280,163,163,134,134,276,276,261,261,208,208,246,246,268,268,223,223,245,245,179,179,221,221,231,231,297,297,112,112,177,177,313,313,230,230,169,169,263,263,225,225,298,298,207,207,211,211,296,296,299,299,321,321,291,291,328,328,55,55,314,314,302,302,336,336,275,275,312,312,248,248,335,335,270,270,304,304,293,293,362,362,361,361,217,217,339,339,294,294,300,300,359,359,322,322,377,377,292,292,311,311,257,257,267,267,388,388,327,327,251,251,264,264,269,269,378,378,372,372,295,295,387,387,341,341,353,353,396,396,303,303,392,392,360,360,301,301,130,130,340,340,342,342,408,408,354,354,371,371,395,395,411,411,413,413,412,412,428,428,442,442,433,433,414,414,427,427,434,434,391,391,425,425],"right_children":[2,8,4,6,16,10,18,14,56,50,12,22,40,60,20,114,26,28,68,34,46,24,42,44,32,62,104,38,30,48,280,-1,-1,36,54,64,164,58,86,130,72,188,92,-1,-1,96,78,154,158,80,52,120,174,88,128,342,148,76,70,156,152,94,84,122,66,-1,-1,140,124,-1,-1,168,74,-1,-1,-1,-1,100,276,82,108,110,106,170,136,182,194,98,90,-1,-1,-1,-1,134,196,116,160,-1,-1,132,102,-1,-1,186,112,-1,-1,184,150,-1,-1,126,312,264,166,118,142,-1,-1,236,204,-1,-1,222,270,256,238,162,234,144,422,-1,-1,210,288,138,192,-1,-1,146,230,-1,-1,-1,-1,172,228,208,180,-1,-1,268,178,-1,-1,246,202,-1,-1,282,190,-1,-1,286,200,224,248,-1,-1,320,240,-1,-1,206,176,-1,-1,314,212,304,262,-1,-1,-1,-1,214,218,-1,-1,-1,-1,-1,-1,-1,-1,198,254,-1,-1,-1,-1,258,232,-1,-1,-1,-1,328,294,-1,-1,330,274,216,244,-1,-1,368,220,-1,-1,306,272,300,226,324,260,-1,-1,250,318,308,242,-1,-1,-1,-1,-1,-1,-1,-1,-1,-1,-1,-1,302,296,252,354,-1,-1,394,266,-1,-1,-1,-1,386,278,-1,-1,292,-1,322,396,-1,-1,388,298,398,358,-1,-1,-1,-1,350,290,-1,-1,-1,284,-1,-1,-1,-1,-1,-1,-1,-1,-1,-1,338,382,362,372,404,332,310,326,334,374,420,346,414,360,-1,-1,-1,-1,-1,-1,384,352,316,344,-1,-1,-1,-1,-1,-1,336,378,-1,-1,-1,-1,392,340,-1,-1,-1,-1,-1,-1,356,348,-1,-1,370,424,408,426,-1,-1,-1,-1,-1,-1,-1,-1,-1,-1,410,430,-1,-1,-1,-1,376,418,366,364,-1,-1,-1,-1,-1,-1,-1,-1,432,402,-1,-1,-1,-1,380,400,-1,-1,-1,-1,-1,-1,-1,-1,406,390,-1,-1,454,416,-1,-1,434,412,-1,-1,-1,-1,-1,-1,-1,-1,-1,-1,-1,428,-1,-1,436,440,438,448,-1,-1,-1,-1,-1,-1,-1,-1,-1,-1,456,-1,450,442,-1,-1,-1,-1,446,452,-1,-1,-1,-1,-1,-1,-1,444,-1,-1,-1,-1,-1,-1,-1,-1,-1,-1,-1,-1,-1,-1],"split_conditions":[3.0483395E2,3.350732E2,4.8968516E-2,7.2E1,5.51E-1,8.024437E2,4.0969227E1,1.28001E0,1.5E-1,1.1016387E0,9.125189E1,7.740906E-1,2.369E2,6.77E1,1.8463037E1,2.6549E-1,3.5384283E2,1E2,2.8710417E1,1.1042778E1,7.93E1,3.727E0,1.4650602E1,1.548129E1,1.0469456E3,5E-1,4.1148822E2,6.85E0,2.5226046E1,9.6503884E-1,5.001856E-1,1.4165195E0,2.4602008E0,7.8E0,7.811319E1,1.212E0,7.325933E0,1.8194386E-1,8.75E1,3.1290855E1,2.065715E-1,2.204662E0,1.0957141E3,5.4432386E-1,1.7844133E0,5.9966666E-1,4.0969227E1,9.1205585E-1,1.3314678E-1,1.0670407E2,2.8354387E0,3.7020263E-1,6.619967E2,4.8E0,3.095356E0,3.7200755E-1,4.64E-1,9.3E0,2.634E0,7.8063786E-2,3.6282587E-1,1.2166667E-1,1.5131277E2,2.5850063E1,2.7591354E2,-3.2207042E-1,2.4737394E-1,8.42E1,3.469E2,1.79409E-1,6.895876E-1,1.0635778E0,4.110189E0,8.059335E-1,4.8184425E-1,3.4476316E-1,-1.0094126E-1,6.291E0,3.700083E1,1.5437544E1,1.7451898E0,5.7774E0,3.5E-1,1.259198E1,6.993E1,1.012E1,9.55E1,8.65E-1,2.9881945E1,1.1456647E-1,-1.4963892E-1,8.3402157E-1,1.1400763E0,5.406805E-1,8.3E-1,3.09E1,7.645E0,-2.7926844E-1,-7.876275E-2,1.6055555E1,2.5990834E0,7.9568377E0,1.2190398E0,1.3022009E-1,7.45E1,1.488568E-1,1.2221729E0,1.5209361E0,9.469702E-1,3.7987846E-1,7.9423374E-1,2.2307E0,8.844001E1,3.9025403E2,8.262E2,9.7E0,7.8E0,7.0123744E0,-1.6688795E-1,2.2759184E1,3.561345E1,-9.774301E-2,-3.4444663E-1,1.252E2,1.0017598E0,2.6266481E1,2.937E0,2.3641844E0,1.1740004E0,1.2317016E0,2.2425542E0,1.00694016E-1,-2.1715143E-1,1.1335858E0,1.163078E1,1.86E-1,1.083277E3,1.8747507E-1,4.8006654E-1,1.175E0,1.372E0,4.2188856E-1,2.418825E0,-1.0631585E-1,4.031136E-1,5.5461506E1,1.951222E3,1.1850297E0,2.3072E1,6.745809E-1,2.9062632E-1,4.0081558E-1,1.66969E2,1.8998335E-1,1.7615E0,2.87E0,2.3E0,4.0079713E0,2.363402E0,8.343334E1,9.715135E-1,-3.2097656E-1,-2.0272194E-1,2.0732353E0,2.4704926E-1,2.0062847E0,3.4944E-1,5.644111E-2,6.914273E-1,1.13E1,3.2625809E0,9.646962E-1,1.9327456E-1,7.6626E0,1.924915E2,6.495733E-1,2.5874004E-1,1.5577E-1,2.484E1,1.752E1,2.6456806E1,1.1579013E0,2.8876414E0,8.5809335E-2,5.197677E-1,4.1516666E1,1.674E0,2.6814848E-1,7.092422E-1,5.036321E-2,2.8305537E-1,-1.0565726E-1,2.349222E-1,5.028273E0,4.288288E-1,1.6E-1,1.8444693E-1,2.3292434E-1,-9.018653E-2,3.161703E0,1.3704093E0,1.0797575E1,1.362E0,1.0043495E0,2.5360918E-1,-7.024026E-2,4.0265775E-1,7.081414E0,6.153333E2,9.1055626E-1,2.2297326E-1,3.0788077E2,4.366E1,3.7622116E2,3.74E0,2.594503E-1,1.3103634E0,6.424E1,2.1419677E-1,1.8806704E0,4.571615E-1,2.0656024E2,3.251E0,4.506E2,1.9320033E3,5.796667E2,6.276583E-2,-1.7022806E-1,7.916428E-2,3.3833315E0,5.7406443E-1,3.21328E2,1.51E1,-2.1653922E-1,4.7746107E-1,-1.718333E-1,2.7165738E-1,3.5359623E0,2.024274E0,-1.2190422E-2,3.7662816E-1,1.3535146E0,-3.8380076E-3,4.6862003E-1,9.8249453E-1,6.0045834E0,1.5941587E-1,2.263E0,8.39E1,-2.728175E-1,-1.2656196E-2,1.8016666E1,2.172977E3,-2.838221E-1,-1.3210689E-1,1.0249698E0,-1.8248713E-1,8.898313E0,2.471431E0,-1.8247409E-1,9.277477E-3,9.63E1,3.6219368E0,3.67E-1,2.1784427E2,2.6080337E-1,8.262521E-1,4.255116E-1,2.727E2,2.8851745E0,6.286E-1,5.2602714E-1,-2.0821668E-2,1.5660438E-1,8.983243E-1,3.3582602E0,2.9266407E-3,-2.7260032E-1,-1.6875796E-1,2.2363927E0,4.0813797E1,-1.588454E-1,3.0085635E-1,-2.4085823E-1,8.5201484E-1,1.2950863E0,-4.6594515E-1,8.466903E-1,5.5270035E-2,1.5843394E0,-1.6707204E-1,3.3584008E-1,7.14E1,3.5357E-1,1.5122464E0,2.24385E2,3.71E1,6.7977985E2,6.1175633E-2,3.84375E1,4.38E2,1.756714E0,8.0225E1,6.44E1,7.656E2,3.366175E-1,-8.831965E-2,-3.0102226E-1,-1.752601E-1,-9.125663E-2,6.745372E-1,6.876884E-1,7.547E1,6.291E0,6.878052E-1,-1.4685737E-1,1.4907624E0,-3.3322516E-1,-2.1722884E-1,-3.5982025E-1,1.360065E-1,3.552E0,6.1731E1,-2.3779933E-1,7.995589E-1,1.3162477E0,2.1068445E-1,2.592869E-1,2.2705E1,1.3773483E-1,5.117662E-1,6.694098E-2,-2.1923272E-1,-3.7200975E-1,-2.5073603E-1,1.5625801E0,8.502767E2,1.1972092E0,1.6721569E0,5.45369E1,2.7371402E0,1.4190416E-2,6.2482666E1,-1.03327215E-1,2.1322154E-1,-3.3734012E-1,-3.6667624E-1,-2.8250968E-1,1.1395767E-2,-3.540881E-1,-2.4342334E-1,1.1091332E0,2.3761168E-1,3.46E-1,1.1335858E0,-3.2533202E-1,-2.4087556E-1,1.922895E-1,6.754027E-1,8.661667E1,5.031E2,3.3778E-1,3.56216E-1,-1.015036E-1,9.5219195E-1,8.34372E-1,1.2289438E0,2.2911103E-1,-5.4884862E-2,2.5535932E-1,7.1088547E-1,3.544E2,5.599008E2,-2.3284142E-1,2.258551E-2,1.0921886E0,4.9344227E-1,2.4769956E-1,7.033472E-1,-2.2414973E-1,1.4200965E0,2.3816244E-1,1.1147002E0,-2.760613E-2,4.0874615E-1,-2.769032E-1,-3.3974984E-1,3.007E0,3.848913E-1,5.606674E-1,-1.7104116E-1,3.0741704E0,1.622E1,-6.746813E-2,2.1991383E-1,2.513831E-1,6.970876E0,8.203832E-1,1.161539E0,-3.7418336E-1,1.2003291E-1,1.2206324E0,2.8125745E-1,-3.685476E-1,-2.8739855E-1,-3.1522837E-1,-1.6444695E-1,6.031856E-1,5.7172E1,3.834195E-1,-3.2842945E-2,1.242E1,1.7732397E-1,1.5086667E1,7.725E1,1.2193122E-1,4.9613056E-1,1.8145412E0,1.1748233E0,-2.8244185E-1,-3.6617678E-1,4.6808143E0,1.9620727E0,1.3940305E0,3.3046767E-1,3.469E2,1.0157843E0,5.923333E1,9E-2,-2.9804596E-1,-4.4437386E-2,7.085681E-3,9.5365906E-1,1.742E0,5.373207E-1,-1.1068403E-1,3.4610376E-1,4.0598464E-1,8.113021E-1,9.392331E-3,-1.7426349E-1,-3.8420823E-1,4.7432E2,2.3585558E-2,-3.16966E-1,1.6748445E-1,-1.3769476E-1,2.4457149E-1,-3.4122262E-2,1.5090746E-1,-5.1133145E-2,-1.4332588E-1,-3.487332E-1,-8.7784916E-2,-2.698515E-1,1.6947655E-1,2.0037342E-2],"split_indices":[5,2,43,1,4,5,89,43,31,55,89,22,2,24,5,4,87,14,64,64,1,35,99,24,5,108,87,32,82,55,88,0,0,32,96,35,108,4,16,101,73,61,5,0,0,76,89,61,74,89,61,91,5,108,76,71,47,8,31,69,73,110,83,88,88,0,0,1,2,0,0,76,59,0,0,0,0,35,82,99,4,35,108,54,52,11,16,49,88,0,0,0,0,76,23,15,2,0,0,64,64,0,0,47,29,0,0,57,71,0,0,35,31,80,50,7,32,0,0,101,83,0,0,2,77,64,35,61,61,4,74,0,0,57,11,47,50,0,0,33,35,0,0,0,0,89,52,4,54,0,0,66,2,0,0,108,31,0,0,17,4,0,0,63,55,65,47,0,0,32,55,0,0,24,85,0,0,47,54,54,64,0,0,0,0,98,35,0,0,0,0,0,0,0,0,110,43,0,0,0,0,101,4,0,0,0,0,95,2,0,0,85,14,87,108,0,0,1,23,0,0,84,32,2,52,82,69,0,0,24,57,51,14,0,0,0,0,0,0,0,0,0,0,0,0,88,75,35,16,0,0,54,53,0,0,0,0,86,5,0,0,17,0,47,89,0,0,77,2,59,4,0,0,0,0,65,70,0,0,0,83,0,0,0,0,0,0,0,0,0,0,69,12,43,18,50,90,84,23,86,52,49,96,1,2,0,0,0,0,0,0,18,15,35,4,0,0,0,0,0,0,108,14,0,0,0,0,66,8,0,0,0,0,0,0,57,52,0,0,29,57,23,1,0,0,0,0,0,0,0,0,0,0,42,57,0,0,0,0,16,25,47,42,0,0,0,0,0,0,0,0,24,82,0,0,0,0,4,70,0,0,0,0,0,0,0,0,108,76,0,0,63,64,0,0,42,101,0,0,0,0,0,0,0,0,0,0,0,96,0,0,9,73,54,1,0,0,0,0,0,0,0,0,0,0,2,0,1,47,0,0,0,0,32,59,0,0,0,0,0,0,0,2,0,0,0,0,0,0,0,0,0,0,0,0,0,0],"split_type":[0,0,0,0,0,0,0,0,0,0,0,0,0,0,0,0,0,0,0,0,0,0,0,0,0,0,0,0,0,0,0,0,0,0,0,0,0,0,0,0,0,0,0,0,0,0,0,0,0,0,0,0,0,0,0,0,0,0,0,0,0,0,0,0,0,0,0,0,0,0,0,0,0,0,0,0,0,0,0,0,0,0,0,0,0,0,0,0,0,0,0,0,0,0,0,0,0,0,0,0,0,0,0,0,0,0,0,0,0,0,0,0,0,0,0,0,0,0,0,0,0,0,0,0,0,0,0,0,0,0,0,0,0,0,0,0,0,0,0,0,0,0,0,0,0,0,0,0,0,0,0,0,0,0,0,0,0,0,0,0,0,0,0,0,0,0,0,0,0,0,0,0,0,0,0,0,0,0,0,0,0,0,0,0,0,0,0,0,0,0,0,0,0,0,0,0,0,0,0,0,0,0,0,0,0,0,0,0,0,0,0,0,0,0,0,0,0,0,0,0,0,0,0,0,0,0,0,0,0,0,0,0,0,0,0,0,0,0,0,0,0,0,0,0,0,0,0,0,0,0,0,0,0,0,0,0,0,0,0,0,0,0,0,0,0,0,0,0,0,0,0,0,0,0,0,0,0,0,0,0,0,0,0,0,0,0,0,0,0,0,0,0,0,0,0,0,0,0,0,0,0,0,0,0,0,0,0,0,0,0,0,0,0,0,0,0,0,0,0,0,0,0,0,0,0,0,0,0,0,0,0,0,0,0,0,0,0,0,0,0,0,0,0,0,0,0,0,0,0,0,0,0,0,0,0,0,0,0,0,0,0,0,0,0,0,0,0,0,0,0,0,0,0,0,0,0,0,0,0,0,0,0,0,0,0,0,0,0,0,0,0,0,0,0,0,0,0,0,0,0,0,0,0,0,0,0,0,0,0,0,0,0,0,0,0,0,0,0,0,0,0,0,0,0,0,0,0,0,0,0,0,0,0,0,0,0,0,0,0,0,0,0,0,0,0,0,0,0,0,0,0,0,0,0,0,0,0],"sum_hessian":[1.99617E5,1.29001E5,7.0616E4,4.3694E4,2.6922E4,3.1672E4,1.2022E4,1.27696E5,1.305E3,1.3276E4,1.8396E4,8.581E3,9.815E3,4.3774E4,8.3922E4,1.224E4,1.4682E4,6.06E3,5.962E3,7.1432E4,1.249E4,2.475E3,6.106E3,1.125E3,1.35E3,1.2902E4,1.78E3,5.714E3,3.46E2,2.12E2,1.34E2,5.7E2,7.8E2,3.0247E4,4.1185E4,3.0181E4,6.6E1,5.626E3,8.8E1,1.076E3,8.739E3,9.6E2,5.146E3,8.95E2,2.3E2,5.246E3,7.244E3,1.09E2,1.03E2,6.29E3,6.986E3,1.676E3,5.31E3,1.9579E4,2.1606E4,1.17E2,1.188E3,3.024E3,2.602E3,4.1647E4,2.127E3,6.289E3,6.613E3,2.6263E4,3.918E3,9.05E2,3.013E3,5.218E3,7.44E2,9.83E2,1.619E3,6.53E2,8.086E3,5.75E3,2.336E3,1.553E3,1.471E3,4.882E3,2.362E3,3.166E3,3.124E3,2.273E3,8.93E2,2.073E3,4.54E3,7E1,1.8E1,1.1605E4,7.974E3,3.06E3,4.914E3,2.74E3,2.406E3,7.69E2,5.52E3,1.654E3,3.592E3,7.422E3,4.183E3,4.859E3,2.3E1,2E0,2.1E1,1.509E3,2.71E2,9.7E1,7.96E2,1.024E3,2.1E3,9.98E2,1.275E3,1.52E2,1.19E2,5.904E3,6.336E3,1.3E1,1.641E3,5E0,8E0,1.126E3,5.5E2,2.4884E4,1.379E3,5.17E2,2.27E2,6.8E1,8.4E1,2.1392E4,2.14E2,1.071E3,5E0,4E3,8.59E2,2.65E2,5.04E2,3.348E3,1.192E3,1.672E3,1.676E3,2.008E3,3.21E3,1.626E3,1.5E1,7.02E2,3.69E2,5.59E2,1.449E3,6.69E2,5.19E2,1.562E3,5.38E2,1.293E3,8.34E2,3.3E1,7.6E1,2.625E4,1.5397E4,6.4E1,3.9E1,6.27E2,2.965E3,1.6388E4,5.004E3,1.2E1,5.4E1,5.663E3,6.73E2,5.01E2,1.52E2,4.31E2,1.642E3,7.6E1,4.83E2,3.663E3,1.647E3,1.322E3,3.25E2,4.54E2,3.8E2,2.06E2,3.13E2,5.3E1,1.7E1,7.54E2,2.7E2,6.29E2,8.8E2,7.19E2,2.41E2,9.52E2,2.013E3,6.26E2,5.66E2,1.6E1,2E0,2.729E3,2.791E3,4.04E2,2.325E3,3.6E1,1.8E1,1.2313E4,3.084E3,5.7E1,4.93E2,1.29E2,3.534E3,1.46E2,5.23E2,1.87E2,7.8E1,2.35E2,1.45E2,1.19E2,5.1E2,3E1,8.9E1,5.76E2,3.04E2,1.8E1,2.86E2,2.84E2,2.33E2,2.022E3,3.641E3,1.735E3,1.906E3,9.68E2,4.81E2,1.085E3,2.125E3,2.672E3,4.12E2,5.1E1,1.63E2,1.023E3,1.03E2,1.1E1,7.3E1,1.51E3,1.32E2,9E0,4.03E2,4.31E2,7.9E1,2.3556E4,2.694E3,4.22E2,2.51E2,3.79E2,7.06E2,1.74E2,2.48E2,1.235E3,1.556E3,5.5E1,1.3E1,4.517E3,7.796E3,5.7E2,1.336E3,3.1E2,3E0,5.725E3,1.79E2,1.93E2,5.5E1,5.9E2,7.03E2,1.38E2,8.9E1,1.76E2,5.7E1,2.9E1,1.16E2,1.403E3,9.59E2,6.537E3,1.259E3,1E0,1.33E2,5.69E2,5.8E1,1.24E2,9E0,5E0,7E0,1.5E1,4.89E2,2E0,9.57E2,2.96E2,1.4E1,2.08E2,3.15E2,1.346E3,1.348E3,6.56E2,4.7E1,1.826E3,1.96E2,2.362E3,2.1194E4,4.1E1,1.65E2,5E1,2.34E2,6.23E2,2.049E3,6.44E2,1.2E1,9E1,2.9E1,2.27E2,2.27E2,2.25E2,2E0,9.52E2,1.173E3,4.01E2,3E1,3.429E3,2.296E3,1.73E3,5E0,5E0,4.2E1,5.2E1,9.4E1,1.81E2,5.4E1,7.5E1,1.273E3,5.13E2,1.313E3,3.227E3,2.02E2,3.8E1,2.58E2,8.1E1,1.3E1,1.11E2,6E0,6.5E1,1.62E2,1.0867E4,1.0327E4,1.04E2,9.8E1,8.01E2,6.02E2,2.2E1,7E0,1.48E2,1.03E2,2.573E3,6.54E2,2.1E1,6.8E1,1.31E2,3.4E1,1.88E2,2E1,1E1,1E1,1.57E2,3.1E1,5.33E2,4.3E1,2.2E1,5.9E1,8E1,2.35E2,7.1E1,1.25E2,1.2E2,1.1E1,4.3E1,2.253E3,4.1E1,2E0,7E0,7E0,1.6E1,7.4E1,8E2,3.717E3,4.95E2,9.5E1,8E0,8.7E1,7E0,4.5E1,1.41E2,3.3E1,4.7E1,1.32E2,3.7E1,1.01E2,2.245E3,8E0,2.32E2,3E0,5E2,8.46E2,3.81E2,1.14E2,1E0,1.1E2,9E0,1.39E2,2.2E1,1.1E2,3.4E1,7E0,1.8E1,2.7E1,1.3E1,2.1E1,2.133E3,2.29E2,2E0,3E0,1.1E1,2E0,4E0,2E0,5E0,1.05E2,8.3E1,2E1,1E0,7.9E1,1.9E1,2.8E1,4E0,1.8E1,9E0,2.5E1,8.9E1,2.1E1,8.9E1,1.6E1,6E0,1E1,4E0,1.5E1,5E0,2E0,4E0,1E0,3E0,2.5E1,2E0,5E0,3E0,1E0],"tree_param":{"num_deleted":"0","num_feature":"111","num_nodes":"457","size_leaf_vector":"1"}},{"base_weights":[1.8184995E-3,-1.4011244E0,3.0584922E0,5.154883E0,-2.8201014E-1,6.3994946E0,1.7246741E0,-1.5130502E0,8.1394825E0,-2.6141803E0,-9.3714523E-1,-1.4196624E0,1.0475903E0,4.992336E0,8.268507E0,7.1267657E0,1.3457786E1,3.1709442E0,1.7868196E1,-1.030376E0,3.0438993E0,2.38719E-1,5.6588984E0,1.00293845E-1,4.171521E0,5.5887012E0,9.63007E0,2.356621E1,1.3977241E1,2.840057E0,-3.33505E-3,-1.4380575E0,2.124636E1,-2.3013937E0,1.2854587E-1,-6.746946E-1,-1.9150223E0,1.1372738E0,-1.9125173E0,-4.0454715E-1,7.4513907E0,5.473046E-1,2.0997864E1,2.8760138E1,-9.3165946E-1,3.7216554E0,1.0611844E1,9.925336E-1,2.6636627E0,7.644114E0,4.9278145E0,1.0933283E1,5.9828906E0,-2.768736E0,1.5429094E-1,-2.7797673E0,-1.3988901E0,-1.8153979E0,9.233701E0,1.0062695E0,1.9697086E1,-9.9444985E-1,4.955403E0,8.573049E-2,7.2261786E-1,-9.711532E-1,1.2975048E0,4.2316848E-1,-6.6239946E-2,1.7505834E0,5.7815657E0,1.9625653E0,-1.5270419E0,3.372778E0,2.8035918E-1,5.3746223E0,2.0253868E0,4.7350273E0,2.0980902E1,-3.0228803E-1,-1.1266383E-1,5.9741344E0,3.7211433E-1,-5.9569347E-1,5.8934007E0,1.8300116E0,2.725864E0,-2.0253102E-1,1.5587264E-1,4.488454E0,7.414354E0,5.390168E-1,1.3086724E0,2.5330883E-1,5.147182E-1,1.5081581E0,8.826749E-1,6.3261285E0,2.8417795E0,4.2800766E-1,6.966066E-1,-4.0134728E-1,1.8607601E0,-6.75298E-1,3.429942E0,2.2709171E1,5.020118E0,6.594761E0,4.8024273E-1,2.165814E0,1.7519653E1,4.4436643E-1,8.818418E-1,6.949436E0,1.1956424E1,3.0493595E1,4.7284513E0,1.2112502E0,1.919308E0,6.511992E1,1.659119E1,2.5878188E-1,2.285149E0,3.2342166E-1,7.8866553E-1,-8.321132E-2,-3.1328318E-1,4.396251E0,9.12468E-1,3.0028193E0,1.1862664E1,8.856047E0,-2.6008546E-1,8.45033E-3,2.623227E0,9.487011E0,-2.0157535E0,2.1089046E0,-1.36128E0,7.4097757E0,3.2100184E0,5.909113E0,1.484178E1,1.8986387E1,3.7644608E0,5.6063747E0,1.9873045E-1,9.501133E-1,3.1390026E0,9.158926E-1,2.6057136E-1,-2.9405384E0,-2.0581458E0,3.834183E1,1.0947954E1,-4.9400446E-1,3.4305172E0,1.591298E0,-7.3178285E-1,-2.7982396E-1,1.2508339E0,4.394666E-2,1.764481E0,3.13995E1,1.9461862E0,1.9582984E-1,4.6559832E-1,-1.7442439E0,9.266102E0,1.168725E0,3.1434646E0,4.4585177E-1,2.5094457E0,5.1579695E0,1.3491425E1,3.7222505E0,4.441294E-2,2.5320865E-2,2.7279093E0,4.4967494E0,1.6260376E1,-2.9080052E0,-1.6684006E0,1.3835425E0,-1.8424242E0,4.7038546E-1,-1.6313122E-1,6.878609E-1,1.3325112E-1,7.77964E-1,6.723592E0,3.1510368E-1,-1.2280437E0,-2.0201966E-2,-2.0561038E-1,-5.5690344E-2,2.2065233E-1,5.870399E0,-1.811017E0,1.7725061E-1,2.4172146E0,-1.4871322E-1,1.7418557E-1,2.4331105E0,6.586951E-1,2.310587E0,-8.531778E-1,9.828326E0,1.4279986E1,7.501192E-1,2.146485E0,2.0726838E0,8.720893E0,-3.0460296E0,-2.1874032E0,-2.534312E0,-8.32439E-1,-2.2709756E0,2.50528E-1,-2.3623753E-1,-5.012949E-2,3.9227116E0,8.0075E0,2.4991422E0,5.138437E0,2.670931E-1,7.0848924E-1,1.2233547E0,2.243018E0,-2.3342023E0,-1.1395186E0,7.9302967E-1,2.107164E-1,2.5742235E0,1.0717458E1,-1.8662021E0,2.9861355E0,-1.989293E-1,1.22505985E-1,3.3675454E0,2.1586238E-1,3.229378E-1,1.8061647E0,8.582438E0,2.2801745E0,6.7068105E0,1.0642787E1,-2.4239664E0,-1.1522465E0,-3.3427188E-1,5.1041108E-2,1.2138523E-1,4.6870217E-1,9.272213E-1,1.5755157E0,4.6473026E-1,9.8728555E-1,-1.1508582E0,2.8310802E0,2.7577188E0,1.8883441E-1,-2.0321064E-1,2.7562825E-2,5.623326E-1,1.5344919E0,-2.3467076E0,1.4599722E1,-4.1446528E-1,1.715313E0,3.1106079E0,2.9141786E0,-3.1701825E0,-1.8758754E0,8.919333E0,1.5159949E1,-1.9478374E0,-5.475523E-1,2.8881637E-2,-1.6660643E-1,-2.3843299E-1,8.431721E-2,2.6584837E0,8.523493E0,-2.609279E-1,3.972319E-1,2.159562E0,4.3374877E0,-1.9401531E-1,7.514668E-1,3.9097298E-2,3.7706944E-1,-9.173285E-3,-1.8841176E-1,1.191109E1,-2.249672E0,-3.2337236E0,-2.8513215E0,4.960251E0,-8.9429533E-1,-2.9439092E-1,-2.0925637E-1,-2.3522365E-1,-2.1337057E-2,1.7912508E0,5.4501045E-1,-1.4253762E-1,3.0720875E-1,-3.0692396E-1,-2.5827202E-1,2.9617279E0,1.4321401E0,-2.0902705E-1,-6.317905E-2,-2.4236597E-2,4.5729104E-1,2.3439677E-1,7.4118817E-1,-1.3743177E-1,6.0851663E-1,-2.257721E0,-7.952722E-1,-1.8553527E-1,-1.869615E-2,1.308857E0,2.825474E-1,7.6092943E-3,7.073521E-1,4.1764894E0,1.0567608E0,-2.8013186E0,2.004039E0,1.2603614E1,1.630344E1,1.8335793E0,1.394353E0,2.9488251E0,6.6707215E0,7.537565E-1,-1.0177845E-1,-4.6255353E-1,1.0800659E1,1.639537E-1,1.4241719E0,9.4722366E-1,3.6510906E-1,-6.9736265E-2,1.4754306E-1,-1.1077347E-2,7.116289E-1,8.158533E-1,-2.2576134E-1,1.2151585E-1,2.939299E-1,2.9360368E0,1.0047841E1,7.87633E-1,-3.2094696E-1,-2.6446357E0,-3.2836342E0,1.442272E0,3.927454E-2,7.9538934E-2,1.2106489E0,-2.5148935E0,-1.7946854E-1,-7.2956614E-2,9.629631E-1,-2.992677E0,-2.2872674E0,8.1776705E0,1.0699148E1,9.830162E0,1.2087806E0,-1.7097014E-1,5.521707E-1,-2.2237895E-1,-3.0559483E-1,1.0540096E0,1.1152999E0,-2.603699E0,-9.2964876E-1,9.2332137E-1,-1.2634455E-1,5.605638E-1,1.315273E0,-3.5684063E0,-2.8118498E0,3.6506003E-1,-1.2736362E-1,-2.9529247E-1,-5.8859706E-2,5.4107535E-1,9.277607E-1,-2.2963159E-1,7.8444636E-1,-2.174146E-1,3.0373716E-1,9.9904424E-1,-3.1735191E0,-3.249707E-1,-2.4923253E-1,-2.3787896E-1,-8.926024E-2,-3.04662E-1,-6.8347536E-2,6.370524E-1,1.1388104E0,-3.046877E-1,-1.9783077E-1,1.1581023E0,4.2704925E-1,-5.9192044E-1,5.5405664E0,4.7204094E0,1.3913095E0,-3.1345494E0,3.064086E-1,1.3392195E0,3.4974125E-1,1.0197586E0,1.2431227E0,1.2742407E-3,2.4696341E-1,-1.5108081E0,1.729998E0,-2.0181952E-1,3.3268175E-1,1.1799832E-1,-1.6974351E-1,3.6375526E-1,1.6430876E0,2.2649257E0,-1.2261748E0,-2.3954995E0,-3.6574814E-1,-2.7994435E0,-7.634199E-2,-3.5770115E-1,-7.430216E-2,2.3425417E0,3.807492E-1,5.035376E-1,3.1292725E-2,1.9282265E-1,6.599857E-1,-2.3603768E0,4.0874243E-1,-8.066981E-2,1.4098176E-1,7.515399E-2,2.77427E-1,-3.3564067E-1,-2.361319E-2,-2.4707304E-1,9.098458E-3,3.1893498E-1,1.0724013E0,-7.650837E-2,-2.8863814E-1,7.903688E-2,-7.019461E-2,-1.9947593E-1,-4.886548E-3,1.0783697E-2,-1.3276236E-1,-8.081083E-2,6.326101E-2,-5.6549776E-2,-2.6677224E-1,1.2688923E-1,1.4321876E-2,4.4624805E-3,5.6848884E-2],"categories":[],"categories_nodes":[],"categories_segments":[],"categories_sizes":[],"default_left":[1,1,1,1,1,0,0,0,1,1,1,1,0,1,1,0,0,1,0,1,0,1,0,1,0,0,0,0,0,0,1,1,0,0,1,1,0,1,1,0,1,0,0,0,1,0,1,0,0,0,0,0,0,1,1,1,0,0,0,0,1,1,1,0,0,1,0,0,0,1,0,0,0,0,0,0,0,0,0,0,0,0,1,0,0,0,0,0,0,1,0,0,0,0,0,0,0,0,1,0,0,0,0,1,0,0,0,0,0,0,0,0,0,1,0,0,0,0,0,0,0,0,0,0,0,0,0,1,1,1,0,0,0,0,0,0,0,0,0,1,0,0,1,0,0,0,0,0,0,0,0,1,1,0,0,1,0,1,0,0,0,0,0,0,1,0,0,1,0,0,0,0,0,0,0,0,0,1,0,0,0,0,0,0,1,0,0,0,0,0,1,0,0,0,0,0,0,1,1,0,0,0,0,0,0,0,0,1,1,0,0,1,0,0,0,1,0,1,1,0,0,1,0,0,0,0,0,0,0,0,1,0,0,1,0,0,0,0,0,0,0,0,0,0,0,0,1,1,0,0,0,0,0,0,0,0,0,1,0,0,0,0,0,0,0,1,0,1,0,0,0,0,1,0,1,1,0,0,0,0,0,1,0,0,0,0,0,0,0,0,0,0,0,0,0,1,0,0,0,0,0,0,0,0,1,0,0,0,0,0,0,0,0,0,0,0,0,0,0,1,1,0,0,0,0,0,0,0,0,0,0,1,0,0,0,0,0,0,0,0,0,0,0,0,0,0,0,0,0,0,0,0,0,0,0,0,0,0,1,0,0,0,0,1,1,0,0,1,1,0,0,0,0,0,0,0,0,0,0,0,0,0,0,0,0,1,0,0,0,0,0,0,0,0,0,0,0,1,0,0,0,0,0,0,0,0,0,0,0,0,0,0,0,0,0,0,1,0,0,0,0,0,0,0,0,0,0,0,0,0,0,0,0,0,0,0,0,0,0,0,0,0,0,0,0,0,0,0,0,0,0,0,0,0,0,0,0,0,0,0,0,0,0,0,0,0,0,0,0,0,0,0,0],"id":2,"left_children":[1,7,3,5,19,13,23,9,57,53,11,31,29,21,15,25,17,109,27,33,69,137,49,39,61,83,45,85,117,75,37,35,115,181,101,65,55,59,215,71,41,135,43,169,395,73,47,-1,-1,51,89,95,63,151,155,159,79,329,113,87,133,167,77,-1,-1,125,67,-1,-1,127,139,81,183,-1,-1,105,147,97,119,-1,-1,149,201,305,99,-1,-1,-1,-1,93,91,-1,-1,-1,-1,-1,-1,111,121,-1,-1,157,103,257,223,107,123,-1,-1,145,171,-1,-1,221,207,153,293,-1,-1,131,203,-1,-1,-1,-1,-1,-1,129,177,233,179,-1,-1,-1,-1,161,349,163,197,141,269,173,143,227,347,-1,-1,237,165,-1,-1,213,229,285,359,217,189,175,191,-1,-1,-1,-1,327,199,-1,-1,235,339,-1,-1,-1,-1,255,341,187,313,205,211,373,209,357,247,185,219,-1,-1,-1,-1,303,281,195,193,-1,-1,-1,-1,241,287,-1,-1,-1,-1,-1,-1,239,261,353,273,-1,-1,351,263,295,271,283,291,379,267,-1,-1,297,243,231,225,-1,-1,-1,-1,265,319,-1,-1,251,361,249,-1,-1,-1,-1,-1,-1,-1,245,413,315,253,363,275,-1,-1,-1,-1,-1,-1,-1,-1,301,259,-1,-1,-1,-1,-1,-1,299,429,345,289,309,-1,355,311,371,331,279,277,-1,-1,-1,-1,317,343,-1,-1,-1,-1,-1,-1,-1,-1,-1,-1,417,453,399,307,335,415,-1,-1,-1,-1,-1,325,-1,-1,-1,-1,323,-1,-1,-1,-1,-1,-1,-1,-1,-1,393,321,-1,-1,-1,-1,-1,-1,-1,-1,397,377,383,333,-1,-1,387,337,-1,-1,465,409,-1,-1,-1,-1,-1,-1,-1,-1,-1,-1,-1,-1,411,369,-1,-1,367,385,-1,-1,-1,-1,375,365,-1,-1,403,401,391,419,405,425,-1,-1,-1,-1,423,-1,407,381,-1,-1,-1,-1,437,389,-1,-1,-1,-1,-1,-1,-1,-1,-1,-1,431,433,-1,-1,-1,-1,-1,-1,-1,-1,-1,-1,-1,-1,463,443,441,421,451,427,-1,-1,-1,-1,-1,-1,445,439,-1,-1,-1,-1,-1,-1,455,461,435,-1,457,447,-1,-1,449,459,-1,-1,-1,-1,467,471,-1,-1,-1,-1,-1,-1,-1,-1,-1,469,-1,-1,-1,-1,-1,-1,-1,-1,-1,-1,-1,-1,-1,-1,-1,-1],"loss_changes":[8.562139E5,1.4614634E5,4.3986675E5,1.64749E5,6.028664E4,7.4432375E4,4.0842676E4,8.577472E4,1.7303656E4,1.9875594E4,8.505685E4,2.9819562E4,3.272072E4,5.119347E4,7.195575E4,3.8333125E4,9.939256E4,9.466367E3,3.368053E4,2.9124656E4,1.57423125E4,5.951553E3,2.0528094E4,2.2926697E4,1.6607914E4,1.1645203E4,2.1962688E4,1.15763125E4,8.657234E3,1.3245352E4,2.3849402E4,2.5991234E4,8.715021E3,3.616086E3,9.494468E3,1.6052938E4,1.960575E4,1.6649963E4,2.748711E3,1.5363527E4,3.7118336E4,6.068153E3,2.2836668E4,4.1531094E3,1.841365E2,1.4836207E4,3.5511375E4,0E0,0E0,2.0763516E4,1.1283781E4,1.1034734E4,1.6148289E4,5.3647812E3,5.2202705E3,4.6723906E3,1.2162363E4,6.005887E2,8.81068E3,1.140699E4,6.1500273E3,4.178238E3,1.247325E4,0E0,0E0,7.1708555E3,2.0636354E4,0E0,0E0,6.6991133E3,5.95109E3,1.1864957E4,3.6027344E3,0E0,0E0,9.478605E3,5.816584E3,1.0564406E4,8.219943E3,0E0,0E0,5.640369E3,3.3973235E3,8.899193E2,1.0159734E4,0E0,0E0,0E0,0E0,1.1329547E4,1.7772383E4,0E0,0E0,0E0,0E0,0E0,0E0,8.912469E3,8.102049E3,0E0,0E0,5.216675E3,9.644733E3,1.5490251E3,2.367787E3,2.368534E4,7.8122227E3,0E0,0E0,5.824913E3,4.142342E3,0E0,0E0,2.4665117E3,3.0786953E3,5.255992E3,1.1294656E3,0E0,0E0,6.5799805E3,3.32417E3,0E0,0E0,0E0,0E0,0E0,0E0,7.528044E3,3.6993955E3,2.0025776E3,3.6197021E3,0E0,0E0,0E0,0E0,4.3469204E3,5.253336E2,4.309421E3,3.4971555E3,9.648805E3,1.3400835E3,4.076668E3,6.6315527E3,2.190668E3,5.333422E2,0E0,0E0,2.001873E3,4.26625E3,0E0,0E0,2.807875E3,2.170379E3,1.2546875E3,4.344579E2,2.7153909E3,3.5412012E3,3.714808E3,3.5305852E3,0E0,0E0,0E0,0E0,6.3829834E2,3.481525E3,0E0,0E0,2.0022819E3,5.573755E2,0E0,0E0,0E0,0E0,1.5528535E3,5.5465625E2,3.5661558E3,8.504434E2,3.1017104E3,2.9426987E3,2.8933984E2,3.0756602E3,4.675625E2,1.7977852E3,3.8516128E3,2.4666377E3,0E0,0E0,0E0,0E0,8.9232837E2,1.3016797E3,3.6066672E3,3.9162842E3,0E0,0E0,0E0,0E0,1.9701047E3,1.2309036E3,0E0,0E0,0E0,0E0,0E0,0E0,1.9720544E3,1.4857126E3,4.894453E2,1.3223906E3,0E0,0E0,5.0250977E2,1.4320698E3,1.1263125E3,1.3277012E3,1.2781074E3,1.166746E3,2.680315E2,1.4101932E3,0E0,0E0,1.02399414E3,1.8804141E3,2.0504458E3,2.5121982E3,0E0,0E0,0E0,0E0,1.4293711E3,7.6114966E2,0E0,0E0,1.6699634E3,4.3139673E2,1.7702975E3,0E0,0E0,0E0,0E0,0E0,0E0,0E0,1.9535938E3,1.1056058E2,8.3470996E2,1.5916211E3,3.8180176E2,1.319523E3,0E0,0E0,0E0,0E0,0E0,0E0,0E0,0E0,9.196665E2,2.5374497E3,0E0,0E0,0E0,0E0,0E0,0E0,9.93125E2,4.0599E1,5.3353687E2,1.2288805E3,8.8224414E2,0E0,4.796621E2,8.81542E2,3.1117505E2,5.6623047E2,1.4456421E3,1.4607786E3,0E0,0E0,0E0,0E0,7.960533E2,5.43249E2,0E0,0E0,0E0,0E0,0E0,0E0,0E0,0E0,0E0,0E0,9.023865E1,6.433861E0,1.7926562E2,8.852344E2,5.583301E2,1.0048609E2,0E0,0E0,0E0,0E0,0E0,6.852003E2,0E0,0E0,0E0,0E0,7.1916113E2,0E0,0E0,0E0,0E0,0E0,0E0,0E0,0E0,0E0,1.9970386E2,9.77903E2,0E0,0E0,0E0,0E0,0E0,0E0,0E0,0E0,1.8139703E2,2.7507343E2,2.5674316E2,6.0284766E2,0E0,0E0,2.387439E2,6.074978E2,0E0,0E0,2.7818513E0,1.1361206E2,0E0,0E0,0E0,0E0,0E0,0E0,0E0,0E0,0E0,0E0,0E0,0E0,1.135436E2,3.1690234E2,0E0,0E0,3.4576953E2,2.5598047E2,0E0,0E0,0E0,0E0,2.7670898E2,4.0632672E2,0E0,0E0,1.7641992E2,1.7695947E2,2.2370947E2,8.433594E1,1.4843823E2,4.772328E1,0E0,0E0,0E0,0E0,5.6361103E1,0E0,1.2839478E2,4.2552985E2,0E0,0E0,0E0,0E0,2.727246E1,2.334961E2,0E0,0E0,0E0,0E0,0E0,0E0,0E0,0E0,0E0,0E0,3.6579556E1,3.453955E1,0E0,0E0,0E0,0E0,0E0,0E0,0E0,0E0,0E0,0E0,0E0,0E0,3.2320492E0,1.4059616E1,1.7859222E1,6.0916786E1,7.5668793E0,4.576561E1,0E0,0E0,0E0,0E0,0E0,0E0,1.2380317E1,1.9769936E1,0E0,0E0,0E0,0E0,0E0,0E0,5.398922E0,4.426834E0,4.3816376E1,0E0,4.866211E0,9.820703E0,0E0,0E0,9.591988E0,4.5462346E0,0E0,0E0,0E0,0E0,1.2496471E0,1.491307E-1,0E0,0E0,0E0,0E0,0E0,0E0,0E0,0E0,0E0,7.311506E-1,0E0,0E0,0E0,0E0,0E0,0E0,0E0,0E0,0E0,0E0,0E0,0E0,0E0,0E0,0E0,0E0],"parents":[2147483647,0,0,2,2,3,3,1,1,7,7,10,10,5,5,14,14,16,16,4,4,13,13,6,6,15,15,18,18,12,12,11,11,19,19,31,31,30,30,23,23,40,40,42,42,26,26,46,46,22,22,49,49,9,9,36,36,8,8,37,37,24,24,52,52,35,35,66,66,20,20,39,39,45,45,29,29,62,62,56,56,71,71,25,25,27,27,59,59,50,50,90,90,89,89,51,51,77,77,84,84,34,34,102,102,75,75,105,105,17,17,97,97,58,58,32,32,28,28,78,78,98,98,106,106,65,65,69,69,127,127,119,119,60,60,41,41,21,21,70,70,139,139,142,142,109,109,76,76,81,81,53,53,115,115,54,54,101,101,55,55,135,135,137,137,148,148,61,61,43,43,110,110,141,141,157,157,128,128,130,130,33,33,72,72,183,183,175,175,156,156,158,158,192,192,191,191,138,138,164,164,82,82,120,120,177,177,114,114,180,180,178,178,151,151,38,38,155,155,184,184,113,113,104,104,224,224,143,143,152,152,223,223,129,129,167,167,147,147,205,205,197,197,222,222,243,243,182,182,235,235,233,233,246,246,173,173,103,103,258,258,206,206,212,212,229,229,218,218,140,140,214,214,208,208,248,248,276,276,275,275,190,190,215,215,153,153,198,198,268,268,216,216,116,116,213,213,221,221,265,265,257,257,189,189,83,83,296,296,269,269,272,272,176,176,245,245,281,281,230,230,320,320,309,309,304,304,163,163,57,57,274,274,332,332,297,297,336,336,168,168,174,174,282,282,267,267,144,144,136,136,211,211,207,207,271,271,181,181,154,154,234,234,247,247,364,364,357,357,354,354,273,273,179,179,363,363,330,330,217,217,380,380,331,331,358,358,335,335,386,386,369,369,319,319,44,44,329,329,295,295,368,368,367,367,371,371,379,379,340,340,353,353,244,244,298,298,293,293,370,370,414,414,377,377,372,372,416,416,266,266,397,397,398,398,433,433,385,385,424,424,413,413,412,412,423,423,436,436,439,439,415,415,294,294,431,431,435,435,440,440,432,432,411,411,339,339,445,445,456,456,446,446],"right_children":[2,8,4,6,20,14,24,10,58,54,12,32,30,22,16,26,18,110,28,34,70,138,50,40,62,84,46,86,118,76,38,36,116,182,102,66,56,60,216,72,42,136,44,170,396,74,48,-1,-1,52,90,96,64,152,156,160,80,330,114,88,134,168,78,-1,-1,126,68,-1,-1,128,140,82,184,-1,-1,106,148,98,120,-1,-1,150,202,306,100,-1,-1,-1,-1,94,92,-1,-1,-1,-1,-1,-1,112,122,-1,-1,158,104,258,224,108,124,-1,-1,146,172,-1,-1,222,208,154,294,-1,-1,132,204,-1,-1,-1,-1,-1,-1,130,178,234,180,-1,-1,-1,-1,162,350,164,198,142,270,174,144,228,348,-1,-1,238,166,-1,-1,214,230,286,360,218,190,176,192,-1,-1,-1,-1,328,200,-1,-1,236,340,-1,-1,-1,-1,256,342,188,314,206,212,374,210,358,248,186,220,-1,-1,-1,-1,304,282,196,194,-1,-1,-1,-1,242,288,-1,-1,-1,-1,-1,-1,240,262,354,274,-1,-1,352,264,296,272,284,292,380,268,-1,-1,298,244,232,226,-1,-1,-1,-1,266,320,-1,-1,252,362,250,-1,-1,-1,-1,-1,-1,-1,246,414,316,254,364,276,-1,-1,-1,-1,-1,-1,-1,-1,302,260,-1,-1,-1,-1,-1,-1,300,430,346,290,310,-1,356,312,372,332,280,278,-1,-1,-1,-1,318,344,-1,-1,-1,-1,-1,-1,-1,-1,-1,-1,418,454,400,308,336,416,-1,-1,-1,-1,-1,326,-1,-1,-1,-1,324,-1,-1,-1,-1,-1,-1,-1,-1,-1,394,322,-1,-1,-1,-1,-1,-1,-1,-1,398,378,384,334,-1,-1,388,338,-1,-1,466,410,-1,-1,-1,-1,-1,-1,-1,-1,-1,-1,-1,-1,412,370,-1,-1,368,386,-1,-1,-1,-1,376,366,-1,-1,404,402,392,420,406,426,-1,-1,-1,-1,424,-1,408,382,-1,-1,-1,-1,438,390,-1,-1,-1,-1,-1,-1,-1,-1,-1,-1,432,434,-1,-1,-1,-1,-1,-1,-1,-1,-1,-1,-1,-1,464,444,442,422,452,428,-1,-1,-1,-1,-1,-1,446,440,-1,-1,-1,-1,-1,-1,456,462,436,-1,458,448,-1,-1,450,460,-1,-1,-1,-1,468,472,-1,-1,-1,-1,-1,-1,-1,-1,-1,470,-1,-1,-1,-1,-1,-1,-1,-1,-1,-1,-1,-1,-1,-1,-1,-1],"split_conditions":[4.2387857E2,7.212E2,4.91E-2,7.453333E1,9.8124835E2,7.2226666E2,2.9326944E2,1.28001E0,3.64E-1,1.9220926E2,1.6385767E1,8.7E0,7.4E1,3.441592E1,7.923333E1,1.0229956E3,3.147E0,3.8718E0,5.3275E1,5.1320815E-1,3.5384283E2,5.4025467E1,5.4096832E1,1E2,1.103E0,7.3E-1,4.15E0,1.0344318E3,1.1322476E3,5.406805E-1,2.9196072E1,9.795333E0,5.5922866E-1,2.588105E-1,1.926E0,1.03E0,2.0510827E-1,6.291E0,9.93311E-1,8.3666664E1,9.8149544E-1,8.69E1,2.66625E1,8.65E0,2.3890235E-1,1.4129257E0,7.183937E0,9.925336E-1,2.6636627E0,1.91E0,1.365E3,5.4752136E1,1.3729688E0,8.2507245E-2,2.752E1,8.22E0,3.0600104E-1,2.1319962E0,1.30011E3,9.52E-1,1.18E0,1.175448E2,6.883986E0,8.573049E-2,7.2261786E-1,2.4479166E1,3.7484214E-1,4.2316848E-1,-6.6239946E-2,2.2197E-2,2.54E-1,8.12E-1,9.9473E0,3.372778E0,2.8035918E-1,5.779861E1,2.0276009E2,8.77265E1,5.3951168E-3,-3.0228803E-1,-1.1266383E-1,2.49452E2,6.410298E-2,2.4551332E1,6.84469E2,1.8300116E0,2.725864E0,-2.0253102E-1,1.5587264E-1,1.4997537E0,2.9738266E2,5.390168E-1,1.3086724E0,2.5330883E-1,5.147182E-1,1.5081581E0,8.826749E-1,8.239375E1,6E0,4.2800766E-1,6.966066E-1,1.20952174E-1,1.989274E3,2.464E1,7.114306E1,4.964066E1,4.5266666E0,6.594761E0,4.8024273E-1,2.565618E1,4.863254E0,4.4436643E-1,8.818418E-1,1.3429022E2,2.7185E-1,8.21875E1,8.58725E0,1.2112502E0,1.919308E0,5.878057E2,1.3598694E0,2.5878188E-1,2.285149E0,3.2342166E-1,7.8866553E-1,-8.321132E-2,-3.1328318E-1,2.435E0,2.254E1,9E0,1.0671667E1,8.856047E0,-2.6008546E-1,8.45033E-3,2.623227E0,4.5236415E-1,9.7E1,2.6647604E1,1.9711165E-1,2.506E0,1.2866521E3,2.5196195E0,1.1814E2,2.9737847E0,3.3326098E-1,5.6063747E0,1.9873045E-1,5.46E0,1.6616133E0,9.158926E-1,2.6057136E-1,2.66E0,1.4013678E1,6.5576926E-2,1.4685132E-1,3.9140147E-1,2.9518187E-1,7.7574015E-2,4.172919E0,-2.7982396E-1,1.2508339E0,4.394666E-2,1.764481E0,2.4057245E0,2.26E1,1.9582984E-1,4.6559832E-1,7.21E0,2.055E1,1.168725E0,3.1434646E0,4.4585177E-1,2.5094457E0,2.073834E3,7.435308E-1,5.9323835E-1,6.609536E0,2.2197E-2,3.0278E-1,1.2E0,1.828E-1,3.643365E-1,9.8672264E1,2.3021333E2,2.275E-1,4.7038546E-1,-1.6313122E-1,6.878609E-1,1.3325112E-1,3.1258331E1,1.0097124E1,3.641179E2,1.532E1,-2.0201966E-2,-2.0561038E-1,-5.5690344E-2,2.2065233E-1,1.542E0,3.027E1,1.7725061E-1,2.4172146E0,-1.4871322E-1,1.7418557E-1,2.4331105E0,6.586951E-1,3.9188618E1,1.32E1,4.2216666E2,5.477926E2,7.501192E-1,2.146485E0,1.345E-1,1.14462746E2,1.386E1,3.6893333E1,8.1664133E-1,2.1025056E2,3.432E0,4.487E2,-2.3623753E-1,-5.012949E-2,3.622402E2,4.000175E2,1.31212E2,1.73592E-1,2.670931E-1,7.0848924E-1,1.2233547E0,2.243018E0,3.858334E0,8.894548E0,7.9302967E-1,2.107164E-1,7.3181816E1,1.9246E1,1.05E0,2.9861355E0,-1.989293E-1,1.22505985E-1,3.3675454E0,2.1586238E-1,3.229378E-1,1.8061647E0,3.56216E-1,3.021321E0,8.93E-1,2.9643333E1,3.831E2,1.366E1,-3.3427188E-1,5.1041108E-2,1.2138523E-1,4.6870217E-1,9.272213E-1,1.5755157E0,4.6473026E-1,9.8728555E-1,3.329164E1,1.9325E2,2.7577188E0,1.8883441E-1,-2.0321064E-1,2.7562825E-2,5.623326E-1,1.5344919E0,1.0621104E1,3.4969E1,3.1897275E2,2.0700551E2,4.6158478E-1,2.9141786E0,2.2E1,3.280176E2,7.443278E1,2.4303333E1,4.607E0,3.0944E-1,2.8881637E-2,-1.6660643E-1,-2.3843299E-1,8.431721E-2,1.956E2,1.5393058E1,-2.609279E-1,3.972319E-1,2.159562E0,4.3374877E0,-1.9401531E-1,7.514668E-1,3.9097298E-2,3.7706944E-1,-9.173285E-3,-1.8841176E-1,9.016666E0,9.076667E1,2.4114538E1,1.1500577E1,3.3309308E-1,5.2058E-1,-2.9439092E-1,-2.0925637E-1,-2.3522365E-1,-2.1337057E-2,1.7912508E0,3.43E0,-1.4253762E-1,3.0720875E-1,-3.0692396E-1,-2.5827202E-1,2.2795416E2,1.4321401E0,-2.0902705E-1,-6.317905E-2,-2.4236597E-2,4.5729104E-1,2.3439677E-1,7.4118817E-1,-1.3743177E-1,6.0851663E-1,7.0118575E0,7.3E-1,-1.8553527E-1,-1.869615E-2,1.308857E0,2.825474E-1,7.6092943E-3,7.073521E-1,4.1764894E0,1.0567608E0,5.24E1,3.3192356E0,1.948E1,9.687191E0,1.8335793E0,1.394353E0,1.1581239E3,4.114E0,7.537565E-1,-1.0177845E-1,1.388E1,3.3689355E2,1.639537E-1,1.4241719E0,9.4722366E-1,3.6510906E-1,-6.9736265E-2,1.4754306E-1,-1.1077347E-2,7.116289E-1,8.158533E-1,-2.2576134E-1,1.2151585E-1,2.939299E-1,1.4570092E1,3.0103683E2,7.87633E-1,-3.2094696E-1,2.3450525E-2,4.0719262E-1,1.442272E0,3.927454E-2,7.9538934E-2,1.2106489E0,8.55E1,4.77292E0,-7.2956614E-2,9.629631E-1,2.5604166E2,3.839E0,1.5426512E-1,8.606E2,2.956E2,1.961E0,-1.7097014E-1,5.521707E-1,-2.2237895E-1,-3.0559483E-1,1.9642335E-1,1.1152999E0,1.406E1,3.0572187E-2,9.2332137E-1,-1.2634455E-1,5.605638E-1,1.315273E0,2.124E1,1.2132863E3,3.6506003E-1,-1.2736362E-1,-2.9529247E-1,-5.8859706E-2,5.4107535E-1,9.277607E-1,-2.2963159E-1,7.8444636E-1,-2.174146E-1,3.0373716E-1,6.65E-1,1.587E1,-3.249707E-1,-2.4923253E-1,-2.3787896E-1,-8.926024E-2,-3.04662E-1,-6.8347536E-2,6.370524E-1,1.1388104E0,-3.046877E-1,-1.9783077E-1,1.1581023E0,4.2704925E-1,2.866E1,1.892E1,3.5729404E2,1.14656046E-1,8.322113E2,1.653E0,1.3392195E0,3.4974125E-1,1.0197586E0,1.2431227E0,1.2742407E-3,2.4696341E-1,1.185E1,5.69E1,-2.0181952E-1,3.3268175E-1,1.1799832E-1,-1.6974351E-1,3.6375526E-1,1.6430876E0,4.6344E1,2.3374203E1,1.03654705E-1,-3.6574814E-1,5.792844E0,5.1E-1,-3.5770115E-1,-7.430216E-2,7.163E-2,7.864034E1,5.035376E-1,3.1292725E-2,1.9282265E-1,6.599857E-1,7.57E0,1.456E1,-8.066981E-2,1.4098176E-1,7.515399E-2,2.77427E-1,-3.3564067E-1,-2.361319E-2,-2.4707304E-1,9.098458E-3,3.1893498E-1,2.296E1,-7.650837E-2,-2.8863814E-1,7.903688E-2,-7.019461E-2,-1.9947593E-1,-4.886548E-3,1.0783697E-2,-1.3276236E-1,-8.081083E-2,6.326101E-2,-5.6549776E-2,-2.6677224E-1,1.2688923E-1,1.4321876E-2,4.4624805E-3,5.6848884E-2],"split_indices":[5,3,110,90,48,86,88,42,30,48,5,30,1,3,17,5,35,34,1,4,87,84,81,14,33,30,30,5,5,76,89,60,57,4,34,34,4,35,57,1,55,3,88,11,67,63,95,0,0,30,28,89,4,67,0,35,79,59,3,30,30,79,30,0,0,88,57,0,0,53,45,33,8,0,0,100,5,1,67,0,0,48,67,56,5,0,0,0,0,4,84,0,0,0,0,0,0,96,33,0,0,45,52,0,100,13,34,0,0,12,95,0,0,83,42,96,6,0,0,5,61,0,0,0,0,0,0,35,0,29,6,0,0,0,0,55,13,98,21,35,5,76,53,93,71,0,0,3,4,0,0,30,5,55,22,4,42,30,35,0,0,0,0,74,10,0,0,34,11,0,0,0,0,3,59,76,63,52,42,0,42,43,81,3,4,0,0,0,0,79,95,87,11,0,0,0,0,4,0,0,0,0,0,0,0,88,9,78,24,0,0,44,79,6,26,20,85,30,3,0,0,5,84,84,42,0,0,0,0,66,99,0,0,100,0,30,0,0,0,0,0,0,0,42,61,4,54,25,54,0,0,0,0,0,0,0,0,79,84,0,0,0,0,0,0,101,9,85,85,45,0,1,89,100,54,30,42,0,0,0,0,24,99,0,0,0,0,0,0,0,0,0,0,11,1,101,101,42,4,0,0,0,0,0,34,0,0,0,0,88,0,0,0,0,0,0,0,0,0,57,4,0,0,0,0,0,0,0,0,14,59,0,93,0,0,48,34,0,0,0,85,0,0,0,0,0,0,0,0,0,0,0,0,99,87,0,0,67,43,0,0,0,0,1,63,0,0,82,33,45,25,25,4,0,0,0,0,71,0,54,4,0,0,0,0,30,5,0,0,0,0,0,0,0,0,0,0,33,8,0,0,0,0,0,0,0,0,0,0,0,0,0,0,5,67,3,33,0,0,0,0,0,0,6,12,0,0,0,0,0,0,1,0,71,0,101,21,0,0,44,100,0,0,0,0,0,0,0,0,0,0,0,0,0,0,0,0,0,0,0,0,0,0,0,0,0,0,0,0,0,0,0,0],"split_type":[0,0,0,0,0,0,0,0,0,0,0,0,0,0,0,0,0,0,0,0,0,0,0,0,0,0,0,0,0,0,0,0,0,0,0,0,0,0,0,0,0,0,0,0,0,0,0,0,0,0,0,0,0,0,0,0,0,0,0,0,0,0,0,0,0,0,0,0,0,0,0,0,0,0,0,0,0,0,0,0,0,0,0,0,0,0,0,0,0,0,0,0,0,0,0,0,0,0,0,0,0,0,0,0,0,0,0,0,0,0,0,0,0,0,0,0,0,0,0,0,0,0,0,0,0,0,0,0,0,0,0,0,0,0,0,0,0,0,0,0,0,0,0,0,0,0,0,0,0,0,0,0,0,0,0,0,0,0,0,0,0,0,0,0,0,0,0,0,0,0,0,0,0,0,0,0,0,0,0,0,0,0,0,0,0,0,0,0,0,0,0,0,0,0,0,0,0,0,0,0,0,0,0,0,0,0,0,0,0,0,0,0,0,0,0,0,0,0,0,0,0,0,0,0,0,0,0,0,0,0,0,0,0,0,0,0,0,0,0,0,0,0,0,0,0,0,0,0,0,0,0,0,0,0,0,0,0,0,0,0,0,0,0,0,0,0,0,0,0,0,0,0,0,0,0,0,0,0,0,0,0,0,0,0,0,0,0,0,0,0,0,0,0,0,0,0,0,0,0,0,0,0,0,0,0,0,0,0,0,0,0,0,0,0,0,0,0,0,0,0,0,0,0,0,0,0,0,0,0,0,0,0,0,0,0,0,0,0,0,0,0,0,0,0,0,0,0,0,0,0,0,0,0,0,0,0,0,0,0,0,0,0,0,0,0,0,0,0,0,0,0,0,0,0,0,0,0,0,0,0,0,0,0,0,0,0,0,0,0,0,0,0,0,0,0,0,0,0,0,0,0,0,0,0,0,0,0,0,0,0,0,0,0,0,0,0,0,0,0,0,0,0,0,0,0,0,0,0,0,0,0,0,0,0,0,0,0,0,0,0,0,0,0,0,0,0,0,0,0,0,0,0,0,0,0,0,0,0,0,0,0,0,0,0,0,0,0,0,0,0,0,0,0],"sum_hessian":[1.99659E5,1.36849E5,6.281E4,3.8591E4,2.4219E4,2.8316E4,1.0275E4,1.35263E5,1.586E3,4.6449E4,8.8814E4,7.1445E4,1.7369E4,1.6156E4,1.216E4,9.969E3,2.191E3,6.58E2,1.533E3,1.9771E4,4.448E3,1.987E3,1.4169E4,6.176E3,4.099E3,6.177E3,3.792E3,6.2E2,9.13E2,6.419E3,1.095E4,7.1388E4,5.7E1,9.429E3,1.0342E4,2.7453E4,4.3935E4,6.855E3,4.095E3,5.78E3,3.96E2,2.63E2,1.33E2,9.8E1,3.5E1,5.41E2,3.251E3,3.119E3,1.32E2,3.811E3,1.0358E4,1.277E3,2.534E3,4.3993E4,2.456E3,1.642E4,2.7515E4,1.57E2,1.429E3,6.808E3,4.7E1,5.4E2,3.559E3,4.95E2,2.039E3,2.3866E4,3.587E3,1.436E3,2.151E3,3.022E3,1.426E3,1.859E3,3.921E3,1.5E1,5.26E2,1.56E3,4.859E3,3.512E3,4.7E1,3.949E3,2.3566E4,5.27E2,1.332E3,2.9E2,5.887E3,2.58E2,3.62E2,1.049E3,5.759E3,8.805E3,1.553E3,1.146E3,4.07E2,2.22E3,6.585E3,4.28E2,8.49E2,1.907E3,1.605E3,2.353E3,3.534E3,7.92E3,2.422E3,9.26E2,1.496E3,3E1,1.53E3,8E0,2.2E1,6.16E2,4.2E1,1.088E3,8.19E2,7.79E2,6.5E2,3.6E1,2.1E1,6.75E2,2.38E2,3E0,4.4E1,1.586E3,1.9E1,9.44E2,5.86E2,2.2425E4,1.441E3,7.26E2,2.296E3,6.13E2,1.13E2,2E0,1E0,1.2E1,3.5E1,5.8E1,2.05E2,9.16E2,1.071E3,8.72E2,5.54E2,7.27E2,1.45E2,1.05E2,4E1,1E0,6.15E2,2.473E3,2.386E3,2.7E2,2.57E2,3.5425E4,8.568E3,2.5E1,1.1E1,2.051E3,4.05E2,1.126E3,6.794E3,1.6401E4,1.9E1,2.8E1,3E1,4E0,9.12E2,1.343E3,1.043E3,5.04E2,3.6E1,1.4E1,8.4E1,1.6E1,2.6E1,6.63E2,6.4E1,4.73E2,6.53E2,1.543E3,7.53E2,4.3E1,7E1,4.813E3,4.616E3,3.83E2,3.538E3,1.82E2,2.01E2,2.03E2,2.7E2,2.25E2,1.8E2,2.185E3,4.609E3,2.059E3,2.55E3,1.496E3,6.89E2,6.2E1,1.009E3,9.06E2,6E0,5.65E2,7.67E2,2.4E1,2E1,4.28E2,1.115E3,3.42E2,3.08E2,2.7E1,4.3E1,6.8E2,7.3E1,3.107E4,4.355E3,2.598E3,1.497E3,6.05E2,1.446E3,2.549E3,9.89E2,2.03E2,5.76E2,9.7E2,5.26E2,2.33E2,2.93E2,3.7E1,6.8E1,6.587E3,1.981E3,6.4E1,9.06E2,5.82E2,3.1E1,5.03E2,1E0,2.11E2,2.262E3,1E0,4.27E2,5.2E1,1E1,5.23E2,5.3E1,2.76E2,2.47E2,1.872E3,2.744E3,3.1E2,1.93E2,3.55E2,2.27E2,1.97E2,5E1,6E2,6.3E1,8.16E2,1.1E2,3E0,1.07E2,5.45E2,5.7E2,5.1E1,2.2E1,6.583E3,4E0,9.95E2,4.51E2,5.53E2,1E0,1.046E3,3.309E3,4.5E1,2.63E2,1.184E3,1.56E3,8.93E2,6.67E2,1.024E3,1.6E2,5.6E1,1.24E2,2.569E3,2.9E1,7E0,1.8E1,9.96E2,1.3E1,2.75E2,1.76E2,8.79E2,6.18E2,1E1,1.1E1,1.5812E4,1.5258E4,1.67E2,3.6E1,1.962E3,4.621E3,3.57E2,4.59E2,2E0,2.23E2,2.37E2,5.3E1,8.418E3,6.84E3,5.47E2,6E0,2.822E3,4.87E2,6.15E2,3.8E1,3.9E1,2.37E2,2.6E1,3E1,4.65E2,1.516E3,5.52E2,9.64E2,6E0,5.41E2,2.09E2,1.4E1,2E0,2E0,1.25E2,3.2E1,8.5E1,1.78E2,9.2E1,8.6E1,7.8E1,8.9E1,8E1,9E0,5E0,3.1E1,4E0,6E1,1.03E2,2.1E1,8.66E2,1.29E2,1.9E1,2.1E1,4E0,2.01E2,3.43E2,3.37E2,1.1E1,3.31E2,3E0,1.043E3,2.834E3,1.979E3,8E0,3E0,4E0,2.7E1,1.799E3,7.3E1,7E1,3E0,1.432E3,1.402E3,8.9E1,2.42E2,4E1,5E0,6E0,3.7E1,1.173E3,6.26E2,3E1,2E0,4.84E2,1.21E2,3E0,1.18E2,7E0,7.8E1,1.23E3,7.49E2,6.7E1,1.1E1,7.04E2,4.5E1,2.7E1,6.2E1,4.64E2,1E0,2.7E1,8E0,1.1E1,1.14E2,1.5475E4,3.37E2,1.315E3,8.7E1,1.399E3,3.3E1,1.4E1,2.6E1,2.81E2,2.03E2,2.7E1,4E0,5E0,6E0,1.3E1,4E1,1.2E1,2.4E1,8E0,2E0,1.93E2,4.9E1,1.8E1,2.2E1,6E0,2.4E1,2E0,3E0,1.7E1,7E0,1E0,3E0,7E0,4E0,4.6E1,6.8E1,3.9E1,7E0,1.226E3,4E0,1.6E1,8E0,1.2E1,1E0,2E0,4E0,4E0,2E0,5E0,2E0,4E0,1.2E1,1.1E1,1E0,1E1,1E0,3E0,4E0,2E0,3.7E1,6E0,2E0,2E0,2E0,3E0,2E0,4E0,1E0,1E0,3E0,3E0,1E0,1E0,1E0],"tree_param":{"num_deleted":"0","num_feature":"111","num_nodes":"473","size_leaf_vector":"1"}},{"base_weights":[7.974548E-3,-1.2958587E0,2.7114766E0,4.5922313E0,-2.818125E-1,5.625807E0,1.2923434E0,-1.3920969E0,7.541458E0,-2.3572311E0,-8.905433E-1,4.307896E0,7.1893325E0,8.297935E-1,-1.3038673E0,6.3755026E0,1.2349844E1,-9.577019E-1,2.839739E0,1.0235996E1,2.4387173E1,-9.156491E-2,4.9395885E0,6.063104E-1,6.907769E0,6.4418697E0,1.9251974E1,3.1591692E0,-3.8574255E-1,9.288222E-1,5.5638605E-1,-2.101442E0,4.0408827E-2,7.2624965E0,4.2383146E0,1.1698188E1,5.535095E0,2.343099E0,-2.4645202E-2,-1.8485295E0,-7.374491E-1,-7.9667246E-1,1.3724158E1,-2.7894175E-1,-2.1206965E0,3.8685656E-1,-4.934622E-2,-2.0238988E0,1.2870773E0,9.150377E-1,-1.8769277E0,2.3074214E0,5.066898E0,-2.4918802E0,3.5330963E-1,2.465028E0,8.256138E0,9.058777E-1,2.14972E1,-8.2199115E-1,6.8045564E0,-1.400366E0,3.419632E0,1.8315402E-1,2.1356895E0,-2.109548E0,8.568675E0,7.524388E0,2.3669016E0,8.24725E0,7.0471877E-1,-2.5797656E0,-1.322513E0,5.721065E-1,2.575965E-1,8.228791E-1,1.9188221E1,-1.3762218E0,3.6658237E0,-1.0030852E-2,4.122099E-1,5.299117E0,1.8577237E0,3.1856089E0,1.0348327E1,8.664282E-1,1.5399293E0,2.556072E1,8.0442705E0,4.5069118E0,1.6145353E0,-1.0417187E-1,1.4841837E-1,8.338734E0,1.3101531E1,-1.1309979E0,6.851899E-1,1.6973885E1,2.8264376E1,4.0503974E0,2.309672E0,-1.8167248E0,7.3913145E-1,5.421929E0,1.429657E1,3.4675854E-1,4.528031E-2,-8.093336E-2,-2.2107902E-1,6.249919E0,1.084276E1,4.9462995E-1,-1.487059E-1,2.0636053E1,4.2377796E0,4.398517E0,-8.514796E-2,8.650252E-1,4.6603662E-1,5.008576E-1,4.718123E0,8.485932E-1,3.8478415E0,1.287211E-1,2.257671E0,7.744671E0,-2.374102E-1,2.137654E0,1.1910769E0,1.2738558E0,2.8877518E0,7.8375764E0,2.0887901E1,2.3266435E0,2.9033822E-1,3.926554E0,-2.214594E-1,-2.608191E-1,6.9052136E-1,-2.6005325E-1,-1.0418036E-1,1.5810956E0,6.869625E0,2.8115934E-1,6.5192574E-1,1.9213484E1,9.337153E0,5.1986134E-1,4.7099147E0,-7.249096E-1,2.0417259E0,1.1425021E0,-1.7946993E0,1.6371796E-1,5.3285623E0,-2.7323055E0,-2.0792902E0,2.240867E1,3.9716113E0,1.7035052E0,7.857044E-1,8.134414E-1,1.7639357E-1,-2.6258057E-1,3.1880507E0,8.178649E-1,-9.1333145E-1,-5.6815505E-2,2.1040796E-1,-1.1905207E-1,2.2653782E-1,-1.9985506E-1,1.7580986E-1,3.3701134E0,1.0422876E1,-2.7918136E-1,3.3305702E-1,1.2328714E0,3.9356482E0,3.7598988E-1,3.3620012E0,-1.5373789E0,-2.6901047E0,7.1640354E-1,2.1853669E0,-9.348001E-2,2.384418E0,3.334958E-1,5.953063E0,7.3292874E-2,2.6386872E-1,8.704615E0,1.3026631E1,-1.1660061E0,1.8485077E1,6.6456795E-1,8.329948E0,-1.9179009E0,5.110811E0,1.3046346E0,4.470139E0,5.921408E0,1.5009735E0,7.2382396E-1,1.9346981E0,2.653063E0,3.8710077E0,8.776279E0,3.0732018E1,-2.2502408E0,-1.3316817E0,-1.9793216E0,-6.001228E-1,3.6042464E0,7.392509E0,1.2970122E0,2.5427816E0,-2.6499942E-1,2.8548274E-2,4.7507843E-1,2.0551383E0,1.3729692E0,5.0943065E-1,-1.2852342E0,7.731696E-1,-2.3690038E0,-8.4997344E-1,-2.8674011E0,-8.932526E-1,-7.9193145E-1,-2.4188416E0,9.8037654E-1,-9.625641E-2,6.1582755E-2,-1.235698E-1,3.117738E0,1.0232172E1,1.044577E-1,8.475405E-1,-2.4203746E0,-1.5464045E0,-1.2914173E-1,9.87386E-2,2.9460208E0,-8.683757E-1,-1.1927278E0,9.1738546E-1,3.199168E0,8.249133E-2,-1.9852298E-1,2.0444193E-1,7.315586E0,8.154059E-1,1.2330244E0,1.816651E-1,3.746934E-2,3.6221334E-1,-1.9112717E0,4.0485512E-2,-2.550777E-1,9.01847E-2,-2.2069836E0,-2.7579993E-1,-2.8051126E0,-2.090546E0,4.4123898E0,7.0961314E-1,-1.3624771E0,1.1893764E1,-2.7249657E-2,2.4945989E0,5.459572E-1,1.3430372E0,-9.167136E-2,1.5786938E-1,4.211099E0,8.191619E0,-2.4027155E-1,9.8022145E-1,-1.8529478E-1,1.3983912E-3,5.7960076E0,6.8685496E-1,7.9492726E0,2.1205538E1,-2.8372356E-1,-1.2594298E-1,-2.462771E-1,-1.0767754E-1,5.3095825E-2,4.1082445E-1,2.5922782E0,2.0540412E-1,-1.9220057E-1,-2.5880164E-1,2.5794817E-2,5.4282475E-1,-1.8671826E0,1.1089365E0,7.495386E0,1.3544972E1,-1.5843494E-1,-2.658542E-1,-2.363911E0,-1.0169873E0,2.838222E-3,-2.209457E-1,1.0425633E0,1.6697995E-1,7.447023E-2,1.2577443E0,-2.1799734E-1,9.514185E-2,2.3574057E-1,4.8317513E-1,-1.6265934E-2,8.897772E-1,4.6909537E0,3.799933E-1,1.3946538E-1,-2.2451222E-1,8.4963244E-1,4.348432E-1,-2.307541E0,-2.8574698E0,-3.1134397E-1,7.686449E-1,-1.1216277E-1,5.299888E-2,3.1625173E0,8.0894274E-1,-3.776002E-1,9.759625E0,-1.11589566E-1,8.433399E-1,-2.4566355E-1,2.5224103E-2,-4.310966E-2,8.349288E-1,-2.6415908E-1,-1.1248517E-1,-1.287276E-1,7.405828E-1,5.522714E0,5.7566595E-1,1.1541414E0,6.383476E-1,-2.9833993E-1,-2.6914927E-1,1.7331462E-1,1.5303868E0,-7.301423E-1,-2.1939456E0,-1.6428366E-2,-2.4022937E-1,-2.9987364E0,-2.378869E0,-2.9837215E0,-1.9868716E0,1.2341632E1,1.5321144E1,1.9295682E-1,6.5131867E-1,6.389965E0,9.409732E0,6.984397E0,9.499854E0,-3.021574E-1,1.7457877E-1,-2.2884057E-1,-1.0817715E-1,7.3917747E-1,1.2876543E0,-1.1275053E-1,1.5865879E-1,-2.0113163E-1,4.6804723E-1,8.698546E-1,4.5163438E-1,-1.6555248E-1,2.489095E-1,1.4746449E0,-2.6845424E0,-2.4502933E-1,1.10328436E-1,6.0648376E-1,-1.3743274E-1,1.653267E-1,-2.9004508E-1,6.7490983E-1,-1.6885249E-2,-2.5546784E0,-3.2358136E0,1.9237775E0,5.269764E0,9.6421576E-1,1.5829093E0,-2.2176853E-1,1.7383486E-1,3.2167354E-1,9.6079344E-1,1.5103335E0,-1.9695303E0,-2.6397192E-1,-6.2463205E-2,6.0487967E0,1.2273611E0,-3.1174126E-1,-2.2366679E-1,2.191681E0,7.239826E0,6.3893604E-1,3.3124024E-1,9.598403E0,3.2045808E-1,9.0900147E-1,1.1633445E0,7.3792994E-1,8.446614E-3,-2.8804994E-1,2.5413963E-1,5.635756E-1,4.0881616E-1,6.591497E-1,-1.2816985E-2,1.4159775E0,4.1524917E-1,-5.3988576E-2,2.3520167E-1,2.9218307E-1,-2.9933584E-1,5.9978306E-1,-2.8312788E0,-8.832654E-2,5.305037E-1,-1.5537078E0,1.62053E0,1.8147896E-1,1.0985636E0,-3.0351815E-1,-1.3574498E-3,-2.1614969E0,-3.341703E-1,-2.4393058E0,4.2122403E-1,-9.7745016E-2,2.8827778E-1,-8.663236E-2,1.2815788E-1,-2.5218263E-1,-3.608916E-2,-3.2384738E-1,-8.04859E-2,-2.414578E-1,-3.0441076E-1,1.9373035E-1,1.3003238E-2,-4.582053E-1,1.2433286E0,4.964315E-2,1.74201E-1,-5.4040994E-2,-4.560773E-3,-5.4902162E-2,-1.3828635E-2],"categories":[],"categories_nodes":[],"categories_segments":[],"categories_sizes":[],"default_left":[1,1,1,1,1,0,1,0,1,1,0,1,0,0,0,0,1,1,1,0,0,1,0,0,1,0,1,1,1,0,0,1,1,0,0,0,0,0,1,1,1,1,0,0,0,0,0,1,0,1,1,0,1,1,1,0,1,0,0,1,0,1,0,0,0,0,1,0,1,0,0,1,0,0,0,0,0,0,0,0,0,1,1,0,0,0,0,0,1,0,0,0,0,0,0,1,0,0,0,0,0,0,0,0,0,0,0,0,0,1,0,0,0,0,0,0,0,0,0,0,0,0,0,0,1,0,0,0,0,0,0,0,1,0,0,0,1,0,0,0,0,0,0,0,0,0,0,0,0,1,0,1,1,1,1,1,1,0,0,0,0,0,0,0,1,0,1,0,0,0,0,0,0,1,0,0,0,1,0,0,0,0,0,0,0,1,1,1,0,0,0,0,1,0,0,0,0,1,0,0,0,0,0,0,0,0,0,0,0,1,0,1,0,1,1,0,0,0,0,0,0,0,0,0,1,1,0,0,0,0,1,0,0,0,0,0,0,0,0,0,1,0,0,0,0,1,0,0,0,0,0,0,0,0,0,0,0,1,0,0,0,0,0,0,1,0,0,0,0,1,1,0,0,0,0,0,1,0,0,0,0,0,0,0,0,0,0,0,0,0,0,0,0,0,0,0,0,1,0,0,0,0,0,1,1,0,0,0,0,0,0,0,0,0,0,0,0,0,1,0,0,0,0,1,0,0,0,0,0,0,0,0,0,0,0,0,0,0,0,0,0,0,0,0,0,0,0,0,0,0,0,1,1,0,0,0,1,0,1,0,0,0,0,0,0,0,0,0,0,0,0,0,0,0,0,0,0,0,0,0,0,0,0,0,0,0,0,0,0,0,0,1,1,1,1,0,0,0,0,0,0,0,1,0,0,0,0,0,0,0,0,0,0,0,0,0,0,0,0,0,0,0,0,0,0,0,0,0,0,0,0,0,0,0,0,0,0,0,0,0,0,0,0,0,1,0,0,0,0,0,0,0,0,0,0,0,0,0,0,0,0,0,0,0,0],"id":3,"left_children":[1,7,3,5,17,11,27,9,65,53,13,21,15,37,39,23,19,31,81,93,97,151,33,125,25,29,63,55,59,-1,-1,181,95,35,51,85,117,89,49,47,41,43,131,45,139,-1,-1,71,77,75,225,105,73,155,163,61,57,119,87,101,195,197,67,-1,-1,381,109,69,79,-1,-1,137,107,-1,-1,91,141,217,111,-1,-1,83,121,199,103,-1,-1,129,147,113,149,-1,-1,159,127,193,123,203,99,-1,-1,229,135,157,145,-1,-1,-1,-1,213,191,-1,-1,115,143,-1,-1,-1,-1,175,-1,185,173,165,177,345,273,-1,-1,-1,-1,133,215,-1,-1,161,169,-1,-1,-1,-1,-1,-1,-1,-1,183,221,-1,-1,305,189,153,297,171,219,263,209,291,295,-1,-1,-1,-1,223,187,167,241,-1,-1,-1,-1,-1,-1,235,207,-1,-1,237,179,-1,-1,211,355,-1,-1,245,243,349,251,-1,-1,365,299,227,205,331,363,259,253,281,201,271,397,-1,-1,433,-1,307,265,239,267,261,257,317,275,-1,-1,-1,-1,-1,-1,-1,-1,351,269,277,279,367,233,231,339,-1,-1,-1,-1,255,309,-1,-1,293,285,-1,-1,313,379,249,247,-1,-1,-1,-1,325,389,-1,-1,-1,-1,375,327,-1,-1,301,337,323,303,-1,-1,287,425,315,289,-1,-1,-1,-1,393,283,-1,-1,-1,-1,341,319,321,329,-1,-1,-1,-1,-1,-1,-1,-1,-1,-1,-1,-1,311,-1,405,359,-1,-1,335,333,-1,-1,-1,-1,-1,-1,-1,-1,-1,-1,-1,-1,343,401,-1,-1,-1,-1,407,347,-1,-1,-1,-1,-1,-1,387,437,-1,-1,-1,-1,-1,-1,-1,-1,-1,-1,361,385,-1,-1,-1,-1,373,-1,353,383,-1,-1,391,357,429,369,371,395,-1,-1,377,399,409,413,-1,-1,-1,-1,-1,-1,-1,-1,-1,-1,-1,-1,-1,-1,421,431,-1,-1,-1,-1,-1,-1,-1,-1,403,451,419,411,-1,-1,-1,-1,-1,-1,427,439,-1,-1,423,-1,-1,-1,445,417,-1,-1,415,-1,-1,-1,-1,-1,-1,-1,-1,435,-1,-1,-1,-1,-1,-1,-1,-1,457,441,-1,-1,453,455,-1,-1,-1,-1,443,-1,449,447,-1,-1,-1,-1,-1,-1,-1,-1,-1,461,-1,-1,463,459,-1,-1,-1,-1,-1,-1],"loss_changes":[7.017402E5,1.1423689E5,3.6465012E5,1.3566631E5,5.273776E4,6.2386312E4,2.9727352E4,6.4311484E4,1.4363156E4,1.6582625E4,6.2168055E4,4.5686188E4,5.8100812E4,2.1900053E4,2.174618E4,3.6746562E4,4.7739812E4,2.345612E4,1.0735148E4,8.622031E3,7.5969688E3,4.3422295E3,2.3386031E4,6.096894E3,6.289147E4,2.6339062E4,1.4555E4,1.587241E4,1.568311E4,0E0,0E0,3.1751719E3,8.288691E3,2.5465766E4,1.7657672E4,1.0343047E4,6.499492E3,9.628145E3,1.8845E4,1.9763438E4,2.9608645E4,2.3592533E4,5.782254E3,2.201727E4,5.005957E3,0E0,0E0,1.3265281E4,1.206748E4,1.2080604E4,1.8394424E3,7.1376426E3,1.25763125E4,4.287875E3,3.756245E3,1.4598428E4,5.2341508E4,6.4799976E3,1.0290305E4,7.320165E3,2.6731094E3,2.651695E3,1.3689039E4,0E0,0E0,2.9248352E2,6.829383E3,2.255891E4,1.09391045E4,0E0,0E0,5.136633E3,6.8582285E3,0E0,0E0,8.81551E3,4.9331094E3,1.9036099E3,6.645086E3,0E0,0E0,1.3509227E4,6.3850996E3,2.1590547E3,7.1970156E3,0E0,0E0,5.883828E3,4.8674414E3,6.5931504E3,4.5726846E3,0E0,0E0,3.9252266E3,6.0319688E3,2.6970215E3,6.193219E3,2.1472227E3,1.063925E4,0E0,0E0,1.7745576E3,5.6192896E3,4.049878E3,4.868301E3,0E0,0E0,0E0,0E0,1.938252E3,2.9637656E3,0E0,0E0,1.2580324E4,4.911199E3,0E0,0E0,0E0,0E0,3.2237712E3,0E0,3.0559897E3,3.32583E3,3.7558176E3,3.1763896E3,4.79313E2,1.1191664E3,0E0,0E0,0E0,0E0,5.946638E3,1.9347988E3,0E0,0E0,3.85315E3,3.4030632E3,0E0,0E0,0E0,0E0,0E0,0E0,0E0,0E0,3.1201562E3,1.8869277E3,0E0,0E0,7.906989E2,3.0201396E3,4.907632E3,8.3131396E2,3.3544634E3,1.8989224E3,1.2717656E3,2.0341953E3,8.7662354E2,8.4247485E2,0E0,0E0,0E0,0E0,1.8736835E3,3.028881E3,5.6131953E3,1.4974717E3,0E0,0E0,0E0,0E0,0E0,0E0,1.6981816E3,2.1380356E3,0E0,0E0,1.5594347E3,3.5307168E3,0E0,0E0,2.0251445E3,4.4279688E2,0E0,0E0,1.4567552E3,1.4694614E3,4.5296228E2,1.3590684E3,0E0,0E0,3.9329297E2,8.2740625E2,1.8026372E3,2.1387173E3,5.534428E2,4.1957324E2,1.2996687E3,1.3569542E3,1.0087766E3,2.2835312E3,1.1647207E3,1.5921332E2,0E0,0E0,5.157701E1,0E0,7.796255E2,1.2695356E3,1.5496172E3,1.2254233E3,1.2885283E3,1.3179321E3,6.919739E2,1.1171641E3,0E0,0E0,0E0,0E0,0E0,0E0,0E0,0E0,4.4733032E2,1.2112114E3,1.0341504E3,1.0242609E3,3.8720508E2,1.7340325E3,1.9385425E3,5.1959863E2,0E0,0E0,0E0,0E0,1.333794E3,7.694072E2,0E0,0E0,8.676758E2,9.328882E2,0E0,0E0,7.489385E2,3.186175E2,1.6151584E3,1.9362139E3,0E0,0E0,0E0,0E0,6.195635E2,2.4643163E2,0E0,0E0,0E0,0E0,3.4904028E2,6.0073987E2,0E0,0E0,8.2013574E2,5.3000214E2,6.3309375E2,8.163867E2,0E0,0E0,9.2878467E2,6.3994263E1,7.277764E2,8.8186365E2,0E0,0E0,0E0,0E0,2.1506226E2,9.699785E2,0E0,0E0,0E0,0E0,5.1125708E2,6.7136176E2,6.643203E2,5.641609E2,0E0,0E0,0E0,0E0,0E0,0E0,0E0,0E0,0E0,0E0,0E0,0E0,7.638042E2,0E0,1.3312329E2,4.414297E2,0E0,0E0,5.398789E2,5.403324E2,0E0,0E0,0E0,0E0,0E0,0E0,0E0,0E0,0E0,0E0,0E0,0E0,5.034148E2,1.3841846E2,0E0,0E0,0E0,0E0,1.2751074E2,4.5626562E2,0E0,0E0,0E0,0E0,0E0,0E0,2.7634464E2,3.8506042E1,0E0,0E0,0E0,0E0,0E0,0E0,0E0,0E0,0E0,0E0,4.251787E2,2.8663513E2,0E0,0E0,0E0,0E0,3.4924908E2,0E0,5.238008E2,2.8754834E2,0E0,0E0,2.3891992E2,5.481748E2,6.093457E1,3.853423E2,3.8405664E2,1.7910547E2,0E0,0E0,3.2837378E2,1.470752E2,1.18793945E2,1.10072266E2,0E0,0E0,0E0,0E0,0E0,0E0,0E0,0E0,0E0,0E0,0E0,0E0,0E0,0E0,8.6396645E1,6.0011658E1,0E0,0E0,0E0,0E0,0E0,0E0,0E0,0E0,1.3326855E2,7.2685547E0,9.930408E1,1.1689746E2,0E0,0E0,0E0,0E0,0E0,0E0,6.1667046E1,3.539302E1,0E0,0E0,8.465082E1,0E0,0E0,0E0,1.8149002E1,1.0316699E2,0E0,0E0,1.2496484E2,0E0,0E0,0E0,0E0,0E0,0E0,0E0,0E0,4.2944126E1,0E0,0E0,0E0,0E0,0E0,0E0,0E0,0E0,4.6548815E0,3.2434143E1,0E0,0E0,6.793354E0,4.941738E0,0E0,0E0,0E0,0E0,3.905513E1,0E0,7.3224487E0,7.756748E0,0E0,0E0,0E0,0E0,0E0,0E0,0E0,0E0,0E0,2.1966231E-1,0E0,0E0,1.123935E-2,6.250658E-1,0E0,0E0,0E0,0E0,0E0,0E0],"parents":[2147483647,0,0,2,2,3,3,1,1,7,7,5,5,10,10,12,12,4,4,16,16,11,11,15,15,24,24,6,6,25,25,17,17,22,22,33,33,13,13,14,14,40,40,41,41,43,43,39,39,38,38,34,34,9,9,27,27,56,56,28,28,55,55,26,26,8,8,62,62,67,67,47,47,52,52,49,49,48,48,68,68,18,18,81,81,35,35,58,58,37,37,75,75,19,19,32,32,20,20,98,98,59,59,84,84,51,51,72,72,66,66,78,78,89,89,113,113,36,36,57,57,82,82,96,96,23,23,94,94,87,87,42,42,131,131,102,102,71,71,44,44,76,76,114,114,104,104,88,88,90,90,21,21,151,151,53,53,103,103,93,93,135,135,54,54,123,123,165,165,136,136,153,153,122,122,119,119,124,124,178,178,31,31,145,145,121,121,164,164,150,150,110,110,95,95,60,60,61,61,83,83,200,200,97,97,194,194,174,174,156,156,181,181,109,109,132,132,77,77,154,154,146,146,163,163,50,50,193,193,101,101,229,229,228,228,173,173,177,177,209,209,166,166,186,186,185,185,246,246,245,245,188,188,198,198,235,235,212,212,197,197,211,211,155,155,208,208,210,210,224,224,201,201,126,126,214,214,225,225,226,226,199,199,276,276,240,240,267,267,270,270,157,157,239,239,158,158,152,152,192,192,261,261,264,264,149,149,207,207,236,236,297,297,243,243,269,269,213,213,282,282,283,283,263,263,251,251,258,258,284,284,195,195,304,304,303,303,262,262,230,230,281,281,317,317,125,125,324,324,187,187,223,223,351,351,182,182,356,356,300,300,343,343,196,196,191,191,227,227,358,358,359,359,349,349,257,257,363,363,244,244,65,65,352,352,344,344,331,331,252,252,355,355,275,275,360,360,202,202,364,364,318,318,391,391,299,299,323,323,365,365,394,394,366,366,413,413,410,410,393,393,381,381,405,405,268,268,401,401,357,357,382,382,205,205,422,422,332,332,402,402,432,432,441,441,409,409,444,444,443,443,392,392,435,435,436,436,431,431,458,458,454,454,457,457],"right_children":[2,8,4,6,18,12,28,10,66,54,14,22,16,38,40,24,20,32,82,94,98,152,34,126,26,30,64,56,60,-1,-1,182,96,36,52,86,118,90,50,48,42,44,132,46,140,-1,-1,72,78,76,226,106,74,156,164,62,58,120,88,102,196,198,68,-1,-1,382,110,70,80,-1,-1,138,108,-1,-1,92,142,218,112,-1,-1,84,122,200,104,-1,-1,130,148,114,150,-1,-1,160,128,194,124,204,100,-1,-1,230,136,158,146,-1,-1,-1,-1,214,192,-1,-1,116,144,-1,-1,-1,-1,176,-1,186,174,166,178,346,274,-1,-1,-1,-1,134,216,-1,-1,162,170,-1,-1,-1,-1,-1,-1,-1,-1,184,222,-1,-1,306,190,154,298,172,220,264,210,292,296,-1,-1,-1,-1,224,188,168,242,-1,-1,-1,-1,-1,-1,236,208,-1,-1,238,180,-1,-1,212,356,-1,-1,246,244,350,252,-1,-1,366,300,228,206,332,364,260,254,282,202,272,398,-1,-1,434,-1,308,266,240,268,262,258,318,276,-1,-1,-1,-1,-1,-1,-1,-1,352,270,278,280,368,234,232,340,-1,-1,-1,-1,256,310,-1,-1,294,286,-1,-1,314,380,250,248,-1,-1,-1,-1,326,390,-1,-1,-1,-1,376,328,-1,-1,302,338,324,304,-1,-1,288,426,316,290,-1,-1,-1,-1,394,284,-1,-1,-1,-1,342,320,322,330,-1,-1,-1,-1,-1,-1,-1,-1,-1,-1,-1,-1,312,-1,406,360,-1,-1,336,334,-1,-1,-1,-1,-1,-1,-1,-1,-1,-1,-1,-1,344,402,-1,-1,-1,-1,408,348,-1,-1,-1,-1,-1,-1,388,438,-1,-1,-1,-1,-1,-1,-1,-1,-1,-1,362,386,-1,-1,-1,-1,374,-1,354,384,-1,-1,392,358,430,370,372,396,-1,-1,378,400,410,414,-1,-1,-1,-1,-1,-1,-1,-1,-1,-1,-1,-1,-1,-1,422,432,-1,-1,-1,-1,-1,-1,-1,-1,404,452,420,412,-1,-1,-1,-1,-1,-1,428,440,-1,-1,424,-1,-1,-1,446,418,-1,-1,416,-1,-1,-1,-1,-1,-1,-1,-1,436,-1,-1,-1,-1,-1,-1,-1,-1,458,442,-1,-1,454,456,-1,-1,-1,-1,444,-1,450,448,-1,-1,-1,-1,-1,-1,-1,-1,-1,462,-1,-1,464,460,-1,-1,-1,-1,-1,-1],"split_conditions":[3.92768E2,7.212E2,4.8829626E-2,7.746667E1,9.8124835E2,7.0374585E2,3.4407253E1,6.38E-1,4.7E-1,1.96E2,3.92768E2,1.3244E1,1.2178176E3,7.4E1,3.2274008E2,9.69E-1,1.0212477E1,4.821365E-1,3.171E-3,1.2834832E3,2.6678133E0,4.3333334E-1,1.53E0,2.111E3,1.775875E1,7.488493E-1,1.098E1,2.2231E1,2.763E1,9.288222E-1,5.5638605E-1,8.76E1,8.323196E0,9.125189E1,7.137E2,7.63285E2,2.6E1,5.50822E-1,4.0969227E1,1E2,7.21E0,9.571667E1,7.274E0,4.42E0,8.9635315E1,3.8685656E-1,-4.934622E-2,3.2262583E0,2.0256171E0,6.903E0,1.1270611E0,5.81E1,1.5294925E0,7.8063786E-2,2.719E1,1.2333333E0,9.2504054E-1,2.5113E1,1.6538366E1,3.017236E0,1.0482931E0,1.4493055E1,6.2791505E0,1.8315402E-1,2.1356895E0,3.19E0,5.84E2,4.0633246E-1,1.2439444E-1,8.24725E0,7.0471877E-1,1.4578717E0,6.0425907E1,5.721065E-1,2.575965E-1,1.2589588E0,9.561972E1,1.638149E0,4.0969227E1,-1.0030852E-2,4.122099E-1,1.903E0,2.518E1,1.442587E3,3.070669E-1,8.664282E-1,1.5399293E0,2.271129E0,6.591991E-1,3.09E1,7.94615E0,-1.0417187E-1,1.4841837E-1,6.2603253E-1,6.434185E-1,3.8879144E2,2.61E1,1.2123252E1,8.434234E-2,4.0503974E0,2.309672E0,8.94E1,9.404088E1,4.3406215E-2,3.2720947E2,3.4675854E-1,4.528031E-2,-8.093336E-2,-2.2107902E-1,1.3323534E2,2.70325E-1,4.9462995E-1,-1.487059E-1,9.76E0,4.5266666E0,4.398517E0,-8.514796E-2,8.650252E-1,4.6603662E-1,2.8154337E0,4.718123E0,3.1117007E2,4.1180748E-1,7.960401E-1,1.982387E0,3.239092E2,1.5100874E0,2.137654E0,1.1910769E0,1.2738558E0,2.8877518E0,3.74E0,8.715E0,2.3266435E0,2.9033822E-1,8.512193E1,1.4287844E-1,-2.608191E-1,6.9052136E-1,-2.6005325E-1,-1.0418036E-1,1.5810956E0,6.869625E0,2.8115934E-1,6.5192574E-1,1.3715014E1,1.862E1,5.1986134E-1,4.7099147E0,1.2542777E2,1.3023883E2,4.216016E0,2.9627407E0,3.611809E-1,9.39E1,2.87E0,2.34E0,2.6359305E-1,2.0801435E0,1.7035052E0,7.857044E-1,8.134414E-1,1.7639357E-1,2.4133296E0,2.55E2,2.9785965E2,5.468E2,-5.6815505E-2,2.1040796E-1,-1.1905207E-1,2.2653782E-1,-1.9985506E-1,1.7580986E-1,3.6882297E2,7.59E0,-2.7918136E-1,3.3305702E-1,9.671667E1,4.8E-1,3.7598988E-1,3.3620012E0,1.593E1,4.7879345E1,7.1640354E-1,2.1853669E0,1.114E1,1.2791533E0,3.646E1,1.5978253E0,7.3292874E-2,2.6386872E-1,1.5122464E0,1.676E1,1.2921098E2,2.4122E1,4.8645887E-1,2.852E1,1.622E0,8.863333E1,9.501261E-2,2.3241563E-1,2.48337E0,1.504E1,7.2382396E-1,1.9346981E0,2.12E1,3.8710077E0,6.6E1,8.39E1,2.471431E0,4.1346664E0,4.163E0,2.01025E2,3.3147397E2,1.63625E1,1.2970122E0,2.5427816E0,-2.6499942E-1,2.8548274E-2,4.7507843E-1,2.0551383E0,1.3729692E0,5.0943065E-1,1.274E1,4.5442545E2,5.5375E2,1.5667534E2,9.992E1,4.163E0,4.616667E0,2.62E-1,9.8037654E-1,-9.625641E-2,6.1582755E-2,-1.235698E-1,1.0805052E1,2.701E1,1.044577E-1,8.475405E-1,4.257E0,2.814979E-1,-1.2914173E-1,9.87386E-2,3.786265E2,2.3171667E1,6.396956E0,3.9188618E1,3.199168E0,8.249133E-2,-1.9852298E-1,2.0444193E-1,1.8739526E0,2.03E0,1.2330244E0,1.816651E-1,3.746934E-2,3.6221334E-1,2.5909082E1,1.555E0,-2.550777E-1,9.01847E-2,2.448E-1,6.37433E-1,6.0045834E0,3.797876E-1,4.4123898E0,7.0961314E-1,6.669492E1,4.4E0,1.03E3,8.11E-1,5.459572E-1,1.3430372E0,-9.167136E-2,1.5786938E-1,1.835624E-1,4.616766E-1,-2.4027155E-1,9.8022145E-1,-1.8529478E-1,1.3983912E-3,7.719437E-2,3.4645E2,2.6423227E1,4.031E2,-2.8372356E-1,-1.2594298E-1,-2.462771E-1,-1.0767754E-1,5.3095825E-2,4.1082445E-1,2.5922782E0,2.0540412E-1,-1.9220057E-1,-2.5880164E-1,2.5794817E-2,5.4282475E-1,4.7433E0,1.1089365E0,3.524E0,2.1E0,-1.5843494E-1,-2.658542E-1,4.0075348E2,7.4760605E1,2.838222E-3,-2.209457E-1,1.0425633E0,1.6697995E-1,7.447023E-2,1.2577443E0,-2.1799734E-1,9.514185E-2,2.3574057E-1,4.8317513E-1,-1.6265934E-2,8.897772E-1,1.57794E3,2.89618E0,1.3946538E-1,-2.2451222E-1,8.4963244E-1,4.348432E-1,1.874E0,1.1308234E1,-3.1134397E-1,7.686449E-1,-1.1216277E-1,5.299888E-2,3.1625173E0,8.0894274E-1,3.2744646E-1,2.799E1,-1.11589566E-1,8.433399E-1,-2.4566355E-1,2.5224103E-2,-4.310966E-2,8.349288E-1,-2.6415908E-1,-1.1248517E-1,-1.287276E-1,7.405828E-1,4.891753E-1,8.102876E0,1.1541414E0,6.383476E-1,-2.9833993E-1,-2.6914927E-1,1.9423437E-1,1.5303868E0,3.64E-1,2.124E1,-1.6428366E-2,-2.4022937E-1,3.7E-1,1.169E1,3.460282E-1,7.6544106E-1,2.770448E2,2.9716368E1,1.9295682E-1,6.5131867E-1,8.7009585E-1,5.0739853E2,1.237E1,2.4195163E-1,-3.021574E-1,1.7457877E-1,-2.2884057E-1,-1.0817715E-1,7.3917747E-1,1.2876543E0,-1.1275053E-1,1.5865879E-1,-2.0113163E-1,4.6804723E-1,8.698546E-1,4.5163438E-1,-1.6555248E-1,2.489095E-1,6.830108E-1,4.83E1,-2.4502933E-1,1.10328436E-1,6.0648376E-1,-1.3743274E-1,1.653267E-1,-2.9004508E-1,6.7490983E-1,-1.6885249E-2,3.17E0,5.5393577E-1,8.4257E-1,1.8991451E1,9.6421576E-1,1.5829093E0,-2.2176853E-1,1.7383486E-1,3.2167354E-1,9.6079344E-1,5.364E-2,3.756E2,-2.6397192E-1,-6.2463205E-2,5.848333E1,1.2273611E0,-3.1174126E-1,-2.2366679E-1,4E1,5.5222E0,6.3893604E-1,3.3124024E-1,8.66E2,3.2045808E-1,9.0900147E-1,1.1633445E0,7.3792994E-1,8.446614E-3,-2.8804994E-1,2.5413963E-1,5.635756E-1,3.2072544E-1,6.591497E-1,-1.2816985E-2,1.4159775E0,4.1524917E-1,-5.3988576E-2,2.3520167E-1,2.9218307E-1,-2.9933584E-1,3.9478333E1,6.75E-1,-8.832654E-2,5.305037E-1,2.36925E1,2.6182E1,1.8147896E-1,1.0985636E0,-3.0351815E-1,-1.3574498E-3,4.49E-1,-3.341703E-1,3.2E-1,3.2543472E2,-9.7745016E-2,2.8827778E-1,-8.663236E-2,1.2815788E-1,-2.5218263E-1,-3.608916E-2,-3.2384738E-1,-8.04859E-2,-2.414578E-1,2.4184166E1,1.9373035E-1,1.3003238E-2,8.67E0,1.79E1,4.964315E-2,1.74201E-1,-5.4040994E-2,-4.560773E-3,-5.4902162E-2,-1.3828635E-2],"split_indices":[5,3,110,90,48,84,89,47,108,48,5,2,5,1,88,108,95,66,53,5,61,31,108,88,97,22,6,2,0,0,0,1,99,89,3,5,14,76,89,17,34,1,31,6,101,0,0,65,63,108,57,1,77,69,0,34,55,0,84,63,76,88,10,0,0,102,2,63,66,0,0,75,84,0,0,61,16,65,89,0,0,34,0,50,75,0,0,65,18,15,2,0,0,21,75,89,0,58,67,0,0,1,89,22,88,0,0,0,0,83,42,0,0,6,34,0,0,0,0,93,0,89,42,76,34,89,20,0,0,0,0,6,108,0,0,1,67,0,0,0,0,0,0,0,0,28,10,0,0,81,5,65,72,59,17,108,108,75,63,0,0,0,0,61,3,89,48,0,0,0,0,0,0,83,102,0,0,13,45,0,0,0,84,0,0,10,22,