{"learner":{"attributes":{"best_iteration":"5","best_score":"3.5978762882649353"},"feature_names":[],"feature_types":[],"gradient_booster":{"model":{"gbtree_model_param":{"num_parallel_tree":"1","num_trees":"21"},"iteration_indptr":[0,1,2,3,4,5,6,7,8,9,10,11,12,13,14,15,16,17,18,19,20,21],"tree_info":[0,0,0,0,0,0,0,0,0,0,0,0,0,0,0,0,0,0,0,0,0],"trees":[{"base_weights":[1.3287071E-2,-1.7240139E0,3.7614167E0,6.314192E0,-3.3265868E-1,2.753281E0,8.633079E0,1.0642447E1,2.894142E0,1.3208574E1,5.0605855E0,1.0589885E1,2.2108982E1,-1.8526222E0,1.03738365E1,-1.3745421E0,5.8688393E0,-3.199319E0,-1.1447297E0,-1.739892E0,1.3151144E0,1.1251433E0,9.4578705E0,-1.2382551E0,3.7031643E0,-1.3579825E0,2.9906473E0,5.8976183E0,-1.2688167E0,2.3151379E1,-1.3827963E0,-3.144407E0,-1.2274331E0,-1.3124117E0,1.2366095E1,-1.0973519E0,2.7332653E1,9.766355E0,1.6818611E1,-2.8326533E0,1.3761844E-1,8.04089E-1,1.2817988E0,4.5062613E0,3.2982522E-1,-3.038911E0,-8.3543134E-1,-1.5078164E-2,-2.533239E-1,1.1442677E0,2.388827E0,2.937123E0,8.35027E0,2.5619133E0,7.192552E-1,1.9396654E0,2.713897E0,1.0481435E0,8.015761E0,6.549103E0,1.9156904E1,-2.8239043E0,2.1727111E0,5.5050254E-1,2.1480343E0,-3.3923087E0,4.2354932E-1,1.0161431E-1,6.4733253E0,1.1949444E1,-1.3652213E0,2.1191368E0,7.013343E0,-2.2787158E0,2.3278954E0,7.951438E0,4.720469E0,-3.9070997E0,-1.8137925E0,2.123846E1,9.797182E-2,-5.514392E-2,6.708648E-1,3.0904322E0,7.426912E0,4.2168602E-1,7.045334E-2,-1.2596011E0,1.0338941E0,1.1707057E0,5.4886165E0,-1.9007607E-1,1.0069559E1,3.2645955E0,2.670425E-1,4.967237E0,2.3599823E0,5.3564453E0,1.1729119E1,8.632517E0,2.4735386E1,-1.7966227E-1,-3.8366097E-1,2.143682E0,2.1941845E-1,7.8990035E0,1.2032934E1,8.919125E0,1.4512787E1,5.7439394E0,8.976865E0,5.184488E0,1.1180986E0,2.873064E-1,2.6998472E0,-3.6937253E0,-2.8051882E0,3.2896593E0,1.0555772E1,5.267095E0,1.8217852E1,1.4722924E0,9.128925E-1,-1.7019312E0,5.4456596E0,2.7657495E0,-8.8973707E-1,1.2357185E0,8.307424E0,9.010696E0,3.588023E0,7.29417E-1,7.0855646E0,2.8386965E1,-3.779462E-1,2.3765247E-1,8.349497E-1,-9.254842E-2,4.2874317E0,4.4914894E0,1.0267702E0,2.6491968E1,7.540757E0,-1.2905573E0,4.190036E0,4.7596316E0,4.399737E-1,-2.2377727E0,1.5540507E0,-2.6754943E-1,2.4474003E0,1.4668022E-1,1.3697472E0,1.3812633E0,6.8670387E0,-8.3123034E-1,3.053834E0,-3.5274408E0,-2.0270543E0,3.2193758E0,1.3877641E1,-1.3989262E-1,9.0549916E-2,2.209854E-2,3.789481E-1,4.3658206E-1,4.3334017E0,-3.8343909E0,-1.489948E0,1.2041307E1,1.7214792E1,-2.3664827E0,6.7818704E0,1.7251062E-1,-7.5565115E-2,-3.526713E0,-1.6346217E0,2.0069602E0,1.262679E1,1.0021613E0,7.716879E-1,3.9838773E-1,5.692951E-2,-1.4254825E-1,2.617934E-1,-3.439392E0,-1.7846668E0,-2.043155E-1,2.666174E-1,9.839081E0,2.7817595E0,-1.9106727E0,-3.0336628E0,-3.799532E-1,-2.650796E0,1.7134145E0,3.3337495E0,5.1293774E0,1.1182802E1,-1.4131805E-1,-3.380465E0,6.9807094E-1,2.6129837E0,-2.952246E0,-1.3423856E0,-3.2556033E0,-2.051062E0,-3.7941527E0,-2.8096209E0,1.0512488E-1,-2.1161036E-1,-2.007237E-1,1.5888094E0,-1.1165722E-1,-2.5309852E-1,-3.9272935E0,-3.1351686E0,-1.4955576E-1,1.8836208E-1,1.9038768E0,-1.4556687E0,-1.7926244E0,2.3213947E0,3.3993268E0,1.5047319E-1,1.6034106E0,3.3178327E0,-1.655925E0,1.2348858E0,8.0063695E-1,1.4147831E0,1.879785E0,5.804895E0,-3.5838413E-1,-2.652145E-1,-2.1409664E0,1.4378738E0,3.6587402E-1,6.392536E-1,-3.1269734E0,-1.4203521E0,-5.6800514E-2,-2.5867543E-1,3.3237767E-1,3.1219168E0,-1.0582933E0,1.0152594E1,-1.8048579E-1,-2.3443522E-2,1.4276654E1,1.922238E1,-2.1600783E-1,4.729157E-1,1.2952442E0,-1.4845896E0,-1.0782259E-1,6.9584996E-1,2.8062222E0,9.788128E0,2.7698157E0,-3.3669329E0,-2.0317332E-1,4.178289E-3,1.109915E0,2.5610693E0,6.2850654E-1,3.6369998E-2,1.00625336E-1,4.4628343E-1,-2.7350008E-1,8.730966E0,1.8077153E0,-2.693472E-1,-3.8396588E-1,-1.7647831E-1,-2.8705248E-1,-1.0354053E-1,-3.4759896E0,-2.1965373E0,1.6521886E-1,1.0800118E0,4.4913927E-1,9.6298325E-1,8.843592E-1,2.7303278E-1,-1.6172013E-1,4.812437E-1,8.407946E0,1.153145E1,1.2598976E0,6.175603E-1,9.108638E-1,7.338874E-1,2.8793639E-2,7.0210576E-1,2.0449672E-2,-2.0296052E-1,-3.8642046E-1,-2.5685313E-1,-2.4878046E-2,4.105279E-1,1.478153E1,9.582388E-1,-4.047289E0,-3.4059615E0,-3.185967E0,-4.0279145E0,3.3531625E-2,3.3537477E-1,3.0601895E-1,-3.1432013E-3,-7.670822E-2,2.504402E-1,2.361372E-1,-1.1783953E-1,-3.3250825E0,-1.4438944E0,-1.7361844E-1,9.182589E-2,7.6315084E0,3.3382134E0,4.6426293E-1,1.6432772E0,-1.794176E-2,-2.4160378E-1,7.776021E-1,4.8233223E-1,1.5633155E0,1.256343E1,-2.3108871E-1,1.2131765E0,2.661706E-1,-1.9818954E-1,-3.8286403E-1,-2.8825906E-1,-3.6516204E-1,-2.8963447E-1,3.498548E-1,8.9084417E-1,7.369381E0,1.3591105E0,1.2677251E1,1.8553592E0,7.828783E0,1.2429601E1,3.8168395E-1,2.4278088E0,-3.112649E0,-1.471308E0,-1.7404656E-1,8.18964E-1,-3.5360882E-1,-2.590811E-1,-1.03212E-1,5.408122E-1,1.2431556E0,-1.5651248E-1,5.5275005E-1,3.08109E-1,-4.1637856E-1,-3.7126595E-1,1.1247682E1,1.3732715E1,2.0356478E1,1.608919E1,2.0573473E0,3.9508766E-1,-3.8007152E-1,-4.0521654E-1,-4.0695953E0,-1.1822011E-1,-3.10981E-1,1.4121388E0,-4.0826645E-1,-3.091186E-1,-3.5542494E-1,-2.2877887E-1,-3.526898E-1,-2.6735792E-1,-4.342668E-1,-3.5864154E-1,1.3496013E0,4.9049383E-1,3.25948E0,8.158992E0,-1.6054177E-1,8.633067E0,4.0420935E-2,2.9283234E-1,9.140379E-1,1.7286612E-1,1.0649098E0,1.5479989E0,1.6486396E0,3.7088346E-1,-3.938398E-1,-1.7892097E-1,-2.890857E-1,-8.155215E-2,6.9680514E0,8.340423E-1,-1.247484E-1,7.512074E-2,-1.0691718E0,-3.8989928E0,4.1007385E-2,6.243114E-1,3.4182605E-1,3.6025703E0,4.5811948E-1,-3.416716E0,-4.1500756E-1,-2.8981707E-1,6.347421E-1,-1.8304782E-1,7.285273E-1,1.3949262E0,-2.2283165E-1,2.5499198E-1,9.403885E-1,2.8981972E-1,4.0623266E-1,1.5798401E0,1.0640552E0,9.728672E-2,-5.7115972E-2,5.6379277E-1,-1.9441104E0,-9.1595197E-1,-1.320572E-1,4.417998E-1,-2.1849464E-1,-5.1416826E-2,1.6107824E0,-2.1097898E0,1.1408262E0,6.429395E-1,-1.8898387E0,1.1315523E0,-1.314641E-1,3.669332E-1,3.3814287E-1,-3.9958324E0,-1.5108837E0,3.1616256E-1,6.211684E-1,-2.7393644E0,-1.2320095E-1,-4.0475115E-2,-2.3582697E-1,-1.5848114E-1,-4.0924E0,-8.723871E-1,-2.7559492E-1,-1.9042325E-1,1.8803203E0,4.4505224E0,6.2212106E-2,2.6410648E-1,-2.1971641E-1,1.2507205E-1,-3.096572E-1,-3.9741397E-2,-2.1556889E-1,2.2167219E-2,-1.7827266E-1,9.293158E-2,-1.6356419E-1,-4.1598663E-1,2.5863543E-1,5.412592E-1,-3.3501696E-2,2.2446568E-1,-2.4477986E-1,-5.8043934E-2,1.3327174E0,3.7389338E-1,-4.3397486E-2,-1.8323508E-1,3.396249E-3,4.7325183E-2,8.2070306E-2,2.8108915E-2],"categories":[],"categories_nodes":[],"categories_segments":[],"categories_sizes":[],"default_left":[1,1,1,0,1,1,1,1,1,1,1,1,0,0,0,1,0,1,1,0,0,1,0,1,0,1,1,0,1,0,0,0,1,0,0,0,0,0,0,0,1,0,0,0,0,0,1,0,0,0,0,1,0,0,0,0,0,1,1,1,0,1,1,0,0,1,0,0,0,1,0,1,1,1,0,1,0,1,0,1,1,0,0,1,0,0,0,1,0,0,0,1,1,0,0,0,0,0,1,0,0,0,0,0,0,0,1,0,0,1,0,1,0,0,0,1,0,0,0,0,1,0,0,0,1,1,1,1,0,0,0,1,1,0,0,0,0,0,1,0,1,0,0,0,0,1,1,1,0,0,0,0,0,0,0,0,0,1,0,1,0,0,0,0,0,0,0,1,1,0,1,0,0,0,0,0,1,0,0,0,0,0,0,0,0,1,0,0,0,0,0,1,1,0,0,0,0,0,0,1,0,0,0,1,0,0,1,0,1,0,0,0,0,0,0,1,0,0,0,1,1,1,1,0,0,0,0,1,1,0,0,0,0,0,0,1,0,0,0,0,1,0,0,0,0,0,0,0,0,0,0,0,0,0,0,0,0,0,0,0,0,0,0,0,0,0,0,0,0,0,0,0,0,0,0,0,0,0,0,0,0,0,0,0,0,0,0,0,1,0,0,0,0,0,0,0,0,0,0,0,0,0,1,0,0,1,0,0,0,0,0,0,0,0,0,0,0,0,0,0,0,0,0,0,0,0,0,0,0,0,0,0,0,0,0,0,0,0,0,0,0,0,0,0,0,0,0,1,1,0,0,0,0,0,0,0,0,0,0,0,0,0,0,0,1,0,0,0,0,0,0,0,0,0,0,0,0,0,0,0,0,0,0,0,1,0,0,0,0,0,0,0,0,0,0,0,0,0,0,0,0,0,0,0,0,0,0,0,0,0,0,0,0,0,0,0,0,0,0,0,0,0,0,0,0,0,0,0,0,0,0,0,0,0,0,0,0,0,0,0,0,0,1,0,0,0,0,0,0,0,0,0,0,0,0,0,0,0,0,0,0,0,0,0,0,0,0,0,0,0,0,0,0,0,0,0,0,0,0,0,0,0,0],"id":0,"left_children":[1,13,3,5,23,15,7,9,27,11,21,37,29,17,69,73,67,65,19,31,25,131,105,39,71,61,43,57,123,55,431,77,33,45,35,331,95,41,49,157,87,-1,-1,51,79,101,47,-1,-1,-1,-1,85,53,-1,-1,-1,-1,91,59,63,103,175,155,-1,-1,115,125,253,75,107,259,111,97,171,137,109,83,303,167,89,81,-1,-1,163,135,-1,-1,143,113,-1,-1,183,93,-1,-1,-1,-1,129,99,141,133,-1,-1,-1,-1,291,121,189,169,237,179,117,145,149,139,207,191,231,119,293,225,-1,-1,193,177,127,199,221,257,197,319,173,281,195,413,-1,-1,235,153,165,217,243,201,219,-1,159,147,329,223,161,151,-1,-1,309,325,317,181,305,203,299,263,-1,-1,-1,-1,-1,-1,395,213,343,249,185,383,-1,-1,297,241,285,211,-1,-1,-1,-1,-1,-1,273,187,-1,-1,245,339,239,205,209,271,-1,-1,283,229,269,409,-1,-1,347,227,233,251,215,277,-1,-1,-1,-1,-1,-1,367,335,-1,-1,265,247,397,267,-1,-1,-1,-1,261,313,-1,-1,307,255,-1,-1,417,311,-1,-1,375,275,-1,-1,-1,-1,453,287,-1,-1,301,363,-1,-1,345,427,-1,-1,353,279,327,403,-1,-1,-1,-1,-1,-1,-1,-1,295,381,-1,-1,-1,-1,-1,-1,373,323,-1,-1,-1,-1,-1,-1,-1,-1,337,289,-1,-1,-1,-1,-1,-1,-1,-1,-1,-1,-1,-1,391,439,359,333,315,369,-1,-1,-1,-1,-1,-1,-1,-1,351,355,-1,-1,321,357,-1,-1,-1,-1,-1,-1,407,421,-1,-1,-1,-1,-1,-1,-1,-1,-1,-1,341,399,475,425,385,361,401,387,377,349,-1,-1,-1,-1,-1,-1,-1,-1,-1,-1,-1,-1,435,415,365,393,-1,-1,-1,-1,379,371,-1,-1,-1,-1,-1,-1,-1,-1,-1,-1,-1,-1,429,389,459,419,-1,-1,-1,-1,-1,-1,-1,-1,-1,-1,-1,-1,423,405,-1,-1,433,441,-1,-1,437,455,-1,411,-1,-1,-1,-1,-1,-1,-1,-1,-1,-1,-1,-1,-1,-1,-1,-1,449,447,-1,-1,-1,-1,443,445,-1,-1,473,457,-1,-1,479,451,477,-1,481,461,-1,-1,-1,-1,467,465,-1,463,471,469,-1,-1,-1,-1,-1,-1,-1,-1,-1,-1,-1,-1,-1,-1,-1,-1,-1,-1,-1,-1,-1,-1,-1,-1,-1,-1],"loss_changes":[1.2945054E6,2.1136572E5,6.580339E5,3.202045E5,8.838562E4,1.9672188E5,2.708015E5,2.4909512E5,7.6177875E4,2.77497E5,9.48222E4,4.7073688E4,6.634475E4,1.28130625E5,2.6447297E4,2.203282E4,3.0388625E4,3.2379594E4,1.2898271E5,5.105422E4,7.687924E4,6.818537E3,1.0293641E4,4.3327965E4,2.3223953E4,3.4238355E4,4.2548375E4,3.634379E4,7.436653E3,3.8296875E4,7.9701904E1,1.9237516E4,6.0056742E4,4.253485E4,6.511495E4,5.738588E2,1.1586484E4,4.2736938E4,4.0545125E4,5.1137188E3,1.3279374E4,0E0,0E0,4.052111E4,1.856476E4,1.1073164E4,4.7046742E4,0E0,0E0,0E0,0E0,1.36398125E4,3.8761062E4,0E0,0E0,0E0,0E0,1.2032534E4,4.012061E4,3.3835375E4,1.1013594E4,3.9009414E3,5.1400586E3,0E0,0E0,7.770375E3,7.2094805E3,1.5696089E3,2.0404781E4,9.657922E3,1.4164415E3,9.196734E3,1.114182E4,4.2219688E3,6.128285E3,9.634531E3,1.591175E4,8.329844E2,4.5165684E3,1.2827254E4,1.627005E4,0E0,0E0,4.5244336E3,6.3029766E3,0E0,0E0,5.590728E3,8.0340425E3,0E0,0E0,3.2923757E3,2.1628773E4,0E0,0E0,0E0,0E0,6.837047E3,1.4768859E4,5.6886934E3,6.521668E3,0E0,0E0,0E0,0E0,1.0274062E3,7.4742344E3,3.247371E3,4.3404062E3,1.8159492E3,3.7664531E3,7.4763887E3,5.5837217E3,5.348544E3,5.987501E3,2.5685625E3,3.0432578E3,1.9288408E3,7.6843184E3,1.0023032E3,2.0162656E3,0E0,0E0,3.0095015E3,3.8021895E3,7.128996E3,2.7994126E3,2.1773967E3,1.455041E3,2.8596406E3,6.9977734E2,4.0144043E3,1.1447959E3,2.8826484E3,1.09306915E2,0E0,0E0,1.8182113E3,5.34321E3,4.52126E3,2.2397188E3,1.7580869E3,2.795079E3,2.187418E3,0E0,4.940966E3,5.695453E3,6.174314E2,2.105467E3,4.7140117E3,1.004091E4,0E0,0E0,7.993966E2,6.647051E2,6.997887E2,3.4661348E3,8.2645703E2,2.6812305E3,9.3811914E2,1.3783516E3,0E0,0E0,0E0,0E0,0E0,0E0,1.9588086E2,2.3130361E3,4.8990625E2,1.6308125E3,3.2642305E3,2.2079468E2,0E0,0E0,9.3983594E2,1.7635747E3,1.0855378E3,2.418192E3,0E0,0E0,0E0,0E0,0E0,0E0,1.2272285E3,3.915962E3,0E0,0E0,1.7326445E3,4.9253046E2,1.8073525E3,2.584539E3,2.4969458E3,1.284457E3,0E0,0E0,1.0985881E3,1.9681504E3,1.3580944E3,1.1580347E2,0E0,0E0,4.2348047E2,1.9721343E3,1.9100703E3,1.6304385E3,2.276125E3,1.204502E3,0E0,0E0,0E0,0E0,0E0,0E0,3.2753125E2,5.307656E2,0E0,0E0,1.3742664E3,1.6793301E3,1.854325E2,1.3670454E3,0E0,0E0,0E0,0E0,1.3871245E3,7.231925E2,0E0,0E0,8.001997E2,1.5638213E3,0E0,0E0,1.0730017E2,7.826681E2,0E0,0E0,3.0453613E2,1.2067324E3,0E0,0E0,0E0,0E0,2.1575373E1,1.0818008E3,0E0,0E0,8.935957E2,3.440625E2,0E0,0E0,4.8847046E2,9.124237E1,0E0,0E0,4.050611E2,1.1595459E3,6.420551E2,1.3642432E2,0E0,0E0,0E0,0E0,0E0,0E0,0E0,0E0,9.573454E2,2.4373315E2,0E0,0E0,0E0,0E0,0E0,0E0,3.188789E2,6.8495703E2,0E0,0E0,0E0,0E0,0E0,0E0,0E0,0E0,5.0940234E2,1.4716367E3,0E0,0E0,0E0,0E0,0E0,0E0,0E0,0E0,0E0,0E0,0E0,0E0,2.10375E2,4.179579E1,3.5148438E2,5.731992E2,7.0383203E2,3.2347656E2,0E0,0E0,0E0,0E0,0E0,0E0,0E0,0E0,4.1024805E2,3.861606E2,0E0,0E0,1.0022512E3,3.6462695E2,0E0,0E0,0E0,0E0,0E0,0E0,1.2580586E2,1.0082666E2,0E0,0E0,0E0,0E0,0E0,0E0,0E0,0E0,0E0,0E0,5.0329797E2,1.7089291E2,2.4534912E0,9.500489E1,2.1343347E2,3.491797E2,1.5926726E2,2.1252576E2,2.861328E2,4.771104E2,0E0,0E0,0E0,0E0,0E0,0E0,0E0,0E0,0E0,0E0,0E0,0E0,6.359961E1,1.09197266E2,3.993086E2,2.0932031E2,0E0,0E0,0E0,0E0,2.4395703E2,9.810943E2,0E0,0E0,0E0,0E0,0E0,0E0,0E0,0E0,0E0,0E0,0E0,0E0,9.0731415E1,2.1138281E2,1.4244868E1,1.0536206E2,0E0,0E0,0E0,0E0,0E0,0E0,0E0,0E0,0E0,0E0,0E0,0E0,9.973474E1,1.2586329E2,0E0,0E0,6.7541016E1,3.951123E1,0E0,0E0,6.029779E1,1.9378922E1,0E0,1.1954932E2,0E0,0E0,0E0,0E0,0E0,0E0,0E0,0E0,0E0,0E0,0E0,0E0,0E0,0E0,0E0,0E0,2.5428772E1,2.5513931E1,0E0,0E0,0E0,0E0,3.866535E1,3.0930428E1,0E0,0E0,5.1545296E0,1.7581757E1,0E0,0E0,1.07219696E-1,2.3877441E1,2.4337769E-1,0E0,4.0739655E-2,1.0481232E1,0E0,0E0,0E0,0E0,7.7817383E0,8.217361E0,0E0,9.386502E0,7.2090206E0,7.522644E0,0E0,0E0,0E0,0E0,0E0,0E0,0E0,0E0,0E0,0E0,0E0,0E0,0E0,0E0,0E0,0E0,0E0,0E0,0E0,0E0,0E0,0E0,0E0,0E0,0E0,0E0],"parents":[2147483647,0,0,2,2,3,3,6,6,7,7,9,9,1,1,5,5,13,13,18,18,10,10,4,4,20,20,8,8,12,12,19,19,32,32,34,34,11,11,23,23,37,37,26,26,33,33,46,46,38,38,43,43,52,52,29,29,27,27,58,58,25,25,59,59,17,17,16,16,14,14,24,24,15,15,68,68,31,31,44,44,80,80,76,76,51,51,40,40,79,79,57,57,92,92,36,36,72,72,98,98,45,45,60,60,22,22,69,69,75,75,71,71,88,88,65,65,111,111,118,118,106,106,28,28,66,66,125,125,97,97,21,21,100,100,84,84,74,74,114,114,99,99,87,87,112,112,146,146,113,113,150,150,138,138,62,62,39,39,145,145,149,149,83,83,139,139,78,78,108,108,73,73,131,131,61,61,124,124,110,110,156,156,91,91,171,171,186,186,107,107,116,116,123,123,133,133,129,129,126,126,142,142,158,158,192,192,115,115,193,193,178,178,168,168,207,207,140,140,143,143,127,127,148,148,120,120,204,204,198,198,117,117,205,205,137,137,109,109,191,191,176,176,141,141,189,189,220,220,170,170,206,206,67,67,232,232,128,128,70,70,227,227,160,160,219,219,222,222,199,199,194,194,185,185,240,240,208,208,258,258,132,132,197,197,177,177,246,246,288,288,105,105,119,119,269,269,175,175,159,159,249,249,77,77,157,157,231,231,153,153,236,236,228,228,305,305,155,155,130,130,319,319,278,278,154,154,259,259,147,147,35,35,304,304,216,216,287,287,190,190,339,339,169,169,253,253,203,203,348,348,315,315,257,257,316,316,320,320,303,303,344,344,250,250,363,363,215,215,306,306,370,370,277,277,239,239,347,347,369,369,270,270,172,172,343,343,346,346,384,384,301,301,364,364,167,167,221,221,340,340,345,345,260,260,400,400,327,327,200,200,410,410,134,134,362,362,235,235,386,386,328,328,399,399,342,342,254,254,383,383,30,30,403,403,361,361,407,407,302,302,404,404,433,433,434,434,428,428,427,427,442,442,245,245,408,408,438,438,385,385,446,446,454,454,452,452,451,451,456,456,455,455,437,437,341,341,443,443,441,441,445,445],"right_children":[2,14,4,6,24,16,8,10,28,12,22,38,30,18,70,74,68,66,20,32,26,132,106,40,72,62,44,58,124,56,432,78,34,46,36,332,96,42,50,158,88,-1,-1,52,80,102,48,-1,-1,-1,-1,86,54,-1,-1,-1,-1,92,60,64,104,176,156,-1,-1,116,126,254,76,108,260,112,98,172,138,110,84,304,168,90,82,-1,-1,164,136,-1,-1,144,114,-1,-1,184,94,-1,-1,-1,-1,130,100,142,134,-1,-1,-1,-1,292,122,190,170,238,180,118,146,150,140,208,192,232,120,294,226,-1,-1,194,178,128,200,222,258,198,320,174,282,196,414,-1,-1,236,154,166,218,244,202,220,-1,160,148,330,224,162,152,-1,-1,310,326,318,182,306,204,300,264,-1,-1,-1,-1,-1,-1,396,214,344,250,186,384,-1,-1,298,242,286,212,-1,-1,-1,-1,-1,-1,274,188,-1,-1,246,340,240,206,210,272,-1,-1,284,230,270,410,-1,-1,348,228,234,252,216,278,-1,-1,-1,-1,-1,-1,368,336,-1,-1,266,248,398,268,-1,-1,-1,-1,262,314,-1,-1,308,256,-1,-1,418,312,-1,-1,376,276,-1,-1,-1,-1,454,288,-1,-1,302,364,-1,-1,346,428,-1,-1,354,280,328,404,-1,-1,-1,-1,-1,-1,-1,-1,296,382,-1,-1,-1,-1,-1,-1,374,324,-1,-1,-1,-1,-1,-1,-1,-1,338,290,-1,-1,-1,-1,-1,-1,-1,-1,-1,-1,-1,-1,392,440,360,334,316,370,-1,-1,-1,-1,-1,-1,-1,-1,352,356,-1,-1,322,358,-1,-1,-1,-1,-1,-1,408,422,-1,-1,-1,-1,-1,-1,-1,-1,-1,-1,342,400,476,426,386,362,402,388,378,350,-1,-1,-1,-1,-1,-1,-1,-1,-1,-1,-1,-1,436,416,366,394,-1,-1,-1,-1,380,372,-1,-1,-1,-1,-1,-1,-1,-1,-1,-1,-1,-1,430,390,460,420,-1,-1,-1,-1,-1,-1,-1,-1,-1,-1,-1,-1,424,406,-1,-1,434,442,-1,-1,438,456,-1,412,-1,-1,-1,-1,-1,-1,-1,-1,-1,-1,-1,-1,-1,-1,-1,-1,450,448,-1,-1,-1,-1,444,446,-1,-1,474,458,-1,-1,480,452,478,-1,482,462,-1,-1,-1,-1,468,466,-1,464,472,470,-1,-1,-1,-1,-1,-1,-1,-1,-1,-1,-1,-1,-1,-1,-1,-1,-1,-1,-1,-1,-1,-1,-1,-1,-1,-1],"split_conditions":[4.2387857E2,7.61425E2,4.8968516E-2,3E0,9.8124835E2,8.9208335E-1,7.596333E1,1.5E1,5.1486443E1,2E0,4.8742563E2,1.267E0,4E0,1.28001E0,2E0,6.97E-1,3.000001E1,2.056E2,1.8463037E1,3E0,3E0,3.654E-2,3.220839E2,4.780412E-1,3.5384283E2,1.064E0,8.25E1,2E0,3E0,9.492081E2,1.0127471E3,1.3550856E0,5.71E0,4.8472495E0,4E0,2.5766666E2,6.492E1,1.0229956E3,8.2638794E2,2.632638E-1,8.759321E0,8.04089E-1,1.2817988E0,3E0,1.7466667E0,1.1897316E1,1.5E1,-1.5078164E-2,-2.533239E-1,1.1442677E0,2.388827E0,1.5E1,6.5504284E0,2.5619133E0,7.192552E-1,1.9396654E0,2.713897E0,4.257E0,1.123E0,1E2,1.2858889E1,3.501421E-1,1.911866E1,5.5050254E-1,2.1480343E0,8.728678E-2,2E0,6E0,2.5288759E2,5.84E2,4E0,2.2197E-2,2E0,2.6818417E1,3.000001E1,6.9984985E2,5.699146E1,1.2E0,4.697091E-1,1.5499243E-1,1E2,-5.514392E-2,6.708648E-1,2.593E1,5.7999015E-1,4.2168602E-1,7.045334E-2,4.2182812E2,2.47757E1,1.1707057E0,5.4886165E0,2.39E-1,4.3583333E-2,3.2645955E0,2.670425E-1,4.967237E0,2.3599823E0,1E-1,4.1148822E2,2.410823E2,2.5405895E1,-1.7966227E-1,-3.8366097E-1,2.143682E0,2.1941845E-1,4.2543845E0,1.84E-1,6.2505E2,3.5143E-1,2.1673334E1,6.1981E0,1.898E0,2E0,4E0,2E0,2.87E0,4.211501E2,7.4545235E1,8.00001E0,2.2170244E-1,1.4976976E1,1.4722924E0,9.128925E-1,8.7E1,2.5080473E0,2.8245E1,1.354E1,3.9140147E-1,2.836988E2,6.545638E-2,1.2730005E-1,5.73E1,4.4835615E-1,2.660897E0,2.4066668E1,2.3765247E-1,8.349497E-1,4.5398793E-1,1.956E2,4.8E-1,7E-3,6.0918406E-2,1.3312913E3,1.1830231E-1,4.190036E0,2.3273067E1,1.0721667E1,9.7E0,3.9188618E1,3.000001E1,4E0,1.4668022E-1,1.3697472E0,3.401E2,1.6653145E1,2E0,1.211E3,3.61729E-1,1.0100859E2,4.5026093E0,1.0229956E3,-1.3989262E-1,9.0549916E-2,2.209854E-2,3.789481E-1,4.3658206E-1,4.3334017E0,2.2456667E0,5.402521E1,1.185811E2,2.353E1,3.000001E1,7.678642E0,1.7251062E-1,-7.5565115E-2,8.3581597E-1,1.512E0,7.2214904E0,3.0411404E-1,1.0021613E0,7.716879E-1,3.9838773E-1,5.692951E-2,-1.4254825E-1,2.617934E-1,1.3749182E2,2.7847084E1,-2.043155E-1,2.666174E-1,9.76297E0,1.5201814E3,4.4533005E-1,2.4E0,2.0134012E1,3.3678766E-2,1.7134145E0,3.3337495E0,1.6068428E0,2.3966623E1,2.2678992E3,9.475038E0,6.9807094E-1,2.6129837E0,5.512E2,2.608986E1,4E0,2.337624E0,4E0,1.5941587E-1,1.0512488E-1,-2.1161036E-1,-2.007237E-1,1.5888094E0,-1.1165722E-1,-2.5309852E-1,8.45E1,1.47675E1,-1.4955576E-1,1.8836208E-1,1.3311159E1,8E-1,1.11212E2,4.7023007E2,3.3993268E0,1.5047319E-1,1.6034106E0,3.3178327E0,2.5E0,2E0,8.0063695E-1,1.4147831E0,4E0,4.2647803E-1,-3.5838413E-1,-2.652145E-1,1.8962E3,1.3753339E2,3.6587402E-1,6.392536E-1,3.3819296E2,9.012644E0,-5.6800514E-2,-2.5867543E-1,3.3237767E-1,3.1219168E0,7.693919E-1,3.49E-1,-1.8048579E-1,-2.3443522E-2,7.3333336E1,1.2412629E1,-2.1600783E-1,4.729157E-1,2.8312253E2,5.9646875E2,-1.0782259E-1,6.9584996E-1,2.482E2,3.848E1,1.2666667E0,6.6413124E1,-2.0317332E-1,4.178289E-3,1.109915E0,2.5610693E0,6.2850654E-1,3.6369998E-2,1.00625336E-1,4.4628343E-1,7.38E1,3.154E0,1.8077153E0,-2.693472E-1,-3.8396588E-1,-1.7647831E-1,-2.8705248E-1,-1.0354053E-1,7.69E1,4.0766666E1,1.6521886E-1,1.0800118E0,4.4913927E-1,9.6298325E-1,8.843592E-1,2.7303278E-1,-1.6172013E-1,4.812437E-1,6.036706E-1,2.4363E1,1.2598976E0,6.175603E-1,9.108638E-1,7.338874E-1,2.8793639E-2,7.0210576E-1,2.0449672E-2,-2.0296052E-1,-3.8642046E-1,-2.5685313E-1,-2.4878046E-2,4.105279E-1,6.8333334E-1,2.593E1,6.03E-1,3.000001E1,3.192E0,2.6818417E1,3.3531625E-2,3.3537477E-1,3.0601895E-1,-3.1432013E-3,-7.670822E-2,2.504402E-1,2.361372E-1,-1.1783953E-1,1.5625801E0,1.75E0,-1.7361844E-1,9.182589E-2,8.057972E0,1.3022009E-1,4.6426293E-1,1.6432772E0,-1.794176E-2,-2.4160378E-1,7.776021E-1,4.8233223E-1,1.5220276E0,1.51E1,-2.3108871E-1,1.2131765E0,2.661706E-1,-1.9818954E-1,-3.8286403E-1,-2.8825906E-1,-3.6516204E-1,-2.8963447E-1,3.498548E-1,8.9084417E-1,2.97102E2,1.52E0,6.8137E1,2.866E1,3.16E-1,3E0,2.6906604E2,1.1104047E1,2.2014015E0,4.77292E0,-1.7404656E-1,8.18964E-1,-3.5360882E-1,-2.590811E-1,-1.03212E-1,5.408122E-1,1.2431556E0,-1.5651248E-1,5.5275005E-1,3.08109E-1,-4.1637856E-1,-3.7126595E-1,7.097083E1,1.419E1,3.941105E2,1.0562073E3,2.0573473E0,3.9508766E-1,-3.8007152E-1,-4.0521654E-1,3.7851795E1,1.2493013E3,-3.10981E-1,1.4121388E0,-4.0826645E-1,-3.091186E-1,-3.5542494E-1,-2.2877887E-1,-3.526898E-1,-2.6735792E-1,-4.342668E-1,-3.5864154E-1,1.3496013E0,4.9049383E-1,2.7958334E1,1.4474763E1,1.562E1,4.117E0,4.0420935E-2,2.9283234E-1,9.140379E-1,1.7286612E-1,1.0649098E0,1.5479989E0,1.6486396E0,3.7088346E-1,-3.938398E-1,-1.7892097E-1,-2.890857E-1,-8.155215E-2,2.337624E0,3E0,-1.247484E-1,7.512074E-2,8.013284E-1,1.4272696E2,4.1007385E-2,6.243114E-1,7.062766E-1,5.3629166E1,4.5811948E-1,7.295833E0,-4.1500756E-1,-2.8981707E-1,6.347421E-1,-1.8304782E-1,7.285273E-1,1.3949262E0,-2.2283165E-1,2.5499198E-1,9.403885E-1,2.8981972E-1,4.0623266E-1,1.5798401E0,1.0640552E0,9.728672E-2,-5.7115972E-2,5.6379277E-1,2.5439918E-1,1.4333333E0,-1.320572E-1,4.417998E-1,-2.1849464E-1,-5.1416826E-2,7.745E1,4.6449684E1,1.1408262E0,6.429395E-1,8.932113E0,8.418259E1,-1.314641E-1,3.669332E-1,1.43E1,4.0423837E2,7.57E0,3.1616256E-1,1.3475E1,6.6094055E0,-1.2320095E-1,-4.0475115E-2,-2.3582697E-1,-1.5848114E-1,2.6457513E-2,1.726E1,-2.7559492E-1,1.6028E-1,2.2830626E1,2.0746E1,6.2212106E-2,2.6410648E-1,-2.1971641E-1,1.2507205E-1,-3.096572E-1,-3.9741397E-2,-2.1556889E-1,2.2167219E-2,-1.7827266E-1,9.293158E-2,-1.6356419E-1,-4.1598663E-1,2.5863543E-1,5.412592E-1,-3.3501696E-2,2.2446568E-1,-2.4477986E-1,-5.8043934E-2,1.3327174E0,3.7389338E-1,-4.3397486E-2,-1.8323508E-1,3.396249E-3,4.7325183E-2,8.2070306E-2,2.8108915E-2],"split_indices":[5,3,43,107,48,70,1,104,89,106,3,33,105,46,105,4,104,48,5,107,107,46,85,4,87,4,1,106,106,5,5,76,112,101,106,2,14,5,84,4,99,0,0,106,62,64,104,0,0,0,0,104,60,0,0,0,0,24,33,14,64,66,2,0,0,69,105,105,83,2,105,53,106,58,104,3,98,49,79,76,12,0,0,0,75,0,0,87,0,0,0,4,70,0,0,0,0,47,87,88,62,0,0,0,0,65,52,82,47,0,30,34,105,105,105,112,5,100,107,77,95,0,0,1,91,0,102,4,3,43,23,90,75,93,0,0,0,77,24,43,32,69,5,43,0,56,10,30,88,104,106,0,0,52,101,107,51,47,81,0,5,0,0,0,0,0,0,4,96,26,7,104,95,0,0,76,30,95,75,0,0,0,0,0,0,88,60,0,0,7,49,4,112,10,91,0,0,76,64,52,84,0,0,50,64,106,4,106,75,0,0,0,0,0,0,12,58,0,0,79,112,81,3,0,0,0,0,33,106,0,0,106,4,0,0,3,82,0,0,89,101,0,0,0,0,22,46,0,0,98,93,0,0,85,84,0,0,53,14,20,98,0,0,0,0,0,0,0,0,1,34,0,0,0,0,0,0,26,92,0,0,0,0,0,0,0,0,66,10,0,0,0,0,0,0,0,0,0,0,0,0,68,0,4,104,30,58,0,0,0,0,0,0,0,0,57,112,0,0,95,47,0,0,0,0,0,0,74,15,0,0,0,0,0,0,0,0,0,0,5,33,13,0,33,106,24,97,65,63,0,0,0,0,0,0,0,0,0,0,0,0,96,58,83,51,0,0,0,0,86,5,0,0,0,0,0,0,0,0,0,0,0,0,56,95,0,32,0,0,0,0,0,0,0,0,0,0,0,0,4,106,0,0,74,24,0,0,57,96,0,56,0,0,0,0,0,0,0,0,0,0,0,0,0,0,0,0,75,21,0,0,0,0,51,17,0,0,99,82,0,0,0,5,0,0,0,95,0,0,0,0,55,0,0,43,62,7,0,0,0,0,0,0,0,0,0,0,0,0,0,0,0,0,0,0,0,0,0,0,0,0,0,0],"split_type":[0,0,0,0,0,0,0,0,0,0,0,0,0,0,0,0,0,0,0,0,0,0,0,0,0,0,0,0,0,0,0,0,0,0,0,0,0,0,0,0,0,0,0,0,0,0,0,0,0,0,0,0,0,0,0,0,0,0,0,0,0,0,0,0,0,0,0,0,0,0,0,0,0,0,0,0,0,0,0,0,0,0,0,0,0,0,0,0,0,0,0,0,0,0,0,0,0,0,0,0,0,0,0,0,0,0,0,0,0,0,0,0,0,0,0,0,0,0,0,0,0,0,0,0,0,0,0,0,0,0,0,0,0,0,0,0,0,0,0,0,0,0,0,0,0,0,0,0,0,0,0,0,0,0,0,0,0,0,0,0,0,0,0,0,0,0,0,0,0,0,0,0,0,0,0,0,0,0,0,0,0,0,0,0,0,0,0,0,0,0,0,0,0,0,0,0,0,0,0,0,0,0,0,0,0,0,0,0,0,0,0,0,0,0,0,0,0,0,0,0,0,0,0,0,0,0,0,0,0,0,0,0,0,0,0,0,0,0,0,0,0,0,0,0,0,0,0,0,0,0,0,0,0,0,0,0,0,0,0,0,0,0,0,0,0,0,0,0,0,0,0,0,0,0,0,0,0,0,0,0,0,0,0,0,0,0,0,0,0,0,0,0,0,0,0,0,0,0,0,0,0,0,0,0,0,0,0,0,0,0,0,0,0,0,0,0,0,0,0,0,0,0,0,0,0,0,0,0,0,0,0,0,0,0,0,0,0,0,0,0,0,0,0,0,0,0,0,0,0,0,0,0,0,0,0,0,0,0,0,0,0,0,0,0,0,0,0,0,0,0,0,0,0,0,0,0,0,0,0,0,0,0,0,0,0,0,0,0,0,0,0,0,0,0,0,0,0,0,0,0,0,0,0,0,0,0,0,0,0,0,0,0,0,0,0,0,0,0,0,0,0,0,0,0,0,0,0,0,0,0,0,0,0,0,0,0,0,0,0,0,0,0,0,0,0,0,0,0,0,0,0,0,0,0,0,0,0,0,0,0,0,0,0,0,0,0,0,0,0,0,0,0,0,0,0,0,0,0,0,0,0,0,0],"sum_hessian":[1.98797E5,1.35836E5,6.2961E4,3.878E4,2.4181E4,1.5295E4,2.3485E4,1.7394E4,6.091E3,1.1915E4,5.479E3,9.208E3,2.707E3,1.34408E5,1.428E3,6.579E3,8.716E3,4.6308E4,8.81E4,7.0937E4,1.7163E4,2.892E3,2.587E3,1.975E4,4.431E3,6.613E3,1.055E4,3.538E3,2.553E3,2.592E3,1.15E2,1.8962E4,5.1975E4,5.1653E4,3.22E2,1.7E2,1.52E2,8.135E3,1.073E3,9.148E3,1.0602E4,5.199E3,2.936E3,6.721E3,3.829E3,1.118E4,4.0473E4,2.8843E4,1.163E4,6.11E2,4.62E2,4.774E3,1.947E3,1.21E2,1.826E3,1.338E3,1.254E3,1.076E3,2.462E3,2.177E3,2.85E2,4.673E3,1.94E3,2.036E3,1.41E2,4.3966E4,2.342E3,8.27E2,7.889E3,1.259E3,1.69E2,2.998E3,1.433E3,5.288E3,1.291E3,4.278E3,3.611E3,1.2052E4,6.91E3,4.1E1,3.788E3,3.45E3,3.38E2,2.255E3,1.356E3,3.034E3,1.74E3,4.143E3,6.459E3,3.3E1,8E0,9.47E2,1.29E2,3.1E1,9.8E1,2E1,1.32E2,1.062E3,3.71E2,3.01E2,7E1,4.373E3,6.807E3,2.51E2,3.4E1,1.614E3,9.73E2,5.79E2,6.8E2,1.359E3,2.919E3,7.37E2,2.261E3,4.461E3,1.998E3,2.9048E4,1.4918E4,5.46E2,1.91E2,1.14E2,7.7E1,5.03E2,4.7E2,2.399E3,1.54E2,8.41E2,1.501E3,6.6E2,1.81E2,3.45E2,7.17E2,2.713E3,1.79E2,6.1E1,9E0,2.1E2,1.146E3,5.78E2,7.13E2,9.64E2,1.034E3,1.6E1,2.85E2,4.141E3,2E0,3.54E2,1.907E3,5.6E2,1.347E3,3.55E3,9.11E2,8.39E2,7.2E1,3.36E2,3.77E2,4.4E2,1.5E3,4.91E3,4.238E3,3.04E2,5E1,1.807E3,1.743E3,4.42E2,1.813E3,9.62E2,2E0,9.53E2,5.957E3,3.58E2,3.22E2,5.238E3,5E1,1.624E3,1.089E3,2.936E3,1.737E3,1.05E2,4.9E1,1.592E3,1.327E3,1.091E3,4.09E2,6.58E2,2.89E2,1.84E3,3.398E3,3.212E3,1.86E2,5.03E2,7.6E1,3.037E3,1.1881E4,1.003E3,1.396E3,2E1,4.1E1,1.25E2,2.2E2,1.155E3,3.46E2,2.78E2,7E0,1.801E3,2.437E3,9.69E3,2.191E3,2.6082E4,2.966E3,5.5E2,4.53E2,9E0,4E1,4.386E3,1.571E3,2.1694E4,4.388E3,2.62E2,7.72E2,2.03E2,3.938E3,1.74E2,4.86E2,1E0,1.346E3,6.9E1,8E0,2.173E3,2.64E2,1.08E2,1.12E2,3.51E2,1.95E2,6.273E3,3.417E3,2.47E2,3.31E2,3.24E2,1.035E3,8.71E2,2.166E3,8.2E2,9.17E2,3E0,1.3E1,1.4E1,4.89E2,3.062E3,8.76E2,1.34E2,1.88E2,2.157E3,3.4E1,4.72E2,3.55E2,2.8E1,1.67E2,3.9E1,1.42E2,5.5E1,1.14E2,1.779E3,3.94E2,4.2E1,8E0,5.2E1,1.51E2,3.02E2,1.84E2,1.139E3,1.6E1,2E0,1.394E3,1.484E3,3.56E2,4.53E2,1.713E3,1.419E3,1.547E3,1.6E1,1.26E2,9E1,8.9E1,4.8E1,7.7E1,4.6E1,5.9E1,2.19E2,2.7E2,2.24E2,4.6E1,5.06E2,1.108E3,3E1,8.4E1,8.96E2,2.43E2,2.169E3,7.67E2,6.2E1,2.42E2,1.29E2,5E0,9.412E3,2.64E3,2.923E3,1.987E3,1.72E2,1.79E2,1.53E2,1.83E2,1.08E2,2.23E2,1.8E2,8.4E1,2.706E3,2.17E2,2.9E2,1.5E2,4E1,6.77E2,3.1E1,9E0,1.52E2,1.395E3,2.59E2,1.18E2,5E1,5E0,5.58E2,2E0,3.2E1,1.38E2,1.457E3,1.183E3,1.383E3,3.005E3,2.1E1,1.98E2,1.7E1,5.9E1,8E0,9E0,3.2E1,3.26E2,2.62E2,2.1E2,1.624E3,1.77E2,1.73E2,4E0,2.099E3,6.07E2,1.6E1,2.3E1,1E0,2.16E2,6.9E1,6.08E2,6.973E3,2.439E3,1.76E2,1.5E2,1.34E2,5.4E1,1.32E2,2E0,1.0789E4,1.0905E4,1.966E3,2.1E1,1.8E1,3E0,5.47E2,8.72E2,5.75E2,2.96E2,8.32E2,7.92E2,1.251E3,7.15E2,6E0,1E1,1.5E1,3.5E1,3E0,2.9E1,4.2E1,1.68E2,3E1,5E0,2.1E1,1.08E2,5.2E1,2E0,9.06E2,4.7E1,8.1E1,9.3E1,4E0,5.5E1,4.8E1,2.14E2,2.2E1,9.2E1,5.2E1,3E0,3.2E1,1.8E1,1E0,3.45E2,1.4E2,2.05E2,1E0,8E0,6E0,1.44E2,2.43E2,4E0,2.5E1,4E0,2E0,3E0,2E0,2E0,6E0,3E0,1.95E2,1.6E2,3E0,1.2E1,5.9E1,5.6E1,6E0,1.6E1,1.69E2,7E0,8E0,2.4E1,3E0,2E0,2E0,9E1,2E0,4E0,3E0,1.3E1,9.8E1,6.2E1,8.8E1,1.07E2,8.7E1,3E0,4E0,1E1,7E0,1.1E1,1.9E1,5E0,1E0,2E0,1.1E1,2E0,1E0,9E0,2E0,1E0,3E0,8.4E1,5E0,6E0,1E0,6E0,5E0,3E0,7E0,1E0,1E0,1E0,1E0,1E0,1E0,2E0],"tree_param":{"num_deleted":"0","num_feature":"115","num_nodes":"483","size_leaf_vector":"1"}},{"base_weights":[6.898927E-3,-1.6963061E0,3.1182864E0,5.315351E0,-4.4758123E-1,2.203655E0,7.338999E0,9.345889E0,3.064861E0,1.1536169E1,4.537655E0,9.23908E0,1.963858E1,-1.8163149E0,1.003912E1,-1.6359173E0,4.861633E0,5.7040114E0,-9.139308E-1,-2.9401722E0,-1.2290393E0,-2.2928562E0,1.1382648E0,1.0479614E0,8.283558E0,2.0821102E1,-1.6109989E0,-2.5742586E0,-6.9195896E-1,-1.1241165E0,2.2271786E0,1.6469668E0,2.5600672E0,5.454848E-1,7.472855E0,5.986821E0,1.6717945E1,2.54384E-1,1.0469644E0,6.0625467E0,1.0728441E1,2.638088E0,1.028305E0,-1.223524E0,7.109683E0,-1.0375603E0,2.2357695E1,5.164247E-1,5.6004043E0,-3.1945577E0,-8.5796636E-1,-1.5076685E-1,9.231054E-2,7.884092E-3,5.511142E0,4.729063E0,7.77215E-1,-3.0942247E0,-3.4059584E-1,4.127373E0,7.3083105E0,1.13273945E1,-2.4434543E0,-3.0975223E0,9.503638E-2,8.892504E0,1.6131483E0,1.7201487E1,4.1476336E0,2.846174E-1,1.0510113E0,5.043008E-1,3.0074573E0,-8.345399E-1,1.5711192E0,2.9309642E0,6.6641645E0,1.1510876E0,5.1863986E-1,-2.2025795E0,1.7837858E0,6.657292E-1,2.5441048E1,4.348676E0,1.037718E1,4.336402E0,1.7428883E1,1.8245878E0,3.4431405E0,6.0293083E0,1.1643797E0,-2.593788E0,2.962196E0,1.9547049E0,5.6043606E-2,8.913468E-1,3.5510638E0,4.8881774E0,8.25872E0,2.3162792E1,8.12956E0,-1.4795063E0,-3.1530383E0,-1.1369343E0,1.9431227E0,2.2226238E0,8.0585784E-1,-2.041543E0,-3.463734E0,-1.5604256E0,2.4167702E0,6.8564763E0,1.014021E1,4.101997E-1,8.363698E-1,-3.5877383E-1,-9.964259E-2,-1.4665142E-1,4.5145645E0,7.3390017E0,2.8520656E0,-1.3426782E0,2.0103357E0,8.933091E0,1.3432967E1,1.2634451E0,8.142295E-1,-1.3930489E0,1.3573376E0,1.461175E0,4.1352177E-1,-1.8040326E0,1.1436596E0,-1.8282826E0,5.5412307E0,1.088948E0,9.46411E0,-3.3642747E0,-2.6403134E0,3.863954E-1,6.7903576E0,-6.1315644E-1,3.967993E0,1.857199E-2,3.430464E-1,7.861621E-1,7.099628E0,3.9238844E-2,2.2958103E-1,-1.1313097E0,-2.8491948E0,-2.3115618E0,3.3380146E0,-2.9247882E0,-5.2431875E-1,-1.2427446E0,9.920289E-1,-1.7442307E-1,1.5045695E-1,1.1103837E1,1.6007856E1,-2.3924026E0,-8.1174666E-1,2.6901862E-1,-2.2256205E-2,5.3017104E-1,1.1050083E-1,4.6293296E-2,3.943325E-1,2.896259E0,8.679845E0,-1.2370865E0,2.1719058E0,-2.667908E0,2.105875E-1,-8.8880885E-1,2.4948812E0,-2.8687863E0,-1.9298751E0,-2.6783373E0,-1.166585E0,-8.606789E-3,4.136069E0,1.0669959E0,1.0305016E1,-2.2368577E-1,2.9285643E-2,3.2878194E0,2.0308557E0,-2.3797655E-2,3.99982E-1,6.386481E0,-1.0126661E0,-1.6500744E-1,3.6765045E-1,-1.666478E0,8.0520086E-2,-3.304484E-1,8.926581E-2,1.1286405E0,-1.5841923E0,2.6385841E0,7.0067677E0,5.697657E-1,2.9070911E0,1.287826E0,4.816807E-1,1.6583998E0,7.9071274E0,1.6271544E0,2.7543208E-1,-3.159817E0,-2.3025846E0,3.879151E-2,8.07984E0,4.554774E-1,9.9038523E-1,5.5160266E-1,7.71936E-1,-3.4505625E0,-2.6028063E0,-2.4307051E-1,4.1841026E-2,5.82895E0,9.931754E0,-3.5670223E0,-2.878345E0,4.8143893E-1,2.816449E0,-2.0119505E0,2.8157675E0,1.3159603E-1,5.328476E-1,5.325107E-1,1.5899743E0,-2.603534E0,-4.7562078E-1,-1.2866084E-1,2.487859E-1,-2.8924578E-1,-6.34609E-2,3.438012E-1,9.325968E-1,-1.3818066E0,1.7231213E0,1.3538265E0,4.7564775E-1,-2.9528016E-1,-1.7202444E-1,-2.0263918E-1,-4.549077E-2,5.5327725E-1,8.894439E-2,3.118753E-1,9.499648E-1,9.72302E0,2.5312117E1,-3.364184E-1,-2.051215E-1,4.3596697E-1,1.3245434E0,-3.5418541E0,-2.5490003E0,-3.312603E-1,-2.3097585E-1,-1.7363118E-1,2.4104725E-1,-2.8074112E0,-3.6246386E0,-3.6147666E0,-2.2442713E0,1.0393101E-1,-1.3141559E-1,1.0034615E-1,7.469048E-1,-3.152131E0,-2.0350144E0,1.3765736E1,4.963814E0,1.22389765E1,1.6974382E1,-2.871309E-1,-1.7473815E-1,-3.2394047E0,7.2203666E-1,1.1008027E-2,3.5085037E-1,-2.310113E-1,1.6731322E-1,8.442983E0,1.1387096E1,-1.8611914E0,-3.9484277E0,1.1425737E0,1.381741E-1,8.817176E-1,-1.1456902E-2,-5.487919E-1,1.7562978E0,-3.7069354E-2,4.7683793E-1,7.889026E-2,3.1245695E1,1.9551153E0,6.853049E0,2.3797877E0,-3.576598E0,-1.0043665E0,1.2547905E0,-2.1790884E0,2.2076669E0,1.9097531E0,6.524534E-2,-2.0151618E-1,5.957318E-2,7.4657077E-1,1.2433633E0,-1.0871525E0,1.1255361E1,-2.1640961E-1,-3.056118E-1,-1.2142229E-1,6.8698895E-1,-1.7994784E-1,-2.9279715E-1,-3.7328365E0,-1.4922723E0,-2.1022725E0,1.7485802E1,1.0209486E0,2.1785925E-1,1.540259E-1,6.8123937E-1,-2.4297129E-1,-1.1625483E-1,-2.8959188E-1,-1.4705992E-1,-1.0725837E-1,1.4630502E-1,2.6200013E0,5.449689E0,4.34887E-1,1.3161465E0,-2.6266214E-1,-1.10808566E-1,4.1641E0,1.1487561E1,-3.7013394E-1,-3.3042827E-1,-3.296851E-1,-2.0242658E-1,2.449151E-2,2.826092E-1,4.597582E-1,-1.1349501E-1,1.1632784E-1,3.0035737E-1,-2.2484806E-1,3.652305E-1,-2.8289878E-1,1.2649243E-2,-3.0214334E-1,-3.601283E-1,1.1705249E1,7.1071153E0,1.7212582E1,8.123452E-1,2.4770737E0,1.6747988E0,-3.385329E-1,-2.702132E-1,4.7216853E-1,-2.0667599E-1,-2.5143108E-1,-3.6411155E-2,8.899719E-2,6.5135014E-1,-7.0244265E-1,8.3348255E0,-1.5747504E-1,2.0496104E-2,1.0360938E0,1.2711648E0,-3.9427512E0,-3.222814E0,2.7727845E-1,7.638528E-1,-2.5224948E-2,1.4954922E0,2.659273E-1,1.2349423E0,7.6904287E0,1.3247618E1,-3.3170936E-1,-2.1714471E-1,2.156069E0,2.630569E-1,-3.5143372E-1,-2.2978888E-1,-3.6025676E-1,-1.17869E-1,-2.0590372E0,-9.361269E-1,-2.9598281E0,-1.7533662E0,-1.9964181E-1,-2.8667871E-3,-4.0294608E-1,7.830604E-2,1.7401648E-1,7.7674997E-1,-2.3006347E-1,-4.0623035E-2,2.1668795E-1,-6.969916E-2,6.8131536E-1,1.3798904E0,-1.8284683E-1,4.7559673E-1,-3.6775768E-1,-1.606071E-1,5.3357804E-1,-1.129532E-1,-2.9966983E-1,2.3405802E-1,1.3888419E0,5.867614E0,1.0439197E0,1.0108554E-1,2.4141163E-1,-3.6971693E0,-2.5217578E-1,-1.699442E-1,3.7374273E-1,8.8978875E-1,-1.2192532E-1,-3.9165806E-2,3.8226534E-2,-3.9454946E-1,9.5147276E-1,3.5317776E0,3.2264472E-3,-3.7363536E0,-4.9176398E-1,1.6251183E0,-4.1227616E-2,-3.7670043E0,-1.07614115E-1,-3.813301E-1,3.2604095E-1,8.1482166E-1,1.18843034E-1,2.3004225E-1,6.6746406E-2,-5.183729E-2,-3.8277563E-2,-1.4291452E-1,-6.349973E-2,-1.02648735E-2],"categories":[],"categories_nodes":[],"categories_segments":[],"categories_sizes":[],"default_left":[1,1,1,0,1,1,1,1,1,1,1,0,0,0,0,1,0,0,1,1,0,1,1,1,0,0,0,1,1,1,0,0,0,0,1,0,0,0,0,0,0,0,0,0,0,1,0,1,1,1,0,0,0,0,0,0,1,1,1,0,0,0,0,1,1,0,0,1,1,0,0,0,0,0,1,0,1,0,0,1,0,0,0,0,1,0,1,0,0,0,0,1,0,0,0,0,0,0,0,0,0,1,1,1,0,0,0,1,1,1,0,0,0,0,0,0,0,1,0,1,0,1,1,0,0,0,0,0,0,0,0,0,0,1,0,0,0,1,1,1,0,1,1,0,0,1,1,0,0,0,0,1,0,0,1,0,1,0,0,1,0,1,0,0,0,0,0,0,0,0,0,0,0,0,0,0,1,0,1,0,0,0,0,1,0,0,0,0,0,0,0,0,0,0,0,1,0,0,0,0,1,1,0,0,0,0,0,0,0,0,0,1,1,1,0,0,0,0,0,0,0,0,0,0,1,0,0,0,0,0,0,0,0,0,0,1,1,0,0,0,0,0,0,0,0,0,0,0,0,0,0,0,0,0,0,0,0,0,0,0,0,0,1,0,0,0,0,0,1,1,0,0,0,0,0,1,1,0,1,0,0,0,0,1,0,0,0,0,0,0,0,0,0,0,0,0,0,0,0,0,0,0,0,0,0,0,0,0,0,0,0,0,0,0,0,0,0,0,0,0,0,0,0,0,0,0,1,1,0,0,0,0,0,0,0,0,0,0,0,1,1,0,0,0,0,0,0,0,0,0,0,0,0,0,0,0,0,0,0,0,0,0,0,0,0,0,0,0,0,0,0,0,0,0,0,0,0,1,1,0,0,0,0,0,0,0,0,0,0,0,0,0,0,0,0,0,0,0,0,0,0,1,0,1,1,0,0,0,0,0,0,0,0,0,0,0,0,0,0,0,0,0,0,0,0,0,0,0,0,0,0,0,0,0,0,0,0,0,0,0,0,0,0,0,0,0,0,0,0,0,0,0,0,0,0,0,0,0,0],"id":1,"left_children":[1,13,3,5,21,15,7,9,17,11,23,39,25,19,61,79,53,33,109,63,27,101,47,145,111,31,411,57,29,43,55,-1,-1,91,35,37,65,-1,-1,77,41,-1,-1,49,45,265,87,73,83,115,51,-1,-1,199,59,67,81,107,103,75,97,123,305,137,121,-1,-1,71,69,-1,-1,-1,-1,153,95,143,113,-1,-1,151,135,93,89,119,85,191,99,-1,-1,-1,-1,359,165,-1,-1,127,117,245,105,187,233,131,267,195,207,-1,-1,149,261,133,139,217,125,-1,-1,-1,-1,193,129,169,339,235,141,223,159,-1,-1,221,147,-1,-1,161,181,185,227,175,363,219,177,237,205,377,201,-1,-1,167,253,-1,-1,271,257,179,213,291,155,157,163,-1,-1,317,279,173,171,-1,-1,-1,-1,-1,-1,331,215,249,251,319,337,313,189,211,229,247,239,243,183,299,259,-1,-1,-1,-1,-1,-1,203,371,-1,-1,335,197,-1,-1,297,401,285,241,-1,-1,-1,-1,231,209,-1,-1,263,333,321,329,-1,-1,-1,-1,225,269,-1,-1,277,255,361,369,-1,-1,281,293,-1,-1,-1,-1,403,307,-1,-1,-1,-1,-1,-1,287,273,-1,-1,-1,-1,-1,-1,-1,-1,-1,-1,289,301,-1,-1,-1,-1,347,349,-1,-1,-1,-1,275,325,419,323,-1,-1,-1,-1,283,309,387,303,391,365,-1,-1,393,413,-1,-1,-1,-1,295,315,373,407,-1,-1,-1,-1,405,355,-1,-1,-1,439,357,385,425,429,353,375,343,311,-1,-1,-1,-1,-1,-1,455,345,-1,-1,-1,-1,-1,-1,383,327,399,395,-1,-1,-1,-1,-1,-1,-1,-1,-1,-1,351,341,-1,-1,-1,-1,421,381,-1,-1,-1,-1,-1,-1,-1,-1,-1,-1,-1,-1,-1,-1,-1,-1,389,409,367,-1,-1,-1,-1,-1,-1,-1,-1,-1,-1,-1,379,427,-1,-1,-1,-1,437,397,-1,-1,-1,-1,-1,-1,433,415,-1,-1,-1,-1,-1,-1,-1,-1,431,435,423,417,-1,-1,-1,-1,-1,-1,-1,-1,-1,-1,-1,-1,-1,-1,-1,-1,-1,-1,-1,-1,443,449,-1,-1,453,441,-1,-1,-1,-1,-1,-1,-1,-1,-1,-1,-1,445,457,451,-1,447,-1,-1,-1,-1,-1,-1,-1,-1,-1,-1,-1,-1],"loss_changes":[1.0578471E6,1.8169888E5,5.532471E5,2.7513038E5,7.878798E4,1.7574661E5,2.2707525E5,1.89681E5,8.885103E4,2.3017875E5,7.3717695E4,4.5565562E4,6.8708625E4,8.427816E4,2.1029453E4,1.3655848E4,3.2080344E4,4.641289E4,7.2710947E3,2.0931188E4,6.059496E4,8.70152E3,4.0175297E4,4.6222217E3,7.1373594E3,5.3424375E4,1.1953888E2,2.779311E4,7.562097E4,4.2745125E4,2.8037992E4,0E0,0E0,9.870415E3,5.1941406E4,5.0366273E4,2.0755156E4,0E0,0E0,1.4647594E4,4.5496312E4,0E0,0E0,3.7169938E4,7.741803E4,9.847776E2,1.0144703E4,1.8111215E4,1.0544074E4,6.971883E3,5.036241E4,0E0,0E0,2.1465525E3,2.2289469E4,2.0494844E4,1.3442678E4,7.5437344E3,8.222339E3,1.5377227E4,8.937E3,5.849E3,6.80759E2,5.07275E3,5.953345E3,0E0,0E0,1.9569488E4,2.2418555E4,0E0,0E0,0E0,0E0,3.6122178E3,9.603951E3,4.728801E3,7.0417344E3,0E0,0E0,3.6572441E3,5.336947E3,9.678919E3,9.87693E3,6.2669395E3,1.5557805E4,2.1887043E3,8.82302E3,0E0,0E0,0E0,0E0,3.6249023E2,3.1876558E3,0E0,0E0,5.659747E3,6.499119E3,1.1921621E3,7.6510312E3,2.2162188E3,1.3535454E3,5.448591E3,9.7546875E2,2.1611528E3,1.9719521E3,0E0,0E0,3.7063516E3,1.0176094E3,5.38773E3,4.8725073E3,1.7398203E3,5.7773984E3,0E0,0E0,0E0,0E0,2.1787427E3,5.4820723E3,2.762746E3,5.511626E2,1.3489062E3,4.763412E3,1.6688008E3,3.5885312E3,0E0,0E0,1.6946013E3,3.9972285E3,0E0,0E0,3.3223926E3,2.4309126E3,2.3622607E3,1.5580879E3,2.5603638E3,3.5524463E2,1.7197188E3,2.4871406E3,1.3251254E3,2.0285405E3,3.2303052E2,2.1266318E3,0E0,0E0,2.856559E3,1.1264292E3,0E0,0E0,9.435818E2,1.0915723E3,2.486334E3,1.8300742E3,7.7654395E2,5.289099E3,4.5408984E3,3.2202651E3,0E0,0E0,6.273594E2,8.704922E2,2.5636133E3,2.6943765E3,0E0,0E0,0E0,0E0,0E0,0E0,5.7363776E2,1.7675215E3,1.1455488E3,1.1372777E3,6.255156E2,5.5281287E2,6.416211E2,2.2136294E3,1.9071641E3,1.4623965E3,1.1753574E3,1.3202612E3,1.2151654E3,3.699862E3,7.0419763E2,1.0785713E3,0E0,0E0,0E0,0E0,0E0,0E0,2.0844482E3,3.4825308E2,0E0,0E0,5.582998E2,2.7987747E3,0E0,0E0,7.442779E2,1.5101465E2,8.156633E2,1.300479E3,0E0,0E0,0E0,0E0,1.3968103E3,2.2394944E3,0E0,0E0,9.886328E2,5.693633E2,6.07504E2,5.8100073E2,0E0,0E0,0E0,0E0,1.564375E3,9.6497656E2,0E0,0E0,8.792329E2,1.1022617E3,3.5603125E2,3.4829297E2,0E0,0E0,8.309844E2,7.7441565E2,0E0,0E0,0E0,0E0,1.4717407E2,6.719169E2,0E0,0E0,0E0,0E0,0E0,0E0,8.121021E2,9.2704065E2,0E0,0E0,0E0,0E0,0E0,0E0,0E0,0E0,0E0,0E0,7.8997266E2,7.0290234E2,0E0,0E0,0E0,0E0,4.891875E2,4.3833447E2,0E0,0E0,0E0,0E0,9.239004E2,5.836836E2,8.241016E1,5.977705E2,0E0,0E0,0E0,0E0,8.18541E2,6.65583E2,2.2048218E2,7.0280273E2,1.9174316E2,3.5140625E2,0E0,0E0,1.8868555E2,1.1222503E2,0E0,0E0,0E0,0E0,7.663301E2,6.3766406E2,3.461936E2,1.434834E2,0E0,0E0,0E0,0E0,1.4526118E2,3.7669055E2,0E0,0E0,0E0,1.792163E1,3.649271E2,2.256023E2,7.480075E1,4.692688E1,4.1633362E2,3.2418094E2,4.9844727E2,9.3316406E2,0E0,0E0,0E0,0E0,0E0,0E0,6.574168E-1,4.9389453E2,0E0,0E0,0E0,0E0,0E0,0E0,2.4745312E2,1.4838385E3,1.6480255E2,1.8541675E2,0E0,0E0,0E0,0E0,0E0,0E0,0E0,0E0,0E0,0E0,4.2173193E2,5.87947E2,0E0,0E0,0E0,0E0,8.045624E1,3.0684375E2,0E0,0E0,0E0,0E0,0E0,0E0,0E0,0E0,0E0,0E0,0E0,0E0,0E0,0E0,0E0,0E0,2.0607422E2,1.3888574E2,3.7873438E2,0E0,0E0,0E0,0E0,0E0,0E0,0E0,0E0,0E0,0E0,0E0,3.1218765E2,5.1096893E1,0E0,0E0,0E0,0E0,2.1878906E1,1.844458E2,0E0,0E0,0E0,0E0,0E0,0E0,3.3567993E1,8.689551E1,0E0,0E0,0E0,0E0,0E0,0E0,0E0,0E0,4.3302612E1,3.2203003E1,7.5999756E1,8.251456E1,0E0,0E0,0E0,0E0,0E0,0E0,0E0,0E0,0E0,0E0,0E0,0E0,0E0,0E0,0E0,0E0,0E0,0E0,0E0,0E0,9.686028E0,3.1634521E0,0E0,0E0,1.6408277E0,1.4295654E1,0E0,0E0,0E0,0E0,0E0,0E0,0E0,0E0,0E0,0E0,0E0,8.228027E0,1.0202104E-1,2.5742607E0,0E0,7.731201E0,0E0,0E0,0E0,0E0,0E0,0E0,0E0,0E0,0E0,0E0,0E0,0E0],"parents":[2147483647,0,0,2,2,3,3,6,6,7,7,9,9,1,1,5,5,8,8,13,13,4,4,10,10,12,12,20,20,28,28,25,25,17,17,34,34,35,35,11,11,40,40,29,29,44,44,22,22,43,43,50,50,16,16,30,30,27,27,54,54,14,14,19,19,36,36,55,55,68,68,67,67,47,47,59,59,39,39,15,15,56,56,48,48,84,84,46,46,82,82,33,33,81,81,74,74,60,60,86,86,21,21,58,58,98,98,57,57,18,18,24,24,76,76,49,49,96,96,83,83,64,64,61,61,112,112,95,95,118,118,101,101,109,109,80,80,63,63,110,110,122,122,75,75,23,23,128,128,107,107,79,79,73,73,154,154,155,155,124,124,131,131,156,156,92,92,145,145,119,119,162,162,161,161,135,135,138,138,151,151,132,132,182,182,133,133,99,99,176,176,85,85,117,117,103,103,196,196,53,53,142,142,191,191,140,140,104,104,208,208,177,177,152,152,170,170,111,111,137,137,127,127,123,123,219,219,134,134,178,178,207,207,100,100,121,121,139,139,180,180,202,202,181,181,97,97,179,179,171,171,172,172,146,146,224,224,150,150,184,184,108,108,211,211,45,45,102,102,220,220,149,149,244,244,267,267,223,223,160,160,229,229,275,275,201,201,243,243,255,255,153,153,230,230,289,289,199,199,183,183,256,256,278,278,62,62,236,236,276,276,310,310,175,175,290,290,159,159,173,173,213,213,270,270,268,268,326,326,214,214,169,169,212,212,195,195,174,174,120,120,340,340,309,309,318,318,261,261,262,262,339,339,307,307,298,298,303,303,91,91,225,225,136,136,280,280,365,365,226,226,192,192,291,291,308,308,141,141,377,377,346,346,325,325,304,304,277,277,363,363,279,279,283,283,328,328,384,384,327,327,200,200,235,235,297,297,292,292,364,364,26,26,284,284,392,392,404,404,269,269,345,345,403,403,305,305,378,378,306,306,401,401,391,391,402,402,383,383,302,302,430,430,425,425,442,442,446,446,426,426,444,444,429,429,317,317,443,443],"right_children":[2,14,4,6,22,16,8,10,18,12,24,40,26,20,62,80,54,34,110,64,28,102,48,146,112,32,412,58,30,44,56,-1,-1,92,36,38,66,-1,-1,78,42,-1,-1,50,46,266,88,74,84,116,52,-1,-1,200,60,68,82,108,104,76,98,124,306,138,122,-1,-1,72,70,-1,-1,-1,-1,154,96,144,114,-1,-1,152,136,94,90,120,86,192,100,-1,-1,-1,-1,360,166,-1,-1,128,118,246,106,188,234,132,268,196,208,-1,-1,150,262,134,140,218,126,-1,-1,-1,-1,194,130,170,340,236,142,224,160,-1,-1,222,148,-1,-1,162,182,186,228,176,364,220,178,238,206,378,202,-1,-1,168,254,-1,-1,272,258,180,214,292,156,158,164,-1,-1,318,280,174,172,-1,-1,-1,-1,-1,-1,332,216,250,252,320,338,314,190,212,230,248,240,244,184,300,260,-1,-1,-1,-1,-1,-1,204,372,-1,-1,336,198,-1,-1,298,402,286,242,-1,-1,-1,-1,232,210,-1,-1,264,334,322,330,-1,-1,-1,-1,226,270,-1,-1,278,256,362,370,-1,-1,282,294,-1,-1,-1,-1,404,308,-1,-1,-1,-1,-1,-1,288,274,-1,-1,-1,-1,-1,-1,-1,-1,-1,-1,290,302,-1,-1,-1,-1,348,350,-1,-1,-1,-1,276,326,420,324,-1,-1,-1,-1,284,310,388,304,392,366,-1,-1,394,414,-1,-1,-1,-1,296,316,374,408,-1,-1,-1,-1,406,356,-1,-1,-1,440,358,386,426,430,354,376,344,312,-1,-1,-1,-1,-1,-1,456,346,-1,-1,-1,-1,-1,-1,384,328,400,396,-1,-1,-1,-1,-1,-1,-1,-1,-1,-1,352,342,-1,-1,-1,-1,422,382,-1,-1,-1,-1,-1,-1,-1,-1,-1,-1,-1,-1,-1,-1,-1,-1,390,410,368,-1,-1,-1,-1,-1,-1,-1,-1,-1,-1,-1,380,428,-1,-1,-1,-1,438,398,-1,-1,-1,-1,-1,-1,434,416,-1,-1,-1,-1,-1,-1,-1,-1,432,436,424,418,-1,-1,-1,-1,-1,-1,-1,-1,-1,-1,-1,-1,-1,-1,-1,-1,-1,-1,-1,-1,444,450,-1,-1,454,442,-1,-1,-1,-1,-1,-1,-1,-1,-1,-1,-1,446,458,452,-1,448,-1,-1,-1,-1,-1,-1,-1,-1,-1,-1,-1,-1],"split_conditions":[3.0483395E2,3.350732E2,4.8968516E-2,3E0,5.63E-1,7.816667E-1,7.096667E1,1.5E1,5.2838696E1,2E0,4.5442545E2,6.84469E2,4E0,1.28001E0,6.396956E0,6.286E-1,3.000001E1,3.000001E1,2E0,1.479E2,3E0,8.575204E1,3.5384283E2,3.877E-2,3.1389175E2,9.230417E2,1.0127471E3,1.0153962E0,1.8463037E1,4.676341E0,7.93E1,1.6469668E0,2.5600672E0,3.239E0,9.333333E-1,2.256E-1,2.964953E-3,2.54384E-1,1.0469644E0,1.2567771E1,7.1069903E0,2.638088E0,1.028305E0,1.4344451E0,4E0,6.506974E1,4.4555074E-1,7.8371067E0,2E0,2E0,3E0,-1.5076685E-1,9.231054E-2,6E0,6E0,6.914192E0,6.291E0,5.4768147E1,4.072551E1,5.9418056E1,6.1935E2,6.267E2,8.00001E0,7.8063786E-2,3.7201834E-1,8.892504E0,1.6131483E0,1.0333333E0,3E0,2.846174E-1,1.0510113E0,5.043008E-1,3.0074573E0,1.239E1,1.9E0,4.6421045E2,2.719E1,1.1510876E0,5.1863986E-1,2.672375E1,2.559E1,4.7833332E-1,2.1491401E0,1E-1,2.506E0,3.968E2,8.2875E0,1.8245878E0,3.4431405E0,6.0293083E0,1.1643797E0,5.2058E-1,8.17E1,1.9547049E0,5.6043606E-2,1.562E1,3E0,1.265E1,1.3025E1,3.05E0,2.3873041E1,9.91E2,3.6385226E-1,2E0,7.4196653E0,2.2226238E0,8.0585784E-1,7.9201684E0,4.12E1,1.2062E3,3.296385E-1,4.33E0,2E0,4.101997E-1,8.363698E-1,-3.5877383E-1,-9.964259E-2,4.8416666E2,7.64257E-2,5.004237E-2,9.898333E2,3.979528E-1,2.5125E2,7.46E-1,4.616766E-1,1.2634451E0,8.142295E-1,1.6612E3,6.653787E1,1.461175E0,4.1352177E-1,1.4946667E1,1.5744733E3,5.1045667E2,3.7665356E2,3.000001E1,3.5944445E0,2.87E0,1.88E0,7.1836516E-2,6.34E-1,2.2678992E3,2.799E1,1.857199E-2,3.430464E-1,2.0375E2,1.6218056E1,3.9238844E-2,2.2958103E-1,1.656E1,6E0,2.5250125E-1,1.0259471E3,6E0,6.44E-1,4E0,1.4E-2,-1.7442307E-1,1.5045695E-1,6.09031E-1,8.745059E-1,4.978E0,8.00001E0,2.6901862E-1,-2.2256205E-2,5.3017104E-1,1.1050083E-1,4.6293296E-2,3.943325E-1,7.867932E-1,7.380529E2,1.951222E3,3.000001E1,2.57E-1,4.0333333E0,2.3098521E-1,6.2436E-2,4E0,2.337624E0,1.00749615E3,3.000001E1,9.4575073E2,8.00001E0,2.2921853E-1,2E0,-2.2368577E-1,2.9285643E-2,3.2878194E0,2.0308557E0,-2.3797655E-2,3.99982E-1,2.939E1,3E0,-1.6500744E-1,3.6765045E-1,3.48E-1,2E0,-3.304484E-1,8.926581E-2,4.0758426E2,1.1837E3,6.166667E-1,5.899E1,5.697657E-1,2.9070911E0,1.287826E0,4.816807E-1,3.587E2,1.80375E1,1.6271544E0,2.7543208E-1,4.9410492E1,2.471431E0,1.719E2,3.0787127E0,4.554774E-1,9.9038523E-1,5.5160266E-1,7.71936E-1,4E0,3.606E1,-2.4307051E-1,4.1841026E-2,2.6181324E0,4.6E-1,4.8041162E0,1.4094042E1,4.8143893E-1,2.816449E0,3.4103E2,6.026567E0,1.3159603E-1,5.328476E-1,5.325107E-1,1.5899743E0,2.7296057E0,3.2265533E2,-1.2866084E-1,2.487859E-1,-2.8924578E-1,-6.34609E-2,3.438012E-1,9.325968E-1,4.7610406E2,8.00001E0,1.3538265E0,4.7564775E-1,-2.9528016E-1,-1.7202444E-1,-2.0263918E-1,-4.549077E-2,5.5327725E-1,8.894439E-2,3.118753E-1,9.499648E-1,3.56216E-1,2.569E1,-3.364184E-1,-2.051215E-1,4.3596697E-1,1.3245434E0,3.2476974E-1,2.8055495E-1,-3.312603E-1,-2.3097585E-1,-1.7363118E-1,2.4104725E-1,6.6108495E-1,3.081E2,5.9924895E-1,8.74E1,1.0393101E-1,-1.3141559E-1,1.0034615E-1,7.469048E-1,9.32E2,3.576E0,1.546E1,1.7837E1,6.006E2,5.574E1,-2.871309E-1,-1.7473815E-1,3.1E0,7.539498E1,1.1008027E-2,3.5085037E-1,-2.310113E-1,1.6731322E-1,3.5357E-1,1.7948334E1,7.912234E-2,9.7E0,1.1425737E0,1.381741E-1,8.817176E-1,-1.1456902E-2,2.1646666E2,2.9786368E2,-3.7069354E-2,4.7683793E-1,7.889026E-2,2.924E1,8.649928E-1,1.74E1,3.64E-1,5.37E1,1.4190416E-2,6.7977985E2,2.43E1,2.099E2,1.9097531E0,6.524534E-2,-2.0151618E-1,5.957318E-2,7.4657077E-1,1.2433633E0,2.498E1,9.166667E-1,-2.1640961E-1,-3.056118E-1,-1.2142229E-1,6.8698895E-1,-1.7994784E-1,-2.9279715E-1,3.7851795E1,2.541125E1,1.348324E1,2.5841E1,1.0209486E0,2.1785925E-1,1.540259E-1,6.8123937E-1,-2.4297129E-1,-1.1625483E-1,-2.8959188E-1,-1.4705992E-1,-1.0725837E-1,1.4630502E-1,3.982E2,8.53E1,4.34887E-1,1.3161465E0,-2.6266214E-1,-1.10808566E-1,1.588886E2,3E0,-3.7013394E-1,-3.3042827E-1,-3.296851E-1,-2.0242658E-1,2.449151E-2,2.826092E-1,4.597582E-1,-1.1349501E-1,1.1632784E-1,3.0035737E-1,-2.2484806E-1,3.652305E-1,-2.8289878E-1,1.2649243E-2,-3.0214334E-1,-3.601283E-1,7.1637654E0,9.178606E2,2.3852454E2,8.123452E-1,2.4770737E0,1.6747988E0,-3.385329E-1,-2.702132E-1,4.7216853E-1,-2.0667599E-1,-2.5143108E-1,-3.6411155E-2,8.899719E-2,6.5135014E-1,2.0652E-1,8.746869E1,-1.5747504E-1,2.0496104E-2,1.0360938E0,1.2711648E0,1.1E-1,1.0229956E3,2.7727845E-1,7.638528E-1,-2.5224948E-2,1.4954922E0,2.659273E-1,1.2349423E0,1.287E2,5.9004515E-1,-3.3170936E-1,-2.1714471E-1,2.156069E0,2.630569E-1,-3.5143372E-1,-2.2978888E-1,-3.6025676E-1,-1.17869E-1,3.913231E2,2.3825E1,3.2796637E2,7.9E-1,-1.9964181E-1,-2.8667871E-3,-4.0294608E-1,7.830604E-2,1.7401648E-1,7.7674997E-1,-2.3006347E-1,-4.0623035E-2,2.1668795E-1,-6.969916E-2,6.8131536E-1,1.3798904E0,-1.8284683E-1,4.7559673E-1,-3.6775768E-1,-1.606071E-1,5.3357804E-1,-1.129532E-1,-2.9966983E-1,2.3405802E-1,1.568E0,9.42E0,1.0439197E0,1.0108554E-1,6.093333E1,1.386363E2,-2.5217578E-1,-1.699442E-1,3.7374273E-1,8.8978875E-1,-1.2192532E-1,-3.9165806E-2,3.8226534E-2,-3.9454946E-1,9.5147276E-1,3.5317776E0,3.2264472E-3,5.1E1,8.67E0,1.79E1,-4.1227616E-2,2.6457513E-2,-1.07614115E-1,-3.813301E-1,3.2604095E-1,8.1482166E-1,1.18843034E-1,2.3004225E-1,6.6746406E-2,-5.183729E-2,-3.8277563E-2,-1.4291452E-1,-6.349973E-2,-1.02648735E-2],"split_indices":[5,2,43,107,4,68,1,104,89,106,3,5,105,46,112,4,104,104,106,48,107,1,87,47,89,5,5,4,5,112,1,0,0,112,30,4,75,0,0,64,64,0,0,88,106,79,22,97,106,106,106,0,0,105,105,64,35,100,3,96,48,24,107,69,73,0,0,35,106,0,0,0,0,0,35,5,0,0,0,60,56,60,65,47,35,86,29,0,0,0,0,4,1,0,0,0,107,64,64,35,60,3,47,106,65,0,0,86,49,3,4,102,105,0,0,0,0,80,23,46,2,4,3,66,42,0,0,53,100,0,0,54,53,49,85,104,65,112,30,69,33,52,0,0,0,3,60,0,0,11,105,19,5,105,112,105,53,0,0,57,72,33,106,0,0,0,0,0,0,71,5,52,104,42,54,69,25,106,4,5,104,52,107,77,106,0,0,0,0,0,0,11,107,0,0,48,105,0,0,25,52,112,13,0,0,0,0,3,98,0,0,5,5,2,61,0,0,0,0,106,26,0,0,65,42,88,60,0,0,51,97,0,0,0,0,112,80,0,0,0,0,0,0,82,107,0,0,0,0,0,0,0,0,0,0,42,0,0,0,0,0,4,4,0,0,0,0,55,2,77,1,0,0,0,0,49,112,0,53,2,1,0,0,33,79,0,0,0,0,43,64,69,35,0,0,0,0,80,85,0,0,0,0,26,0,42,16,23,84,0,48,0,0,0,0,0,0,0,35,0,0,0,0,0,0,86,60,7,11,0,0,0,0,0,0,0,0,0,0,48,17,0,0,0,0,51,106,0,0,0,0,0,0,0,0,0,0,0,0,0,0,0,0,97,5,84,0,0,0,0,0,0,0,0,0,0,0,47,5,0,0,0,0,113,5,0,0,0,0,0,0,51,74,0,0,0,0,0,0,0,0,84,60,2,22,0,0,0,0,0,0,0,0,0,0,0,0,0,0,0,0,0,0,0,0,33,0,0,0,1,24,0,0,0,0,0,0,0,0,0,0,0,1,0,0,0,55,0,0,0,0,0,0,0,0,0,0,0,0],"split_type":[0,0,0,0,0,0,0,0,0,0,0,0,0,0,0,0,0,0,0,0,0,0,0,0,0,0,0,0,0,0,0,0,0,0,0,0,0,0,0,0,0,0,0,0,0,0,0,0,0,0,0,0,0,0,0,0,0,0,0,0,0,0,0,0,0,0,0,0,0,0,0,0,0,0,0,0,0,0,0,0,0,0,0,0,0,0,0,0,0,0,0,0,0,0,0,0,0,0,0,0,0,0,0,0,0,0,0,0,0,0,0,0,0,0,0,0,0,0,0,0,0,0,0,0,0,0,0,0,0,0,0,0,0,0,0,0,0,0,0,0,0,0,0,0,0,0,0,0,0,0,0,0,0,0,0,0,0,0,0,0,0,0,0,0,0,0,0,0,0,0,0,0,0,0,0,0,0,0,0,0,0,0,0,0,0,0,0,0,0,0,0,0,0,0,0,0,0,0,0,0,0,0,0,0,0,0,0,0,0,0,0,0,0,0,0,0,0,0,0,0,0,0,0,0,0,0,0,0,0,0,0,0,0,0,0,0,0,0,0,0,0,0,0,0,0,0,0,0,0,0,0,0,0,0,0,0,0,0,0,0,0,0,0,0,0,0,0,0,0,0,0,0,0,0,0,0,0,0,0,0,0,0,0,0,0,0,0,0,0,0,0,0,0,0,0,0,0,0,0,0,0,0,0,0,0,0,0,0,0,0,0,0,0,0,0,0,0,0,0,0,0,0,0,0,0,0,0,0,0,0,0,0,0,0,0,0,0,0,0,0,0,0,0,0,0,0,0,0,0,0,0,0,0,0,0,0,0,0,0,0,0,0,0,0,0,0,0,0,0,0,0,0,0,0,0,0,0,0,0,0,0,0,0,0,0,0,0,0,0,0,0,0,0,0,0,0,0,0,0,0,0,0,0,0,0,0,0,0,0,0,0,0,0,0,0,0,0,0,0,0,0,0,0,0,0,0,0,0,0,0,0,0,0,0,0,0,0,0,0,0,0,0,0,0,0,0,0,0,0,0,0,0,0,0,0,0,0,0,0],"sum_hessian":[1.99617E5,1.29001E5,7.0616E4,4.3694E4,2.6922E4,1.7219E4,2.6475E4,1.8015E4,8.46E3,1.2376E4,5.639E3,9.644E3,2.732E3,1.27696E5,1.305E3,7.044E3,1.0175E4,5.086E3,3.374E3,4.3825E4,8.3871E4,1.2443E4,1.4479E4,2.92E3,2.719E3,2.588E3,1.44E2,2.393E4,5.9941E4,5.2212E4,7.729E3,1.357E3,1.231E3,1.299E3,3.787E3,3.264E3,5.23E2,1.847E3,1.417E3,3.08E3,6.564E3,1.8E2,6.384E3,5.159E4,6.22E2,4.06E2,2.16E2,1.2709E4,1.77E3,8.07E3,4.352E4,3.1888E4,1.1632E4,1.201E3,8.974E3,2.835E3,4.894E3,1.9411E4,4.519E3,5.072E3,3.902E3,1.183E3,1.22E2,4.1665E4,2.16E3,3E0,5.2E2,1.25E2,2.71E3,2.251E3,4.59E2,6.5E1,6E1,5.572E3,7.137E3,3.448E3,1.624E3,4.25E2,2.655E3,6.043E3,1.001E3,4.873E3,2.1E1,1.404E3,3.66E2,1.98E2,1.68E2,1.63E2,5.3E1,5E0,1.6E1,5.65E2,7.34E2,2.6E1,4.847E3,5.314E3,1.823E3,1.102E3,2.8E3,1.03E2,6.5E1,6.397E3,6.046E3,3.351E3,1.168E3,3.8E1,2.762E3,5.045E3,1.4366E4,2.826E3,5.48E2,1.54E3,1.179E3,6.49E2,9.75E2,6.845E3,1.225E3,3.77E2,1.446E3,4.67E2,9.37E2,1.234E3,9.26E2,5.56E2,6.27E2,5.22E2,6.57E2,9E2,4.414E3,5.1E1,1.395E3,5.693E3,7.04E2,2.724E3,1.02E2,9.19E2,8.2E1,2.6309E4,1.5356E4,3.75E2,1.73E2,3.96E2,5.3E2,5.31E2,2.917E3,2.8E3,1.2E2,2.177E3,2.237E3,2.373E3,2.672E3,5.927E3,1.16E2,7.19E2,4.853E3,3.293E3,1.56E3,2.785E3,5.08E2,3.32E2,2.95E2,3.573E3,2.12E3,6.5E2,9.1E2,3.24E2,4.1E2,2.541E3,2.59E2,1.09E2,3.58E2,1.856E3,2.64E2,3.231E3,3.42E2,3.82E2,5.37E2,1.1617E4,3.739E3,4.488E3,1.439E3,5.09E2,1.95E2,1.31E2,6.4E1,2.284E3,4.4E2,2.1E1,8.2E1,1.91E2,3.46E2,1.43E2,5.5E1,2.71E2,1.06E2,2.335E3,1.016E3,1.96E2,8.2E2,7.05E2,4.96E2,3.7E2,1.6E2,1.4E2,3E0,4.1E1,1.32E2,1.116E3,5.2E1,1.9E1,3.3E1,7.67E3,3.947E3,6.9E1,4.7E1,8.3E1,2.75E2,6.06E2,9.34E2,2.3628E4,2.681E3,5.72E2,3.28E2,1.37E2,4.19E2,1.9628E4,4E3,1E2,2E0,3.676E3,6.3E1,1.022E3,9.4E1,4.9E1,1.6E1,5.02E2,7.32E2,2.09E2,1.66E2,3.38E2,1.101E3,6.4E1,9.6E1,2.84E2,2.25E2,1.5E1,1.087E3,3.487E3,1.001E3,9.23E2,9.33E2,7.2E1,1.92E2,4.6E1,7.4E1,4.15E2,4E0,1.622E3,1.05E3,2.2E1,4.2E1,1.3233E4,1.133E3,6.499E3,1.171E3,3.38E2,6.8E1,3.493E3,2.553E3,6.99E2,1.982E3,1.84E2,2.189E3,2.01E2,2.4E1,2.413E3,1.08E3,1.2E1,1.25E2,6.3E1,2.32E2,8.63E2,2.813E3,2.36E3,5.3E1,9.5E1,2.75E2,2.18E2,6.6E1,2.38E2,1.77E2,3.54E2,3.65E2,8E0,5.5E1,2.28E2,1E1,1.92E2,5.13E2,9.5E1,3.6E1,1E0,3E0,4.9E1,7.6E1,2.3E1,9.9E1,5.61E2,1.71E2,1.045E3,3.5E1,2E0,3.3E1,2.17E2,1.65E2,3.9E1,1.38E2,4E0,3.28E2,1.409E3,1.822E3,5.9E1,1E1,1.203E3,7.79E2,2.429E3,1.24E2,1.21E2,3E0,3.4E1,1.3E1,8.2E1,2.7E1,3.55E3,3.97E2,3.19E2,2.016E3,1.69E2,1.73E2,8.62E2,7.5E1,6.7E1,8E0,7.36E2,3.09E2,1.1E1,3.17E2,7.909E3,5.324E3,4.65E2,6.68E2,6.9E1,7.93E2,1.2E1,5.49E2,3.49E2,1.64E2,1.4E1,3.5E1,5.2E2,4.5E1,1.165E3,1.8463E4,4E1,4.2E1,2.25E2,7E0,1E1,2.15E2,1.027E3,2.973E3,8E0,4.7E1,2.46E2,1.08E2,1.61E2,1E1,3.93E2,3E0,2E2,1.93E2,1.7E2,1.47E2,1.716E3,7.13E2,1.3E1,6.3E1,1E0,1.1E1,3E0,3.7E1,1.3E1,5E1,2.198E3,1.62E2,2E0,1E0,5.4E2,1.73E2,4.5E1,7.6E1,2.85E2,2.11E2,3.52E2,1.5E2,5E1,1.42E2,3.59E2,6E0,5E0,3.7E1,9.1E1,5.3E1,2.6E1,2.7E1,5E0,4.5E1,1.49E2,1E0,6.77E2,2.2E1,9E0,2E0,3.5E2,2E0,1.9E1,4E0,2E0,1E0,3E0,9.6E1,1.22E2,1.63E2,4E0,9E0,1.38E2,7.3E1,1E0,1.715E3,1E0,2E0,1E0,9.5E1,2E0,1.7E1,1E0,9.4E1,2E0,9.2E1,3E0,1E0,1.2E1,5E0,2E0,1E0,2E0,2E0,1E0,1E0],"tree_param":{"num_deleted":"0","num_feature":"115","num_nodes":"459","size_leaf_vector":"1"}},{"base_weights":[1.7445959E-3,1.5751814E0,-1.6252462E0,8.704611E-1,5.041245E0,2.0105755E0,-1.4677763E0,-5.20076E-1,3.7875092E0,-4.5387232E-1,5.062392E0,1.0217518E1,3.8208115E0,-1.6480103E0,1.1877601E1,3.9079148E-1,1.4853393E0,4.5472803E0,-1.6852795E0,-1.4719589E0,3.1412413E0,-2.676991E0,-9.567792E-1,-1.0268047E0,1.3620408E1,1.0637616E0,5.843914E0,5.8169797E-2,-1.8017392E0,1.0782264E0,-2.4631667E0,-2.8880908E0,2.2076845E0,1.0377333E0,1.2807317E1,-2.2960608E-1,1.7578245E0,4.071458E-1,9.350814E-1,2.0567708E0,8.8716276E-2,-2.7869806E0,-7.63611E-1,-1.1045364E0,4.784086E0,-2.3104424E0,1.8111275E1,-2.8617678E0,-1.8695855E-1,5.02131E-1,-2.1429017E0,2.849526E-1,4.427687E0,-1.6738985E0,1.617525E0,-2.76707E-1,1.01270474E-1,-1.9180008E0,4.8082113E-1,-1.8970301E0,2.121512E1,3.49642E0,6.2318425E0,6.6152406E0,3.5263267E0,4.029517E0,7.051345E0,-1.9130894E0,1.2612961E-1,-2.9706788E0,-1.8085341E0,3.5247495E0,7.5698323E0,6.5905747E0,9.217194E0,5.145982E-1,7.7474993E-1,6.4072365E-1,1.1496619E0,2.9468417E0,-5.5741936E-1,7.2104454E-2,-3.174546E-1,2.527572E-2,5.9387083E0,4.28677E0,-2.0586993E-1,4.5807003E1,1.9341991E1,5.8804493E0,1.9805105E0,5.4511065E0,2.919693E1,-2.238944E0,-4.7934464E-1,-2.6434884E0,-1.5090388E0,-4.3883768E-1,-2.1592398E0,1.7503902E0,7.1691637E0,4.725732E-1,1.3654004E-1,-1.9710404E0,2.3154526E0,-1.9468983E-1,2.8130764E-2,2.5011215E0,6.5258017E0,-3.2450762E0,-2.0995755E0,4.2017484E0,-3.2616577E0,7.3018174E0,1.1683704E0,2.749137E1,1.5870769E1,7.885313E-1,2.5346735E0,1.3872852E0,1.6096937E1,5.1695096E-1,1.0200304E0,-2.130614E0,1.5277922E0,6.2369007E-1,3.350972E0,-7.6548404E-1,1.2695251E1,2.2753427E0,4.812649E0,7.2762427E0,2.8186386E0,2.4421592E0,7.326382E0,-2.4252148E-1,-5.6275602E-2,-2.0853305E0,1.6422267E0,5.0785347E1,-6.9665533E-1,-1.3717595E0,-2.8014214E0,-1.821414E-1,2.0930843E-1,-1.375314E0,7.53358E-1,4.611655E0,1.0814769E1,6.1218464E-1,1.7876532E0,6.0451617E0,5.447962E-1,1.2197454E0,4.2772994E0,9.488491E0,3.7989643E1,-1.732062E-1,-3.5139937E-3,-2.6458716E-1,-5.232158E-2,-1.7824757E0,1.0373278E0,3.3157487E0,-1.3809891E0,8.738234E-2,7.4714365E0,1.7715466E-1,9.1746294E-1,-5.742878E-1,5.100968E0,3.1200542E0,-1.0583356E-2,2.1908853E0,9.158659E0,-3.5488865E-1,4.4078544E-2,-1.8683372E0,-3.3199768E0,6.8556654E-1,1.9487946E-1,1.931563E-1,-8.214233E-2,-3.7738333E0,-2.1900926E0,-1.7469077E-1,-2.606524E-1,5.581781E-1,1.20487235E-1,-5.292713E-1,1.1893524E0,1.9147356E-1,-2.0658197E0,-2.1125417E0,-7.7358574E-1,-3.2230597E-2,1.8341391E-1,-3.0551083E0,-2.1361349E0,8.833951E-2,-5.608283E-1,3.4794736E0,2.1621075E1,1.2163985E0,9.4364636E-2,3.0101785E-1,2.9420985E-2,7.630641E-1,1.5477475E0,-2.4722154E-1,-1.3505863E-1,-1.2834139E0,1.324928E0,1.4275894E-1,7.360906E-1,9.7515135E0,4.945499E0,8.549344E0,2.1361311E1,4.130149E0,7.716971E0,-2.7529788E0,-9.634356E-1,-1.2376065E-1,2.1566808E0,4.5157343E-1,7.167837E-2,-2.288121E-1,4.6795517E-1,1.5738836E1,6.219041E0,1.6622119E-2,-1.8053652E-1,5.185358E-1,2.1020181E-1,3.796615E0,1.3891374E1,1.8341564E-1,2.1725724E0,-2.69757E-1,-3.4785074E-1,1.1000094E0,1.4630772E1,8.00639E-1,9.41356E-2,-2.4813623E0,6.3803167E0,3.3829328E-1,6.3781583E-1,1.0332428E0,2.0826461E0,-1.8945793E0,1.7136698E0,-2.7837632E0,1.710462E0,-3.1974587E0,-2.7672276E0,5.534168E-1,1.7426941E0,3.4449425E-2,3.6425012E-1,-2.938347E0,1.9481074E0,-7.0988667E-1,-2.6689446E0,-2.8691998E-1,9.331398E-1,4.0785127E0,1.1654576E0,-2.1965284E0,3.5373502E0,-3.604878E0,-2.368543E0,2.76353E0,7.050665E-1,3.635103E0,7.0566216E0,-3.0652115E-1,-1.9319634E-1,4.4761997E-1,-2.773084E-1,8.564891E0,4.5252824E0,4.0849358E-1,1.990688E0,-1.5866168E-1,1.2587095E0,-2.3572274E-1,-3.0121323E-1,4.3120393E-1,-2.1338189E-1,-3.8892515E-2,1.1555978E-1,6.401573E-1,4.428627E0,-3.104613E0,-1.9013574E0,1.9614149E0,9.604203E0,-7.568238E-1,1.9075704E0,-1.3766162E-1,4.9555454E-1,2.8721336E-1,6.885338E-1,3.835398E-1,-3.239503E-2,-2.178999E0,1.1377622E0,-2.6350853E0,-3.2621017E0,1.7991477E0,6.199297E0,6.635132E-2,1.3841342E0,6.355138E-2,3.443496E0,-2.7874131E0,4.08914E-1,-2.25816E0,-1.1111856E0,-1.2797686E-1,5.683736E-1,3.765775E-2,2.7850288E-1,7.228403E-1,1.1278771E0,1.3868251E1,3.0811744E0,2.4586439E-1,4.3934503E-1,-3.3208025E-1,-2.289388E-1,2.900616E1,1.2202276E0,-1.8154655E-1,1.3809803E-2,1.4280756E0,3.3735325E1,7.329777E-1,2.4653316E-1,-1.4679539E-2,-2.498707E-1,2.5643614E-1,8.295793E-1,-2.4185286E-1,-1.3771533E-2,-1.4014186E-1,-3.2264844E-1,1.9116168E-1,9.0521955E-1,-2.5738094E0,-3.7135231E0,-2.6689253E0,-3.1669421E0,-2.739581E-1,-1.8583049E-1,-3.1900653E-1,3.9416584E-1,7.7097243E-1,1.5085009E0,-2.9824194E-1,-1.02358736E-1,-5.2111536E-2,1.4831397E-1,3.5875633E0,7.2362775E-1,1.0497029E-1,-1.267017E-1,1.4545959E-1,7.107209E-1,2.131796E0,1.1437727E0,7.8103175E0,-1.3484384E0,-4.086799E-2,2.3866859E-1,-2.5289426E-2,9.8336095E-1,1.159668E-2,1.5231884E0,2.0596318E-1,2.6911303E-2,-2.5769785E-1,1.5180707E-1,-3.6760488E-1,-4.9964938E-1,-3.3229852E0,-3.0756145E0,-2.4776018E-1,-1.6894124E-1,-2.727111E-1,-3.297276E-2,-8.142922E-1,2.5902393E0,1.21565655E-1,6.9786215E-1,5.9956145E-1,3.1548735E-1,-3.0861232E-1,2.5056139E-2,-3.730882E-1,-1.9062124E-1,-1.5208666E-1,3.8292944E-1,-2.5492647E0,-3.481792E-1,-3.3454275E-1,-2.8478694E-1,-2.643389E-1,6.180812E-2,-1.4591843E-1,3.6937943E-1,1.6060087E-1,-9.518792E-2,-1.6631366E0,-3.2065055E0,3.3281824E-1,-2.1095303E-1,-2.362988E0,3.2395718E0,-2.9482183E-1,2.5296357E-1,-1.7448145E-1,-2.6092166E-1,8.0512923E-1,3.1586876E0,-4.0326174E-2,2.0239297E-1,5.5126685E-1,1.717548E0,-3.2348987E-1,1.0572374E-2,8.072588E-2,2.9249496E0,4.3720967E-1,1.3300225E-1,-6.0201924E-2,2.7688417E-1,-8.886046E-1,-2.727564E0,-2.333596E-1,2.1174988E-1,5.4904222E-2,-3.719016E-1,1.5678976E-1,8.5894054E-1,-2.4611215E-1,9.5551305E-2,8.454959E-3,-2.5389636E0,-3.836487E-1,1.7288962E-1,-3.8734318E-3,-2.7827744E0,-2.9557464E0,-1.3474034E-1,-1.1029579E-1,6.5911345E-2,-2.9440332E-2,-3.0134767E-1,7.121487E-2,4.1472092E-1,-7.456243E-2,-2.6526058E-1,3.4974695E-3,-6.418177E-2,4.7052264E-2,-4.5784023E-2],"categories":[],"categories_nodes":[],"categories_segments":[],"categories_sizes":[],"default_left":[1,1,0,1,1,0,1,1,0,1,0,0,0,0,0,0,0,1,0,1,1,1,1,0,0,0,0,1,0,0,1,1,1,0,0,0,0,0,0,0,0,1,0,1,1,0,0,0,1,0,1,1,0,1,0,0,0,0,0,1,0,1,1,0,0,0,0,0,1,1,1,1,0,1,1,0,0,0,0,0,0,0,0,1,1,0,0,0,0,0,0,1,0,0,0,1,0,0,1,1,1,0,0,0,0,0,0,0,1,0,1,0,0,0,0,0,0,0,0,0,0,0,0,0,1,0,0,1,1,0,0,0,0,0,0,0,0,1,1,0,0,1,1,0,0,0,1,1,0,0,0,0,0,0,0,0,0,0,0,0,0,0,0,1,1,0,0,0,0,0,1,0,0,0,1,0,0,1,0,0,0,0,0,1,1,0,0,0,0,0,1,1,0,0,0,0,0,1,1,0,0,0,0,0,0,0,0,0,0,0,0,0,1,0,0,1,0,0,0,0,0,0,0,1,1,0,0,0,0,0,1,0,0,0,0,1,0,0,0,0,0,1,0,0,0,0,1,0,0,0,0,0,1,1,0,0,1,0,0,0,0,0,0,0,1,0,0,0,1,0,0,1,0,0,0,0,0,0,0,0,0,0,0,0,0,0,0,0,0,0,0,0,0,0,0,0,1,1,0,1,1,0,0,0,0,0,0,0,0,1,0,0,0,0,0,0,0,0,0,0,1,0,0,0,0,0,0,0,0,0,0,0,0,0,0,0,0,0,0,0,0,0,0,0,0,0,0,0,0,0,0,1,0,1,0,0,0,0,0,0,0,0,0,0,0,0,0,0,0,0,0,0,0,0,1,0,0,0,0,0,0,0,0,0,0,0,0,1,1,0,0,0,0,1,0,0,0,0,0,0,0,0,0,0,0,0,0,0,0,0,0,0,0,0,0,0,1,0,0,0,0,0,0,0,0,0,0,0,0,0,0,0,0,0,0,0,0,0,0,0,0,0,0,0,0,0,0,0,0,0,0,0,0,0,1,0,0,0,0,0,0,0,0,0,0,0,0,0,0],"id":2,"left_children":[1,3,21,5,25,7,53,19,9,43,11,13,17,175,15,-1,-1,37,81,57,51,69,23,27,45,79,61,29,41,31,245,261,33,39,35,-1,-1,-1,-1,-1,-1,109,47,145,219,439,59,183,49,55,159,123,71,67,85,-1,-1,93,83,419,87,89,63,65,131,107,73,95,189,197,103,101,121,75,77,-1,-1,-1,-1,99,127,-1,-1,195,213,133,211,139,115,91,113,147,337,185,181,221,97,105,135,171,215,-1,-1,137,119,-1,-1,179,125,111,141,-1,239,229,151,129,117,-1,-1,169,155,-1,-1,347,205,-1,-1,161,201,-1,-1,281,153,267,173,-1,-1,177,165,275,-1,143,277,-1,-1,157,259,187,149,-1,-1,243,199,203,233,327,293,-1,-1,-1,-1,263,163,167,285,253,297,-1,-1,307,235,315,299,279,207,-1,-1,193,351,-1,-1,-1,-1,385,227,-1,-1,-1,-1,191,223,291,345,209,231,-1,-1,255,269,-1,-1,373,333,-1,-1,-1,-1,-1,-1,-1,-1,251,241,-1,-1,217,311,349,273,247,343,287,335,363,225,-1,-1,-1,-1,283,257,-1,-1,-1,-1,301,237,-1,-1,-1,-1,323,429,-1,-1,271,249,-1,-1,437,-1,289,427,421,305,309,317,-1,-1,-1,-1,361,395,341,265,-1,-1,303,381,295,371,401,331,-1,-1,-1,-1,-1,-1,-1,-1,325,397,-1,-1,-1,-1,-1,-1,-1,-1,-1,-1,-1,-1,415,319,403,359,367,369,-1,-1,-1,-1,-1,-1,383,375,405,387,313,339,-1,-1,413,329,353,393,389,321,-1,-1,-1,-1,-1,-1,379,377,-1,-1,-1,-1,425,-1,-1,-1,-1,365,-1,-1,-1,-1,-1,-1,-1,-1,-1,-1,-1,-1,391,443,355,357,-1,-1,-1,-1,-1,-1,-1,-1,-1,-1,-1,-1,-1,-1,-1,-1,433,-1,445,447,-1,-1,-1,-1,-1,-1,-1,-1,-1,-1,-1,-1,407,399,-1,-1,-1,-1,409,411,-1,-1,-1,-1,-1,-1,-1,-1,-1,-1,423,-1,-1,-1,-1,-1,-1,-1,-1,-1,417,431,-1,-1,449,461,-1,-1,-1,-1,-1,-1,-1,-1,-1,-1,-1,-1,457,435,-1,-1,-1,-1,441,453,-1,451,-1,-1,-1,-1,-1,-1,467,463,465,-1,-1,455,459,-1,-1,-1,-1,-1,-1,-1,-1,-1,-1,-1,-1,-1],"loss_changes":[5.111256E5,2.479225E5,6.9009484E4,2.2487344E5,5.4746938E4,2.549885E5,1.7586055E4,8.152914E4,1.8013453E5,2.6248053E4,1.6390344E5,9.7937125E4,8.258375E4,2.4275652E3,1.03368E5,0E0,0E0,4.164722E4,8.628152E3,1.61723125E4,1.7735363E4,9.723469E3,6.1277867E4,5.0220992E4,2.0574781E4,8.796799E3,1.29733125E4,6.4012254E4,3.5636547E4,7.938824E4,1.1694062E3,9.604219E2,1.7103444E5,3.651333E4,9.883066E4,0E0,0E0,0E0,0E0,0E0,0E0,5.6226094E3,2.0529172E4,3.4471094E3,1.6002812E3,3.5533386E1,1.395125E4,2.2326719E3,1.7941908E4,1.643409E4,2.823833E3,4.506498E3,9.415383E3,1.1159242E4,8.430679E3,0E0,0E0,6.9774688E3,8.585098E3,8.185169E1,8.050375E3,7.3102617E3,1.267825E4,1.20645E4,4.0185293E3,5.8974062E3,9.0955E3,6.7477266E3,2.1197114E3,2.0017969E3,6.466379E3,6.7025234E3,4.632242E3,1.2610094E4,1.02193125E4,0E0,0E0,0E0,0E0,6.721505E3,4.28095E3,0E0,0E0,2.0049752E3,1.6960684E3,3.9237588E3,1.7006876E3,3.7692227E3,4.7121562E3,7.7193125E3,5.3503105E3,3.435088E3,4.6597168E2,2.2303672E3,2.2761643E3,1.4959844E3,1.025025E4,6.048608E3,3.8898984E3,2.5084534E3,1.6400049E3,0E0,0E0,3.8344531E3,4.659367E3,0E0,0E0,2.3027812E3,4.374865E3,8.187211E3,3.6495059E3,0E0,1.3022891E3,1.4003262E3,3.2719082E3,4.086664E3,9.637225E3,0E0,0E0,2.5088523E3,2.967101E3,0E0,0E0,4.0302124E2,1.811302E3,0E0,0E0,2.7996853E3,1.8989714E3,0E0,0E0,8.155918E2,2.9847188E3,9.1237695E2,2.4734922E3,0E0,0E0,2.4031133E3,2.5824487E3,8.6112695E2,0E0,5.477004E3,8.2892773E2,0E0,0E0,2.8585234E3,1.0288092E3,2.2109346E3,3.3371553E3,0E0,0E0,1.2136494E3,1.996709E3,1.8408196E3,1.3125391E3,4.9045715E2,7.1098975E2,0E0,0E0,0E0,0E0,9.261028E2,3.040558E3,2.553179E3,7.897273E2,1.0579435E3,6.862573E2,0E0,0E0,6.2337933E2,1.311689E3,5.781118E2,6.541639E2,8.1785315E2,1.7646709E3,0E0,0E0,2.0438105E3,3.8481543E2,0E0,0E0,0E0,0E0,1.6694531E2,1.4309521E3,0E0,0E0,0E0,0E0,2.084634E3,1.4737122E3,7.178264E2,4.0838257E2,1.710875E3,1.3549338E3,0E0,0E0,1.0517969E3,9.0617773E2,0E0,0E0,2.8234784E2,4.807627E2,0E0,0E0,0E0,0E0,0E0,0E0,0E0,0E0,1.1114336E3,1.2588099E3,0E0,0E0,1.7015625E3,6.200288E2,3.9658203E2,8.825713E2,1.1508867E3,4.3802148E2,7.7728125E2,4.6952048E2,3.1555804E2,2.2658215E3,0E0,0E0,0E0,0E0,7.930127E2,1.0319272E3,0E0,0E0,0E0,0E0,6.3634033E2,1.3770583E3,0E0,0E0,0E0,0E0,5.109298E2,6.773779E1,0E0,0E0,8.983906E2,1.1371501E3,0E0,0E0,3.57248E1,0E0,7.5608984E2,6.84664E1,7.91109E1,6.280768E2,6.2075E2,5.5064844E2,0E0,0E0,0E0,0E0,3.2505078E2,1.4258513E2,4.4585345E2,1.3100442E3,0E0,0E0,6.3035474E2,1.9821481E2,6.8966113E2,2.8654053E2,1.3222656E2,4.8271484E2,0E0,0E0,0E0,0E0,0E0,0E0,0E0,0E0,5.0968457E2,1.4026599E2,0E0,0E0,0E0,0E0,0E0,0E0,0E0,0E0,0E0,0E0,0E0,0E0,8.7933105E1,5.503657E2,1.2290452E2,3.301797E2,3.0456186E2,2.911407E2,0E0,0E0,0E0,0E0,0E0,0E0,1.7606097E2,2.1342809E2,1.2119336E2,1.6603125E2,6.3356604E2,4.6314355E2,0E0,0E0,9.0805435E1,4.841123E2,3.745547E2,1.488608E2,1.643042E2,7.0832495E2,0E0,0E0,0E0,0E0,0E0,0E0,2.0451709E2,2.0510461E2,0E0,0E0,0E0,0E0,7.015576E1,0E0,0E0,0E0,0E0,3.0755566E2,0E0,0E0,0E0,0E0,0E0,0E0,0E0,0E0,0E0,0E0,0E0,0E0,1.5975854E2,2.2575195E1,3.6701953E2,3.4477148E2,0E0,0E0,0E0,0E0,0E0,0E0,0E0,0E0,0E0,0E0,0E0,0E0,0E0,0E0,0E0,0E0,4.043422E1,0E0,2.0576416E1,2.0296608E1,0E0,0E0,0E0,0E0,0E0,0E0,0E0,0E0,0E0,0E0,0E0,0E0,1.1511719E2,1.3478906E2,0E0,0E0,0E0,0E0,9.595201E1,9.476515E1,0E0,0E0,0E0,0E0,0E0,0E0,0E0,0E0,0E0,0E0,7.401074E1,0E0,0E0,0E0,0E0,0E0,0E0,0E0,0E0,0E0,1.05057E2,5.60166E1,0E0,0E0,1.2123642E1,3.928522E0,0E0,0E0,0E0,0E0,0E0,0E0,0E0,0E0,0E0,0E0,0E0,0E0,6.203997E0,3.5730713E1,0E0,0E0,0E0,0E0,2.5934185E1,7.1662903E0,0E0,9.696356E0,0E0,0E0,0E0,0E0,0E0,0E0,8.61804E-1,3.5247192E0,8.8705194E-1,0E0,0E0,7.934784E0,5.5657043E0,0E0,0E0,0E0,0E0,0E0,0E0,0E0,0E0,0E0,0E0,0E0,0E0,0E0],"parents":[2147483647,0,0,1,1,3,3,5,5,8,8,10,10,11,11,14,14,12,12,7,7,2,2,22,22,4,4,23,23,27,27,29,29,32,32,34,34,17,17,33,33,28,28,9,9,24,24,42,42,48,48,20,20,6,6,49,49,19,19,46,46,26,26,62,62,63,63,53,53,21,21,52,52,66,66,73,73,74,74,25,25,18,18,58,58,54,54,60,60,61,61,89,89,57,57,67,67,96,96,79,79,71,71,70,70,97,97,65,65,41,41,109,109,90,90,88,88,116,116,104,104,72,72,51,51,108,108,80,80,115,115,64,64,85,85,98,98,103,103,87,87,110,110,141,141,43,43,91,91,148,148,114,114,132,132,120,120,145,145,50,50,127,127,162,162,138,138,163,163,119,119,99,99,134,134,13,13,137,137,107,107,94,94,47,47,93,93,147,147,68,68,189,189,177,177,83,83,69,69,152,152,128,128,153,153,124,124,174,174,193,193,86,86,84,84,100,100,215,215,44,44,95,95,190,190,224,224,184,184,113,113,194,194,154,154,170,170,236,236,112,112,212,212,151,151,30,30,219,219,246,246,211,211,165,165,197,197,230,230,146,146,31,31,161,161,264,264,133,133,198,198,245,245,218,218,139,139,142,142,173,173,131,131,229,229,164,164,221,221,251,251,191,191,156,156,269,269,166,166,172,172,235,235,267,267,254,254,169,169,255,255,216,216,311,311,171,171,256,256,296,296,320,320,241,241,281,281,155,155,316,316,272,272,202,202,222,222,92,92,312,312,263,263,220,220,192,192,123,123,217,217,178,178,317,317,353,353,354,354,298,298,261,261,223,223,338,338,299,299,300,300,270,270,201,201,308,308,328,328,327,327,268,268,307,307,183,183,310,310,319,319,351,351,318,318,262,262,282,282,388,388,271,271,297,297,309,309,387,387,393,393,394,394,315,315,295,295,415,415,59,59,253,253,405,405,333,333,252,252,242,242,416,416,371,371,434,434,249,249,45,45,439,439,352,352,373,373,374,374,419,419,442,442,440,440,454,454,433,433,455,455,420,420,450,450,451,451,449,449],"right_children":[2,4,22,6,26,8,54,20,10,44,12,14,18,176,16,-1,-1,38,82,58,52,70,24,28,46,80,62,30,42,32,246,262,34,40,36,-1,-1,-1,-1,-1,-1,110,48,146,220,440,60,184,50,56,160,124,72,68,86,-1,-1,94,84,420,88,90,64,66,132,108,74,96,190,198,104,102,122,76,78,-1,-1,-1,-1,100,128,-1,-1,196,214,134,212,140,116,92,114,148,338,186,182,222,98,106,136,172,216,-1,-1,138,120,-1,-1,180,126,112,142,-1,240,230,152,130,118,-1,-1,170,156,-1,-1,348,206,-1,-1,162,202,-1,-1,282,154,268,174,-1,-1,178,166,276,-1,144,278,-1,-1,158,260,188,150,-1,-1,244,200,204,234,328,294,-1,-1,-1,-1,264,164,168,286,254,298,-1,-1,308,236,316,300,280,208,-1,-1,194,352,-1,-1,-1,-1,386,228,-1,-1,-1,-1,192,224,292,346,210,232,-1,-1,256,270,-1,-1,374,334,-1,-1,-1,-1,-1,-1,-1,-1,252,242,-1,-1,218,312,350,274,248,344,288,336,364,226,-1,-1,-1,-1,284,258,-1,-1,-1,-1,302,238,-1,-1,-1,-1,324,430,-1,-1,272,250,-1,-1,438,-1,290,428,422,306,310,318,-1,-1,-1,-1,362,396,342,266,-1,-1,304,382,296,372,402,332,-1,-1,-1,-1,-1,-1,-1,-1,326,398,-1,-1,-1,-1,-1,-1,-1,-1,-1,-1,-1,-1,416,320,404,360,368,370,-1,-1,-1,-1,-1,-1,384,376,406,388,314,340,-1,-1,414,330,354,394,390,322,-1,-1,-1,-1,-1,-1,380,378,-1,-1,-1,-1,426,-1,-1,-1,-1,366,-1,-1,-1,-1,-1,-1,-1,-1,-1,-1,-1,-1,392,444,356,358,-1,-1,-1,-1,-1,-1,-1,-1,-1,-1,-1,-1,-1,-1,-1,-1,434,-1,446,448,-1,-1,-1,-1,-1,-1,-1,-1,-1,-1,-1,-1,408,400,-1,-1,-1,-1,410,412,-1,-1,-1,-1,-1,-1,-1,-1,-1,-1,424,-1,-1,-1,-1,-1,-1,-1,-1,-1,418,432,-1,-1,450,462,-1,-1,-1,-1,-1,-1,-1,-1,-1,-1,-1,-1,458,436,-1,-1,-1,-1,442,454,-1,452,-1,-1,-1,-1,-1,-1,468,464,466,-1,-1,456,460,-1,-1,-1,-1,-1,-1,-1,-1,-1,-1,-1,-1,-1],"split_conditions":[7.126103E1,7.0678E2,1.28001E0,4.8968516E-2,1.7605E1,8.00001E0,2.852E1,1.137E2,2E0,1.162E2,5.406805E-1,3.862393E0,4E0,7.8733185E1,3.000001E1,3.9079148E-1,1.4853393E0,1.7695463E1,2.4293472E1,2.5291805E1,1.2417E0,3.296385E-1,6.85E0,1.243E1,3E0,3.000001E1,4.079422E-1,1.5E1,2.1072315E-1,8.00001E0,3.1897275E2,2.75996E2,1.126E0,-1.156625E0,2.986624E2,-2.2960608E-1,1.7578245E0,4.071458E-1,9.350814E-1,2.0567708E0,8.8716276E-2,1.754328E0,1.3972832E0,2.0642014E0,2.4339E1,6.843E1,3.000001E1,5.239227E-1,1.5E1,3.894991E0,2.5602345E1,6.415754E-1,3E0,4.9572407E1,2E0,-2.76707E-1,1.01270474E-1,6E0,7.628727E1,5.84628E1,3.914925E-1,3.7175746E0,1.5110973E0,1.61E-1,3.000001E1,1.549562E3,2.88561E3,1.4513333E1,1.845E0,3.094093E0,9.69E2,2.3955713E2,3.000001E1,2E0,3.020508E2,5.145982E-1,7.7474993E-1,6.4072365E-1,1.1496619E0,4E0,2.1195234E3,7.2104454E-2,-3.174546E-1,3.339E1,2.85E1,2.0179613E-1,5.167028E0,9.436E1,5.1989164E0,4.2182812E2,2E0,2.8107219E0,1.0882249E0,2E0,3.267911E1,7.7417E0,9.26029E-1,8.00001E0,1.718E0,1E-1,7.22618E1,4.725732E-1,1.3654004E-1,2.838E1,2.5472666E1,-1.9468983E-1,2.8130764E-2,2E0,6.903E0,7.482E1,5.616394E1,4.2017484E0,8.769651E1,6.5E-1,4.2893055E1,4.463389E0,1.6232467E-1,7.885313E-1,2.5346735E0,1.4312E3,4.747775E-1,5.1695096E-1,1.0200304E0,9.37E2,1.219E0,6.2369007E-1,3.350972E0,1.94E0,9.5875785E-2,2.2753427E0,4.812649E0,4.1606E0,3.4883335E1,1.375375E0,2.836988E2,-2.4252148E-1,-5.6275602E-2,1.227E1,1.537E2,8.35E1,-6.9665533E-1,9E0,3.754741E1,-1.821414E-1,2.0930843E-1,2.4726799E1,4.1880207E0,1.2166667E-1,3E0,6.1218464E-1,1.7876532E0,5.58875E2,2.5500938E1,1.207E-1,3.7343E1,2.75E1,2.7437963E0,-1.732062E-1,-3.5139937E-3,-2.6458716E-1,-5.232158E-2,8.00001E0,4E0,8.59E1,4.0581946E0,2.240349E0,2.799552E-1,1.7715466E-1,9.1746294E-1,1.475E1,2.84E0,1.0141527E-1,2.5900098E2,3.59E-1,2.941E0,-3.5488865E-1,4.4078544E-2,7.8E1,6E0,6.8556654E-1,1.9487946E-1,1.931563E-1,-8.214233E-2,4.3093E1,8.1E-1,-1.7469077E-1,-2.606524E-1,5.581781E-1,1.20487235E-1,2.947332E-1,2.637E2,1.927475E2,2.5841E1,4.1128247E2,3.6E-1,-3.2230597E-2,1.8341391E-1,1.6625775E-1,7.32204E2,8.833951E-2,-5.608283E-1,6.6874564E-1,2.3825672E-1,1.2163985E0,9.4364636E-2,3.0101785E-1,2.9420985E-2,7.630641E-1,1.5477475E0,-2.4722154E-1,-1.3505863E-1,2.22E-1,4.27E0,1.4275894E-1,7.360906E-1,2.0388626E1,1.45E0,1.143E1,1.443E1,4.7023007E2,8.041E1,1.411E1,3.219E0,5.04691E2,2E0,4.5157343E-1,7.167837E-2,-2.288121E-1,4.6795517E-1,3.6282587E-1,2.3584167E1,1.6622119E-2,-1.8053652E-1,5.185358E-1,2.1020181E-1,1.478E1,8.392083E1,1.8341564E-1,2.1725724E0,-2.69757E-1,-3.4785074E-1,6.639E2,3.4969E1,8.00639E-1,9.41356E-2,9.9799536E-2,6.594E2,3.3829328E-1,6.3781583E-1,1.181E2,2.0826461E0,2.1713333E1,4.04E-1,3.2796637E2,5.175214E-1,4.5995965E0,1.1479071E3,5.534168E-1,1.7426941E0,3.4449425E-2,3.6425012E-1,6E0,9.021308E1,9.16E1,1.7575277E1,-2.8691998E-1,9.331398E-1,3.1025E1,1.707E0,1.5348121E1,6.524655E0,2.3825672E-1,3E0,2.76353E0,7.050665E-1,3.635103E0,7.0566216E0,-3.0652115E-1,-1.9319634E-1,4.4761997E-1,-2.773084E-1,3.299371E2,6.7867E2,4.0849358E-1,1.990688E0,-1.5866168E-1,1.2587095E0,-2.3572274E-1,-3.0121323E-1,4.3120393E-1,-2.1338189E-1,-3.8892515E-2,1.1555978E-1,6.401573E-1,4.428627E0,5.22E1,1.711399E-1,1.4E-1,1.375731E0,3.3857143E0,1.2552675E0,-1.3766162E-1,4.9555454E-1,2.8721336E-1,6.885338E-1,3.835398E-1,-3.239503E-2,2.02689E3,7.72E1,2E0,3.2252967E-1,5.461348E-1,4.2417774E0,6.635132E-2,1.3841342E0,2.719E2,1.3053651E1,3.6E-1,1.46E1,3.8614184E-1,9.514731E1,-1.2797686E-1,5.683736E-1,3.765775E-2,2.7850288E-1,7.228403E-1,1.1278771E0,7.795E1,2.525E1,2.4586439E-1,4.3934503E-1,-3.3208025E-1,-2.289388E-1,1.196E1,1.2202276E0,-1.8154655E-1,1.3809803E-2,1.4280756E0,1.7034E1,7.329777E-1,2.4653316E-1,-1.4679539E-2,-2.498707E-1,2.5643614E-1,8.295793E-1,-2.4185286E-1,-1.3771533E-2,-1.4014186E-1,-3.2264844E-1,1.9116168E-1,9.0521955E-1,3.382E0,1.4329912E-1,9.624453E1,2.675625E1,-2.739581E-1,-1.8583049E-1,-3.1900653E-1,3.9416584E-1,7.7097243E-1,1.5085009E0,-2.9824194E-1,-1.02358736E-1,-5.2111536E-2,1.4831397E-1,3.5875633E0,7.2362775E-1,1.0497029E-1,-1.267017E-1,1.4545959E-1,7.107209E-1,2.845284E2,1.1437727E0,8.593E0,1.537E1,-4.086799E-2,2.3866859E-1,-2.5289426E-2,9.8336095E-1,1.159668E-2,1.5231884E0,2.0596318E-1,2.6911303E-2,-2.5769785E-1,1.5180707E-1,-3.6760488E-1,-4.9964938E-1,1.20083336E2,2.61E1,-2.4776018E-1,-1.6894124E-1,-2.727111E-1,-3.297276E-2,5.333334E-1,1.4680454E-1,1.21565655E-1,6.9786215E-1,5.9956145E-1,3.1548735E-1,-3.0861232E-1,2.5056139E-2,-3.730882E-1,-1.9062124E-1,-1.5208666E-1,3.8292944E-1,3.000001E1,-3.481792E-1,-3.3454275E-1,-2.8478694E-1,-2.643389E-1,6.180812E-2,-1.4591843E-1,3.6937943E-1,1.6060087E-1,-9.518792E-2,2.27288E0,1.5674849E0,3.3281824E-1,-2.1095303E-1,5.51E1,1.0443E1,-2.9482183E-1,2.5296357E-1,-1.7448145E-1,-2.6092166E-1,8.0512923E-1,3.1586876E0,-4.0326174E-2,2.0239297E-1,5.5126685E-1,1.717548E0,-3.2348987E-1,1.0572374E-2,8.628333E1,5.7446365E0,4.3720967E-1,1.3300225E-1,-6.0201924E-2,2.7688417E-1,1.623336E2,4.4213E0,-2.333596E-1,1.393E1,5.4904222E-2,-3.719016E-1,1.5678976E-1,8.5894054E-1,-2.4611215E-1,9.5551305E-2,1.352E1,4.442E0,9.56E0,1.7288962E-1,-3.8734318E-3,4.47E2,6.532143E1,-1.3474034E-1,-1.1029579E-1,6.5911345E-2,-2.9440332E-2,-3.0134767E-1,7.121487E-2,4.1472092E-1,-7.456243E-2,-2.6526058E-1,3.4974695E-3,-6.418177E-2,4.7052264E-2,-4.5784023E-2],"split_indices":[1,3,114,43,0,107,0,3,105,3,76,88,105,100,104,0,0,101,64,60,4,4,32,10,107,104,75,104,4,107,85,80,34,60,88,0,0,0,0,0,0,93,80,2,11,15,104,89,104,101,79,91,107,79,105,0,0,105,100,2,61,53,73,47,104,3,52,54,34,30,3,85,104,107,85,0,0,0,0,107,3,0,0,3,58,47,65,1,64,87,105,34,91,105,88,34,76,107,112,52,17,0,0,0,60,0,0,105,112,1,89,0,100,31,100,64,75,0,0,53,42,0,0,27,30,0,0,31,69,0,0,21,100,76,3,0,0,102,3,1,0,53,3,0,0,6,55,114,107,0,0,27,64,42,6,11,61,0,0,0,0,107,105,16,61,65,71,0,0,9,34,71,88,42,34,0,0,24,105,0,0,0,0,3,4,0,0,0,0,46,3,2,0,89,43,0,0,4,2,0,0,18,71,0,0,0,0,0,0,0,0,43,34,0,0,101,31,6,6,3,2,102,6,26,107,0,0,0,0,73,11,0,0,0,0,6,96,0,0,0,0,27,9,0,0,112,2,0,0,24,0,56,112,2,21,88,49,0,0,0,0,105,100,12,64,0,0,11,21,79,65,71,107,0,0,0,0,0,0,0,0,87,25,0,0,0,0,0,0,0,0,0,0,0,0,16,4,47,20,60,21,0,0,0,0,0,0,52,90,107,75,22,65,0,0,24,99,46,6,77,12,0,0,0,0,0,0,12,9,0,0,0,0,0,0,0,0,0,10,0,0,0,0,0,0,0,0,0,0,0,0,32,76,26,64,0,0,0,0,0,0,0,0,0,0,0,0,0,0,0,0,89,0,0,6,0,0,0,0,0,0,0,0,0,0,0,0,80,0,0,0,0,0,34,47,0,0,0,0,0,0,0,0,0,0,104,0,0,0,0,0,0,0,0,0,63,76,0,0,13,0,0,0,0,0,0,0,0,0,0,0,0,0,16,97,0,0,0,0,2,0,0,10,0,0,0,0,0,0,0,31,10,0,0,27,100,0,0,0,0,0,0,0,0,0,0,0,0,0],"split_type":[0,0,0,0,0,0,0,0,0,0,0,0,0,0,0,0,0,0,0,0,0,0,0,0,0,0,0,0,0,0,0,0,0,0,0,0,0,0,0,0,0,0,0,0,0,0,0,0,0,0,0,0,0,0,0,0,0,0,0,0,0,0,0,0,0,0,0,0,0,0,0,0,0,0,0,0,0,0,0,0,0,0,0,0,0,0,0,0,0,0,0,0,0,0,0,0,0,0,0,0,0,0,0,0,0,0,0,0,0,0,0,0,0,0,0,0,0,0,0,0,0,0,0,0,0,0,0,0,0,0,0,0,0,0,0,0,0,0,0,0,0,0,0,0,0,0,0,0,0,0,0,0,0,0,0,0,0,0,0,0,0,0,0,0,0,0,0,0,0,0,0,0,0,0,0,0,0,0,0,0,0,0,0,0,0,0,0,0,0,0,0,0,0,0,0,0,0,0,0,0,0,0,0,0,0,0,0,0,0,0,0,0,0,0,0,0,0,0,0,0,0,0,0,0,0,0,0,0,0,0,0,0,0,0,0,0,0,0,0,0,0,0,0,0,0,0,0,0,0,0,0,0,0,0,0,0,0,0,0,0,0,0,0,0,0,0,0,0,0,0,0,0,0,0,0,0,0,0,0,0,0,0,0,0,0,0,0,0,0,0,0,0,0,0,0,0,0,0,0,0,0,0,0,0,0,0,0,0,0,0,0,0,0,0,0,0,0,0,0,0,0,0,0,0,0,0,0,0,0,0,0,0,0,0,0,0,0,0,0,0,0,0,0,0,0,0,0,0,0,0,0,0,0,0,0,0,0,0,0,0,0,0,0,0,0,0,0,0,0,0,0,0,0,0,0,0,0,0,0,0,0,0,0,0,0,0,0,0,0,0,0,0,0,0,0,0,0,0,0,0,0,0,0,0,0,0,0,0,0,0,0,0,0,0,0,0,0,0,0,0,0,0,0,0,0,0,0,0,0,0,0,0,0,0,0,0,0,0,0,0,0,0,0,0,0,0,0,0,0,0,0,0,0,0,0,0,0,0,0,0,0,0,0,0,0,0,0,0,0],"sum_hessian":[1.99659E5,1.015E5,9.8159E4,8.4351E4,1.7149E4,5.6703E4,2.7648E4,2.3391E4,3.3312E4,7.699E3,2.5613E4,4.97E3,2.0643E4,6.1E2,4.36E3,1.186E3,3.174E3,1.8237E4,2.406E3,1.8565E4,4.826E3,3.8143E4,6.0016E4,5.973E4,2.86E2,2.88E3,1.4269E4,2.4887E4,3.4843E4,1.7719E4,7.168E3,3.927E3,1.3792E4,1.2422E4,1.37E3,3.29E2,1.041E3,1.6595E4,1.642E3,9.4E1,1.2328E4,1.7876E4,1.6967E4,6.849E3,8.5E2,6.3E1,2.23E2,3.657E3,1.331E4,9.843E3,3.467E3,1.499E3,3.327E3,2.5917E4,1.731E3,1.329E3,8.514E3,1.5113E4,3.452E3,3E1,1.93E2,2.025E3,1.2244E4,1.0723E4,1.521E3,1.549E3,9.174E3,2.2877E4,3.04E3,2.8502E4,9.641E3,2.586E3,7.41E2,7.568E3,1.606E3,3.368E3,4.2E3,7.21E2,8.85E2,1.332E3,1.548E3,9.2E2,1.486E3,3.187E3,2.65E2,7.02E2,1.029E3,1.2E1,1.81E2,7.86E2,1.239E3,7.73E2,1.3E1,1.2356E4,2.757E3,8.146E3,1.4731E4,5.568E3,9.163E3,1.039E3,2.93E2,1.661E3,9.25E2,9.276E3,3.65E2,1.799E3,3.769E3,9.62E2,5.87E2,1.0725E4,7.151E3,3E0,1.0722E4,1.63E2,1.076E3,5.2E1,1.29E2,7.1E1,5.8E1,3.43E2,2.2E1,3.89E2,3.52E2,5.09E2,9.9E2,5.82E2,5E0,1.525E3,2.3E1,4.4E1,8E0,2.4E2,1.281E3,4.38E2,2.64E2,7.854E3,1.309E3,8.992E3,2.84E2,1.1E1,1E0,3.512E3,3.639E3,3.109E3,4.03E2,5.978E3,8.71E2,6.7E2,1.03E2,6.3E1,4E1,1.21E2,9.55E2,6.12E2,6.69E2,1.8E1,4E0,4.721E3,1.257E3,2.645E3,8.22E2,9.75E2,5.5E2,2.83E2,2.67E2,2.25E2,5.9E1,2.25E2,5.8E1,2.25E2,1.18E2,5.84E2,4.55E2,7E1,1.94E2,3.19E2,2.91E2,7.65E3,1.342E3,1.07E2,8.55E2,3.42E2,2.415E3,1.549E3,2.108E3,5.286E3,7.07E3,5.21E2,1.49E2,1.881E3,1.159E3,1.281E3,6E2,6.254E3,1.396E3,2.674E3,5.13E2,2.5881E4,2.621E3,9.06E2,4.9E1,1.2E1,1.1E1,1.4E1,5.98E2,4.49E2,5.41E2,1.58E2,3.6E1,4.247E3,2.007E3,6.04E2,4.25E2,6.4E1,2.01E2,1.34E2,1.59E2,1.23E2,1.1E1,6.97E2,1.53E2,7.647E3,4.99E2,4.92E2,6.67E2,2.52E2,4.15E2,2.079E3,2.9E1,1.7E1,1.46E2,7.31E2,6.65E2,4.71E2,1.98E2,1.04E2,1.4E1,6E0,8E0,2.981E3,7.741E3,4.19E2,6E0,8.7E1,3.4E1,7.154E3,1.4E1,5.25E2,1.72E2,1.1E1,3E0,5.02E2,1.02E2,8.1E1,1.44E2,1.7311E4,8.57E3,1.39E2,7E0,7.64E2,1.07E2,3.887E3,4E1,4.42E2,5.33E2,5.25E2,8E0,1.91E2,2.47E2,2.594E3,2.7E1,6.5E2,6.504E3,7E0,4E0,8E0,3E0,2.79E3,8.49E2,4.8E1,2.2E1,1.62E2,7.8E1,5E0,1.2E1,2.64E2,3E0,3.03E3,4.617E3,1.8E1,4.84E2,8E2,4.81E2,1E0,3E0,6.34E2,1.96E3,1.7E1,4.2E1,3.28E2,1.27E2,1.9E1,8.5E1,1.35E2,5.6E1,7E1,7.4E1,1.16E2,1.09E2,1.789E3,1.5522E4,4.6E1,1.13E2,4.3E1,3E0,5.6E1,5.28E2,8.516E3,5.4E1,1.349E3,6.11E2,5.97E2,1.4E1,2.94E2,1.25E2,1.11E2,5.1E1,1E1,8E0,2.61E2,2.67E2,4.96E2,6.008E3,5E0,6E0,2.81E2,2.18E2,4E0,9E0,8.6E1,2.7E1,3.37E2,1.05E2,1.6E1,1.37E2,5.07E2,9.3E1,3.07E2,2.02E2,9E0,1.14E2,4.66E2,8.76E2,6.496E3,2.02E3,5.973E3,5.23E2,2.014E3,6E0,3.3E1,9E0,3.799E3,8.8E1,3.95E2,9.7E1,8E0,1E0,7.2E1,2.56E2,1.18E2,9E0,2.4E1,3E0,6E0,6E0,4.9E1,6E1,6E0,2E0,1E0,9E0,1.23E2,1.24E2,1.05E2,1.1E1,1.438E3,1.11E2,1.1689E4,3.833E3,9.71E2,3.78E2,4.36E2,3E1,3.5E1,1.9E1,3.6E1,4E0,3.6E1,4.2E1,3.821E3,1.2E1,6.04E2,4.6E1,6E0,1.1E1,1.628E3,1.61E2,1.1156E4,5.33E2,1.5E1,2E1,4E0,1.5E1,2.2E1,3.4E1,4.3E1,5.91E2,3E0,4E1,2.8E1,2E0,7.9E1,2E0,1.15E2,1.513E3,1E0,4E0,1.3E1,8.9E1,2E0,4E0,5.86E2,5E0,7E0,1.7E1,8E0,9E0,6E0,5E0,1.5E1,4.8E1,6E0,9E0,1E0,8.75E2,1E0,5E0,4E0,2E0,2E0,2.6E1,7E0,2E0,1E0,4.7E1,4.1E1,6E0,2E0,5E0,1E0,4E1,1E0,1E0,2E0,2.4E1,3E0,4E0,1E0,1E0],"tree_param":{"num_deleted":"0","num_feature":"115","num_nodes":"469","size_leaf_vector":"1"}},{"base_weights":[9.455135E-3,-1.3558925E0,2.8405073E0,4.771656E0,-2.3679478E-1,5.9498596E0,1.2733439E0,7.2458615E0,2.0666218E0,-1.4499494E0,8.099516E0,9.363061E0,4.761039E0,7.4235706E0,1.2984106E1,1.1270072E1,2.2282482E1,-1.0974609E-1,-1.7820127E0,-5.619486E-1,4.212338E0,-8.9897734E-1,2.8227983E0,8.1761605E-1,-1.7897083E0,2.9694593E0,6.8641133E0,4.0812454E0,-2.0631649E-1,8.096037E0,1.0655073E0,-2.528844E0,-1.400078E0,3.7774987E0,-3.1465452E0,3.3774247E0,1.3895281E1,2.3384315E1,-2.682587E0,7.197577E-1,1.2352089E0,-6.8286705E-1,-1.9244736E0,-1.0474112E0,1.7614337E0,-2.1871119E0,4.4623933E0,5.3691955E0,-1.6734779E0,-2.0314345E0,1.7051369E-1,1.1822544E0,-7.4497744E-2,2.377933E0,-6.752017E-2,-2.6499668E-1,5.887738E-1,1.0430979E0,2.5293672E0,9.38825E-1,-2.0600321E0,6.89959E-1,3.0510995E0,-2.8050818E0,-1.4084105E0,1.6599241E0,-2.3373034E0,-9.5672125E-1,5.6986566E0,3.7577584E0,8.304904E0,9.214078E0,-1.7768897E0,5.721483E0,1.7434405E0,1.4361204E-1,2.5246046E0,1.5101339E-1,1.7025042E0,-1.6276624E0,1.4899808E0,1.6741244E0,5.293297E0,1.8013924E-1,4.9069396E-1,-1.5001295E0,3.0331404E0,8.422739E0,5.513753E0,4.5083895E0,1.6468264E0,2.5775131E1,4.204023E0,4.8201623E0,-1.03332736E-1,-2.601964E0,1.1050322E0,-6.3894624E-1,-1.9287577E0,-2.229104E-1,-1.0102371E-1,6.2104833E-1,-7.127781E-2,5.8144826E-1,-2.7273554E-1,-3.217156E-1,1.7661378E0,3.0754926E0,-8.3273375E-1,-2.9334846E-1,3.7409618E-1,5.5245036E-1,3.2133844E0,-2.1479557E0,1.3952057E-1,4.295766E0,8.5838336E-1,2.7869315E0,1.1252353E1,1.4105357E0,5.072835E0,5.158484E-1,-1.1272889E-2,1.0860326E1,6.162739E0,7.0181103E0,1.1424182E1,4.4820647E0,1.0236385E1,4.244929E0,1.5292251E1,9.480229E-1,-1.7880644E0,4.0655455E-1,-9.4315484E-2,1.4842054E0,-6.584869E-1,-8.078208E-1,2.0823934E0,7.590606E0,2.1563726E1,-2.8183048E0,1.9606277E1,6.4160204E-1,9.4606143E-1,1.1718894E0,8.15438E0,2.9737762E-1,4.30213E0,8.9738506E-1,-3.18468E-2,1.2652209E0,7.9957666E0,2.1978748E1,9.688181E0,-2.6255627E0,-1.3997843E0,9.1877234E-1,3.1366634E0,1.2236797E-1,3.154583E-1,-1.0137146E-1,-2.4023353E-1,3.7399378E0,3.2961088E-1,1.4658164E0,3.3365383E0,-1.5247638E0,2.936997E0,2.3813417E0,1.0749526E1,9.079806E0,1.3892554E1,-1.651742E0,1.1566087E0,-1.1300017E0,3.020897E-1,-6.022494E-2,2.1939246E-1,-2.1573825E-2,-1.8927811E-1,-2.8409857E-1,5.9797055E-1,-2.4742725E0,-1.0205885E0,1.3606775E0,-1.8636321E0,-2.7112088E0,-1.8769007E0,5.8259892E0,-6.618208E-1,3.175689E0,-3.5212094E-1,-1.886339E-1,4.9003334E0,1.4826913E0,4.0077834E0,2.6365814E-1,6.695953E-1,6.5990434E0,3.587939E0,3.255052E0,8.576109E0,3.4008393E-1,1.1039227E0,-3.6497772E-1,2.0717027E0,9.50935E-1,1.03581965E-1,3.488947E-1,5.952844E-1,2.3431375E0,1.1337159E1,2.755344E0,-1.9890503E0,9.1375893E-1,1.341277E0,-4.2575276E-1,2.7039769E0,-2.0887644E0,-7.615364E-1,3.4230697E0,1.8705309E1,-2.899788E-1,-1.3779466E-1,-2.3487365E-1,-1.3847607E-2,-3.020616E0,-2.5094218E0,-2.7281835E0,-1.2994192E0,9.9273956E-1,6.2126427E0,3.1104283E0,1.1124002E-1,1.1545349E-1,5.0682E0,-1.0688099E0,1.339102E0,-1.9232281E0,5.5427165E0,2.0822942E-1,4.794147E-1,3.8397186E0,7.814649E0,4.7188916E0,8.839151E0,5.1755846E-1,1.4677136E-1,5.3203017E-1,8.4776215E-2,-2.3548763E-1,-2.9749197E-1,-2.34946E-1,-5.666633E-1,8.251905E-1,1.8769562E-2,1.9690767E-1,1.2450377E0,-8.250287E-2,-3.067163E-1,-1.0118222E0,7.3521066E0,1.3824683E-1,-5.9304904E-2,8.844495E-1,2.3365543E0,3.981858E-1,-1.8753353E-1,-2.0591891E-1,-5.9116236E-3,-9.249682E-1,1.4323678E0,2.1128488E-1,7.7889735E-1,5.773322E-1,1.4207621E0,-1.8054457E-1,3.3746254E-2,8.582858E0,2.2444567E1,-1.0664105E-1,1.1604015E-1,-7.714082E-2,2.163909E-1,1.1282939E0,3.9042137E0,-5.1351156E-2,-3.1918317E-1,4.752082E-1,-1.4426422E-1,-1.6877799E-1,-4.550485E-2,-2.1152985E0,-2.8496525E0,3.5330042E-1,8.6972237E-1,1.0932528E-1,5.677989E-1,-1.8925534E-1,1.6353255E-2,1.9195675E0,3.703681E-1,-3.051523E-2,-1.7125499E-1,3.1537232E-1,-1.4075057E-1,6.9627047E-1,9.905161E-1,6.8434343E0,1.4257475E1,1.968182E-1,-1.6090612E-1,-1.3407451E-1,2.8622523E-1,2.3383625E-1,5.119212E0,-1.4584508E0,6.350077E0,-2.2927816E0,-9.031825E-1,6.343178E-1,1.1798493E-1,-2.353457E-1,-1.3892421E-1,3.1070238E-1,-2.2504742E-1,1.3965243E0,3.206139E-1,4.4857654E-1,1.1058468E-2,1.3769649E0,-2.9816813E0,-2.782183E-1,2.1036E-1,3.262019E0,9.201706E-1,-1.7716233E-1,-3.0233166E-1,-2.3612556E0,-2.998308E0,-1.6712906E0,-6.051868E-1,-2.200942E-1,-2.9899169E-2,2.0342508E-1,1.3190504E0,9.045478E-2,4.8521176E-1,9.175609E0,3.2192962E0,3.2579875E-1,-2.0308318E0,8.628853E-1,3.578413E-1,-6.6004656E-2,2.8481948E-1,7.277322E0,2.6602654E0,6.56017E-1,1.1561658E0,1.2881179E1,1.5907187E1,-3.2706E-1,-1.2372992E-1,8.9076245E-1,1.3699994E0,-2.327529E0,7.1841896E-2,2.5850925E-1,-1.536168E-1,-2.4270573E0,-5.527045E-1,-2.1933685E-1,1.3092501E-1,7.6701134E-1,2.5160378E-1,3.2829332E-1,-1.1180474E-1,4.9841294E0,-4.2853466E-1,-2.7456602E-1,-2.089163E-1,-1.795186E-1,1.4512838E-1,-2.9680605E0,-1.497924E0,7.539551E0,9.758587E0,-2.5904322E-1,-3.1654105E-1,-1.7604624E-1,-2.519158E-1,1.5784407E-1,5.5813694E-1,-3.0274966E0,5.914362E-1,-2.4196349E-1,1.6453336E0,5.9561366E-1,7.869547E-1,1.7995455E0,1.4188322E0,-1.086562E0,3.8756275E0,2.524394E-1,-2.4684973E-1,-3.2267344E-1,-2.687526E-1,8.085823E-1,1.4559521E-1,7.7069693E0,-3.3103418E-2,1.2240661E0,-3.2692745E0,2.4001164E0,-2.789485E-1,5.8457285E-1,-2.0131503E-1,2.0660482E-1,7.92977E-1,1.0790843E1,8.871078E0,1.20737016E-1,3.7465742E-1,-8.099641E-2,2.3385623E-1,4.577279E-1,-2.216523E-1,6.829836E-1,7.6747143E-1,6.206848E-1,9.28857E-1,2.6422897E-2,4.3355352E-1,1.0873932E0,1.6148794E-1,-2.4194276E0,-3.9050448E-1,-5.5015165E-2,1.5660076E-1,-1.8805759E0,9.7578573E-1,1.3628177E-1,-1.6180067E-1,-2.0356539E-1,-1.3279088E-1,4.681778E-4,2.932175E-1,-2.5415494E0,1.2937835E-1,3.3009592E-1,1.8444258E0,-6.8831876E-2,1.5381476E-1,-3.234972E-1,-2.5204808E-1,4.857826E-3,2.848058E-1,-3.0901672E-3,2.1882036E-1,1.6763045E-2,-2.6134697E-1,1.8393163E-1,-8.14841E-2,-2.407184E-1,-7.271094E-2,1.3437017E-2,-1.262738E-1,-3.434491E-3,-1.5506578E-2],"categories":[],"categories_nodes":[],"categories_segments":[],"categories_sizes":[],"default_left":[1,1,1,1,1,1,1,1,1,0,0,0,0,0,1,0,0,1,0,1,0,1,0,0,1,0,0,1,0,1,1,1,1,1,1,0,0,0,0,0,0,1,1,1,0,0,0,0,0,0,1,0,0,0,1,0,0,0,0,1,0,0,0,1,1,1,1,0,0,0,0,1,0,1,1,0,0,0,0,0,1,1,1,0,0,0,0,1,1,0,0,0,1,0,0,1,1,0,0,0,0,0,0,0,0,0,1,0,0,0,0,0,0,1,0,1,0,1,0,0,1,0,0,0,0,1,0,0,0,0,0,0,1,0,0,0,1,0,0,0,1,1,0,0,0,0,0,0,0,0,0,0,0,0,0,0,0,0,0,0,0,0,0,1,1,0,0,0,1,0,1,0,1,0,0,0,0,0,0,0,0,0,0,1,1,0,0,0,1,1,0,0,0,1,0,0,1,0,0,0,0,0,0,0,0,0,0,0,0,0,0,0,0,1,1,0,0,0,1,1,0,0,0,0,0,0,0,0,0,1,0,1,0,0,0,1,0,1,1,1,0,0,0,0,1,1,1,0,0,0,0,0,0,0,0,0,0,0,0,0,0,0,0,0,0,0,0,0,0,0,0,1,1,0,0,0,0,0,0,0,0,0,0,0,0,0,0,0,0,0,0,0,0,1,0,0,0,0,0,0,0,0,0,0,0,0,0,0,0,1,0,0,0,0,0,0,0,0,0,0,0,0,0,0,0,0,0,0,0,0,0,0,0,0,0,0,0,0,0,1,0,1,1,0,0,0,0,0,0,0,0,0,0,0,0,0,0,0,0,0,0,0,0,0,0,0,0,0,0,0,0,0,0,0,0,0,0,0,0,0,0,0,0,0,0,0,1,0,0,0,0,0,0,0,0,1,0,0,0,0,0,0,0,0,0,0,0,0,0,0,0,0,0,0,0,0,0,0,0,0,0,0,0,0,0,0,0,0,0,0,0,0,0,0,0,0,0,0,0,0,0,0,1,0,0,0,0,0,0,0,0,0,0,0,0,0,0,0,0,0,0,0,0,0,0,0,0,0,0,0,0],"id":3,"left_children":[1,9,3,5,21,7,19,11,27,17,71,13,25,29,15,51,57,23,31,79,47,49,81,53,113,33,87,35,67,39,109,95,41,83,253,73,37,61,205,-1,-1,43,63,97,45,325,55,69,351,155,105,-1,-1,89,59,-1,-1,-1,-1,65,229,-1,-1,141,85,77,337,131,151,119,123,125,331,111,75,-1,-1,-1,-1,185,145,115,127,-1,-1,99,103,143,209,91,137,93,121,-1,-1,187,167,101,161,-1,-1,-1,-1,-1,-1,135,107,195,261,-1,-1,-1,-1,183,217,117,163,211,139,207,249,-1,-1,215,321,243,171,199,129,357,153,133,225,-1,-1,147,175,299,159,275,157,181,191,-1,-1,231,349,281,149,-1,-1,305,295,165,257,339,219,-1,-1,-1,-1,-1,-1,169,173,-1,-1,367,193,355,265,387,309,363,233,179,177,-1,-1,-1,-1,-1,-1,293,341,189,213,227,239,255,267,-1,-1,313,297,283,197,-1,-1,201,221,329,203,-1,-1,-1,-1,-1,-1,-1,-1,247,345,289,223,-1,-1,271,235,319,237,241,285,-1,-1,-1,-1,259,251,333,303,263,375,-1,-1,373,273,291,311,269,327,-1,-1,315,245,379,279,-1,-1,-1,-1,-1,-1,-1,-1,-1,-1,-1,-1,-1,-1,287,301,-1,-1,-1,-1,-1,-1,-1,-1,277,347,-1,-1,-1,-1,-1,-1,307,335,-1,-1,-1,-1,-1,-1,-1,-1,-1,-1,-1,-1,323,389,-1,-1,-1,-1,-1,-1,-1,-1,-1,-1,-1,-1,-1,-1,429,361,-1,-1,-1,-1,403,317,427,353,391,377,-1,-1,-1,-1,-1,-1,-1,-1,-1,-1,399,413,-1,-1,-1,-1,-1,-1,371,395,383,343,-1,-1,-1,-1,-1,-1,359,433,415,385,-1,-1,-1,-1,409,423,-1,-1,365,401,-1,-1,-1,-1,405,369,-1,-1,381,425,-1,-1,-1,-1,-1,-1,393,-1,-1,-1,-1,-1,455,445,411,421,-1,-1,-1,-1,-1,-1,407,397,-1,-1,441,-1,-1,-1,443,417,-1,-1,-1,-1,-1,-1,419,-1,457,437,447,439,-1,-1,-1,-1,435,431,-1,-1,-1,-1,-1,-1,463,-1,-1,-1,-1,-1,-1,-1,449,-1,-1,-1,465,451,-1,-1,-1,-1,-1,-1,461,-1,453,459,-1,-1,-1,-1,467,-1,-1,-1,-1,-1,-1,-1,-1,-1,-1,469,-1,-1],"loss_changes":[7.6951794E5,1.1945711E5,3.8492944E5,1.6402888E5,5.0604145E4,1.49813E5,5.409254E4,1.1738325E5,3.4119836E4,5.9182438E4,1.4579789E4,8.45375E4,3.867897E4,3.355475E4,6.671925E4,2.3573656E4,2.3039875E4,4.1143367E4,3.0396875E4,1.3503541E4,2.6257867E4,2.4868947E4,1.2602309E4,2.3500836E4,6.4921855E3,2.742995E4,9.8961875E3,2.7236984E4,1.5523234E4,2.7056906E4,8.056713E3,9.584609E3,2.6520656E4,1.092968E4,1.2883408E3,1.4111805E4,4.159204E4,1.9526344E4,2.2709045E3,0E0,0E0,2.654193E4,1.850761E4,9.329943E3,4.1240117E4,5.3398096E2,2.3291441E4,1.5211141E4,4.5362256E2,3.739004E3,8.295313E3,0E0,0E0,9.585777E3,2.1773904E4,0E0,0E0,0E0,0E0,1.7048693E4,1.8483525E3,0E0,0E0,4.5151875E3,1.0467957E4,1.3585632E4,4.9990332E2,4.923201E3,4.0126006E3,6.4195156E3,6.1790625E3,5.690422E3,5.170703E2,7.6993633E3,1.5666165E4,0E0,0E0,0E0,0E0,2.868296E3,4.465527E3,6.4869043E3,5.608207E3,0E0,0E0,8.985004E3,8.347251E3,4.502547E3,2.2321484E3,1.0073484E4,4.9059355E3,1.3276644E4,6.395084E3,0E0,0E0,2.7949531E3,3.4346763E3,8.961998E3,3.5544492E3,0E0,0E0,0E0,0E0,0E0,0E0,4.910225E3,8.475645E3,2.4531436E3,1.2313909E3,0E0,0E0,0E0,0E0,2.9118125E3,2.1349897E3,7.526006E3,3.5276255E3,2.2235967E3,4.669295E3,2.2631821E3,1.3902695E3,0E0,0E0,2.159582E3,5.5266016E2,1.4864883E3,3.2938594E3,2.2723457E3,5.9329023E3,4.2272986E2,3.7965254E3,5.5753555E3,2.0011113E3,0E0,0E0,4.242754E3,3.0820505E3,7.2944116E2,3.5832012E3,1.0723745E3,3.7154014E3,3.0185547E3,2.6409404E3,0E0,0E0,1.8143811E3,4.542871E2,1.053459E3,8.119247E3,0E0,0E0,6.908921E2,7.8318555E2,3.5120527E3,1.2547852E3,4.9911328E2,2.1249932E3,0E0,0E0,0E0,0E0,0E0,0E0,3.393231E3,3.2102393E3,0E0,0E0,3.757052E2,2.5783235E3,4.3068457E2,1.1873096E3,2.4634766E2,6.38125E2,3.8307654E2,1.7950876E3,3.1824414E3,3.8353594E3,0E0,0E0,0E0,0E0,0E0,0E0,8.217539E2,4.8012744E2,2.6951191E3,2.1877178E3,1.9103438E3,1.6028301E3,1.2705076E3,1.1683125E3,0E0,0E0,5.7677606E2,7.5762695E2,9.429507E2,3.8305547E3,0E0,0E0,2.345538E3,2.0669639E3,5.2194556E2,2.8305996E3,0E0,0E0,0E0,0E0,0E0,0E0,0E0,0E0,1.3933733E3,4.7317065E2,8.4508344E2,2.0374492E3,0E0,0E0,1.1209412E3,1.6272943E3,5.6029785E2,1.6228528E3,1.5470635E3,9.1801733E2,0E0,0E0,0E0,0E0,1.2362109E3,1.3310234E3,5.1176367E2,7.002373E2,1.2047378E3,3.5245264E2,0E0,0E0,3.5567343E2,1.10122E3,8.319724E2,5.985033E2,1.1667441E3,5.2594226E2,0E0,0E0,5.6167456E2,1.4743203E3,3.1033887E2,1.0556992E3,0E0,0E0,0E0,0E0,0E0,0E0,0E0,0E0,0E0,0E0,0E0,0E0,0E0,0E0,8.869725E2,7.066921E2,0E0,0E0,0E0,0E0,0E0,0E0,0E0,0E0,1.0587971E3,4.5769415E2,0E0,0E0,0E0,0E0,0E0,0E0,6.872754E2,5.083645E2,0E0,0E0,0E0,0E0,0E0,0E0,0E0,0E0,0E0,0E0,0E0,0E0,5.403789E2,2.3735352E2,0E0,0E0,0E0,0E0,0E0,0E0,0E0,0E0,0E0,0E0,0E0,0E0,0E0,0E0,7.669525E1,4.1039844E2,0E0,0E0,0E0,0E0,1.628954E2,7.3792065E2,7.877842E1,4.4913867E2,2.3452539E2,3.1218143E2,0E0,0E0,0E0,0E0,0E0,0E0,0E0,0E0,0E0,0E0,1.880863E2,1.2253711E2,0E0,0E0,0E0,0E0,0E0,0E0,3.5698438E2,2.2475977E2,2.70708E2,5.309523E2,0E0,0E0,0E0,0E0,0E0,0E0,4.171582E2,5.8228516E1,1.22349976E2,2.6426172E2,0E0,0E0,0E0,0E0,1.3413147E2,9.333069E1,0E0,0E0,3.7576758E2,1.7182031E2,0E0,0E0,0E0,0E0,1.3960522E2,4.0406296E2,0E0,0E0,3.07E2,8.14814E1,0E0,0E0,0E0,0E0,0E0,0E0,2.3120361E2,0E0,0E0,0E0,0E0,0E0,1.5022461E1,2.8837524E1,1.3168408E2,9.574609E1,0E0,0E0,0E0,0E0,0E0,0E0,1.3431836E2,8.995147E2,0E0,0E0,3.478327E1,0E0,0E0,0E0,3.4747787E1,1.161817E2,0E0,0E0,0E0,0E0,0E0,0E0,1.0426904E2,0E0,1.3846056E1,4.0260254E1,2.8025543E1,3.8888744E1,0E0,0E0,0E0,0E0,5.258203E1,7.359961E1,0E0,0E0,0E0,0E0,0E0,0E0,6.694701E0,0E0,0E0,0E0,0E0,0E0,0E0,0E0,2.233371E1,0E0,0E0,0E0,1.2868385E0,1.6778198E1,0E0,0E0,0E0,0E0,0E0,0E0,8.426727E0,0E0,2.4434387E1,8.448669E0,0E0,0E0,0E0,0E0,1.0188324E-1,0E0,0E0,0E0,0E0,0E0,0E0,0E0,0E0,0E0,0E0,2.6147217E-3,0E0,0E0],"parents":[2147483647,0,0,2,2,3,3,5,5,1,1,7,7,11,11,14,14,9,9,6,6,4,4,17,17,12,12,8,8,13,13,18,18,25,25,27,27,36,36,29,29,32,32,41,41,44,44,20,20,21,21,15,15,23,23,46,46,16,16,54,54,37,37,42,42,59,59,28,28,47,47,10,10,35,35,74,74,65,65,19,19,22,22,33,33,64,64,26,26,53,53,89,89,91,91,31,31,43,43,85,85,97,97,86,86,50,50,106,106,30,30,73,73,24,24,81,81,115,115,69,69,92,92,70,70,71,71,82,82,128,128,67,67,131,131,105,105,90,90,118,118,63,63,87,87,80,80,135,135,148,148,68,68,130,130,49,49,140,140,138,138,98,98,116,116,153,153,96,96,163,163,126,126,164,164,136,136,176,176,175,175,141,141,113,113,79,79,95,95,185,185,142,142,168,168,107,107,196,196,127,127,199,199,202,202,38,38,119,119,88,88,117,117,186,186,123,123,114,114,156,156,200,200,214,214,132,132,187,187,60,60,145,145,174,174,218,218,220,220,188,188,221,221,125,125,244,244,211,211,120,120,228,228,34,34,189,189,154,154,227,227,108,108,231,231,170,170,190,190,239,239,217,217,236,236,139,139,271,271,246,246,147,147,195,195,222,222,261,261,213,213,237,237,183,183,152,152,194,194,137,137,262,262,230,230,151,151,279,279,172,172,238,238,193,193,243,243,316,316,219,219,124,124,293,293,45,45,240,240,201,201,72,72,229,229,280,280,66,66,155,155,184,184,342,342,212,212,272,272,146,146,48,48,318,318,169,169,129,129,349,349,310,310,173,173,361,361,167,167,368,368,339,339,235,235,232,232,320,320,245,245,371,371,341,341,352,352,171,171,294,294,319,319,379,379,340,340,396,396,331,331,362,362,315,315,367,367,395,395,357,357,387,387,332,332,351,351,404,404,411,411,388,388,358,358,372,372,317,317,309,309,422,422,350,350,421,421,414,414,416,416,399,399,403,403,386,386,415,415,437,437,442,442,451,451,385,385,413,413,452,452,449,449,429,429,441,441,457,457,468,468],"right_children":[2,10,4,6,22,8,20,12,28,18,72,14,26,30,16,52,58,24,32,80,48,50,82,54,114,34,88,36,68,40,110,96,42,84,254,74,38,62,206,-1,-1,44,64,98,46,326,56,70,352,156,106,-1,-1,90,60,-1,-1,-1,-1,66,230,-1,-1,142,86,78,338,132,152,120,124,126,332,112,76,-1,-1,-1,-1,186,146,116,128,-1,-1,100,104,144,210,92,138,94,122,-1,-1,188,168,102,162,-1,-1,-1,-1,-1,-1,136,108,196,262,-1,-1,-1,-1,184,218,118,164,212,140,208,250,-1,-1,216,322,244,172,200,130,358,154,134,226,-1,-1,148,176,300,160,276,158,182,192,-1,-1,232,350,282,150,-1,-1,306,296,166,258,340,220,-1,-1,-1,-1,-1,-1,170,174,-1,-1,368,194,356,266,388,310,364,234,180,178,-1,-1,-1,-1,-1,-1,294,342,190,214,228,240,256,268,-1,-1,314,298,284,198,-1,-1,202,222,330,204,-1,-1,-1,-1,-1,-1,-1,-1,248,346,290,224,-1,-1,272,236,320,238,242,286,-1,-1,-1,-1,260,252,334,304,264,376,-1,-1,374,274,292,312,270,328,-1,-1,316,246,380,280,-1,-1,-1,-1,-1,-1,-1,-1,-1,-1,-1,-1,-1,-1,288,302,-1,-1,-1,-1,-1,-1,-1,-1,278,348,-1,-1,-1,-1,-1,-1,308,336,-1,-1,-1,-1,-1,-1,-1,-1,-1,-1,-1,-1,324,390,-1,-1,-1,-1,-1,-1,-1,-1,-1,-1,-1,-1,-1,-1,430,362,-1,-1,-1,-1,404,318,428,354,392,378,-1,-1,-1,-1,-1,-1,-1,-1,-1,-1,400,414,-1,-1,-1,-1,-1,-1,372,396,384,344,-1,-1,-1,-1,-1,-1,360,434,416,386,-1,-1,-1,-1,410,424,-1,-1,366,402,-1,-1,-1,-1,406,370,-1,-1,382,426,-1,-1,-1,-1,-1,-1,394,-1,-1,-1,-1,-1,456,446,412,422,-1,-1,-1,-1,-1,-1,408,398,-1,-1,442,-1,-1,-1,444,418,-1,-1,-1,-1,-1,-1,420,-1,458,438,448,440,-1,-1,-1,-1,436,432,-1,-1,-1,-1,-1,-1,464,-1,-1,-1,-1,-1,-1,-1,450,-1,-1,-1,466,452,-1,-1,-1,-1,-1,-1,462,-1,454,460,-1,-1,-1,-1,468,-1,-1,-1,-1,-1,-1,-1,-1,-1,-1,470,-1,-1],"split_conditions":[3.92768E2,7.61425E2,4.8799835E-2,1.5E1,9.8124835E2,7.841E1,6.562E2,6.1869316E1,4.0969227E1,3.92768E2,2E0,1.0229956E3,6E0,4E0,1.2253822E1,4E0,3.208E0,4.8809752E-2,6.38E-1,8.1509495E-1,4E0,5.1320815E-1,3.5494647E2,7.4E1,2.056E2,4E0,5.712E0,1E2,2.8710417E1,1.684E1,6.11E-1,1.96E2,1.1042778E1,4.6814583E1,2.628E1,8.82E1,2.8475834E1,7.4045277E-1,2.0522E1,7.197577E-1,1.2352089E0,1.212E0,2.4560301E0,1.5E1,3.000001E1,1.9325316E-2,2.410823E2,3.1117007E2,6E0,2.632638E-1,1.982387E0,1.1822544E0,-7.4497744E-2,5.573467E-1,4.0969227E1,-2.6499668E-1,5.887738E-1,1.0430979E0,2.5293672E0,1.5E1,7.757662E-2,6.89959E-1,3.0510995E0,7.8226E0,1E2,5.944E0,8.0619E1,8.711667E1,2.673E1,2.9782587E1,2E0,6.254E2,4E0,2.46E1,4.95E0,1.4361204E-1,2.5246046E0,1.5101339E-1,1.7025042E0,5.586844E0,3.877E-2,1.2E-2,4.1148822E2,1.8013924E-1,4.9069396E-1,3.6835122E-1,4.6441265E1,2.7693442E-1,5.9218E2,3.09E1,7.94615E0,1.1886666E1,1.5E1,4.8201623E0,-1.03332736E-1,2.6123E0,6.07E-1,-1E0,2E0,-2.229104E-1,-1.0102371E-1,6.2104833E-1,-7.127781E-2,5.8144826E-1,-2.7273554E-1,1.28E-1,1.991E1,1.703E-1,3.375628E0,-2.9334846E-1,3.7409618E-1,5.5245036E-1,3.2133844E0,9.38139E-2,1.874061E3,2.25E0,2E0,9E0,1.07606985E-1,1.697542E2,8.1166664E1,5.158484E-1,-1.1272889E-2,3.2274008E2,1.7958E1,3.3076475E0,2.70325E-1,1E-1,3.000001E1,2.2170626E-1,5.4365855E-1,1.5333333E0,3.3308034E0,4.0655455E-1,-9.4315484E-2,4E0,4E-3,2.546E0,1.614E0,1.735E1,1.8436313E-1,2.275E2,7.4E1,6.4160204E-1,9.4606143E-1,2.9469069E1,6.329E1,3.000001E1,6E0,8.9738506E-1,-3.18468E-2,3.251E0,6.638868E2,1.3925E1,1.042E-1,3.64E-1,1.2014743E2,9.1877234E-1,3.1366634E0,1.2236797E-1,3.154583E-1,-1.0137146E-1,-2.4023353E-1,2.3273067E1,1.114E1,1.4658164E0,3.3365383E0,4.255116E-1,2.5125E2,3.3547214E-1,9.42E1,1.5083333E0,1.89E1,5.02175E0,3.9188618E1,1.542E1,3.6251804E2,-6.022494E-2,2.1939246E-1,-2.1573825E-2,-1.8927811E-1,-2.8409857E-1,5.9797055E-1,8.1181244E1,7.6666665E-1,3.5968182E0,4.8809752E-2,3.000001E1,2.337624E0,3.533333E-2,4.96E-1,3.175689E0,-3.5212094E-1,4.471E1,5.7765625E1,3.000001E1,2.47757E1,2.6365814E-1,6.695953E-1,6.684258E-2,4.5457104E-1,2.2425542E0,4.6309404E0,3.4008393E-1,1.1039227E0,-3.6497772E-1,2.0717027E0,9.50935E-1,1.03581965E-1,3.488947E-1,5.952844E-1,1.9555736E-1,3.588766E-1,3.0990136E-1,4.207036E0,9.1375893E-1,1.341277E0,3.2299234E2,1.4528078E0,2.9893E0,3.6851E1,1.639E0,3.28E1,-2.899788E-1,-1.3779466E-1,-2.3487365E-1,-1.3847607E-2,2E0,3.12E-1,5.1E-1,1.12E0,8.94E1,1.7273E3,3.1104283E0,1.1124002E-1,3.7283334E-1,3.012E2,1.3714E1,5.7809696E1,3.5969418E2,3.628331E-1,2.0822942E-1,4.794147E-1,5.214E1,1.559E1,4.6E-1,4.616766E-1,5.1755846E-1,1.4677136E-1,5.3203017E-1,8.4776215E-2,-2.3548763E-1,-2.9749197E-1,-2.34946E-1,-5.666633E-1,8.251905E-1,1.8769562E-2,1.9690767E-1,1.2450377E0,-8.250287E-2,-3.067163E-1,6E0,3.001817E2,1.3824683E-1,-5.9304904E-2,8.844495E-1,2.3365543E0,3.981858E-1,-1.8753353E-1,-2.0591891E-1,-5.9116236E-3,1.9348333E1,3.9843066E2,2.1128488E-1,7.7889735E-1,5.773322E-1,1.4207621E0,-1.8054457E-1,3.3746254E-2,3.48E-1,4.031E2,-1.0664105E-1,1.1604015E-1,-7.714082E-2,2.163909E-1,1.1282939E0,3.9042137E0,-5.1351156E-2,-3.1918317E-1,4.752082E-1,-1.4426422E-1,-1.6877799E-1,-4.550485E-2,1.9E0,2.965E-1,3.5330042E-1,8.6972237E-1,1.0932528E-1,5.677989E-1,-1.8925534E-1,1.6353255E-2,1.9195675E0,3.703681E-1,-3.051523E-2,-1.7125499E-1,3.1537232E-1,-1.4075057E-1,6.9627047E-1,9.905161E-1,1.745E1,1.72E0,1.968182E-1,-1.6090612E-1,-1.3407451E-1,2.8622523E-1,5.0879173E0,2.3961492E-1,8.858397E-3,3.6736014E0,2.1715243E-1,1E-1,6.343178E-1,1.1798493E-1,-2.353457E-1,-1.3892421E-1,3.1070238E-1,-2.2504742E-1,1.3965243E0,3.206139E-1,4.4857654E-1,1.1058468E-2,1.955E1,5.15E1,-2.782183E-1,2.1036E-1,3.262019E0,9.201706E-1,-1.7716233E-1,-3.0233166E-1,2.9737332E2,2.6818417E1,3.8118272E0,8.028383E0,-2.200942E-1,-2.9899169E-2,2.0342508E-1,1.3190504E0,9.045478E-2,4.8521176E-1,4.174E-2,1.0145922E-1,2.2921853E-1,2.3426073E2,8.628853E-1,3.578413E-1,-6.6004656E-2,2.8481948E-1,9.029184E1,3.094245E-1,6.56017E-1,1.1561658E0,1.743E0,7.0823854E-1,-3.2706E-1,-1.2372992E-1,8.9076245E-1,1.3699994E0,2.01887E2,9.749261E1,2.5850925E-1,-1.536168E-1,2.3229396E-2,9.2725E1,-2.1933685E-1,1.3092501E-1,7.6701134E-1,2.5160378E-1,3.2829332E-1,-1.1180474E-1,1.2633333E1,-4.2853466E-1,-2.7456602E-1,-2.089163E-1,-1.795186E-1,1.4512838E-1,2.9933286E2,4.937E2,1.4944055E0,1.695E1,-2.5904322E-1,-3.1654105E-1,-1.7604624E-1,-2.519158E-1,1.5784407E-1,5.5813694E-1,4.0667E-1,1.2493013E3,-2.4196349E-1,1.6453336E0,7.062766E-1,7.869547E-1,1.7995455E0,1.4188322E0,1.82E1,3.34E1,2.524394E-1,-2.4684973E-1,-3.2267344E-1,-2.687526E-1,8.085823E-1,1.4559521E-1,1.237E1,-3.3103418E-2,3.9065E2,1.822021E1,1.08E-1,8.98227E2,5.8457285E-1,-2.0131503E-1,2.0660482E-1,7.92977E-1,4.696E0,3.1E-1,1.20737016E-1,3.7465742E-1,-8.099641E-2,2.3385623E-1,4.577279E-1,-2.216523E-1,1.6892E1,7.6747143E-1,6.206848E-1,9.28857E-1,2.6422897E-2,4.3355352E-1,1.0873932E0,1.6148794E-1,1.6E1,-3.9050448E-1,-5.5015165E-2,1.5660076E-1,1.18E1,6.69E-1,1.3628177E-1,-1.6180067E-1,-2.0356539E-1,-1.3279088E-1,4.681778E-4,2.932175E-1,1.9166666E1,