{"learner":{"attributes":{"best_iteration":"199","best_score":"2.316926950365821"},"feature_names":[],"feature_types":[],"gradient_booster":{"model":{"gbtree_model_param":{"num_parallel_tree":"1","num_trees":"200"},"iteration_indptr":[0,1,2,3,4,5,6,7,8,9,10,11,12,13,14,15,16,17,18,19,20,21,22,23,24,25,26,27,28,29,30,31,32,33,34,35,36,37,38,39,40,41,42,43,44,45,46,47,48,49,50,51,52,53,54,55,56,57,58,59,60,61,62,63,64,65,66,67,68,69,70,71,72,73,74,75,76,77,78,79,80,81,82,83,84,85,86,87,88,89,90,91,92,93,94,95,96,97,98,99,100,101,102,103,104,105,106,107,108,109,110,111,112,113,114,115,116,117,118,119,120,121,122,123,124,125,126,127,128,129,130,131,132,133,134,135,136,137,138,139,140,141,142,143,144,145,146,147,148,149,150,151,152,153,154,155,156,157,158,159,160,161,162,163,164,165,166,167,168,169,170,171,172,173,174,175,176,177,178,179,180,181,182,183,184,185,186,187,188,189,190,191,192,193,194,195,196,197,198,199,200],"tree_info":[0,0,0,0,0,0,0,0,0,0,0,0,0,0,0,0,0,0,0,0,0,0,0,0,0,0,0,0,0,0,0,0,0,0,0,0,0,0,0,0,0,0,0,0,0,0,0,0,0,0,0,0,0,0,0,0,0,0,0,0,0,0,0,0,0,0,0,0,0,0,0,0,0,0,0,0,0,0,0,0,0,0,0,0,0,0,0,0,0,0,0,0,0,0,0,0,0,0,0,0,0,0,0,0,0,0,0,0,0,0,0,0,0,0,0,0,0,0,0,0,0,0,0,0,0,0,0,0,0,0,0,0,0,0,0,0,0,0,0,0,0,0,0,0,0,0,0,0,0,0,0,0,0,0,0,0,0,0,0,0,0,0,0,0,0,0,0,0,0,0,0,0,0,0,0,0,0,0,0,0,0,0,0,0,0,0,0,0,0,0,0,0,0,0,0,0,0,0,0,0],"trees":[{"base_weights":[4.285354E-4,-6.6973305E-1,4.372595E0,-9.0659493E-1,5.676282E0,1.6206105E0,1.04959345E1,-1.3508693E0,1.2965395E0,9.21398E0,3.1818957E0,2.4892282E1,1.1722953E0,8.325967E0,2.213574E1,-1.493745E0,1.4102731E0,-2.8063202E-1,8.05156E0,1.4223495E1,7.6608176E0,5.138671E-1,4.5297093E0,2.2922947E1,3.7433598E1,3.5681218E-1,6.044009E0,2.7000172E0,1.1274042E1,2.9086386E1,9.118833E0,-1.5251328E0,6.901668E0,5.9874266E-1,1.3014882E1,-3.5223874E-1,1.1972512E1,6.2478786E0,2.567755E1,5.481439E0,1.5748835E1,3.7726088E0,8.827394E0,-1.6339658E-1,2.259989E0,5.925458E0,2.8309913E0,2.1343502E1,2.9732086E1,5.459588E1,3.2442482E1,-7.779778E-1,1.8555212E0,4.8579245E0,1.3782025E1,2.0091174E0,1.5039744E1,1.0567214E1,3.5698296E1,5.7347927E1,2.5058212E1,6.5551515E0,1.6895176E1,-1.6454615E-1,9.8153725E-3,9.6119213E-1,3.4996757E-1,-3.2673612E-2,3.6953267E-1,7.7630895E-1,1.745043E0,3.7982352E-2,-1.0772395E-1,1.6624044E-1,1.5877818E0,8.1750005E-1,-1.76562E-2,1.5471117E0,3.7941468E0,7.750869E-1,3.1084248E-1,5.4864824E-1,1.6845738E0,4.2729687E-2,4.9902534E-1,9.4638723E-1,3.1602576E-1,-9.989653E-2,9.875836E-2,7.404625E-2,3.4479114E-1,6.677996E-1,3.1877813E-1,1.7922492E-1,3.436849E-1,1.7802092E0,2.6876922E0,4.9598923E0,2.581484E0,3.9058454E0,8.123983E0,3.6109703E0,2.1819444E0,-1.23622134E-1,1.8113208E-1,9.274129E-2,5.8129066E-1,3.6413774E-1,8.521684E-1,1.2100229E0,1.860545E0,7.529666E-1,9.214567E-2,8.534897E-1,2.6629715E0,9.144473E-1,1.4584497E0,2.607832E0,4.319203E0,3.9175167E0,8.186285E0,3.116748E0,1.9341141E0,3.1760925E-1,9.159735E-1,1.5028429E0,3.0844514E0],"categories":[],"categories_nodes":[],"categories_segments":[],"categories_sizes":[],"default_left":[1,1,1,1,1,0,1,1,0,0,1,1,0,0,1,1,1,1,1,0,1,1,1,1,0,0,1,0,0,0,1,1,0,1,0,1,0,1,0,1,0,0,0,0,0,0,0,0,0,1,0,1,1,1,0,0,1,0,0,1,0,0,0,0,0,0,0,0,0,0,0,0,0,0,0,0,0,0,0,0,0,0,0,0,0,0,0,0,0,0,0,0,0,0,0,0,0,0,0,0,0,0,0,0,0,0,0,0,0,0,0,0,0,0,0,0,0,0,0,0,0,0,0,0,0,0,0],"id":0,"left_children":[1,3,5,7,9,11,13,15,17,19,21,23,25,27,29,31,33,35,37,39,41,43,45,47,49,51,53,55,57,59,61,63,65,67,69,71,73,75,77,79,81,83,85,87,89,91,93,95,97,99,101,103,105,107,109,111,113,115,117,119,121,123,125,-1,-1,-1,-1,-1,-1,-1,-1,-1,-1,-1,-1,-1,-1,-1,-1,-1,-1,-1,-1,-1,-1,-1,-1,-1,-1,-1,-1,-1,-1,-1,-1,-1,-1,-1,-1,-1,-1,-1,-1,-1,-1,-1,-1,-1,-1,-1,-1,-1,-1,-1,-1,-1,-1,-1,-1,-1,-1,-1,-1,-1,-1,-1,-1],"loss_changes":[1.630133E7,7.251184E6,1.2460315E7,4.5518745E6,1.5316805E6,5.322419E6,5.79084E6,1.526743E6,8.3144625E6,5.583585E5,3.6607456E5,2.37281E5,1.9884325E6,3.20516E6,3.259222E6,9.69649E5,1.79313E6,5.551382E5,4.696202E6,2.2641525E5,2.48497E5,4.040693E4,1.6034225E5,8.9016E4,1.10185E5,7.291767E5,6.586155E5,5.664732E5,2.18872E6,2.67215E6,2.4992738E5,7.16062E5,1.2633925E5,5.100059E5,2.8976575E5,3.338517E5,1.4798456E5,1.659149E6,1.715881E6,1.3574023E4,1.627035E5,5.1514188E4,1.519915E5,2.3678605E4,1.7234152E4,7.6468E4,1.9193438E4,1.3218725E5,1.206685E5,1.181225E5,3.87535E4,2.895118E5,6.78556E5,2.77341E5,7.714725E4,3.778312E5,2.6537512E5,7.0424E5,2.559455E5,1.301673E6,7.17395E5,8.299994E4,8.049456E4,0E0,0E0,0E0,0E0,0E0,0E0,0E0,0E0,0E0,0E0,0E0,0E0,0E0,0E0,0E0,0E0,0E0,0E0,0E0,0E0,0E0,0E0,0E0,0E0,0E0,0E0,0E0,0E0,0E0,0E0,0E0,0E0,0E0,0E0,0E0,0E0,0E0,0E0,0E0,0E0,0E0,0E0,0E0,0E0,0E0,0E0,0E0,0E0,0E0,0E0,0E0,0E0,0E0,0E0,0E0,0E0,0E0,0E0,0E0,0E0,0E0,0E0,0E0,0E0],"parents":[2147483647,0,0,1,1,2,2,3,3,4,4,5,5,6,6,7,7,8,8,9,9,10,10,11,11,12,12,13,13,14,14,15,15,16,16,17,17,18,18,19,19,20,20,21,21,22,22,23,23,24,24,25,25,26,26,27,27,28,28,29,29,30,30,31,31,32,32,33,33,34,34,35,35,36,36,37,37,38,38,39,39,40,40,41,41,42,42,43,43,44,44,45,45,46,46,47,47,48,48,49,49,50,50,51,51,52,52,53,53,54,54,55,55,56,56,57,57,58,58,59,59,60,60,61,61,62,62],"right_children":[2,4,6,8,10,12,14,16,18,20,22,24,26,28,30,32,34,36,38,40,42,44,46,48,50,52,54,56,58,60,62,64,66,68,70,72,74,76,78,80,82,84,86,88,90,92,94,96,98,100,102,104,106,108,110,112,114,116,118,120,122,124,126,-1,-1,-1,-1,-1,-1,-1,-1,-1,-1,-1,-1,-1,-1,-1,-1,-1,-1,-1,-1,-1,-1,-1,-1,-1,-1,-1,-1,-1,-1,-1,-1,-1,-1,-1,-1,-1,-1,-1,-1,-1,-1,-1,-1,-1,-1,-1,-1,-1,-1,-1,-1,-1,-1,-1,-1,-1,-1,-1,-1,-1,-1,-1,-1],"split_conditions":[2.35E2,4.7982E2,3.87919E2,7.222084E2,1.9E0,1E0,2.4025E4,1E2,2.3778E2,7E0,3.1166667E-1,1.4449578E1,2.4E2,7.86159E-1,7.972E1,1.615045E2,1.2900708E2,7.323694E2,9.409414E2,3.802E-2,4.0163547E-1,1.5251571E-1,2E0,3.778362E-1,6E0,5.050333E-1,4.899E-1,1.45584E2,2E3,3.14E1,2.2358896E-1,2.9347516E2,7.613E1,4.8378652E-1,2.070889E0,5.845698E3,2.35E0,2.5E0,2.156E0,6.287E1,2.7233332E-1,1.9830902E-1,2.7661152E1,2.48E1,2.756E2,4.63E1,1.5835494E1,7E0,6E0,9.6666664E-2,5.925E0,1.969996E4,4.91505E1,4.179853E0,2.26198E1,3.47E0,3.91E-1,7.468863E3,1.46582E2,6.613564E-1,3.03E2,4.482363E-3,1.13E2,-1.6454615E-1,9.8153725E-3,9.6119213E-1,3.4996757E-1,-3.2673612E-2,3.6953267E-1,7.7630895E-1,1.745043E0,3.7982352E-2,-1.0772395E-1,1.6624044E-1,1.5877818E0,8.1750005E-1,-1.76562E-2,1.5471117E0,3.7941468E0,7.750869E-1,3.1084248E-1,5.4864824E-1,1.6845738E0,4.2729687E-2,4.9902534E-1,9.4638723E-1,3.1602576E-1,-9.989653E-2,9.875836E-2,7.404625E-2,3.4479114E-1,6.677996E-1,3.1877813E-1,1.7922492E-1,3.436849E-1,1.7802092E0,2.6876922E0,4.9598923E0,2.581484E0,3.9058454E0,8.123983E0,3.6109703E0,2.1819444E0,-1.23622134E-1,1.8113208E-1,9.274129E-2,5.8129066E-1,3.6413774E-1,8.521684E-1,1.2100229E0,1.860545E0,7.529666E-1,9.214567E-2,8.534897E-1,2.6629715E0,9.144473E-1,1.4584497E0,2.607832E0,4.319203E0,3.9175167E0,8.186285E0,3.116748E0,1.9341141E0,3.1760925E-1,9.159735E-1,1.5028429E0,3.0844514E0],"split_indices":[107,6,7,8,116,110,133,116,126,115,71,101,112,20,1,102,3,4,7,43,69,72,143,68,118,68,20,106,117,119,2,4,1,2,125,138,126,125,125,95,67,69,115,118,27,104,137,118,118,71,34,133,7,89,56,115,2,134,106,2,107,69,119,0,0,0,0,0,0,0,0,0,0,0,0,0,0,0,0,0,0,0,0,0,0,0,0,0,0,0,0,0,0,0,0,0,0,0,0,0,0,0,0,0,0,0,0,0,0,0,0,0,0,0,0,0,0,0,0,0,0,0,0,0,0,0,0],"split_type":[0,0,0,0,0,0,0,0,0,0,0,0,0,0,0,0,0,0,0,0,0,0,0,0,0,0,0,0,0,0,0,0,0,0,0,0,0,0,0,0,0,0,0,0,0,0,0,0,0,0,0,0,0,0,0,0,0,0,0,0,0,0,0,0,0,0,0,0,0,0,0,0,0,0,0,0,0,0,0,0,0,0,0,0,0,0,0,0,0,0,0,0,0,0,0,0,0,0,0,0,0,0,0,0,0,0,0,0,0,0,0,0,0,0,0,0,0,0,0,0,0,0,0,0,0,0,0],"sum_hessian":[5.563482E6,4.824056E6,7.39426E5,4.65048E6,1.73576E5,5.10152E5,2.29274E5,3.870061E6,7.80419E5,7.1776E4,1.018E5,9.641E3,5.00511E5,1.93249E5,3.6025E4,3.679657E6,1.90404E5,6.32697E5,1.47722E5,1.6985E4,5.4791E4,3.4167E4,6.7633E4,8.335E3,1.306E3,4.28744E5,7.1767E4,6.6447E4,1.26802E5,2.3484E4,1.2541E4,3.665952E6,1.3705E4,1.7796E5,1.2444E4,6.29022E5,3.675E3,1.3401E5,1.3712E4,2.524E3,1.4461E4,1.2646E4,4.2145E4,2.4619E4,9.548E3,3.7126E4,3.0507E4,6.769E3,1.566E3,2.92E2,1.014E3,2.43996E5,1.84748E5,6.223E4,9.537E3,6.2925E4,3.522E3,1.23237E5,3.565E3,2.928E3,2.0556E4,9.433E3,3.108E3,3.412961E6,2.52991E5,7.627E3,6.078E3,1.37012E5,4.0948E4,5.699E3,6.745E3,3.12987E5,3.16035E5,1.01E3,2.665E3,1.03087E5,3.0923E4,7.485E3,6.227E3,1.289E3,1.235E3,1.397E3,1.3064E4,3.375E3,9.271E3,3.7889E4,4.256E3,1.4264E4,1.0355E4,4.19E3,5.358E3,2.912E4,8.006E3,1.124E4,1.9267E4,4.13E3,2.639E3,2.56E2,1.31E3,1.86E2,1.06E2,7.52E2,2.62E2,2.07308E5,3.6688E4,1.49652E5,3.5096E4,4.6719E4,1.5511E4,7.074E3,2.463E3,1.0356E4,5.2569E4,2.257E3,1.265E3,9.1009E4,3.2228E4,1.563E3,2.002E3,1.683E3,1.245E3,9.935E3,1.0621E4,4.107E3,5.326E3,2.743E3,3.65E2],"tree_param":{"num_deleted":"0","num_feature":"152","num_nodes":"127","size_leaf_vector":"1"}},{"base_weights":[1.9365053E-3,-6.016643E-1,3.9391608E0,-8.233209E-1,4.9093294E0,1.3149873E0,9.145268E0,-1.2121158E0,1.231857E0,8.108208E0,2.7135646E0,8.898868E-1,2.239472E1,1.2191298E1,2.6252258E0,-1.3427271E0,1.3247687E0,-2.3037325E-1,7.4815536E0,6.388279E0,1.0710292E1,8.12189E-1,4.259411E0,3.0771463E0,-2.0507021E-1,2.055359E1,3.398351E1,9.801493E0,1.8960463E1,1.7032397E-1,6.3336954E0,-1.5006402E0,1.7396146E-2,4.6306533E-1,1.1408496E1,-2.9494545E-1,1.1039915E1,5.9555917E0,2.4989985E1,2.6266642E0,7.38282E0,1.2127253E1,5.446035E0,2.0010418E-1,3.1100838E0,5.6251745E0,2.1783583E0,2.135187E0,7.724125E0,1.5358145E0,-1.1117338E0,1.9160837E1,2.6697042E1,4.9106213E1,2.9667461E1,8.975487E0,3.0731009E1,2.925864E1,1.1216429E1,2.2143073E0,-7.1309775E-1,4.718572E0,9.9328985E0,-1.5812203E-1,1.951359E-2,-2.5713613E-2,6.1308175E-1,-2.62966E-2,3.4895083E-1,6.772258E-1,1.540899E0,-5.3064693E-2,1.664363E-1,2.700201E0,8.785702E-1,7.727725E-1,-1.475957E-2,1.0683061E0,3.1881154E0,-4.019549E-3,3.6197555E-1,6.455444E-1,9.954406E-1,5.688543E-1,1.3416591E0,1.4387125E-1,7.084237E-1,-6.2283594E-2,1.457203E-1,-2.469442E-3,3.6426264E-1,6.3540065E-1,2.755586E-1,2.5846875E0,2.1223326E-1,1.2264732E-1,5.068302E-1,5.542927E-1,1.1143698E0,8.487434E-2,4.4944215E-1,-4.111975E-2,-1.5632007E-1,1.636898E0,2.3580282E0,4.099916E0,2.402848E0,6.3793902E0,3.336352E0,3.320418E0,1.9011393E0,1.0255765E0,2.61285E-1,2.2804933E0,3.6846368E0,4.707997E0,2.4454257E0,5.5721575E-1,1.6906207E0,3.8416934E-1,1.6136682E-2,-8.9913614E-2,5.1140803E-1,7.022452E-1,3.522437E-1,1.6086E0,6.8343896E-1],"categories":[],"categories_nodes":[],"categories_segments":[],"categories_sizes":[],"default_left":[1,1,1,1,1,0,0,1,0,0,1,0,1,1,1,1,1,1,1,1,1,1,1,1,1,1,0,0,0,0,1,1,1,1,0,1,0,1,1,0,0,0,0,1,0,1,0,0,0,1,0,0,0,0,0,1,0,0,0,0,1,0,0,0,0,0,0,0,0,0,0,0,0,0,0,0,0,0,0,0,0,0,0,0,0,0,0,0,0,0,0,0,0,0,0,0,0,0,0,0,0,0,0,0,0,0,0,0,0,0,0,0,0,0,0,0,0,0,0,0,0,0,0,0,0,0,0],"id":1,"left_children":[1,3,5,7,9,11,13,15,17,19,21,23,25,27,29,31,33,35,37,39,41,43,45,47,49,51,53,55,57,59,61,63,65,67,69,71,73,75,77,79,81,83,85,87,89,91,93,95,97,99,101,103,105,107,109,111,113,115,117,119,121,123,125,-1,-1,-1,-1,-1,-1,-1,-1,-1,-1,-1,-1,-1,-1,-1,-1,-1,-1,-1,-1,-1,-1,-1,-1,-1,-1,-1,-1,-1,-1,-1,-1,-1,-1,-1,-1,-1,-1,-1,-1,-1,-1,-1,-1,-1,-1,-1,-1,-1,-1,-1,-1,-1,-1,-1,-1,-1,-1,-1,-1,-1,-1,-1,-1],"loss_changes":[1.3222108E7,5.8928725E6,1.0103712E7,3.705619E6,1.310141E6,4.406232E6,4.92235E6,1.292188E6,6.742017E6,3.397085E5,3.2509644E5,1.154357E6,2.06692E5,2.73259E6,7.184992E5,7.96595E5,1.6592028E6,4.3510675E5,3.7371595E6,1.7098912E5,2.252855E5,6.976351E4,1.7338338E5,7.038259E5,5.0698434E5,7.1276E4,8.5417875E4,2.158189E6,3.514789E6,8.5750625E4,1.8268975E5,4.54081E5,6.475254E5,3.8654644E5,2.7871612E5,2.7453512E5,1.22317375E5,1.391664E6,1.105264E6,2.5319188E4,8.6152E4,1.9752825E5,4.2063625E4,4.0521902E4,1.741696E4,7.7016875E4,3.2002281E4,3.56342E5,2.0207075E5,2.2359517E5,6.679692E4,8.404575E4,5.8095875E4,6.585144E4,3.8488375E4,9.78422E5,2.28911E5,1.618617E6,8.0791025E5,4.7878203E4,3.595048E4,5.9775062E4,1.8551131E5,0E0,0E0,0E0,0E0,0E0,0E0,0E0,0E0,0E0,0E0,0E0,0E0,0E0,0E0,0E0,0E0,0E0,0E0,0E0,0E0,0E0,0E0,0E0,0E0,0E0,0E0,0E0,0E0,0E0,0E0,0E0,0E0,0E0,0E0,0E0,0E0,0E0,0E0,0E0,0E0,0E0,0E0,0E0,0E0,0E0,0E0,0E0,0E0,0E0,0E0,0E0,0E0,0E0,0E0,0E0,0E0,0E0,0E0,0E0,0E0,0E0,0E0,0E0,0E0],"parents":[2147483647,0,0,1,1,2,2,3,3,4,4,5,5,6,6,7,7,8,8,9,9,10,10,11,11,12,12,13,13,14,14,15,15,16,16,17,17,18,18,19,19,20,20,21,21,22,22,23,23,24,24,25,25,26,26,27,27,28,28,29,29,30,30,31,31,32,32,33,33,34,34,35,35,36,36,37,37,38,38,39,39,40,40,41,41,42,42,43,43,44,44,45,45,46,46,47,47,48,48,49,49,50,50,51,51,52,52,53,53,54,54,55,55,56,56,57,57,58,58,59,59,60,60,61,61,62,62],"right_children":[2,4,6,8,10,12,14,16,18,20,22,24,26,28,30,32,34,36,38,40,42,44,46,48,50,52,54,56,58,60,62,64,66,68,70,72,74,76,78,80,82,84,86,88,90,92,94,96,98,100,102,104,106,108,110,112,114,116,118,120,122,124,126,-1,-1,-1,-1,-1,-1,-1,-1,-1,-1,-1,-1,-1,-1,-1,-1,-1,-1,-1,-1,-1,-1,-1,-1,-1,-1,-1,-1,-1,-1,-1,-1,-1,-1,-1,-1,-1,-1,-1,-1,-1,-1,-1,-1,-1,-1,-1,-1,-1,-1,-1,-1,-1,-1,-1,-1,-1,-1,-1,-1,-1,-1,-1,-1],"split_conditions":[2.35E2,4.2425195E2,3.067414E2,7.5476E2,1.9E0,2.18E3,4.2288334E1,1E2,2.3778E2,3E0,4.749941E-1,-3.348174E1,1.4449578E1,1.96E4,2.28E1,6.652E0,1.01E2,8.12E2,7.4622125E2,3.4226418E-1,7.625589E1,2.526406E-1,1.3E1,3.7741876E-1,6.140984E1,3.88154E-1,6E0,1.73E1,7.02E1,7.9823356E0,2.9E1,3.3235E1,2.6603333E2,5.73E-1,2.070889E0,4.978003E2,1.78E2,2.1E0,5.988779E-1,1.9800176E-1,3.2490277E2,3.877E-2,1.9800176E-1,2.0667793E-1,1.801E1,2E0,1.1050822E1,1.73E1,-3.7642E1,2.827E1,4.2716667E1,7E0,6E0,6.96E1,5.925E0,7.11655E1,1.46582E2,3.14E1,2.2358896E-1,1.92E1,1.0283861E0,1.9046652E1,2.31E1,-1.5812203E-1,1.951359E-2,-2.5713613E-2,6.1308175E-1,-2.62966E-2,3.4895083E-1,6.772258E-1,1.540899E0,-5.3064693E-2,1.664363E-1,2.700201E0,8.785702E-1,7.727725E-1,-1.475957E-2,1.0683061E0,3.1881154E0,-4.019549E-3,3.6197555E-1,6.455444E-1,9.954406E-1,5.688543E-1,1.3416591E0,1.4387125E-1,7.084237E-1,-6.2283594E-2,1.457203E-1,-2.469442E-3,3.6426264E-1,6.3540065E-1,2.755586E-1,2.5846875E0,2.1223326E-1,1.2264732E-1,5.068302E-1,5.542927E-1,1.1143698E0,8.487434E-2,4.4944215E-1,-4.111975E-2,-1.5632007E-1,1.636898E0,2.3580282E0,4.099916E0,2.402848E0,6.3793902E0,3.336352E0,3.320418E0,1.9011393E0,1.0255765E0,2.61285E-1,2.2804933E0,3.6846368E0,4.707997E0,2.4454257E0,5.5721575E-1,1.6906207E0,3.8416934E-1,1.6136682E-2,-8.9913614E-2,5.1140803E-1,7.022452E-1,3.522437E-1,1.6086E0,6.8343896E-1],"split_indices":[107,6,7,8,116,105,105,116,126,136,69,105,101,133,0,4,81,4,124,69,93,70,121,2,92,21,118,114,1,104,122,6,83,2,125,2,125,125,2,67,119,48,67,21,0,143,122,114,105,50,105,118,118,14,34,92,106,119,2,120,77,122,119,0,0,0,0,0,0,0,0,0,0,0,0,0,0,0,0,0,0,0,0,0,0,0,0,0,0,0,0,0,0,0,0,0,0,0,0,0,0,0,0,0,0,0,0,0,0,0,0,0,0,0,0,0,0,0,0,0,0,0,0,0,0,0,0],"split_type":[0,0,0,0,0,0,0,0,0,0,0,0,0,0,0,0,0,0,0,0,0,0,0,0,0,0,0,0,0,0,0,0,0,0,0,0,0,0,0,0,0,0,0,0,0,0,0,0,0,0,0,0,0,0,0,0,0,0,0,0,0,0,0,0,0,0,0,0,0,0,0,0,0,0,0,0,0,0,0,0,0,0,0,0,0,0,0,0,0,0,0,0,0,0,0,0,0,0,0,0,0,0,0,0,0,0,0,0,0,0,0,0,0,0,0,0,0,0,0,0,0,0,0,0,0,0,0],"sum_hessian":[5.56366E6,4.824097E6,7.39563E5,4.637571E6,1.86526E5,4.91713E5,2.4785E5,3.899812E6,7.37759E5,7.592E4,1.10606E5,4.81994E5,9.719E3,1.68929E5,7.8921E4,3.708862E6,1.9095E5,5.97876E5,1.39883E5,4.571E4,3.021E4,4.96E4,6.1006E4,1.60794E5,3.212E5,8.389E3,1.33E3,1.24853E5,4.4076E4,4.7487E4,3.1434E4,3.323049E6,3.85813E5,1.75918E5,1.5032E4,5.94471E5,3.405E3,1.2867E5,1.1213E4,9.559E3,3.6151E4,2.3802E4,6.408E3,3.9168E4,1.0432E4,3.6832E4,2.4174E4,1.33695E5,2.7099E4,1.09996E5,2.11204E5,6.842E3,1.547E3,2.93E2,1.037E3,1.20114E5,4.739E3,1.8917E4,2.5159E4,1.433E4,3.3157E4,2.1699E4,9.735E3,3.172307E6,1.50742E5,3.69233E5,1.658E4,1.41882E5,3.4036E4,6.964E3,8.068E3,5.30637E5,6.3834E4,4.2E2,2.985E3,9.9716E4,2.8954E4,3.646E3,7.567E3,2.594E3,6.965E3,2.6572E4,9.579E3,3.972E3,1.983E4,1.86E3,4.548E3,2.3672E4,1.5496E4,1.515E3,8.917E3,2.9371E4,7.461E3,5.6E1,2.4118E4,1.02073E5,3.1622E4,1.6547E4,1.0552E4,8.9267E4,2.0729E4,8.2771E4,1.28433E5,4.196E3,2.646E3,2.41E2,1.306E3,1.5E2,1.43E2,7.77E2,2.6E2,9.9993E4,2.0121E4,2.066E3,2.673E3,4.015E3,1.4902E4,1.2631E4,1.2528E4,7.993E3,6.337E3,3.2132E4,1.025E3,7.414E3,1.4285E4,3.259E3,6.476E3],"tree_param":{"num_deleted":"0","num_feature":"152","num_nodes":"127","size_leaf_vector":"1"}},{"base_weights":[6.8970845E-4,-5.4264504E-1,3.5457766E0,-7.28076E-1,4.825696E0,1.4865972E0,8.98514E0,-8.530451E-1,4.568458E0,9.301532E0,3.4809077E0,1.1439291E0,2.019126E1,7.1044993E0,1.9226484E1,2.617358E0,-9.970748E-1,6.5481772E0,3.949486E-1,3.1690989E0,1.0152135E1,1.1325779E0,4.6131983E0,4.5684317E-1,5.2739854E0,1.859502E1,3.133895E1,8.932489E0,7.0325315E-1,2.5175306E1,8.853102E0,6.725299E-1,1.740355E1,-1.0360068E0,7.5328016E0,4.713079E0,1.1188326E1,6.930766E0,-2.795582E-1,3.647138E-1,3.9513757E0,6.0978045E0,1.1501069E1,2.253173E0,1.8888587E-1,5.6474624E0,2.3160157E0,-1.6307461E-1,2.9967556E0,4.2388062E0,1.2940161E1,2.2264072E1,1.6391317E1,4.9843643E1,2.6004442E1,8.386315E0,3.046659E1,1.5775459E-1,6.3770766E0,5.1695816E1,2.1326708E1,1.4632988E1,5.8846664E0,3.3559433E-1,-4.0899437E-2,1.0253019E0,2.6348817E0,-1.2703542E-1,-9.882903E-3,5.7418317E-1,1.1981426E0,2.9733285E-1,7.4325466E-1,1.018577E0,2.586881E0,2.9567036E-1,9.1065294E-1,2.1783002E-1,-8.890458E-2,2.5220692E-1,-5.3265065E-2,6.038632E-1,3.1447825E-1,1.1782531E-1,7.5642484E-1,1.2728976E0,8.416468E-1,3.7836522E-1,1.10669866E-1,-2.3305358E-2,2.4084218E-1,5.42167E-1,1.1614083E0,2.399888E0,2.2774132E-1,-8.798119E-2,8.004865E-2,5.0714964E-1,-1.0944578E-2,8.165609E-1,2.9631945E-1,1.0356133E0,1.619044E0,3.1745431E0,1.9519037E0,1.339392E0,2.0957015E0,3.307864E0,6.4166884E0,1.6183894E0,2.879391E0,6.9824415E-1,1.3319548E0,6.4996797E-1,3.289631E0,1.0240679E-1,-1.4105164E-1,2.4872632E-1,9.4563085E-1,7.1425867E0,3.6014676E0,1.3272413E0,2.5076883E0,1.2947501E0,2.8697567E0,2.8771985E-1,1.0299054E0],"categories":[],"categories_nodes":[],"categories_segments":[],"categories_sizes":[],"default_left":[1,1,1,1,0,0,1,0,0,0,1,0,1,0,1,1,1,1,0,0,1,1,1,1,1,0,0,0,0,0,0,0,1,1,1,1,1,1,1,0,0,0,0,0,1,1,0,0,1,1,0,1,0,0,0,1,0,0,0,0,0,0,1,0,0,0,0,0,0,0,0,0,0,0,0,0,0,0,0,0,0,0,0,0,0,0,0,0,0,0,0,0,0,0,0,0,0,0,0,0,0,0,0,0,0,0,0,0,0,0,0,0,0,0,0,0,0,0,0,0,0,0,0,0,0,0,0],"id":2,"left_children":[1,3,5,7,9,11,13,15,17,19,21,23,25,27,29,31,33,35,37,39,41,43,45,47,49,51,53,55,57,59,61,63,65,67,69,71,73,75,77,79,81,83,85,87,89,91,93,95,97,99,101,103,105,107,109,111,113,115,117,119,121,123,125,-1,-1,-1,-1,-1,-1,-1,-1,-1,-1,-1,-1,-1,-1,-1,-1,-1,-1,-1,-1,-1,-1,-1,-1,-1,-1,-1,-1,-1,-1,-1,-1,-1,-1,-1,-1,-1,-1,-1,-1,-1,-1,-1,-1,-1,-1,-1,-1,-1,-1,-1,-1,-1,-1,-1,-1,-1,-1,-1,-1,-1,-1,-1,-1],"loss_changes":[1.0715461E7,4.8018695E6,8.280752E6,3.0862778E6,9.693845E5,3.4373285E6,3.910145E6,2.276902E6,8.880295E5,1.94065E5,3.2930838E5,1.4944571E6,1.710975E5,2.007101E6,1.943438E6,5.219886E6,1.452461E6,6.2069175E5,1.5245067E5,9.945277E3,1.78641E5,4.260718E4,1.9851412E5,7.10948E5,5.960636E5,6.7893E4,1.17851E5,1.569006E6,1.1793016E5,2.041968E6,1.9689588E5,4.655714E5,1.3493575E6,9.562165E5,1.5825838E5,2.4714012E5,3.037955E5,2.794489E4,4.6960816E4,1.917918E3,5.949258E3,5.8859312E4,9.27575E4,3.2314805E4,2.048484E4,7.755975E4,2.1659969E4,2.506578E5,5.7088575E5,3.314865E5,7.4884125E4,8.1754625E4,7.194975E4,6.2472188E4,2.5257062E4,9.01112E5,1.9195475E5,4.7229586E4,4.0005734E4,7.8204E5,5.27712E5,9.1962E4,1.00696375E5,0E0,0E0,0E0,0E0,0E0,0E0,0E0,0E0,0E0,0E0,0E0,0E0,0E0,0E0,0E0,0E0,0E0,0E0,0E0,0E0,0E0,0E0,0E0,0E0,0E0,0E0,0E0,0E0,0E0,0E0,0E0,0E0,0E0,0E0,0E0,0E0,0E0,0E0,0E0,0E0,0E0,0E0,0E0,0E0,0E0,0E0,0E0,0E0,0E0,0E0,0E0,0E0,0E0,0E0,0E0,0E0,0E0,0E0,0E0,0E0,0E0,0E0,0E0,0E0],"parents":[2147483647,0,0,1,1,2,2,3,3,4,4,5,5,6,6,7,7,8,8,9,9,10,10,11,11,12,12,13,13,14,14,15,15,16,16,17,17,18,18,19,19,20,20,21,21,22,22,23,23,24,24,25,25,26,26,27,27,28,28,29,29,30,30,31,31,32,32,33,33,34,34,35,35,36,36,37,37,38,38,39,39,40,40,41,41,42,42,43,43,44,44,45,45,46,46,47,47,48,48,49,49,50,50,51,51,52,52,53,53,54,54,55,55,56,56,57,57,58,58,59,59,60,60,61,61,62,62],"right_children":[2,4,6,8,10,12,14,16,18,20,22,24,26,28,30,32,34,36,38,40,42,44,46,48,50,52,54,56,58,60,62,64,66,68,70,72,74,76,78,80,82,84,86,88,90,92,94,96,98,100,102,104,106,108,110,112,114,116,118,120,122,124,126,-1,-1,-1,-1,-1,-1,-1,-1,-1,-1,-1,-1,-1,-1,-1,-1,-1,-1,-1,-1,-1,-1,-1,-1,-1,-1,-1,-1,-1,-1,-1,-1,-1,-1,-1,-1,-1,-1,-1,-1,-1,-1,-1,-1,-1,-1,-1,-1,-1,-1,-1,-1,-1,-1,-1,-1,-1,-1,-1,-1,-1,-1,-1,-1],"split_conditions":[2.35E2,5.387999E2,4.99015E2,2.7331137E1,5.6E0,2.18E3,2.4025E4,-3.67958E1,4.28E1,3.728E-2,4.0813863E-1,2.4E2,1.479E1,4.2716667E1,7.681E1,2.4403334E2,1.298E3,1.795E1,9E0,3E-1,4.2712456E-1,8.76E1,1.3E1,5.606328E1,9E0,7.55941E1,6E0,1.73E1,1.1311693E3,3.14E1,8.68E1,7.32E1,2.156E0,1.273E2,8.321E0,3E0,6.710465E2,2.817E2,3.27E0,2.8E1,2.8E1,1.9800176E-1,5.4E1,8.5E0,2.9617273E2,3.2970276E2,1.1050822E1,2.382473E1,7.813333E1,8.097704E1,1.21E1,5.59E0,7E0,8.406664E-1,3.1278017E-1,1.4164E2,6.027714E-1,4.411503E2,5.8994193E0,5.809E1,1.3E0,1.13E2,4.3333334E-1,3.3559433E-1,-4.0899437E-2,1.0253019E0,2.6348817E0,-1.2703542E-1,-9.882903E-3,5.7418317E-1,1.1981426E0,2.9733285E-1,7.4325466E-1,1.018577E0,2.586881E0,2.9567036E-1,9.1065294E-1,2.1783002E-1,-8.890458E-2,2.5220692E-1,-5.3265065E-2,6.038632E-1,3.1447825E-1,1.1782531E-1,7.5642484E-1,1.2728976E0,8.416468E-1,3.7836522E-1,1.10669866E-1,-2.3305358E-2,2.4084218E-1,5.42167E-1,1.1614083E0,2.399888E0,2.2774132E-1,-8.798119E-2,8.004865E-2,5.0714964E-1,-1.0944578E-2,8.165609E-1,2.9631945E-1,1.0356133E0,1.619044E0,3.1745431E0,1.9519037E0,1.339392E0,2.0957015E0,3.307864E0,6.4166884E0,1.6183894E0,2.879391E0,6.9824415E-1,1.3319548E0,6.4996797E-1,3.289631E0,1.0240679E-1,-1.4105164E-1,2.4872632E-1,9.4563085E-1,7.1425867E0,3.6014676E0,1.3272413E0,2.5076883E0,1.2947501E0,2.8697567E0,2.8771985E-1,1.0299054E0],"split_indices":[107,6,7,59,120,105,133,106,118,43,21,112,101,105,1,81,4,124,142,23,19,91,121,7,50,100,118,114,7,119,1,1,125,83,32,144,7,3,116,119,119,67,119,132,87,119,122,106,92,92,122,11,118,59,76,124,57,123,95,1,124,119,57,0,0,0,0,0,0,0,0,0,0,0,0,0,0,0,0,0,0,0,0,0,0,0,0,0,0,0,0,0,0,0,0,0,0,0,0,0,0,0,0,0,0,0,0,0,0,0,0,0,0,0,0,0,0,0,0,0,0,0,0,0,0,0,0],"split_type":[0,0,0,0,0,0,0,0,0,0,0,0,0,0,0,0,0,0,0,0,0,0,0,0,0,0,0,0,0,0,0,0,0,0,0,0,0,0,0,0,0,0,0,0,0,0,0,0,0,0,0,0,0,0,0,0,0,0,0,0,0,0,0,0,0,0,0,0,0,0,0,0,0,0,0,0,0,0,0,0,0,0,0,0,0,0,0,0,0,0,0,0,0,0,0,0,0,0,0,0,0,0,0,0,0,0,0,0,0,0,0,0,0,0,0,0,0,0,0,0,0,0,0,0,0,0,0],"sum_hessian":[5.563094E6,4.823782E6,7.39312E5,4.662725E6,1.61057E5,5.3629E5,2.03022E5,4.555247E6,1.07478E5,3.7209E4,1.23848E5,5.26643E5,9.647E3,1.71526E5,3.1496E4,1.81519E5,4.373728E6,7.2898E4,3.458E4,4.533E3,3.2676E4,4.029E4,8.3558E4,4.51527E5,7.5116E4,8.441E3,1.206E3,1.33424E5,3.8102E4,2.0016E4,1.148E4,1.6042E5,2.1099E4,4.353857E6,1.9871E4,5.224E4,2.0658E4,3.234E3,3.1346E4,9.89E2,3.544E3,8.159E3,2.4517E4,1.8418E4,2.1872E4,5.7616E4,2.5942E4,3.62944E5,8.8583E4,6.6181E4,8.935E3,3.164E3,5.277E3,2.68E2,9.38E2,1.30125E5,3.299E3,3.4761E4,3.341E3,2.535E3,1.7481E4,3.894E3,7.586E3,4.6082E4,1.14338E5,1.1727E4,9.372E3,3.482928E6,8.70929E5,1.4169E4,5.702E3,3.186E4,2.038E4,1.9339E4,1.319E3,1.145E3,2.089E3,6.228E3,2.5118E4,2.9E2,6.99E2,9.86E2,2.558E3,1.874E3,6.285E3,1.7534E4,6.983E3,7.887E3,1.0531E4,1.8379E4,3.493E3,5.5517E4,2.099E3,4.5E1,2.5897E4,2.08129E5,1.54815E5,5.3109E4,3.5474E4,1.6226E4,4.9955E4,4.98E3,3.955E3,7.08E2,2.456E3,3.188E3,2.089E3,1.25E2,1.43E2,2.09E2,7.29E2,1.013E5,2.8825E4,3.04E2,2.995E3,2.2392E4,1.2369E4,1.477E3,1.864E3,1.121E3,1.414E3,5.555E3,1.1926E4,3.479E3,4.15E2,4.513E3,3.073E3],"tree_param":{"num_deleted":"0","num_feature":"152","num_nodes":"127","size_leaf_vector":"1"}},{"base_weights":[-1.792929E-4,-4.8857954E-1,3.186834E0,-6.759823E-1,3.8597498E0,1.4638609E0,8.454418E0,-9.592363E-1,1.2866521E0,6.534691E0,2.1145191E0,1.7105661E1,1.170364E0,6.4312353E0,1.724438E1,-1.0699195E0,1.227144E0,-6.7503706E-2,6.8992963E0,1.0363387E1,5.3435793E0,2.9738293E0,-1.3659228E-1,1.8339933E1,-1.6336119E0,-1.5578644E-2,3.0613792E0,9.959072E0,3.5784004E0,7.3948584E0,2.151707E1,-1.0964268E0,6.355916E0,3.393145E-1,9.712183E0,2.5455875E0,-3.541209E-1,5.430137E0,2.04207E1,4.038373E0,1.1554555E1,2.3425858E0,6.447172E0,4.0922003E0,1.7161878E0,9.5936906E-1,-8.381389E-1,1.692005E1,3.0738173E1,1.5218476E1,-2.3780663E0,-4.378566E-1,4.4472656E0,1.9482664E0,7.1296806E0,3.6412678E1,9.356791E0,6.9818125E0,1.3665185E0,1.2455458E1,3.9997163E0,3.7036304E1,1.783197E1,-1.22831084E-1,6.027264E-3,8.8662595E-1,3.3045232E-1,-5.010095E-2,1.9796605E-1,4.2106986E-1,1.3623346E0,-2.221373E-2,4.298329E-1,-1.5758555E-1,-8.486831E-3,9.6262135E-2,7.423632E-1,1.2076586E0,3.0529559E0,6.1074513E-1,1.5915096E-1,3.750222E-1,1.2632205E0,1.9350828E-3,3.3386678E-1,6.969251E-1,1.7963728E-1,1.7388146E-1,4.833419E-1,1.9173542E0,1.6769782E-1,-2.372316E-2,1.7689057E-1,3.1628963E-2,-1.2633656E-1,1.5508194E0,2.2856157E0,4.788823E0,2.5705273E0,3.7466066E0,7.0779246E-1,-2.4682489E-1,1.1879084E0,-7.21676E-2,2.4202147E-1,6.405582E-1,-4.44816E-2,1.5669158E-2,2.7459022E-1,2.2202444E-1,9.166593E-1,1.058772E0,4.0435095E0,6.9520766E-1,1.2292365E0,2.0497067E-1,8.068451E-1,-1.3108821E-1,2.533162E-1,8.6439866E-1,1.5628701E0,1.1185993E0,3.0283985E-1,2.5416806E0,5.49008E0,2.4920938E0,1.2624153E0],"categories":[],"categories_nodes":[],"categories_segments":[],"categories_sizes":[],"default_left":[1,1,1,1,1,0,1,1,0,0,0,1,0,0,0,1,1,0,1,0,1,1,0,1,0,1,1,0,0,0,0,1,0,1,1,0,0,1,0,1,0,0,0,1,0,0,0,1,0,0,1,1,0,0,0,0,1,0,0,0,0,1,0,0,0,0,0,0,0,0,0,0,0,0,0,0,0,0,0,0,0,0,0,0,0,0,0,0,0,0,0,0,0,0,0,0,0,0,0,0,0,0,0,0,0,0,0,0,0,0,0,0,0,0,0,0,0,0,0,0,0,0,0,0,0,0,0],"id":3,"left_children":[1,3,5,7,9,11,13,15,17,19,21,23,25,27,29,31,33,35,37,39,41,43,45,47,49,51,53,55,57,59,61,63,65,67,69,71,73,75,77,79,81,83,85,87,89,91,93,95,97,99,101,103,105,107,109,111,113,115,117,119,121,123,125,-1,-1,-1,-1,-1,-1,-1,-1,-1,-1,-1,-1,-1,-1,-1,-1,-1,-1,-1,-1,-1,-1,-1,-1,-1,-1,-1,-1,-1,-1,-1,-1,-1,-1,-1,-1,-1,-1,-1,-1,-1,-1,-1,-1,-1,-1,-1,-1,-1,-1,-1,-1,-1,-1,-1,-1,-1,-1,-1,-1,-1,-1,-1,-1],"loss_changes":[8.660421E6,3.931475E6,6.7102425E6,2.57127E6,9.3056425E5,2.5576218E6,3.240577E6,9.78118E5,4.4335995E6,3.5886675E5,2.3335319E5,2.3736025E5,1.22641E6,1.4908345E6,1.434694E6,7.572695E5,1.4671534E6,3.5197622E5,2.2522925E6,1.40646E5,1.988E5,1.2278975E5,2.5625637E4,1.689545E5,8.002656E3,6.333784E5,9.544761E5,1.0548875E6,6.165594E5,1.7721125E5,1.359259E6,5.84792E5,1.0479075E5,2.4303061E5,3.9689212E5,2.2534453E5,1.3931339E5,9.1084175E5,9.369225E5,1.4981094E4,1.32113E5,3.7354656E4,1.0655625E5,8.060081E4,2.809796E4,1.2601167E4,9.975852E3,7.20565E4,8.404775E4,4.624724E3,8.123386E2,2.4906195E5,2.78328E5,2.3649738E5,4.52784E5,1.52689E5,4.57055E5,1.7288888E5,1.5506681E5,4.996125E4,4.30756E4,9.45568E5,7.091765E5,0E0,0E0,0E0,0E0,0E0,0E0,0E0,0E0,0E0,0E0,0E0,0E0,0E0,0E0,0E0,0E0,0E0,0E0,0E0,0E0,0E0,0E0,0E0,0E0,0E0,0E0,0E0,0E0,0E0,0E0,0E0,0E0,0E0,0E0,0E0,0E0,0E0,0E0,0E0,0E0,0E0,0E0,0E0,0E0,0E0,0E0,0E0,0E0,0E0,0E0,0E0,0E0,0E0,0E0,0E0,0E0,0E0,0E0,0E0,0E0,0E0,0E0,0E0,0E0],"parents":[2147483647,0,0,1,1,2,2,3,3,4,4,5,5,6,6,7,7,8,8,9,9,10,10,11,11,12,12,13,13,14,14,15,15,16,16,17,17,18,18,19,19,20,20,21,21,22,22,23,23,24,24,25,25,26,26,27,27,28,28,29,29,30,30,31,31,32,32,33,33,34,34,35,35,36,36,37,37,38,38,39,39,40,40,41,41,42,42,43,43,44,44,45,45,46,46,47,47,48,48,49,49,50,50,51,51,52,52,53,53,54,54,55,55,56,56,57,57,58,58,59,59,60,60,61,61,62,62],"right_children":[2,4,6,8,10,12,14,16,18,20,22,24,26,28,30,32,34,36,38,40,42,44,46,48,50,52,54,56,58,60,62,64,66,68,70,72,74,76,78,80,82,84,86,88,90,92,94,96,98,100,102,104,106,108,110,112,114,116,118,120,122,124,126,-1,-1,-1,-1,-1,-1,-1,-1,-1,-1,-1,-1,-1,-1,-1,-1,-1,-1,-1,-1,-1,-1,-1,-1,-1,-1,-1,-1,-1,-1,-1,-1,-1,-1,-1,-1,-1,-1,-1,-1,-1,-1,-1,-1,-1,-1,-1,-1,-1,-1,-1,-1,-1,-1,-1,-1,-1,-1,-1,-1,-1,-1,-1,-1],"split_conditions":[2.35E2,3.8227557E2,5.942454E2,8.731666E2,1.9E0,8E0,1.96E4,1E2,2.3778E2,7E0,7.85E1,1.24E0,8.993833E1,3.62E0,3.3283845E-1,1.615045E2,8.85E1,4.671E1,1.0756031E3,3.877E-2,3.4374344E-1,1.3E1,8.89E1,1.518E1,8.5E-1,3.212E2,1.1834172E2,2.3E0,4.61E0,8.68E1,3.14E1,2.872E2,7.549E1,2.562381E-1,6.903248E-1,2.35E0,1.326994E-1,4.6398723E-1,2.156E0,6.322001E1,2.2153153E-1,1.7646556E-1,2.7661152E1,1.2849559E-1,1.1050822E1,3.9576666E2,2E0,3.88154E-1,6E0,9.86E0,6.67E0,4.865E0,4.457E1,1.7326064E-1,2.186895E-1,1.1370931E0,1.5E0,1.3E0,2.1309423E0,1.3E0,6.02E0,8.0357265E-1,3.03E2,-1.22831084E-1,6.027264E-3,8.8662595E-1,3.3045232E-1,-5.010095E-2,1.9796605E-1,4.2106986E-1,1.3623346E0,-2.221373E-2,4.298329E-1,-1.5758555E-1,-8.486831E-3,9.6262135E-2,7.423632E-1,1.2076586E0,3.0529559E0,6.1074513E-1,1.5915096E-1,3.750222E-1,1.2632205E0,1.9350828E-3,3.3386678E-1,6.969251E-1,1.7963728E-1,1.7388146E-1,4.833419E-1,1.9173542E0,1.6769782E-1,-2.372316E-2,1.7689057E-1,3.1628963E-2,-1.2633656E-1,1.5508194E0,2.2856157E0,4.788823E0,2.5705273E0,3.7466066E0,7.0779246E-1,-2.4682489E-1,1.1879084E0,-7.21676E-2,2.4202147E-1,6.405582E-1,-4.44816E-2,1.5669158E-2,2.7459022E-1,2.2202444E-1,9.166593E-1,1.058772E0,4.0435095E0,6.9520766E-1,1.2292365E0,2.0497067E-1,8.068451E-1,-1.3108821E-1,2.533162E-1,8.6439866E-1,1.5628701E0,1.1185993E0,3.0283985E-1,2.5416806E0,5.49008E0,2.4920938E0,1.2624153E0],"split_indices":[107,6,7,8,116,118,133,116,126,115,1,4,106,115,2,102,3,113,7,48,71,121,14,101,119,50,7,123,125,1,119,52,1,2,2,126,48,73,125,95,21,21,115,74,122,81,136,21,118,11,35,4,126,2,2,59,125,124,128,124,11,2,107,0,0,0,0,0,0,0,0,0,0,0,0,0,0,0,0,0,0,0,0,0,0,0,0,0,0,0,0,0,0,0,0,0,0,0,0,0,0,0,0,0,0,0,0,0,0,0,0,0,0,0,0,0,0,0,0,0,0,0,0,0,0,0,0],"split_type":[0,0,0,0,0,0,0,0,0,0,0,0,0,0,0,0,0,0,0,0,0,0,0,0,0,0,0,0,0,0,0,0,0,0,0,0,0,0,0,0,0,0,0,0,0,0,0,0,0,0,0,0,0,0,0,0,0,0,0,0,0,0,0,0,0,0,0,0,0,0,0,0,0,0,0,0,0,0,0,0,0,0,0,0,0,0,0,0,0,0,0,0,0,0,0,0,0,0,0,0,0,0,0,0,0,0,0,0,0,0,0,0,0,0,0,0,0,0,0,0,0,0,0,0,0,0,0],"sum_hessian":[5.563897E6,4.82455E6,7.39347E5,4.625215E6,1.99335E5,5.5712E5,1.82227E5,4.041878E6,5.83337E5,7.8703E4,1.20632E5,1.026E4,5.4686E5,1.48133E5,3.4094E4,3.847122E6,1.94756E5,4.69953E5,1.13384E5,1.8673E4,6.003E4,8.7305E4,3.3327E4,9.626E3,6.34E2,3.36086E5,2.10774E5,6.623E4,8.1903E4,1.0316E4,2.3778E4,3.833439E6,1.3683E4,1.76309E5,1.8447E4,4.6451E4,4.23502E5,1.02273E5,1.1111E4,2.96E3,1.5713E4,1.6141E4,4.3889E4,4.621E4,4.1095E4,1.3007E4,2.032E4,8.639E3,9.87E2,2.6E1,6.08E2,3.07035E5,2.9051E4,1.65495E5,4.5279E4,1.473E3,6.4757E4,3.2261E4,4.9642E4,4.141E3,6.175E3,4.561E3,1.9217E4,3.441094E6,3.92345E5,7.506E3,6.177E3,1.16585E5,5.9724E4,7.666E3,1.0781E4,1.8011E4,2.844E4,7.6478E4,3.47024E5,3.1556E4,7.0717E4,6.088E3,5.023E3,1.603E3,1.357E3,1.907E3,1.3806E4,4.844E3,1.1297E4,3.9459E4,4.43E3,1.1069E4,3.5141E4,9.1E1,4.1004E4,5.249E3,7.758E3,5.47E3,1.485E4,6.982E3,1.657E3,2.22E2,7.65E2,6E0,2E1,6.05E2,3E0,2.793E5,2.7735E4,2.0746E4,8.305E3,5.0983E4,1.14512E5,1.3278E4,3.2001E4,1.99E2,1.274E3,3.5599E4,2.9158E4,5.825E3,2.6436E4,1.5066E4,3.4576E4,1.883E3,2.258E3,7.34E2,5.441E3,2.765E3,1.796E3,8.137E3,1.108E4],"tree_param":{"num_deleted":"0","num_feature":"152","num_nodes":"127","size_leaf_vector":"1"}},{"base_weights":[-1.5038741E-3,-4.4099522E-1,2.8667502E0,-6.095528E-1,3.4666657E0,1.3124379E0,7.6235538E0,-7.045957E-1,4.278926E0,5.858953E0,1.900451E0,1.0449369E0,1.6501255E1,5.981053E0,1.6723135E1,2.1558425E0,-8.241274E-1,9.424341E0,2.7558353E0,9.274846E0,4.7898126E0,1.6477652E-1,2.8383667E0,4.4284457E-1,4.6829033E0,1.5009194E1,2.57215E1,2.1543074E0,7.960519E0,7.207466E0,2.139042E1,5.7294226E-1,1.4807131E1,-1.0439706E0,8.6344235E-2,6.631619E0,1.1730089E1,1.3994825E1,2.248506E0,2.4425726E0,1.0181475E1,5.751846E0,2.005021E0,-2.0083348E-1,2.6023014E0,3.930649E0,1.6659702E0,1.8644568E0,-5.488291E-1,3.7196445E0,1.1305065E1,1.9546704E0,1.5633259E1,3.843182E1,2.2025217E1,1.6573145E0,1.0607896E1,7.516801E0,2.657212E1,1.3187799E1,4.5279317E0,4.5899227E1,1.7872637E1,-2.4324922E-2,3.439191E-1,8.551467E-1,2.2524796E0,-1.07040286E-1,5.720259E-1,3.395793E-1,-4.7626477E-2,3.952748E-1,7.6546365E-1,1.0166671E-1,1.1910642E0,6.739831E-1,2.270012E0,3.9562878E-1,2.2883758E-2,-3.7517402E-2,3.8364276E-1,1.1900381E0,6.4188355E-1,6.224343E-1,1.5135752E-1,1.0976746E-2,2.9975218E-1,-8.449225E-2,8.406825E-2,3.566862E-1,8.60555E-2,4.5823035E-1,1.5419231E-1,1.01847194E-1,2.5765374E-1,9.090695E-2,4.968662E-1,-7.024883E-2,6.344158E-1,7.1678895E-1,2.3822378E-1,9.360525E-1,1.8704716E0,1.2055951E-2,2.2599323E0,5.0316E0,1.548186E0,6.2597117E0,3.0560646E0,2.58444E0,1.5105976E0,6.1938864E-1,8.120849E-2,5.653837E-1,2.1956203E0,6.373584E-1,1.0713552E0,7.502876E-1,3.0135477E0,1.2004172E0,2.201489E0,2.2150588E-1,8.7529194E-1,3.262827E0,6.172424E0,2.2549818E0,1.3107737E0],"categories":[],"categories_nodes":[],"categories_segments":[],"categories_sizes":[],"default_left":[1,1,1,1,1,0,1,0,0,0,1,0,1,0,0,1,1,0,0,0,0,1,1,1,1,0,0,0,0,0,0,1,1,1,0,1,1,0,0,0,0,0,0,0,1,1,1,1,1,1,0,1,0,0,0,0,1,0,0,0,1,1,0,0,0,0,0,0,0,0,0,0,0,0,0,0,0,0,0,0,0,0,0,0,0,0,0,0,0,0,0,0,0,0,0,0,0,0,0,0,0,0,0,0,0,0,0,0,0,0,0,0,0,0,0,0,0,0,0,0,0,0,0,0,0,0,0],"id":4,"left_children":[1,3,5,7,9,11,13,15,17,19,21,23,25,27,29,31,33,35,37,39,41,43,45,47,49,51,53,55,57,59,61,63,65,67,69,71,73,75,77,79,81,83,85,87,89,91,93,95,97,99,101,103,105,107,109,111,113,115,117,119,121,123,125,-1,-1,-1,-1,-1,-1,-1,-1,-1,-1,-1,-1,-1,-1,-1,-1,-1,-1,-1,-1,-1,-1,-1,-1,-1,-1,-1,-1,-1,-1,-1,-1,-1,-1,-1,-1,-1,-1,-1,-1,-1,-1,-1,-1,-1,-1,-1,-1,-1,-1,-1,-1,-1,-1,-1,-1,-1,-1,-1,-1,-1,-1,-1,-1],"loss_changes":[7.014967E6,3.1784008E6,5.466743E6,2.1492985E6,7.4764025E5,2.2642895E6,2.721565E6,1.5515158E6,6.913796E5,2.882865E5,1.9631481E5,1.1995704E6,1.3230175E5,1.1684665E6,1.2364175E6,3.6450148E6,8.7184775E5,1.29674375E5,3.8812306E5,1.16546375E5,1.6108575E5,3.770293E4,1.00248125E5,6.6243475E5,4.9602238E5,6.7621E4,6.2201938E4,2.2093684E5,8.39396E5,1.467889E5,1.609707E6,3.7846322E5,9.770245E5,6.27314E5,1.5773861E6,2.4949688E4,2.133525E4,1.8552812E5,2.2466316E5,8.665573E3,1.0737675E5,8.9489625E4,2.9044812E4,2.4679836E4,9.267281E3,6.3079812E4,2.2260906E4,5.726372E5,2.931828E5,3.1308562E5,1.4191538E5,1.4385814E4,4.0834875E4,5.533997E4,2.7145281E4,1.904595E5,1.6403878E5,3.62835E5,1.6061262E5,2.9355781E4,6.1836484E4,4.90257E5,3.637955E5,0E0,0E0,0E0,0E0,0E0,0E0,0E0,0E0,0E0,0E0,0E0,0E0,0E0,0E0,0E0,0E0,0E0,0E0,0E0,0E0,0E0,0E0,0E0,0E0,0E0,0E0,0E0,0E0,0E0,0E0,0E0,0E0,0E0,0E0,0E0,0E0,0E0,0E0,0E0,0E0,0E0,0E0,0E0,0E0,0E0,0E0,0E0,0E0,0E0,0E0,0E0,0E0,0E0,0E0,0E0,0E0,0E0,0E0,0E0,0E0,0E0,0E0,0E0,0E0],"parents":[2147483647,0,0,1,1,2,2,3,3,4,4,5,5,6,6,7,7,8,8,9,9,10,10,11,11,12,12,13,13,14,14,15,15,16,16,17,17,18,18,19,19,20,20,21,21,22,22,23,23,24,24,25,25,26,26,27,27,28,28,29,29,30,30,31,31,32,32,33,33,34,34,35,35,36,36,37,37,38,38,39,39,40,40,41,41,42,42,43,43,44,44,45,45,46,46,47,47,48,48,49,49,50,50,51,51,52,52,53,53,54,54,55,55,56,56,57,57,58,58,59,59,60,60,61,61,62,62],"right_children":[2,4,6,8,10,12,14,16,18,20,22,24,26,28,30,32,34,36,38,40,42,44,46,48,50,52,54,56,58,60,62,64,66,68,70,72,74,76,78,80,82,84,86,88,90,92,94,96,98,100,102,104,106,108,110,112,114,116,118,120,122,124,126,-1,-1,-1,-1,-1,-1,-1,-1,-1,-1,-1,-1,-1,-1,-1,-1,-1,-1,-1,-1,-1,-1,-1,-1,-1,-1,-1,-1,-1,-1,-1,-1,-1,-1,-1,-1,-1,-1,-1,-1,-1,-1,-1,-1,-1,-1,-1,-1,-1,-1,-1,-1,-1,-1,-1,-1,-1,-1,-1,-1,-1,-1,-1,-1],"split_conditions":[2.35E2,3.8227557E2,5.942454E2,2.7936666E1,1.9E0,2.18E3,2.4025E4,-3.67958E1,1.9383094E0,7E0,3.68E-1,2.4E2,1.4449578E1,9.1863054E-1,3.3283845E-1,5.722846E2,6.1073584E2,1.288086E1,-3.67958E1,3.728E-2,7.691E1,2.526406E-1,1.3E1,6.90859E1,8.861E0,6.56132E-2,6E0,1.45584E2,2.02E1,8.38E1,3.14E1,5.3973377E-1,2.156E0,1.615045E2,6.9E0,6.9152014E2,6.1073584E2,2.070889E0,-4.816667E0,6.334372E0,7.625589E1,2.7661152E1,2.4318512E-1,7.859174E2,1.9E1,2E0,1E3,1.6167873E2,9.2416E5,8.272186E1,1.46582E2,4.65E0,2.9980001E0,5.2166668E1,4.79E0,5E0,5.070591E-1,7.468863E3,1.5584204E0,1.13E2,4.9497473E-1,7E-1,3.03E2,-2.4324922E-2,3.439191E-1,8.551467E-1,2.2524796E0,-1.07040286E-1,5.720259E-1,3.395793E-1,-4.7626477E-2,3.952748E-1,7.6546365E-1,1.0166671E-1,1.1910642E0,6.739831E-1,2.270012E0,3.9562878E-1,2.2883758E-2,-3.7517402E-2,3.8364276E-1,1.1900381E0,6.4188355E-1,6.224343E-1,1.5135752E-1,1.0976746E-2,2.9975218E-1,-8.449225E-2,8.406825E-2,3.566862E-1,8.60555E-2,4.5823035E-1,1.5419231E-1,1.01847194E-1,2.5765374E-1,9.090695E-2,4.968662E-1,-7.024883E-2,6.344158E-1,7.1678895E-1,2.3822378E-1,9.360525E-1,1.8704716E0,1.2055951E-2,2.2599323E0,5.0316E0,1.548186E0,6.2597117E0,3.0560646E0,2.58444E0,1.5105976E0,6.1938864E-1,8.120849E-2,5.653837E-1,2.1956203E0,6.373584E-1,1.0713552E0,7.502876E-1,3.0135477E0,1.2004172E0,2.201489E0,2.2150588E-1,8.7529194E-1,3.262827E0,6.172424E0,2.2549818E0,1.3107737E0],"split_indices":[107,6,7,59,116,105,133,106,127,115,21,112,101,68,2,7,8,102,106,44,14,70,121,92,3,76,118,106,114,1,119,2,125,102,127,8,8,125,107,115,93,115,69,6,121,143,51,7,133,92,106,32,101,92,31,112,2,134,59,119,57,2,107,0,0,0,0,0,0,0,0,0,0,0,0,0,0,0,0,0,0,0,0,0,0,0,0,0,0,0,0,0,0,0,0,0,0,0,0,0,0,0,0,0,0,0,0,0,0,0,0,0,0,0,0,0,0,0,0,0,0,0,0,0,0,0,0],"split_type":[0,0,0,0,0,0,0,0,0,0,0,0,0,0,0,0,0,0,0,0,0,0,0,0,0,0,0,0,0,0,0,0,0,0,0,0,0,0,0,0,0,0,0,0,0,0,0,0,0,0,0,0,0,0,0,0,0,0,0,0,0,0,0,0,0,0,0,0,0,0,0,0,0,0,0,0,0,0,0,0,0,0,0,0,0,0,0,0,0,0,0,0,0,0,0,0,0,0,0,0,0,0,0,0,0,0,0,0,0,0,0,0,0,0,0,0,0,0,0,0,0,0,0,0,0,0,0],"sum_hessian":[5.564902E6,4.825509E6,7.39393E5,4.625968E6,1.99541E5,5.57295E5,1.82098E5,4.537745E6,8.8223E4,7.8949E4,1.20592E5,5.47651E5,9.644E3,1.54256E5,2.7842E4,1.82016E5,4.355729E6,2.0149E4,6.8074E4,1.8818E4,6.0131E4,4.2305E4,7.8287E4,4.69885E5,7.7766E4,8.303E3,1.341E3,5.259E4,1.01666E5,9.163E3,1.8679E4,1.61776E5,2.024E4,3.508551E6,8.47178E5,9.114E3,1.1035E4,2.939E3,6.5135E4,2.205E3,1.6613E4,4.4691E4,1.544E4,3.6788E4,5.517E3,4.0527E4,3.776E4,1.93086E5,2.76799E5,6.7892E4,9.874E3,3.79E2,7.924E3,3E2,1.041E3,4.9671E4,2.919E3,9.93E4,2.366E3,2.834E3,6.329E3,2.343E3,1.6336E4,1.2592E5,3.5856E4,1.118E4,9.06E3,3.494895E6,1.3656E4,1.23094E5,7.24084E5,2.52E3,6.594E3,1.83E2,1.0852E4,1.604E3,1.335E3,3.5292E4,2.9843E4,7.3E2,1.475E3,1.1402E4,5.211E3,4.0208E4,4.483E3,5.307E3,1.0133E4,2.2731E4,1.4057E4,3.55E3,1.967E3,3.184E4,8.687E3,2.2069E4,1.5691E4,1.47646E5,4.544E4,2.70764E5,6.035E3,1.8972E4,4.892E4,7.821E3,2.053E3,3.49E2,3E1,3.3E1,7.891E3,7.2E1,2.28E2,6.69E2,3.72E2,7.8E3,4.1871E4,2.033E3,8.86E2,7.3145E4,2.6155E4,3.73E2,1.993E3,2.501E3,3.33E2,4.091E3,2.238E3,1.276E3,1.067E3,8.242E3,8.094E3],"tree_param":{"num_deleted":"0","num_feature":"152","num_nodes":"127","size_leaf_vector":"1"}},{"base_weights":[-3.3721694E-4,-3.9576992E-1,2.5828507E0,-5.5257297E-1,3.00944E0,8.5967827E-1,6.096014E0,-6.4773965E-1,3.4865127E0,5.2335353E0,1.5722529E0,5.8544326E-1,1.4565726E1,8.239204E0,1.502822E0,1.9188251E0,-7.555645E-1,8.145962E0,2.235293E0,6.379742E0,2.5160065E0,3.1397354E-2,2.375419E0,-2.6741198E-1,1.9656277E0,1.2853446E1,2.1620192E1,7.035573E0,1.3741915E1,-1.9691904E-1,3.9126415E0,4.2984194E-1,1.2731572E1,-8.404508E-1,1.9469604E0,4.923911E0,1.0424151E1,1.2163867E1,1.8049386E0,9.661408E0,5.4125133E0,2.5975975E-1,3.6138735E0,-5.084859E-1,1.368093E0,3.334044E0,1.4253123E0,-3.5531145E-1,1.2123758E1,2.1416776E-1,2.8463E0,1.2080097E1,2.0374872E1,2.8754578E1,1.5995703E1,5.805784E0,1.1039287E1,1.0245391E1,3.012749E1,-8.691662E-1,1.7601177E0,5.487227E0,1.6042988E0,-6.516885E-2,2.0057027E-1,7.322873E-1,1.9459823E0,-1.06051885E-1,-2.6249168E-2,6.622231E-1,9.123868E-2,3.406405E-1,6.4338577E-1,7.938339E-1,1.2910645E0,5.972112E-1,1.9525489E0,3.43717E-1,1.394891E-2,3.7125462E-1,1.1041611E0,1.2322412E-1,5.787105E-1,-3.3269223E-2,2.1275213E-1,6.790471E-1,2.6184884E-1,-8.818524E-2,1.08545E-1,-4.579346E-2,2.1090089E-1,2.0004086E-1,4.2658606E-1,1.025882E-1,2.597133E-1,9.230059E-2,-8.5361905E-2,8.642998E-1,1.4392151E0,-2.8057018E-2,3.8520473E-1,2.0941094E-1,6.061983E-1,1.2507167E0,-9.592729E-2,2.629172E0,1.2266617E0,1.8261036E0,3.8738427E0,1.8431934E0,6.1293614E-1,2.2069478E-1,7.4852E-1,1.3960994E0,4.105775E-1,2.7559335E0,8.549828E-1,3.819526E0,1.8122715E0,-9.860592E-2,4.8345262E-1,-3.1252977E-2,3.981714E-1,1.234437E0,4.0373364E-1,6.9798164E-2,4.2493844E-1],"categories":[],"categories_nodes":[],"categories_segments":[],"categories_sizes":[],"default_left":[1,1,1,1,0,0,0,0,0,0,1,0,1,0,1,1,1,0,0,0,0,1,1,1,0,1,0,1,1,0,0,1,1,1,1,0,0,0,0,0,1,0,0,1,0,0,0,1,0,0,1,1,0,0,0,1,1,0,0,1,1,0,1,0,0,0,0,0,0,0,0,0,0,0,0,0,0,0,0,0,0,0,0,0,0,0,0,0,0,0,0,0,0,0,0,0,0,0,0,0,0,0,0,0,0,0,0,0,0,0,0,0,0,0,0,0,0,0,0,0,0,0,0,0,0,0,0],"id":5,"left_children":[1,3,5,7,9,11,13,15,17,19,21,23,25,27,29,31,33,35,37,39,41,43,45,47,49,51,53,55,57,59,61,63,65,67,69,71,73,75,77,79,81,83,85,87,89,91,93,95,97,99,101,103,105,107,109,111,113,115,117,119,121,123,125,-1,-1,-1,-1,-1,-1,-1,-1,-1,-1,-1,-1,-1,-1,-1,-1,-1,-1,-1,-1,-1,-1,-1,-1,-1,-1,-1,-1,-1,-1,-1,-1,-1,-1,-1,-1,-1,-1,-1,-1,-1,-1,-1,-1,-1,-1,-1,-1,-1,-1,-1,-1,-1,-1,-1,-1,-1,-1,-1,-1,-1,-1,-1,-1],"loss_changes":[5.682776E6,2.576151E6,4.471115E6,1.7729234E6,6.7888075E5,1.8624918E6,2.392563E6,1.2470361E6,6.18964E5,2.5966875E5,1.5967028E5,5.7183575E5,1.1713225E5,1.097512E6,3.167375E5,2.92501E6,9.920715E5,1.6492512E5,3.576033E5,1.86069E5,6.126664E4,3.1904545E4,7.724169E4,3.2704294E5,2.861878E5,4.5263625E4,7.566156E4,6.69464E5,1.7036865E6,5.9657977E4,1.1623925E5,2.7216588E5,8.0009775E5,5.33283E5,6.369959E5,2.131289E4,8.1269875E4,1.5836972E5,2.180749E5,1.09546375E5,7.091375E4,8.960516E3,5.2590547E4,1.874195E4,1.7208918E4,5.2453438E4,1.9935312E4,1.8991962E5,1.6575094E4,1.1173248E5,2.9861556E5,3.9533125E4,3.46035E4,8.6772125E4,2.5438031E4,6.287285E5,6.472165E5,7.1938975E5,5.058425E5,2.2507945E4,5.3386816E4,1.889795E5,3.1092234E4,0E0,0E0,0E0,0E0,0E0,0E0,0E0,0E0,0E0,0E0,0E0,0E0,0E0,0E0,0E0,0E0,0E0,0E0,0E0,0E0,0E0,0E0,0E0,0E0,0E0,0E0,0E0,0E0,0E0,0E0,0E0,0E0,0E0,0E0,0E0,0E0,0E0,0E0,0E0,0E0,0E0,0E0,0E0,0E0,0E0,0E0,0E0,0E0,0E0,0E0,0E0,0E0,0E0,0E0,0E0,0E0,0E0,0E0,0E0,0E0,0E0,0E0,0E0,0E0],"parents":[2147483647,0,0,1,1,2,2,3,3,4,4,5,5,6,6,7,7,8,8,9,9,10,10,11,11,12,12,13,13,14,14,15,15,16,16,17,17,18,18,19,19,20,20,21,21,22,22,23,23,24,24,25,25,26,26,27,27,28,28,29,29,30,30,31,31,32,32,33,33,34,34,35,35,36,36,37,37,38,38,39,39,40,40,41,41,42,42,43,43,44,44,45,45,46,46,47,47,48,48,49,49,50,50,51,51,52,52,53,53,54,54,55,55,56,56,57,57,58,58,59,59,60,60,61,61,62,62],"right_children":[2,4,6,8,10,12,14,16,18,20,22,24,26,28,30,32,34,36,38,40,42,44,46,48,50,52,54,56,58,60,62,64,66,68,70,72,74,76,78,80,82,84,86,88,90,92,94,96,98,100,102,104,106,108,110,112,114,116,118,120,122,124,126,-1,-1,-1,-1,-1,-1,-1,-1,-1,-1,-1,-1,-1,-1,-1,-1,-1,-1,-1,-1,-1,-1,-1,-1,-1,-1,-1,-1,-1,-1,-1,-1,-1,-1,-1,-1,-1,-1,-1,-1,-1,-1,-1,-1,-1,-1,-1,-1,-1,-1,-1,-1,-1,-1,-1,-1,-1,-1,-1,-1,-1,-1,-1,-1],"split_conditions":[2.35E2,3.493982E2,3.270358E2,2.7331137E1,3.6E-1,2.18E3,4.2288334E1,-3.67958E1,1.9383094E0,7.753E1,3.344279E-1,8.993833E1,2.1440805E-1,1.45584E2,9.626318E-1,2.2746921E2,9.30864E2,2.7188466E0,-3.67958E1,7E0,2.1649154E-1,1.840111E0,1.3E1,7.2309875E2,2E-1,1.018225E1,8.2875E0,2.4737E2,5.48E-1,9.409414E2,7.24E0,2.0848988E-1,2.156E0,3.094412E2,8.060804E0,1.75E1,1.75E1,2.070889E0,-4.816667E0,3.877E-2,3.728E-2,9.970006E1,7E0,1.1126536E0,2.2306917E0,1.155E0,2.4585399E2,6.0166668E1,6.109E2,1.46581E2,2.7805552E-1,9.319146E1,1.6809416E-1,1.5217872E-1,8.7332255E-1,1.9058223E2,8.2E1,1.34E1,1.1020067E0,1.3101459E0,2E0,2E0,1.9094685E2,-6.516885E-2,2.0057027E-1,7.322873E-1,1.9459823E0,-1.06051885E-1,-2.6249168E-2,6.622231E-1,9.123868E-2,3.406405E-1,6.4338577E-1,7.938339E-1,1.2910645E0,5.972112E-1,1.9525489E0,3.43717E-1,1.394891E-2,3.7125462E-1,1.1041611E0,1.2322412E-1,5.787105E-1,-3.3269223E-2,2.1275213E-1,6.790471E-1,2.6184884E-1,-8.818524E-2,1.08545E-1,-4.579346E-2,2.1090089E-1,2.0004086E-1,4.2658606E-1,1.025882E-1,2.597133E-1,9.230059E-2,-8.5361905E-2,8.642998E-1,1.4392151E0,-2.8057018E-2,3.8520473E-1,2.0941094E-1,6.061983E-1,1.2507167E0,-9.592729E-2,2.629172E0,1.2266617E0,1.8261036E0,3.8738427E0,1.8431934E0,6.1293614E-1,2.2069478E-1,7.4852E-1,1.3960994E0,4.105775E-1,2.7559335E0,8.549828E-1,3.819526E0,1.8122715E0,-9.860592E-2,4.8345262E-1,-3.1252977E-2,3.981714E-1,1.234437E0,4.0373364E-1,6.9798164E-2,4.2493844E-1],"split_indices":[107,6,7,59,4,105,105,106,127,15,71,106,77,106,68,3,4,66,106,115,69,60,121,6,2,62,62,123,2,7,108,2,125,8,105,124,124,125,107,43,43,17,115,31,29,5,128,92,3,106,7,100,77,73,68,80,1,121,124,77,143,124,123,0,0,0,0,0,0,0,0,0,0,0,0,0,0,0,0,0,0,0,0,0,0,0,0,0,0,0,0,0,0,0,0,0,0,0,0,0,0,0,0,0,0,0,0,0,0,0,0,0,0,0,0,0,0,0,0,0,0,0,0,0,0,0,0],"split_type":[0,0,0,0,0,0,0,0,0,0,0,0,0,0,0,0,0,0,0,0,0,0,0,0,0,0,0,0,0,0,0,0,0,0,0,0,0,0,0,0,0,0,0,0,0,0,0,0,0,0,0,0,0,0,0,0,0,0,0,0,0,0,0,0,0,0,0,0,0,0,0,0,0,0,0,0,0,0,0,0,0,0,0,0,0,0,0,0,0,0,0,0,0,0,0,0,0,0,0,0,0,0,0,0,0,0,0,0,0,0,0,0,0,0,0,0,0,0,0,0,0,0,0,0,0,0,0],"sum_hessian":[5.563291E6,4.824726E6,7.38565E5,4.612338E6,2.12388E5,4.95519E5,2.43046E5,4.506167E6,1.06171E5,8.3369E4,1.29019E5,4.858E5,9.719E3,1.6572E5,7.7326E4,1.81677E5,4.32449E6,2.2474E4,8.3697E4,5.8636E4,2.4733E4,4.4208E4,8.4811E4,3.00261E5,1.85539E5,7.823E3,1.896E3,1.35979E5,2.9741E4,4.5344E4,3.1982E4,1.59688E5,2.1989E4,4.192795E6,1.31695E5,9.31E3,1.3164E4,3.476E3,8.0221E4,1.3346E4,4.529E4,8.096E3,1.6637E4,3.149E4,1.2718E4,4.2215E4,4.2596E4,2.98147E5,2.114E3,6.2079E4,1.2346E5,7.096E3,7.27E2,8.34E2,1.062E3,1.04028E5,3.1951E4,2.4512E4,5.229E3,3.3751E4,1.1593E4,1.9012E4,1.297E4,9.4697E4,6.4991E4,1.2191E4,9.798E3,3.036568E6,1.156227E6,2.3861E4,1.07834E5,4.645E3,4.665E3,6.585E3,6.579E3,1.889E3,1.587E3,4.0514E4,3.9707E4,2.514E3,1.0832E4,3.725E3,4.1565E4,6.147E3,1.949E3,3.968E3,1.2669E4,2.5514E4,5.976E3,3.671E3,9.047E3,1.7365E4,2.485E4,3.1769E4,1.0827E4,8.3624E4,2.14523E5,8.36E2,1.278E3,5.4648E4,7.431E3,1.00057E5,2.3403E4,6.871E3,2.25E2,4.19E2,3.08E2,4.08E2,4.26E2,8.51E2,2.11E2,3.31E4,7.0928E4,2.2478E4,9.473E3,2.185E3,2.2327E4,3.126E3,2.103E3,3.3074E4,6.77E2,5.998E3,5.595E3,3.317E3,1.5695E4,9.661E3,3.309E3],"tree_param":{"num_deleted":"0","num_feature":"152","num_nodes":"127","size_leaf_vector":"1"}},{"base_weights":[1.6271154E-4,2.2122827E0,-3.7539977E-1,4.2614694E0,1.5411197E-1,-6.83121E-1,1.0445837E0,3.3471882E0,1.0438056E1,-2.930374E-1,2.7521355E0,-8.03589E-1,9.127771E-1,-4.6554604E-1,2.4704065E0,2.7991486E0,1.4422992E1,1.5171199E1,3.794078E0,-3.66501E-1,4.5676913E0,1.6142586E0,6.3041716E0,-8.79283E-1,1.0661892E0,-1.851803E-1,4.86679E0,-5.960435E-1,5.2518153E0,4.85775E0,9.158625E-1,3.0117276E-1,4.695325E0,2.2115784E1,1.2517049E1,3.0398735E1,1.3025329E1,7.076369E0,1.9669371E0,1.1333259E1,-3.9351663E-1,3.998675E0,1.6864418E1,3.5665777E0,5.558935E-1,5.6270204E0,1.290751E1,-1.0247468E0,-1.8557362E-1,6.35981E-1,6.0632486E0,-1.0206871E0,5.9849364E-1,8.928314E-1,6.930297E0,-8.587466E-1,1.2056862E0,4.1999483E0,1.5345373E1,4.2004013E0,1.6876354E1,3.960207E-1,5.735295E0,4.4128275E-1,-1.3853504E-2,3.766218E-1,8.8284254E-1,2.5944686E0,1.6173515E0,4.2069688E-1,1.3428577E0,4.556276E0,1.974068E0,7.405245E-1,1.6006972E0,5.997884E-1,1.631123E0,1.4330228E-1,6.878136E-1,1.0028285E0,3.1025205E0,-1.0323065E-2,-1.3503861E-1,1.9568656E-1,5.4969496E-1,2.045303E0,8.574754E-1,-1.1686703E-2,4.763312E-1,-2.0264091E-3,1.8067525E-1,2.6281816E-1,6.4688206E-1,6.927015E-1,1.5833219E0,-1.18981265E-1,-6.778874E-2,2.0434037E-1,-3.7426252E-2,-1.090694E-1,1.476733E-1,4.3327132E-1,9.4001925E-1,-1.312442E-1,-6.2387954E-2,2.780631E-2,2.8355783E-1,-5.1066238E-3,2.2521766E-1,5.994372E-1,1.3324777E0,-1.2916347E-1,-6.378266E-2,7.15304E-2,3.3274028E-1,4.2222295E-2,6.353372E-1,7.8657466E-1,1.6813868E0,8.882522E-2,5.077886E-1,9.703846E-1,2.5126812E0,1.2516953E-1,-6.42374E-2,5.2871394E-1,2.280355E0],"categories":[],"categories_nodes":[],"categories_segments":[],"categories_sizes":[],"default_left":[1,0,1,1,1,0,1,1,1,1,1,1,1,1,0,0,1,0,0,0,1,1,1,1,1,0,1,0,1,1,1,1,1,0,0,0,0,0,0,1,1,0,0,0,1,0,0,0,0,0,0,0,1,1,1,0,1,1,0,0,0,0,1,0,0,0,0,0,0,0,0,0,0,0,0,0,0,0,0,0,0,0,0,0,0,0,0,0,0,0,0,0,0,0,0,0,0,0,0,0,0,0,0,0,0,0,0,0,0,0,0,0,0,0,0,0,0,0,0,0,0,0,0,0,0,0,0],"id":6,"left_children":[1,3,5,7,9,11,13,15,17,19,21,23,25,27,29,31,33,35,37,39,41,43,45,47,49,51,53,55,57,59,61,63,65,67,69,71,73,75,77,79,81,83,85,87,89,91,93,95,97,99,101,103,105,107,109,111,113,115,117,119,121,123,125,-1,-1,-1,-1,-1,-1,-1,-1,-1,-1,-1,-1,-1,-1,-1,-1,-1,-1,-1,-1,-1,-1,-1,-1,-1,-1,-1,-1,-1,-1,-1,-1,-1,-1,-1,-1,-1,-1,-1,-1,-1,-1,-1,-1,-1,-1,-1,-1,-1,-1,-1,-1,-1,-1,-1,-1,-1,-1,-1,-1,-1,-1,-1,-1],"loss_changes":[4.621897E6,3.4053628E6,2.078107E6,2.284763E6,4.6796912E5,7.514815E5,1.8238758E6,2.1391905E6,1.6404325E6,1.2272486E5,2.390651E5,5.1438525E5,1.1910425E6,3.0692678E5,1.6169528E6,1.5906112E6,2.4334725E5,9.95055E5,1.3014947E5,1.070162E5,3.5736406E4,9.256882E4,6.4097312E4,3.5247925E5,3.0399166E5,1.40595E5,4.8893625E5,1.9036606E5,9.740031E4,1.357394E6,6.610875E5,2.6199088E5,7.33048E5,7.461775E4,1.00833375E5,6.0711125E5,4.473455E5,7.719909E4,3.655354E4,1.9732914E4,9.38247E4,1.4954797E4,6.5477656E3,6.9423766E4,2.09383E4,3.2845906E4,2.3231578E4,1.65324E5,2.5465888E5,1.8901364E5,6.4687875E4,1.2030758E4,7.942399E4,2.614934E4,2.3479775E5,3.356772E4,5.3247953E4,6.764019E4,9.379719E3,4.73479E5,5.270185E5,2.1163219E5,1.9639581E5,0E0,0E0,0E0,0E0,0E0,0E0,0E0,0E0,0E0,0E0,0E0,0E0,0E0,0E0,0E0,0E0,0E0,0E0,0E0,0E0,0E0,0E0,0E0,0E0,0E0,0E0,0E0,0E0,0E0,0E0,0E0,0E0,0E0,0E0,0E0,0E0,0E0,0E0,0E0,0E0,0E0,0E0,0E0,0E0,0E0,0E0,0E0,0E0,0E0,0E0,0E0,0E0,0E0,0E0,0E0,0E0,0E0,0E0,0E0,0E0,0E0,0E0,0E0,0E0],"parents":[2147483647,0,0,1,1,2,2,3,3,4,4,5,5,6,6,7,7,8,8,9,9,10,10,11,11,12,12,13,13,14,14,15,15,16,16,17,17,18,18,19,19,20,20,21,21,22,22,23,23,24,24,25,25,26,26,27,27,28,28,29,29,30,30,31,31,32,32,33,33,34,34,35,35,36,36,37,37,38,38,39,39,40,40,41,41,42,42,43,43,44,44,45,45,46,46,47,47,48,48,49,49,50,50,51,51,52,52,53,53,54,54,55,55,56,56,57,57,58,58,59,59,60,60,61,61,62,62],"right_children":[2,4,6,8,10,12,14,16,18,20,22,24,26,28,30,32,34,36,38,40,42,44,46,48,50,52,54,56,58,60,62,64,66,68,70,72,74,76,78,80,82,84,86,88,90,92,94,96,98,100,102,104,106,108,110,112,114,116,118,120,122,124,126,-1,-1,-1,-1,-1,-1,-1,-1,-1,-1,-1,-1,-1,-1,-1,-1,-1,-1,-1,-1,-1,-1,-1,-1,-1,-1,-1,-1,-1,-1,-1,-1,-1,-1,-1,-1,-1,-1,-1,-1,-1,-1,-1,-1,-1,-1,-1,-1,-1,-1,-1,-1,-1,-1,-1,-1,-1,-1,-1,-1,-1,-1,-1,-1],"split_conditions":[2.6E0,1.3829788E3,3.672581E-1,2.4025E4,3.25E2,1E2,1.8628E1,1.25E1,8.01E1,9.2416E5,5.401167E0,8.12E2,3.9007175E-1,1.5027992E2,4.598E1,6.446533E-1,5.4779404E1,3.14E1,9.09E1,1E0,8.884914E0,9.14E1,5.954E2,1.8158983E2,1.8472127E2,1.2813227E-1,1.419E1,8.47E2,4.0471213E3,9.952712E2,5.441E2,3.6E0,1.4164E2,1.0835599E3,1.0263836E0,6.029E1,1.3E0,1.13E2,1.13E2,9.4287194E-2,1.5E1,1.6678983E-1,8.62E1,1.01055E1,1.1566403E0,1.21E1,1.23E1,1.4974706E1,7.035599E0,1.80098E-1,8.74E0,5.4257996E-2,4.205309E1,2.075E1,6.310397E2,4.9E0,1.5977728E0,6.850489E-1,2.5525802E-1,8.1892985E-1,2.070889E0,6E0,5E0,4.4128275E-1,-1.3853504E-2,3.766218E-1,8.8284254E-1,2.5944686E0,1.6173515E0,4.2069688E-1,1.3428577E0,4.556276E0,1.974068E0,7.405245E-1,1.6006972E0,5.997884E-1,1.631123E0,1.4330228E-1,6.878136E-1,1.0028285E0,3.1025205E0,-1.0323065E-2,-1.3503861E-1,1.9568656E-1,5.4969496E-1,2.045303E0,8.574754E-1,-1.1686703E-2,4.763312E-1,-2.0264091E-3,1.8067525E-1,2.6281816E-1,6.4688206E-1,6.927015E-1,1.5833219E0,-1.18981265E-1,-6.778874E-2,2.0434037E-1,-3.7426252E-2,-1.090694E-1,1.476733E-1,4.3327132E-1,9.4001925E-1,-1.312442E-1,-6.2387954E-2,2.780631E-2,2.8355783E-1,-5.1066238E-3,2.2521766E-1,5.994372E-1,1.3324777E0,-1.2916347E-1,-6.378266E-2,7.15304E-2,3.3274028E-1,4.2222295E-2,6.353372E-1,7.8657466E-1,1.6813868E0,8.882522E-2,5.077886E-1,9.703846E-1,2.5126812E0,1.2516953E-1,-6.42374E-2,5.2871394E-1,2.280355E0],"split_indices":[110,7,78,133,112,116,8,132,1,133,87,4,69,27,112,68,94,119,1,110,85,1,3,83,88,69,7,113,133,7,4,112,124,109,63,1,124,119,119,74,129,68,1,122,61,122,119,109,127,43,32,69,81,123,8,116,24,69,72,69,125,139,148,0,0,0,0,0,0,0,0,0,0,0,0,0,0,0,0,0,0,0,0,0,0,0,0,0,0,0,0,0,0,0,0,0,0,0,0,0,0,0,0,0,0,0,0,0,0,0,0,0,0,0,0,0,0,0,0,0,0,0,0,0,0,0,0],"split_type":[0,0,0,0,0,0,0,0,0,0,0,0,0,0,0,0,0,0,0,0,0,0,0,0,0,0,0,0,0,0,0,0,0,0,0,0,0,0,0,0,0,0,0,0,0,0,0,0,0,0,0,0,0,0,0,0,0,0,0,0,0,0,0,0,0,0,0,0,0,0,0,0,0,0,0,0,0,0,0,0,0,0,0,0,0,0,0,0,0,0,0,0,0,0,0,0,0,0,0,0,0,0,0,0,0,0,0,0,0,0,0,0,0,0,0,0,0,0,0,0,0,0,0,0,0,0,0],"sum_hessian":[5.563258E6,8.07421E5,4.755837E6,4.04593E5,4.02828E5,3.908776E6,8.47061E5,3.52427E5,5.2166E4,3.43678E5,5.915E4,3.634428E6,2.74348E5,4.11369E5,4.35692E5,3.35812E5,1.6615E4,3.0463E4,2.1703E4,3.38562E5,5.116E3,4.48E4,1.435E4,3.493021E6,1.41407E5,2.14724E5,5.9624E4,4.0219E5,9.179E3,1.71821E5,2.63871E5,1.44911E5,1.90901E5,3.297E3,1.3318E4,3.761E3,2.6702E4,7.76E3,1.3943E4,7.79E2,3.37783E5,4.891E3,2.25E2,1.5748E4,2.9052E4,1.3017E4,1.333E3,2.887534E6,6.05487E5,1.30199E5,1.1208E4,1.03925E5,1.10799E5,2.0379E4,3.9245E4,3.51011E5,5.1179E4,8.314E3,8.65E2,1.62912E5,8.909E3,2.38181E5,2.569E4,1.3999E4,1.30912E5,1.55865E5,3.5036E4,2.003E3,1.294E3,1.317E3,1.2001E4,1.551E3,2.21E3,9.257E3,1.7445E4,6.95E3,8.1E2,1.2577E4,1.366E3,7.32E2,4.7E1,2.59162E5,7.8621E4,2.071E3,2.82E3,1.56E2,6.9E1,3.862E3,1.1886E4,1.9891E4,9.161E3,2.854E3,1.0163E4,4.39E2,8.94E2,1.956472E6,9.31062E5,4.7255E4,5.58232E5,4.2636E4,8.7563E4,7.382E3,3.826E3,5.9889E4,4.4036E4,9.6918E4,1.3881E4,1.2028E4,8.351E3,3.4236E4,5.009E3,1.18604E5,2.32407E5,4.1572E4,9.607E3,3.019E3,5.295E3,1.43E2,7.22E2,3.4121E4,1.28791E5,4.767E3,4.142E3,1.30579E5,1.07602E5,2.5034E4,6.56E2],"tree_param":{"num_deleted":"0","num_feature":"152","num_nodes":"127","size_leaf_vector":"1"}},{"base_weights":[-1.2661072E-3,1.9917747E0,-3.3935854E-1,1.0881332E0,5.9612794E0,-6.3808495E-1,8.528733E-1,9.2675424E-1,1.1854033E1,4.532177E0,1.3354962E1,-7.397415E-1,7.4141246E-1,-4.7850534E-1,2.0806077E0,1.9707604E-1,2.6318278E0,1.05618515E1,1.7554075E1,3.5039272E0,9.685833E0,4.1545215E0,1.6272352E1,-8.1354797E-1,7.661275E-1,-2.0782214E-1,4.2920723E0,-5.9494853E-1,4.564544E0,4.7265083E-1,4.029541E0,-2.2549209E-1,3.669403E0,1.461582E0,6.14116E0,8.015206E0,1.4507676E1,3.43361E1,1.3993041E1,3.176935E0,2.143161E1,1.0518524E1,2.1496437E0,8.284008E0,1.600316E-1,2.9085382E1,1.3157377E1,-8.829875E-1,4.2905852E-1,4.5230144E-1,5.483142E0,4.3128124E-1,-9.945935E-1,5.902635E-1,5.9561796E0,-8.215698E-1,1.0501624E0,-3.5785583E-1,6.3918467E0,1.3004988E0,-5.0798976E-1,3.4198394E0,1.1094431E1,1.1168029E-1,-6.1318558E-2,4.9797544E-1,1.0600302E-1,-2.876238E-2,2.6359197E-1,3.1083763E-1,7.361951E-1,3.4591076E-1,1.6680151E0,2.2495246E0,2.6964244E-1,1.9772133E0,4.246588E0,1.737545E0,7.1027714E-1,4.079933E-1,-5.7376225E-2,2.4550426E0,-2.2211485E-1,8.274232E-1,1.2444146E0,-1.9760774E-1,2.6874897E-1,5.0396276E-1,1.0573887E0,-1.0068431E-1,5.4542094E-1,2.1311905E0,4.5335884E0,1.8120297E0,9.08398E-1,-6.5047815E-2,-1.1289126E-1,-5.229646E-2,1.4278226E-1,-1.0145227E-1,1.13893844E-1,3.919153E-1,8.486539E-1,2.807709E-2,3.2064578E-1,-1.076672E-1,1.4161504E-2,-3.5408698E-2,1.3667628E-1,5.3688234E-1,1.2835907E0,-1.1085587E-1,-5.3009152E-2,9.118034E-2,7.347036E-1,-7.281833E-2,6.1746377E-1,5.499166E-1,1.596879E0,-8.966898E-2,2.0081972E-1,-1.1928487E-1,1.3161671E-2,2.212102E-1,5.791661E-1,1.9116893E-1,1.5001483E0],"categories":[],"categories_nodes":[],"categories_segments":[],"categories_sizes":[],"default_left":[1,1,1,0,1,0,1,0,1,1,0,1,1,1,0,1,1,0,0,0,0,0,0,1,1,1,1,0,1,0,1,1,0,0,0,1,1,0,0,1,1,1,1,0,1,1,0,1,0,0,1,1,1,0,0,0,1,1,1,1,0,0,1,0,0,0,0,0,0,0,0,0,0,0,0,0,0,0,0,0,0,0,0,0,0,0,0,0,0,0,0,0,0,0,0,0,0,0,0,0,0,0,0,0,0,0,0,0,0,0,0,0,0,0,0,0,0,0,0,0,0,0,0,0,0,0,0],"id":7,"left_children":[1,3,5,7,9,11,13,15,17,19,21,23,25,27,29,31,33,35,37,39,41,43,45,47,49,51,53,55,57,59,61,63,65,67,69,71,73,75,77,79,81,83,85,87,89,91,93,95,97,99,101,103,105,107,109,111,113,115,117,119,121,123,125,-1,-1,-1,-1,-1,-1,-1,-1,-1,-1,-1,-1,-1,-1,-1,-1,-1,-1,-1,-1,-1,-1,-1,-1,-1,-1,-1,-1,-1,-1,-1,-1,-1,-1,-1,-1,-1,-1,-1,-1,-1,-1,-1,-1,-1,-1,-1,-1,-1,-1,-1,-1,-1,-1,-1,-1,-1,-1,-1,-1,-1,-1,-1,-1],"loss_changes":[3.748177E6,2.8937992E6,1.6937609E6,1.1417148E6,1.5806305E6,5.332976E5,1.5575148E6,8.0552256E5,7.129675E4,6.64317E5,6.503235E5,3.93655E5,8.796945E5,2.6844372E5,1.5534922E6,6.652899E5,7.968505E5,7.94085E4,1.0661181E5,6.126271E5,1.30830375E5,9.624812E4,7.33883E5,2.91336E5,2.449701E5,1.0355689E5,3.391652E5,1.6658152E5,9.2800734E4,2.2051E5,9.65267E5,2.1035692E5,1.6819181E5,2.9890753E5,1.7962838E5,1.8991203E5,2.9268625E5,3.6220156E4,3.436903E4,3.476478E5,1.3814938E5,8.104475E4,4.611962E3,2.1261203E4,1.8334559E4,4.5341725E5,2.9905175E5,1.8284325E5,1.6991225E5,1.5627856E5,4.845675E4,4.746529E4,8.608836E3,1.2522101E4,1.5341475E5,3.2850688E4,4.7125945E4,6.763634E3,6.423603E4,2.2902367E5,5.4465203E4,5.9093575E5,6.3869775E5,0E0,0E0,0E0,0E0,0E0,0E0,0E0,0E0,0E0,0E0,0E0,0E0,0E0,0E0,0E0,0E0,0E0,0E0,0E0,0E0,0E0,0E0,0E0,0E0,0E0,0E0,0E0,0E0,0E0,0E0,0E0,0E0,0E0,0E0,0E0,0E0,0E0,0E0,0E0,0E0,0E0,0E0,0E0,0E0,0E0,0E0,0E0,0E0,0E0,0E0,0E0,0E0,0E0,0E0,0E0,0E0,0E0,0E0,0E0,0E0,0E0,0E0,0E0,0E0],"parents":[2147483647,0,0,1,1,2,2,3,3,4,4,5,5,6,6,7,7,8,8,9,9,10,10,11,11,12,12,13,13,14,14,15,15,16,16,17,17,18,18,19,19,20,20,21,21,22,22,23,23,24,24,25,25,26,26,27,27,28,28,29,29,30,30,31,31,32,32,33,33,34,34,35,35,36,36,37,37,38,38,39,39,40,40,41,41,42,42,43,43,44,44,45,45,46,46,47,47,48,48,49,49,50,50,51,51,52,52,53,53,54,54,55,55,56,56,57,57,58,58,59,59,60,60,61,61,62,62],"right_children":[2,4,6,8,10,12,14,16,18,20,22,24,26,28,30,32,34,36,38,40,42,44,46,48,50,52,54,56,58,60,62,64,66,68,70,72,74,76,78,80,82,84,86,88,90,92,94,96,98,100,102,104,106,108,110,112,114,116,118,120,122,124,126,-1,-1,-1,-1,-1,-1,-1,-1,-1,-1,-1,-1,-1,-1,-1,-1,-1,-1,-1,-1,-1,-1,-1,-1,-1,-1,-1,-1,-1,-1,-1,-1,-1,-1,-1,-1,-1,-1,-1,-1,-1,-1,-1,-1,-1,-1,-1,-1,-1,-1,-1,-1,-1,-1,-1,-1,-1,-1,-1,-1,-1,-1,-1,-1],"split_conditions":[2.6E0,8.012384E2,3.41371E-1,7.1E2,1.96E4,1E2,1.772E1,9.5E1,4.1765E-1,1.4164E2,3.3283845E-1,6.987E2,3.8401145E-1,3.183684E2,1.4902272E5,1.187E2,3.39E-1,7E0,6E0,3.06E1,4.08E1,8.71E1,3.14E1,2.1229E2,3.4875533E-1,9.06E1,1.31E1,8.47E2,5.6489253E-1,6E0,4.773412E2,4.9233334E1,4.2288334E1,3E0,2E0,3.7720486E2,2.895706E2,4.6272346E-1,1.3401E1,1.5E1,9.36E1,4.9019354E2,3.0495728E2,1.3E0,9.569E1,9.590035E-1,3.03E2,1.0838889E1,1.2603059E2,1.7963238E-1,8.74E0,1.612E1,1.7446335E-1,2.070889E0,1.3337227E3,5.5E0,8.68901E1,3.0585671E3,4.668571E3,5.232415E-1,1.422166E-1,3E0,5.051855E-1,1.1168029E-1,-6.1318558E-2,4.9797544E-1,1.0600302E-1,-2.876238E-2,2.6359197E-1,3.1083763E-1,7.361951E-1,3.4591076E-1,1.6680151E0,2.2495246E0,2.6964244E-1,1.9772133E0,4.246588E0,1.737545E0,7.1027714E-1,4.079933E-1,-5.7376225E-2,2.4550426E0,-2.2211485E-1,8.274232E-1,1.2444146E0,-1.9760774E-1,2.6874897E-1,5.0396276E-1,1.0573887E0,-1.0068431E-1,5.4542094E-1,2.1311905E0,4.5335884E0,1.8120297E0,9.08398E-1,-6.5047815E-2,-1.1289126E-1,-5.229646E-2,1.4278226E-1,-1.0145227E-1,1.13893844E-1,3.919153E-1,8.486539E-1,2.807709E-2,3.2064578E-1,-1.076672E-1,1.4161504E-2,-3.5408698E-2,1.3667628E-1,5.3688234E-1,1.2835907E0,-1.1085587E-1,-5.3009152E-2,9.118034E-2,7.347036E-1,-7.281833E-2,6.1746377E-1,5.499166E-1,1.596879E0,-8.966898E-2,2.0081972E-1,-1.1928487E-1,1.3161671E-2,2.212102E-1,5.791661E-1,1.9116893E-1,1.5001483E0],"split_indices":[110,7,78,105,133,116,8,112,70,124,2,4,2,51,134,4,2,118,118,114,120,1,119,2,23,1,7,113,2,139,7,94,105,140,140,5,5,57,8,129,1,26,26,124,17,2,107,105,87,42,32,9,71,125,7,116,5,133,133,69,50,136,21,0,0,0,0,0,0,0,0,0,0,0,0,0,0,0,0,0,0,0,0,0,0,0,0,0,0,0,0,0,0,0,0,0,0,0,0,0,0,0,0,0,0,0,0,0,0,0,0,0,0,0,0,0,0,0,0,0,0,0,0,0,0,0,0],"split_type":[0,0,0,0,0,0,0,0,0,0,0,0,0,0,0,0,0,0,0,0,0,0,0,0,0,0,0,0,0,0,0,0,0,0,0,0,0,0,0,0,0,0,0,0,0,0,0,0,0,0,0,0,0,0,0,0,0,0,0,0,0,0,0,0,0,0,0,0,0,0,0,0,0,0,0,0,0,0,0,0,0,0,0,0,0,0,0,0,0,0,0,0,0,0,0,0,0,0,0,0,0,0,0,0,0,0,0,0,0,0,0,0,0,0,0,0,0,0,0,0,0,0,0,0,0,0,0],"sum_hessian":[5.562478E6,8.06745E5,4.755733E6,6.57149E5,1.49596E5,3.802881E6,9.52852E5,6.47445E5,9.704E3,1.25366E5,2.423E4,3.541877E6,2.61004E5,4.57131E5,4.95721E5,4.53411E5,1.94034E5,7.913E3,1.791E3,1.04515E5,2.0851E4,5.834E3,1.8396E4,3.376392E6,1.65485E5,2.05947E5,5.5057E4,4.46815E5,1.0316E4,2.71622E5,2.24099E5,4.0422E5,4.9191E4,1.45512E5,4.8522E4,4.811E3,3.102E3,3.12E2,1.479E3,1.02644E5,1.871E3,1.8776E4,2.075E3,2.868E3,2.966E3,3.596E3,1.48E4,3.197698E6,1.78694E5,1.55163E5,1.0322E4,1.13638E5,9.2309E4,1.7075E4,3.7982E4,3.92717E5,5.4098E4,2.793E3,7.523E3,1.47285E5,1.24337E5,2.06297E5,1.7802E4,9.0586E4,3.13634E5,3.2746E4,1.6445E4,5.845E4,8.7062E4,1.3927E4,3.4595E4,3.154E3,1.657E3,1.85E3,1.252E3,1.13E2,1.99E2,9.91E2,4.88E2,8.2727E4,1.9917E4,1.653E3,2.18E2,8.673E3,1.0103E4,2.39E2,1.836E3,1.188E3,1.68E3,2.431E3,5.35E2,2.434E3,1.162E3,6.67E3,8.13E3,1.643684E6,1.554014E6,9.1488E4,8.7206E4,4.9474E4,1.05689E5,6.789E3,3.533E3,1.07793E5,5.845E3,8.609E4,6.219E3,7.705E3,9.37E3,3.4996E4,2.986E3,1.97881E5,1.94836E5,5.2936E4,1.162E3,2.644E3,1.49E2,6.883E3,6.4E2,3.5882E4,1.11403E5,6.0044E4,6.4293E4,1.36694E5,6.9603E4,5.314E3,1.2488E4],"tree_param":{"num_deleted":"0","num_feature":"152","num_nodes":"127","size_leaf_vector":"1"}},{"base_weights":[1.8448965E-4,-2.9117808E-1,1.9033866E0,-3.9272717E-1,2.924926E0,3.4377866E0,4.1088295E-1,-5.668163E-1,9.8515284E-1,1.5274209E0,4.6509023E0,2.6777744E0,1.0724421E1,9.4361925E0,2.7008402E-1,-6.6737825E-1,7.3976606E-1,1.06814094E-1,4.671406E0,5.795016E-1,2.075539E0,3.5256507E0,6.9616237E0,1.6835165E0,5.099129E0,2.1221834E1,9.1436205E0,6.385009E0,1.3942515E1,-6.7200106E-1,1.6944404E0,-6.852777E-1,4.3325315E0,5.40486E0,2.9442874E-1,1.409515E0,-1.8078259E-1,3.6460762E0,1.1354946E1,4.2632836E-1,3.6173728E0,7.5434744E-1,2.7275643E0,9.548939E-2,3.9459262E0,7.9522223E0,2.9625685E0,1.4280564E0,1.1419826E1,5.421087E-1,5.7947516E0,3.63742E1,1.3741638E1,1.2637361E1,6.4330792E0,4.8366656E0,6.0626636E0,2.0320095E1,4.432974E0,-8.0894613E-1,1.7844881E0,8.417978E-1,4.22869E0,-1.0165743E-1,-4.514648E-2,6.00264E-1,9.653672E-2,3.2816732E-1,8.957654E-1,-3.1017715E-2,2.1662031E-1,6.783785E-2,4.593123E-1,-5.4912444E-2,6.562757E-2,1.7895836E-1,6.801314E-1,6.1763805E-1,1.7532351E0,-8.322499E-2,7.227898E-2,4.6016484E-2,6.172817E-1,-1.870912E-1,1.0819584E-1,1.304538E-1,3.2191488E-1,-6.536935E-2,1.3468239E-1,2.0295846E-1,4.5599213E-1,6.5917915E-1,1.2229676E0,5.102728E-2,4.9301574E-1,1.2491502E0,1.23228095E-1,6.007399E-1,1.2557434E0,4.8292477E-2,5.061502E0,4.1236448E-1,7.596966E-1,2.558112E0,4.8149753E0,1.195978E0,2.1904755E0,9.097194E-1,1.6298548E0,4.6238565E-1,1.1550683E0,2.938969E-1,9.95504E-1,1.753251E0,3.5377076E0,8.788006E0,3.9790788E-1,-9.322319E-2,7.868787E-2,1.4126593E-1,7.697371E-1,-3.9734107E-2,1.8966539E-1,2.0993926E-2,5.1948833E-1],"categories":[],"categories_nodes":[],"categories_segments":[],"categories_sizes":[],"default_left":[1,1,1,1,1,1,0,1,0,1,0,1,0,0,0,1,0,0,0,1,0,0,0,0,1,0,0,1,1,1,1,0,0,1,1,1,0,0,0,0,1,0,1,0,1,0,0,0,0,0,0,0,1,0,0,0,1,0,0,1,0,0,1,0,0,0,0,0,0,0,0,0,0,0,0,0,0,0,0,0,0,0,0,0,0,0,0,0,0,0,0,0,0,0,0,0,0,0,0,0,0,0,0,0,0,0,0,0,0,0,0,0,0,0,0,0,0,0,0,0,0,0,0,0,0],"id":8,"left_children":[1,3,5,7,9,11,13,15,17,19,21,23,25,27,29,31,33,35,37,39,41,43,45,47,49,51,53,55,57,59,61,63,65,67,69,71,73,75,77,79,81,83,85,87,89,91,93,95,97,99,101,103,105,107,109,-1,111,113,115,117,119,121,123,-1,-1,-1,-1,-1,-1,-1,-1,-1,-1,-1,-1,-1,-1,-1,-1,-1,-1,-1,-1,-1,-1,-1,-1,-1,-1,-1,-1,-1,-1,-1,-1,-1,-1,-1,-1,-1,-1,-1,-1,-1,-1,-1,-1,-1,-1,-1,-1,-1,-1,-1,-1,-1,-1,-1,-1,-1,-1,-1,-1,-1,-1],"loss_changes":[3.0847728E6,1.5756055E6,1.691389E6,1.1218208E6,3.5617712E5,2.0167305E6,4.7576266E5,5.4555625E5,1.6985412E6,4.239586E4,1.7176425E5,7.939135E5,5.7058375E5,7.898503E4,4.9467422E5,3.4504288E5,6.164711E5,1.5872402E5,6.9172475E5,1.3910616E4,4.45375E4,6.405625E4,8.568656E4,5.814578E5,3.0429775E5,5.0965538E5,2.8303175E5,4.6137062E4,1.4067366E5,7.464545E4,3.1711462E5,2.9757725E5,7.7334625E4,1.9502388E5,3.0654603E5,1.7833228E5,1.07001266E5,5.126575E5,4.2939062E5,1.0621086E4,1.1574838E4,1.4697073E4,2.4212438E4,4.548588E3,4.6566312E4,1.00823875E5,2.073098E4,4.934032E5,3.6726188E4,3.765363E4,2.507885E5,1.8775762E5,4.359275E4,1.69125E5,1.5583844E5,0E0,4.1382938E4,5.767975E4,3.498882E4,4.1350516E4,2.5749887E4,1.435401E5,1.4345619E5,0E0,0E0,0E0,0E0,0E0,0E0,0E0,0E0,0E0,0E0,0E0,0E0,0E0,0E0,0E0,0E0,0E0,0E0,0E0,0E0,0E0,0E0,0E0,0E0,0E0,0E0,0E0,0E0,0E0,0E0,0E0,0E0,0E0,0E0,0E0,0E0,0E0,0E0,0E0,0E0,0E0,0E0,0E0,0E0,0E0,0E0,0E0,0E0,0E0,0E0,0E0,0E0,0E0,0E0,0E0,0E0,0E0,0E0,0E0,0E0,0E0,0E0],"parents":[2147483647,0,0,1,1,2,2,3,3,4,4,5,5,6,6,7,7,8,8,9,9,10,10,11,11,12,12,13,13,14,14,15,15,16,16,17,17,18,18,19,19,20,20,21,21,22,22,23,23,24,24,25,25,26,26,27,27,28,28,29,29,30,30,31,31,32,32,33,33,34,34,35,35,36,36,37,37,38,38,39,39,40,40,41,41,42,42,43,43,44,44,45,45,46,46,47,47,48,48,49,49,50,50,51,51,52,52,53,53,54,54,56,56,57,57,58,58,59,59,60,60,61,61,62,62],"right_children":[2,4,6,8,10,12,14,16,18,20,22,24,26,28,30,32,34,36,38,40,42,44,46,48,50,52,54,56,58,60,62,64,66,68,70,72,74,76,78,80,82,84,86,88,90,92,94,96,98,100,102,104,106,108,110,-1,112,114,116,118,120,122,124,-1,-1,-1,-1,-1,-1,-1,-1,-1,-1,-1,-1,-1,-1,-1,-1,-1,-1,-1,-1,-1,-1,-1,-1,-1,-1,-1,-1,-1,-1,-1,-1,-1,-1,-1,-1,-1,-1,-1,-1,-1,-1,-1,-1,-1,-1,-1,-1,-1,-1,-1,-1,-1,-1,-1,-1,-1,-1,-1,-1,-1,-1],"split_conditions":[2.35E2,6.056296E2,7.225833E1,9.258107E2,3.728E-2,2.4025E4,1E0,6.113797E1,2.3778E2,4.0424016E-1,3.794024E4,6.231E2,3.14E1,7E0,1.054E3,1.615045E2,-2.070889E0,7.4E1,1.440944E2,1.3122E3,1.652E1,1.35E1,5.4E1,1.49E2,7.035599E0,5.736E1,3.03E2,2.91E1,2.125662E2,2.925794E2,4.9497473E-1,5.5E0,8.35E1,2.156E0,5.96E-1,6.17288E2,6.07E2,3E0,2.070889E0,2.501E2,1.3810855E-1,1.4384581E-1,1.6346666E1,8.947812E-1,4.7777778E-1,3E1,8.575613E2,1E0,1.659E1,1.46582E2,5.243E1,2.2574348E0,1.82E1,8.6E0,1.45584E2,4.8366656E0,4.8034237E1,2.1708333E-1,4.7930372E-1,2.912881E2,5.9188336E2,1.5218297E-1,2.5E1,-1.0165743E-1,-4.514648E-2,6.00264E-1,9.653672E-2,3.2816732E-1,8.957654E-1,-3.1017715E-2,2.1662031E-1,6.783785E-2,4.593123E-1,-5.4912444E-2,6.562757E-2,1.7895836E-1,6.801314E-1,6.1763805E-1,1.7532351E0,-8.322499E-2,7.227898E-2,4.6016484E-2,6.172817E-1,-1.870912E-1,1.0819584E-1,1.304538E-1,3.2191488E-1,-6.536935E-2,1.3468239E-1,2.0295846E-1,4.5599213E-1,6.5917915E-1,1.2229676E0,5.102728E-2,4.9301574E-1,1.2491502E0,1.23228095E-1,6.007399E-1,1.2557434E0,4.8292477E-2,5.061502E0,4.1236448E-1,7.596966E-1,2.558112E0,4.8149753E0,1.195978E0,2.1904755E0,9.097194E-1,1.6298548E0,4.6238565E-1,1.1550683E0,2.938969E-1,9.95504E-1,1.753251E0,3.5377076E0,8.788006E0,3.9790788E-1,-9.322319E-2,7.868787E-2,1.4126593E-1,7.697371E-1,-3.9734107E-2,1.8966539E-1,2.0993926E-2,5.1948833E-1],"split_indices":[107,6,92,8,43,133,110,82,126,71,136,50,119,118,109,102,106,112,107,129,126,123,119,114,127,1,107,17,5,82,57,116,1,125,5,51,127,136,125,51,67,50,57,58,67,119,6,110,0,106,123,61,0,122,106,0,5,77,63,127,82,20,119,0,0,0,0,0,0,0,0,0,0,0,0,0,0,0,0,0,0,0,0,0,0,0,0,0,0,0,0,0,0,0,0,0,0,0,0,0,0,0,0,0,0,0,0,0,0,0,0,0,0,0,0,0,0,0,0,0,0,0,0,0,0],"split_type":[0,0,0,0,0,0,0,0,0,0,0,0,0,0,0,0,0,0,0,0,0,0,0,0,0,0,0,0,0,0,0,0,0,0,0,0,0,0,0,0,0,0,0,0,0,0,0,0,0,0,0,0,0,0,0,0,0,0,0,0,0,0,0,0,0,0,0,0,0,0,0,0,0,0,0,0,0,0,0,0,0,0,0,0,0,0,0,0,0,0,0,0,0,0,0,0,0,0,0,0,0,0,0,0,0,0,0,0,0,0,0,0,0,0,0,0,0,0,0,0,0,0,0,0,0],"sum_hessian":[5.56294E6,4.824374E6,7.38566E5,4.676707E6,1.47667E5,3.64171E5,3.74395E5,4.152107E6,5.246E5,8.1599E4,6.6068E4,3.29776E5,3.4395E4,5.75E3,3.68645E5,3.855376E6,2.96731E5,4.23655E5,1.00945E5,2.9897E4,5.1702E4,4.4433E4,2.1635E4,2.33782E5,9.5994E4,4.5E3,2.9895E4,3.43E3,2.32E3,2.21887E5,1.46758E5,3.841624E6,1.3752E4,2.5857E4,2.70874E5,7.6615E4,3.4704E5,8.752E4,1.3425E4,2.8463E4,1.434E3,1.7085E4,3.4617E4,4.85E3,3.9583E4,1.7339E4,4.296E3,2.27806E5,5.976E3,1.2713E4,8.3281E4,1.486E3,3.014E3,1.3059E4,1.6836E4,2.5E1,3.405E3,1.388E3,9.32E2,2.10171E5,1.1716E4,1.09813E5,3.6945E4,1.589463E6,2.252161E6,9.192E3,4.56E3,1.6186E4,9.671E3,2.04741E5,6.6133E4,6.2307E4,1.4308E4,2.40993E5,1.06047E5,5.5101E4,3.2419E4,7.304E3,6.121E3,5.426E3,2.3037E4,6.42E2,7.92E2,1.895E3,1.519E4,8.889E3,2.5728E4,3.034E3,1.816E3,9.606E3,2.9977E4,1.3157E4,4.182E3,1.913E3,2.383E3,3.96E3,2.23846E5,1.039E3,4.937E3,1.2699E4,1.4E1,4.3214E4,4.0067E4,7.77E2,7.09E2,2.476E3,5.38E2,6.641E3,6.418E3,1.244E4,4.396E3,1.89E3,1.515E3,1.173E3,2.15E2,4E0,9.28E2,1.95099E5,1.5072E4,1.1024E4,6.92E2,5.0496E4,5.9317E4,7.161E3,2.9784E4],"tree_param":{"num_deleted":"0","num_feature":"152","num_nodes":"125","size_leaf_vector":"1"}},{"base_weights":[1.2329199E-3,-2.6021394E-1,1.7078441E0,-6.5262526E-1,4.06863E-1,4.428695E-1,4.157176E0,-6.7218167E-1,3.9445853E0,-2.3912263E-1,2.4952195E0,2.548819E-1,9.739318E0,5.7140503E0,7.9938984E-1,-3.7043187E-1,-8.8857335E-1,1.2169086E0,5.758878E0,-4.4247872E-1,1.1436111E0,1.5937364E0,5.103896E0,-9.483445E-2,2.3406804E0,8.779423E0,1.786159E1,4.804075E0,9.836026E0,-3.1841028E-1,2.5537047E0,-4.5754004E-1,1.8513054E0,5.4006215E-2,-9.365848E-1,-2.6824406E-1,2.5936143E0,7.7101793E0,2.6462605E0,-8.7427306E-1,-3.8692392E-2,9.538944E-1,5.2408843E0,6.173734E-2,2.903714E0,3.7019637E0,1.1651407E1,4.3081546E-1,-7.392333E-1,1.27877E0,5.2218466E0,-2.4498303E0,9.221378E0,3.3093884E1,1.3776224E1,3.3383434E0,7.662685E0,2.1706831E1,7.3054276E0,-1.0911237E0,8.072923E-1,9.699007E-1,3.8652892E0,-4.8541196E-2,5.161225E-1,9.919076E-2,3.6434802E-1,-4.970781E-2,1.23803474E-1,-1.0009785E-1,-4.141825E-2,7.221222E-2,-2.6306662E-1,5.5860126E-1,7.20419E-2,-1.2903653E-1,8.6065733E-1,-2.1698307E-1,3.0959696E-1,-2.2232246E-2,-1.0956528E-1,-6.469113E-2,4.5719907E-2,1.3193756E-2,1.4596914E-1,8.955644E-1,2.9034063E-1,2.6649293E-1,-1.1188733E-2,5.9722465E-2,4.0930554E-1,5.0033367E-1,1.4042042E-1,5.5584395E-1,1.7610782E0,3.619159E-2,7.227974E-1,-8.20747E-2,2.385536E-1,2.8805545E-1,1.7648857E-2,7.013354E-2,5.7960033E-1,1.2232232E0,-5.072244E-1,4.000826E0,9.09386E-1,4.3641834E0,2.3659173E-1,1.853412E0,6.454503E-1,-1.24940194E-1,3.9979526E-1,9.153061E-1,2.2398372E-1,2.7214534E0,1.2877879E0,2.0148542E0,5.9117883E-1,-1.1643844E-1,3.6036488E-1,3.3899914E-2,4.3457198E-1,1.9922483E-1,-7.9742305E-2,9.0121096E-1,2.05706E-1],"categories":[],"categories_nodes":[],"categories_segments":[],"categories_sizes":[],"default_left":[1,1,1,1,0,0,0,0,1,0,1,0,1,0,1,1,0,0,0,0,1,0,0,1,1,0,0,1,0,1,0,1,1,1,1,0,0,0,0,1,1,1,0,0,1,1,0,1,1,1,0,1,0,1,0,1,1,0,0,1,0,0,0,0,0,0,0,0,0,0,0,0,0,0,0,0,0,0,0,0,0,0,0,0,0,0,0,0,0,0,0,0,0,0,0,0,0,0,0,0,0,0,0,0,0,0,0,0,0,0,0,0,0,0,0,0,0,0,0,0,0,0,0,0,0,0,0],"id":9,"left_children":[1,3,5,7,9,11,13,15,17,19,21,23,25,27,29,31,33,35,37,39,41,43,45,47,49,51,53,55,57,59,61,63,65,67,69,71,73,75,77,79,81,83,85,87,89,91,93,95,97,99,101,103,105,107,109,111,113,115,117,119,121,123,125,-1,-1,-1,-1,-1,-1,-1,-1,-1,-1,-1,-1,-1,-1,-1,-1,-1,-1,-1,-1,-1,-1,-1,-1,-1,-1,-1,-1,-1,-1,-1,-1,-1,-1,-1,-1,-1,-1,-1,-1,-1,-1,-1,-1,-1,-1,-1,-1,-1,-1,-1,-1,-1,-1,-1,-1,-1,-1,-1,-1,-1,-1,-1,-1],"loss_changes":[2.4823452E6,1.2628692E6,2.2899122E6,2.73092E5,2.4105382E6,8.5173725E5,1.3158265E6,1.9749875E5,6.366925E4,3.8373797E5,9.92729E5,3.484621E5,7.515769E4,6.44994E5,1.5636297E5,2.4446858E5,7.9714625E4,1.0512076E4,4.691075E4,2.0743306E5,1.3600445E5,6.296136E5,9.9510725E5,1.3858047E5,2.098625E5,4.2906438E4,6.3018156E4,5.90226E5,9.34033E5,4.2366703E4,6.446089E4,1.9036255E5,7.33988E4,5.5707758E4,5.63825E4,5.7902266E3,1.4951039E4,3.8326156E4,6.458752E3,8.297819E4,1.8543258E5,6.952455E4,6.72078E4,6.536089E4,4.639225E5,2.670095E5,6.941185E5,1.0552E5,4.6817695E4,8.849752E4,4.794225E4,1.2690844E4,3.2275875E4,6.958194E4,2.7958188E4,2.8181556E5,3.8588275E5,2.65349E5,4.58713E5,9.937598E3,3.284897E4,2.540366E4,1.5796147E5,0E0,0E0,0E0,0E0,0E0,0E0,0E0,0E0,0E0,0E0,0E0,0E0,0E0,0E0,0E0,0E0,0E0,0E0,0E0,0E0,0E0,0E0,0E0,0E0,0E0,0E0,0E0,0E0,0E0,0E0,0E0,0E0,0E0,0E0,0E0,0E0,0E0,0E0,0E0,0E0,0E0,0E0,0E0,0E0,0E0,0E0,0E0,0E0,0E0,0E0,0E0,0E0,0E0,0E0,0E0,0E0,0E0,0E0,0E0,0E0,0E0,0E0,0E0,0E0],"parents":[2147483647,0,0,1,1,2,2,3,3,4,4,5,5,6,6,7,7,8,8,9,9,10,10,11,11,12,12,13,13,14,14,15,15,16,16,17,17,18,18,19,19,20,20,21,21,22,22,23,23,24,24,25,25,26,26,27,27,28,28,29,29,30,30,31,31,32,32,33,33,34,34,35,35,36,36,37,37,38,38,39,39,40,40,41,41,42,42,43,43,44,44,45,45,46,46,47,47,48,48,49,49,50,50,51,51,52,52,53,53,54,54,55,55,56,56,57,57,58,58,59,59,60,60,61,61,62,62],"right_children":[2,4,6,8,10,12,14,16,18,20,22,24,26,28,30,32,34,36,38,40,42,44,46,48,50,52,54,56,58,60,62,64,66,68,70,72,74,76,78,80,82,84,86,88,90,92,94,96,98,100,102,104,106,108,110,112,114,116,118,120,122,124,126,-1,-1,-1,-1,-1,-1,-1,-1,-1,-1,-1,-1,-1,-1,-1,-1,-1,-1,-1,-1,-1,-1,-1,-1,-1,-1,-1,-1,-1,-1,-1,-1,-1,-1,-1,-1,-1,-1,-1,-1,-1,-1,-1,-1,-1,-1,-1,-1,-1,-1,-1,-1,-1,-1,-1,-1,-1,-1,-1,-1,-1,-1,-1,-1],"split_conditions":[2.35E2,5.2053463E-1,2.862356E2,1.615045E2,1.769386E1,2.18E3,4.2288334E1,4.133263E1,2.706E2,7.425044E4,4.046E2,2.4E2,1.518E1,1.45584E2,2.309E1,2.630752E2,4.42E0,1.344E1,7.52E1,1.79E-1,1.9473053E2,3E0,4.39E1,8.272186E1,8.758282E0,6.1023362E-2,6E0,2.93E1,6.427E1,1.603E1,3.78E2,1.2727766E0,6.678877E0,6.007395E-2,1.9966667E2,9.92E0,1.813E1,3.5E0,3.5E0,2.15E1,1.55E1,6.944444E-1,4.9E0,5.362068E0,2.075E1,5.5E0,2.156E0,8.552986E2,8.552986E2,9.270186E1,9E0,6.616158E-1,2.9980001E0,3.171E0,4.51E0,6E0,8.401915E1,3E0,1.34E1,5.1E-1,1.0756031E3,3.7E1,1.24E2,-4.8541196E-2,5.161225E-1,9.919076E-2,3.6434802E-1,-4.970781E-2,1.23803474E-1,-1.0009785E-1,-4.141825E-2,7.221222E-2,-2.6306662E-1,5.5860126E-1,7.20419E-2,-1.2903653E-1,8.6065733E-1,-2.1698307E-1,3.0959696E-1,-2.2232246E-2,-1.0956528E-1,-6.469113E-2,4.5719907E-2,1.3193756E-2,1.4596914E-1,8.955644E-1,2.9034063E-1,2.6649293E-1,-1.1188733E-2,5.9722465E-2,4.0930554E-1,5.0033367E-1,1.4042042E-1,5.5584395E-1,1.7610782E0,3.619159E-2,7.227974E-1,-8.20747E-2,2.385536E-1,2.8805545E-1,1.7648857E-2,7.013354E-2,5.7960033E-1,1.2232232E0,-5.072244E-1,4.000826E0,9.09386E-1,4.3641834E0,2.3659173E-1,1.853412E0,6.454503E-1,-1.24940194E-1,3.9979526E-1,9.153061E-1,2.2398372E-1,2.7214534E0,1.2877879E0,2.0148542E0,5.9117883E-1,-1.1643844E-1,3.6036488E-1,3.3899914E-2,4.3457198E-1,1.9922483E-1,-7.9742305E-2,9.0121096E-1,2.05706E-1],"split_indices":[107,71,7,102,134,105,105,106,3,137,51,112,101,106,56,81,105,113,1,46,7,144,121,92,91,76,118,120,1,0,113,73,98,70,85,113,113,113,113,127,0,69,125,137,123,127,125,123,123,1,50,63,101,35,31,120,14,140,121,40,7,119,123,0,0,0,0,0,0,0,0,0,0,0,0,0,0,0,0,0,0,0,0,0,0,0,0,0,0,0,0,0,0,0,0,0,0,0,0,0,0,0,0,0,0,0,0,0,0,0,0,0,0,0,0,0,0,0,0,0,0,0,0,0,0,0,0],"split_type":[0,0,0,0,0,0,0,0,0,0,0,0,0,0,0,0,0,0,0,0,0,0,0,0,0,0,0,0,0,0,0,0,0,0,0,0,0,0,0,0,0,0,0,0,0,0,0,0,0,0,0,0,0,0,0,0,0,0,0,0,0,0,0,0,0,0,0,0,0,0,0,0,0,0,0,0,0,0,0,0,0,0,0,0,0,0,0,0,0,0,0,0,0,0,0,0,0,0,0,0,0,0,0,0,0,0,0,0,0,0,0,0,0,0,0,0,0,0,0,0,0,0,0,0,0,0,0],"sum_hessian":[5.563448E6,4.824372E6,7.39076E5,3.03753E6,1.786842E6,4.87371E5,2.51705E5,3.024664E6,1.2866E4,1.364703E6,4.22139E5,4.77712E5,9.659E3,1.71969E5,7.9736E4,1.263193E6,1.761471E6,5.14E3,7.726E3,1.189732E6,1.74971E5,3.13726E5,1.08413E5,4.09118E5,6.8594E4,8.64E3,1.019E3,1.40872E5,3.1097E4,4.8704E4,3.1032E4,1.215536E6,4.7657E4,8.5374E4,1.676097E6,2.473E3,2.667E3,4.748E3,2.978E3,5.74926E5,6.14806E5,1.67229E5,7.742E3,1.44609E5,1.69117E5,8.9295E4,1.9118E4,2.2532E5,1.83798E5,5.0122E4,1.8472E4,3.27E2,8.313E3,2.14E2,8.05E2,9.3125E4,4.7747E4,5.463E3,2.5634E4,2.888E4,1.9824E4,1.4058E4,1.6974E4,1.209537E6,5.999E3,3.2212E4,1.5445E4,5.8259E4,2.7115E4,1.492165E6,1.83932E5,1.743E3,7.3E2,1.026E3,1.641E3,4.3E2,4.318E3,2.54E2,2.724E3,1.45738E5,4.29188E5,2.76129E5,3.38677E5,6.3705E4,1.03524E5,2.989E3,4.753E3,9.041E3,1.35568E5,5.7537E4,1.1158E5,5.7007E4,3.2288E4,9.454E3,9.664E3,2.2306E5,2.26E3,1.79126E5,4.672E3,2.0431E4,2.9691E4,2.082E3,1.639E4,4.9E1,2.78E2,3.3E1,8.28E3,1.59E2,5.5E1,4.87E2,3.18E2,1.1706E4,8.1419E4,3.7453E4,1.0294E4,3.363E3,2.1E3,2.508E3,2.3126E4,2.8437E4,4.43E2,1.7508E4,2.316E3,8.906E3,5.152E3,4.412E3,1.2562E4],"tree_param":{"num_deleted":"0","num_feature":"152","num_nodes":"127","size_leaf_vector":"1"}},{"base_weights":[1.0381362E-3,-1.819705E-1,2.0427568E0,3.086324E-1,-5.881839E-1,1.5526532E0,8.967613E0,9.623675E-2,3.9911416E0,-7.669036E-1,-2.8389094E-2,4.2431292E-1,3.3416345E0,1.8511044E1,7.695368E0,6.847178E-1,-6.5945405E-1,3.1392016E0,9.045788E0,-1.0320157E0,-5.478121E-1,-2.7032387E-1,1.7231534E0,3.3748516E-1,1.3034982E1,2.6388876E0,7.38461E0,3.386054E1,1.2129429E1,8.96081E0,2.5480657E0,4.183629E-1,2.071328E0,-8.2277215E-1,-1.1017665E-1,9.388359E-1,4.049791E0,6.2657766E0,1.6841885E1,-4.8461714E-1,-1.0595738E0,-5.691549E-1,2.681131E0,9.306022E-1,-4.0855357E-1,5.058567E-1,2.1279483E0,-4.531324E-2,2.827978E0,2.7460323E1,1.0046008E1,3.0998983E0,-7.1079236E-1,8.240948E0,6.7432463E-1,2.2325489E1,4.4544094E1,1.8109587E1,7.1385756E0,1.1257854E1,5.3035173E0,-1.1748511E0,4.445063E0,1.5308641E-1,-1.6538984E-3,5.41552E-1,1.3676094E-1,-1.00074306E-1,-5.6483652E-2,-4.1415196E-2,1.0018843E-1,-2.947089E-2,1.8111266E-1,3.7527582E-1,1.3162044E0,3.9586875E-1,1.4116157E0,3.0297172E0,1.0516486E0,-8.133095E-2,9.895498E-2,-9.0235785E-2,-1.11011885E-1,-6.1870378E-2,8.5071035E-2,-7.0751995E-2,4.1865465E-1,-4.0322527E-2,2.2043322E-1,-6.949068E-2,7.1326434E-3,7.0592955E-2,-1.2953713E-3,1.5328372E-1,2.7901515E-1,6.1342623E-2,-6.320398E-2,1.8230973E-1,8.3822864E-1,-5.3928632E-2,3.214672E0,1.2964133E0,3.5704038E-1,3.6635533E-1,1.5278539E-1,-1.4435585E-1,3.2008704E-2,7.275761E-1,1.0807316E0,-2.755831E-2,1.6904138E-1,1.9156483E0,4.1073465E0,3.5161557E0,4.928142E0,1.1307641E0,2.409729E0,6.1286205E-1,1.9143053E0,1.7084494E0,8.4330016E-1,4.0174976E-1,8.128223E-1,-5.2280046E-2,-2.3288368E-1,2.0471297E-1,8.199145E-1],"categories":[],"categories_nodes":[],"categories_segments":[],"categories_sizes":[],"default_left":[1,1,1,1,1,1,0,1,1,1,1,1,1,0,0,1,1,1,0,0,1,0,0,0,0,0,0,0,0,1,1,0,1,1,1,0,1,1,0,0,1,1,0,1,1,1,1,0,0,0,0,0,1,0,0,1,0,0,1,0,0,1,0,0,0,0,0,0,0,0,0,0,0,0,0,0,0,0,0,0,0,0,0,0,0,0,0,0,0,0,0,0,0,0,0,0,0,0,0,0,0,0,0,0,0,0,0,0,0,0,0,0,0,0,0,0,0,0,0,0,0,0,0,0,0,0,0],"id":10,"left_children":[1,3,5,7,9,11,13,15,17,19,21,23,25,27,29,31,33,35,37,39,41,43,45,47,49,51,53,55,57,59,61,63,65,67,69,71,73,75,77,79,81,83,85,87,89,91,93,95,97,99,101,103,105,107,109,111,113,115,117,119,121,123,125,-1,-1,-1,-1,-1,-1,-1,-1,-1,-1,-1,-1,-1,-1,-1,-1,-1,-1,-1,-1,-1,-1,-1,-1,-1,-1,-1,-1,-1,-1,-1,-1,-1,-1,-1,-1,-1,-1,-1,-1,-1,-1,-1,-1,-1,-1,-1,-1,-1,-1,-1,-1,-1,-1,-1,-1,-1,-1,-1,-1,-1,-1,-1,-1],"loss_changes":[2.0785008E6,1.01738694E6,1.5530029E6,1.8085979E6,2.7940212E5,8.6263244E5,3.6707975E5,9.72247E5,5.429731E5,1.229565E5,2.8639294E5,2.869419E5,4.6958925E5,3.4801362E5,1.7381888E5,4.539453E5,8.586244E4,2.1620775E5,3.940655E5,1.4448875E4,7.987703E4,9.857617E4,4.041572E4,2.4813123E5,7.698975E4,2.1744944E5,1.406345E5,1.2766325E5,7.490378E4,1.7990588E5,3.7209754E4,4.988527E5,4.6608925E5,3.386722E4,7.4155016E4,3.398845E4,2.0653188E5,2.427835E5,4.0650738E5,2.2247344E4,7.2456875E3,8.100716E4,3.882916E4,1.0413716E5,7.317678E4,2.1247925E3,2.4252812E4,8.719361E4,1.9352034E5,4.030103E4,2.8034078E4,1.09672E5,1.2869344E4,5.3685125E4,2.6750098E3,2.9157078E4,2.2313625E4,4.6279656E4,1.6516781E4,2.1641225E5,2.999464E4,1.3374033E3,3.1400336E4,0E0,0E0,0E0,0E0,0E0,0E0,0E0,0E0,0E0,0E0,0E0,0E0,0E0,0E0,0E0,0E0,0E0,0E0,0E0,0E0,0E0,0E0,0E0,0E0,0E0,0E0,0E0,0E0,0E0,0E0,0E0,0E0,0E0,0E0,0E0,0E0,0E0,0E0,0E0,0E0,0E0,0E0,0E0,0E0,0E0,0E0,0E0,0E0,0E0,0E0,0E0,0E0,0E0,0E0,0E0,0E0,0E0,0E0,0E0,0E0,0E0,0E0,0E0,0E0],"parents":[2147483647,0,0,1,1,2,2,3,3,4,4,5,5,6,6,7,7,8,8,9,9,10,10,11,11,12,12,13,13,14,14,15,15,16,16,17,17,18,18,19,19,20,20,21,21,22,22,23,23,24,24,25,25,26,26,27,27,28,28,29,29,30,30,31,31,32,32,33,33,34,34,35,35,36,36,37,37,38,38,39,39,40,40,41,41,42,42,43,43,44,44,45,45,46,46,47,47,48,48,49,49,50,50,51,51,52,52,53,53,54,54,55,55,56,56,57,57,58,58,59,59,60,60,61,61,62,62],"right_children":[2,4,6,8,10,12,14,16,18,20,22,24,26,28,30,32,34,36,38,40,42,44,46,48,50,52,54,56,58,60,62,64,66,68,70,72,74,76,78,80,82,84,86,88,90,92,94,96,98,100,102,104,106,108,110,112,114,116,118,120,122,124,126,-1,-1,-1,-1,-1,-1,-1,-1,-1,-1,-1,-1,-1,-1,-1,-1,-1,-1,-1,-1,-1,-1,-1,-1,-1,-1,-1,-1,-1,-1,-1,-1,-1,-1,-1,-1,-1,-1,-1,-1,-1,-1,-1,-1,-1,-1,-1,-1,-1,-1,-1,-1,-1,-1,-1,-1,-1,-1,-1,-1,-1,-1,-1,-1],"split_conditions":[4.1765E-1,5.362068E0,2.4025E4,7.595602E2,1.1373E2,1.102744E2,3.14E1,7.776667E1,1E2,4.7E1,2.2E2,2.18E3,1.4164E2,5.312E1,2.1E0,1.0296737E0,2.5118762E-1,5.5276096E-1,1.87E1,2.2468113E1,9.38E2,4.671E1,2.4E1,1.8E2,6E0,4.7927288E1,6.18E0,2.2574348E0,6.811E1,6.849E1,7E1,1.6E-1,1.9383094E0,2E0,5.23215E1,1.52E1,8.03E2,1.0388577E3,2.14E1,1.5283333E0,2E0,1.1144E3,6.69E0,1.256E2,5.395E2,7.677573E1,6.1583334E-1,1.8E1,4.53E1,2.4054146E-1,1.334991E1,8.5988335E1,2E1,5.961528E0,3.0534283E2,1.2722871E1,2.208E1,7.361534E1,1.1988E1,3.57E2,4.057E2,6.226E1,5.8156025E1,1.5308641E-1,-1.6538984E-3,5.41552E-1,1.3676094E-1,-1.00074306E-1,-5.6483652E-2,-4.1415196E-2,1.0018843E-1,-2.947089E-2,1.8111266E-1,3.7527582E-1,1.3162044E0,3.9586875E-1,1.4116157E0,3.0297172E0,1.0516486E0,-8.133095E-2,9.895498E-2,-9.0235785E-2,-1.11011885E-1,-6.1870378E-2,8.5071035E-2,-7.0751995E-2,4.1865465E-1,-4.0322527E-2,2.2043322E-1,-6.949068E-2,7.1326434E-3,7.0592955E-2,-1.2953713E-3,1.5328372E-1,2.7901515E-1,6.1342623E-2,-6.320398E-2,1.8230973E-1,8.3822864E-1,-5.3928632E-2,3.214672E0,1.2964133E0,3.5704038E-1,3.6635533E-1,1.5278539E-1,-1.4435585E-1,3.2008704E-2,7.275761E-1,1.0807316E0,-2.755831E-2,1.6904138E-1,1.9156483E0,4.1073465E0,3.5161557E0,4.928142E0,1.1307641E0,2.409729E0,6.1286205E-1,1.9143053E0,1.7084494E0,8.4330016E-1,4.0174976E-1,8.128223E-1,-5.2280046E-2,-2.3288368E-1,2.0471297E-1,8.199145E-1],"split_indices":[70,137,133,52,31,27,119,93,116,123,122,105,124,1,114,71,69,69,123,108,3,113,124,112,118,105,125,61,1,1,119,105,127,135,51,0,125,124,123,57,144,4,126,27,85,99,75,112,111,76,56,106,123,67,90,90,0,102,3,123,123,3,82,0,0,0,0,0,0,0,0,0,0,0,0,0,0,0,0,0,0,0,0,0,0,0,0,0,0,0,0,0,0,0,0,0,0,0,0,0,0,0,0,0,0,0,0,0,0,0,0,0,0,0,0,0,0,0,0,0,0,0,0,0,0,0,0],"split_type":[0,0,0,0,0,0,0,0,0,0,0,0,0,0,0,0,0,0,0,0,0,0,0,0,0,0,0,0,0,0,0,0,0,0,0,0,0,0,0,0,0,0,0,0,0,0,0,0,0,0,0,0,0,0,0,0,0,0,0,0,0,0,0,0,0,0,0,0,0,0,0,0,0,0,0,0,0,0,0,0,0,0,0,0,0,0,0,0,0,0,0,0,0,0,0,0,0,0,0,0,0,0,0,0,0,0,0,0,0,0,0,0,0,0,0,0,0,0,0,0,0,0,0,0,0,0,0],"sum_hessian":[5.56266E6,5.10507E6,4.5759E5,2.312344E6,2.792726E6,4.27346E5,3.0244E4,2.186249E6,1.26095E5,2.116889E6,6.75837E5,2.62061E5,1.65285E5,3.556E3,2.6688E4,1.229105E6,9.57144E5,1.07909E5,1.8186E4,9.57844E5,1.159045E6,5.93816E5,8.2021E4,2.6027E5,1.791E3,1.40811E5,2.4474E4,1.043E3,2.513E3,2.1421E4,5.267E3,1.031051E6,1.98054E5,7.37778E5,2.19366E5,3.1586E4,7.6323E4,1.3407E4,4.779E3,4.5911E4,9.11933E5,1.151435E6,7.61E3,6.1294E4,5.32522E5,2.0469E4,6.1552E4,2.25596E5,3.4674E4,3.06E2,1.485E3,1.23776E5,1.7035E4,2.1704E4,2.77E3,5.03E2,5.4E2,1.142E3,1.371E3,1.3156E4,8.265E3,1.778E3,3.489E3,2.89779E5,7.41272E5,3.443E4,1.63624E5,4.36558E5,3.0122E5,1.72276E5,4.709E4,1.3084E4,1.8502E4,7.3915E4,2.408E3,1.0363E4,3.044E3,1.527E3,3.252E3,3.7541E4,8.37E3,2.21864E5,6.90069E5,1.112609E6,3.8826E4,2.341E3,5.269E3,2.9941E4,3.1353E4,3.3351E5,1.99012E5,1.4772E4,5.697E3,3.242E4,2.9132E4,1.06276E5,1.1932E5,2.9363E4,5.311E3,4.4E1,2.62E2,1.023E3,4.62E2,9.1108E4,3.2668E4,9.957E3,7.078E3,1.5775E4,5.929E3,1.432E3,1.338E3,4.32E2,7.1E1,1.84E2,3.56E2,5.36E2,6.06E2,1.266E3,1.05E2,4.294E3,8.862E3,5.681E3,2.584E3,1.137E3,6.41E2,2.13E3,1.359E3],"tree_param":{"num_deleted":"0","num_feature":"152","num_nodes":"127","size_leaf_vector":"1"}},{"base_weights":[7.668172E-4,-9.816348E-2,3.1162386E0,-1.8195875E-1,2.786376E0,4.2039356E0,1.5043513E0,-5.2277803E-1,2.1749078E-1,8.527354E0,1.1853409E0,5.763735E0,3.0213645E0,1.9926113E0,-9.1123235E-1,4.5116396E0,-5.564509E-1,1.0519415E0,-3.357054E-1,1.9913799E0,1.06637745E1,3.205443E0,-1.22991405E-1,6.3459897E0,1.7264162E0,2.7498968E0,1.0193727E1,2.5811763E0,5.4616845E-1,-1.3313632E0,1.7541529E-1,3.2300098E0,1.2811866E1,1.6759558E-1,-6.679749E-1,8.425128E-1,9.270368E0,-4.912233E-1,8.722996E-1,-3.5660672E-1,3.494144E0,8.375886E0,1.7524635E1,1.3758779E0,5.8897934E0,-3.805589E-1,3.3816702E0,6.807003E0,6.574804E-1,-1.4026229E0,3.633425E0,1.5817645E-1,3.2457407E0,8.309868E0,1.2059134E1,1.2903659E0,3.85989E0,4.0521207E-1,6.957167E0,-1.5464709E0,-3.935113E-1,-2.3620093E0,6.489664E-1,4.6775532E-1,1.037395E-1,1.9639927E0,7.93459E-1,-6.90858E-3,5.1529557E-1,-7.084669E-2,5.552965E-2,-5.7418626E-3,1.7614125E-1,5.541193E-1,1.229757E0,-9.397179E-2,-3.447151E-2,-2.2828469E-2,1.4108923E-1,-6.566434E-2,1.6306451E-1,1.2299267E-1,5.606878E-1,4.904202E-1,1.2790895E0,2.4099004E0,1.4223776E0,-8.731232E-2,2.3289283E-1,4.8911878E-1,1.9997872E0,-1.2478282E-1,3.4353983E-2,2.0378368E-1,9.0676975E-1,3.2658765E-1,7.360012E-1,-4.0013533E-2,1.7549084E-1,2.1379443E-1,-1.7509612E-1,4.3781452E-2,4.974823E-1,-2.0234425E-2,2.0212112E-1,2.7265152E-1,6.303188E-1,1.0637805E0,7.7945924E-1,8.050257E-1,1.2532223E0,7.958269E-1,1.0028191E-1,6.658996E-1,2.8809354E-1,1.0622623E-1,-6.194607E-2,1.0570785E0,4.001935E-1,-9.000757E-2,-1.7463368E-1,-1.9238038E-3,-1.1907723E-1,-1.6752185E-1,-3.5356537E-1,2.5883732E-2,2.3042662E-1],"categories":[],"categories_nodes":[],"categories_segments":[],"categories_sizes":[],"default_left":[1,0,0,0,0,1,1,0,1,1,1,1,0,0,0,1,0,1,1,0,0,1,0,0,1,0,0,0,1,0,0,0,0,0,1,1,0,0,0,0,0,1,0,0,0,1,1,0,0,0,0,0,0,0,0,0,0,0,0,0,0,0,0,0,0,0,0,0,0,0,0,0,0,0,0,0,0,0,0,0,0,0,0,0,0,0,0,0,0,0,0,0,0,0,0,0,0,0,0,0,0,0,0,0,0,0,0,0,0,0,0,0,0,0,0,0,0,0,0,0,0,0,0,0,0,0,0],"id":11,"left_children":[1,3,5,7,9,11,13,15,17,19,21,23,25,27,29,31,33,35,37,39,41,43,45,47,49,51,53,55,57,59,61,63,65,67,69,71,73,75,77,79,81,83,85,87,89,91,93,95,97,99,101,103,105,107,109,111,113,115,117,119,121,123,125,-1,-1,-1,-1,-1,-1,-1,-1,-1,-1,-1,-1,-1,-1,-1,-1,-1,-1,-1,-1,-1,-1,-1,-1,-1,-1,-1,-1,-1,-1,-1,-1,-1,-1,-1,-1,-1,-1,-1,-1,-1,-1,-1,-1,-1,-1,-1,-1,-1,-1,-1,-1,-1,-1,-1,-1,-1,-1,-1,-1,-1,-1,-1,-1],"loss_changes":[1.7144318E6,1.3031274E6,3.00144E5,7.1324794E5,1.3988824E6,1.8853288E5,8.135794E4,4.792458E5,1.1134461E6,4.6340225E5,3.145317E5,1.03605375E5,1.1317819E5,4.88485E4,5.295573E3,1.9976869E5,2.2676025E5,1.6550554E6,2.724965E5,2.8853543E4,3.9246375E5,2.2973266E5,6.5201453E4,1.0101875E5,3.3164297E4,7.199397E4,7.3498125E3,6.731378E4,1.4995412E4,1.6869395E3,3.8887092E3,5.1640938E4,8.3499625E4,4.4226147E5,1.2053375E5,7.754239E5,2.696815E5,8.443747E4,9.806526E4,1.9042959E3,2.3844578E4,2.8746612E5,1.3537588E5,5.9631723E4,2.6701838E5,4.2254645E4,3.7766633E4,6.9757E4,3.3538403E3,2.599872E3,1.4799406E4,6.044029E3,7.4636875E4,1.1861875E3,1.9151562E3,3.8910074E4,5.6122E4,1.0935098E4,3.770127E3,8.774531E2,4.660677E2,4.043557E2,1.7604473E3,0E0,0E0,0E0,0E0,0E0,0E0,0E0,0E0,0E0,0E0,0E0,0E0,0E0,0E0,0E0,0E0,0E0,0E0,0E0,0E0,0E0,0E0,0E0,0E0,0E0,0E0,0E0,0E0,0E0,0E0,0E0,0E0,0E0,0E0,0E0,0E0,0E0,0E0,0E0,0E0,0E0,0E0,0E0,0E0,0E0,0E0,0E0,0E0,0E0,0E0,0E0,0E0,0E0,0E0,0E0,0E0,0E0,0E0,0E0,0E0,0E0,0E0,0E0,0E0],"parents":[2147483647,0,0,1,1,2,2,3,3,4,4,5,5,6,6,7,7,8,8,9,9,10,10,11,11,12,12,13,13,14,14,15,15,16,16,17,17,18,18,19,19,20,20,21,21,22,22,23,23,24,24,25,25,26,26,27,27,28,28,29,29,30,30,31,31,32,32,33,33,34,34,35,35,36,36,37,37,38,38,39,39,40,40,41,41,42,42,43,43,44,44,45,45,46,46,47,47,48,48,49,49,50,50,51,51,52,52,53,53,54,54,55,55,56,56,57,57,58,58,59,59,60,60,61,61,62,62],"right_children":[2,4,6,8,10,12,14,16,18,20,22,24,26,28,30,32,34,36,38,40,42,44,46,48,50,52,54,56,58,60,62,64,66,68,70,72,74,76,78,80,82,84,86,88,90,92,94,96,98,100,102,104,106,108,110,112,114,116,118,120,122,124,126,-1,-1,-1,-1,-1,-1,-1,-1,-1,-1,-1,-1,-1,-1,-1,-1,-1,-1,-1,-1,-1,-1,-1,-1,-1,-1,-1,-1,-1,-1,-1,-1,-1,-1,-1,-1,-1,-1,-1,-1,-1,-1,-1,-1,-1,-1,-1,-1,-1,-1,-1,-1,-1,-1,-1,-1,-1,-1,-1,-1,-1,-1,-1,-1],"split_conditions":[5.362E2,1.1617565E3,4.2288334E1,5.377355E-1,6.88E1,1E2,5.225111E1,8.5E-1,5.362068E0,1.784216E2,8.71E1,7.05E1,3.491564E2,7.9323E1,3.3602878E2,1.4009787E2,3.3E0,9.1192725E2,3.305E1,2.85E1,1.45584E2,1E2,1.24E2,4.08E1,2.7168901E1,1.24E2,4.321146E0,1.65E1,7.381E2,1.9155556E1,3.8589492E-1,8.04E1,7.421563E1,1.1E1,2.6274622E2,1.5772E1,3.2E1,1.4296906E-1,1.2141713E2,2.1969711E1,6.222808E-1,4E1,4.973E1,2.85E1,1.24E2,1.03E1,4.113844E2,2E0,3.0934192E2,5.6060905E0,4.46768E0,2.22E1,8.6E0,3.8376138E2,6.195E2,3E0,1.7E1,8.893294E1,1.9851607E0,8.988931E0,3.91E1,7.6172715E-1,1.63E2,4.6775532E-1,1.037395E-1,1.9639927E0,7.93459E-1,-6.90858E-3,5.1529557E-1,-7.084669E-2,5.552965E-2,-5.7418626E-3,1.7614125E-1,5.541193E-1,1.229757E0,-9.397179E-2,-3.447151E-2,-2.2828469E-2,1.4108923E-1,-6.566434E-2,1.6306451E-1,1.2299267E-1,5.606878E-1,4.904202E-1,1.2790895E0,2.4099004E0,1.4223776E0,-8.731232E-2,2.3289283E-1,4.8911878E-1,1.9997872E0,-1.2478282E-1,3.4353983E-2,2.0378368E-1,9.0676975E-1,3.2658765E-1,7.360012E-1,-4.0013533E-2,1.7549084E-1,2.1379443E-1,-1.7509612E-1,4.3781452E-2,4.974823E-1,-2.0234425E-2,2.0212112E-1,2.7265152E-1,6.303188E-1,1.0637805E0,7.7945924E-1,8.050257E-1,1.2532223E0,7.958269E-1,1.0028191E-1,6.658996E-1,2.8809354E-1,1.0622623E-1,-6.194607E-2,1.0570785E0,4.001935E-1,-9.000757E-2,-1.7463368E-1,-1.9238038E-3,-1.1907723E-1,-1.6752185E-1,-3.5356537E-1,2.5883732E-2,2.3042662E-1],"split_indices":[50,109,126,69,1,119,126,119,137,7,1,1,127,14,90,5,115,7,2,119,106,7,119,120,6,119,65,120,27,62,44,1,100,140,6,8,120,45,87,60,59,120,1,119,119,122,7,141,86,104,136,121,120,90,4,135,120,92,134,66,119,20,126,0,0,0,0,0,0,0,0,0,0,0,0,0,0,0,0,0,0,0,0,0,0,0,0,0,0,0,0,0,0,0,0,0,0,0,0,0,0,0,0,0,0,0,0,0,0,0,0,0,0,0,0,0,0,0,0,0,0,0,0,0,0,0,0],"split_type":[0,0,0,0,0,0,0,0,0,0,0,0,0,0,0,0,0,0,0,0,0,0,0,0,0,0,0,0,0,0,0,0,0,0,0,0,0,0,0,0,0,0,0,0,0,0,0,0,0,0,0,0,0,0,0,0,0,0,0,0,0,0,0,0,0,0,0,0,0,0,0,0,0,0,0,0,0,0,0,0,0,0,0,0,0,0,0,0,0,0,0,0,0,0,0,0,0,0,0,0,0,0,0,0,0,0,0,0,0,0,0,0,0,0,0,0,0,0,0,0,0,0,0,0,0,0,0],"sum_hessian":[5.56246E6,5.391264E6,1.71196E5,5.239071E6,1.52193E5,1.02218E5,6.8978E4,2.827006E6,2.412065E6,3.3187E4,1.19006E5,4.4077E4,5.8141E4,5.738E4,1.1598E4,1.8782E4,2.808224E6,9.61588E5,1.450477E6,8.176E3,2.5011E4,4.6778E4,7.2228E4,3.8521E4,5.556E3,5.6022E4,2.119E3,4.0784E4,1.6596E4,8.364E3,3.234E3,1.6271E4,2.511E3,3.74815E5,2.433409E6,9.37694E5,2.3894E4,1.285042E6,1.65435E5,3.191E3,4.985E3,1.8758E4,6.253E3,2.7819E4,1.8959E4,6.7284E4,4.944E3,3.5633E4,2.888E3,2.104E3,3.452E3,8.997E3,4.7025E4,1.057E3,1.062E3,2.0297E4,2.0487E4,1.624E4,3.56E2,6.803E3,1.561E3,5.08E2,2.726E3,9.8E3,6.471E3,1.045E3,1.466E3,3.57828E5,1.6987E4,2.355441E6,7.7968E4,4.73737E5,4.63957E5,1.0707E4,1.3187E4,3.16416E5,9.68626E5,5.4358E4,1.11077E5,2.773E3,4.18E2,2.407E3,2.578E3,1.0502E4,8.256E3,2.088E3,4.165E3,8.28E3,1.9539E4,1.7707E4,1.252E3,3.0615E4,3.6669E4,4E3,9.44E2,4.814E3,3.0819E4,1.471E3,1.417E3,1.88E2,1.916E3,1.021E3,2.431E3,7.539E3,1.458E3,4.02E4,6.825E3,1.88E2,8.69E2,1.14E2,9.48E2,8.38E2,1.9459E4,5.307E3,1.518E4,9.895E3,6.345E3,1.59E2,1.97E2,1.608E3,5.195E3,1.063E3,4.98E2,3.22E2,1.86E2,2.207E3,5.19E2],"tree_param":{"num_deleted":"0","num_feature":"152","num_nodes":"127","size_leaf_vector":"1"}},{"base_weights":[2.6091293E-4,-1.509667E-1,1.6856171E0,-2.1136269E-1,2.3713586E0,1.2789756E0,7.4013104E0,1.1100576E-1,-5.7856E-1,4.54642E0,1.6340849E0,3.0133092E-1,2.75466E0,5.035018E0,1.3045108E1,7.46818E-1,-3.478575E-1,-7.309517E-1,-2.886634E-1,8.3052087E-1,5.359258E0,2.5434182E0,1.0055833E0,2.2461542E-1,1.1100425E1,3.7870734E0,1.0738978E0,3.2201173E0,7.241333E0,3.271535E1,1.027869E1,5.570853E-1,6.5956283E0,-4.5486638E-1,9.3046457E-1,-8.0395097E-1,-3.401372E-1,4.258099E-1,-4.9286216E-1,5.7985854E0,4.1155288E-1,7.237233E0,3.9651077E0,-1.0605967E0,2.8948338E0,1.2803607E0,-3.5739452E-1,1.1756517E-2,3.0437582E0,1.9661459E1,8.3053E0,2.7933147E0,5.6471972E0,1.936037E0,-4.8254007E-1,2.3745337E0,5.4708467E0,2.1497393E0,9.329441E0,2.5440468E1,4.329631E1,6.837976E0,1.3081657E1,1.5171364E-2,2.2956267E-1,1.1107718E-1,8.677338E-1,-5.646279E-2,8.243262E-3,6.7578614E-2,3.3443075E-1,-5.6464154E-2,-8.933912E-2,-5.69379E-2,2.4544473E-3,-2.2182032E-3,2.3067716E-1,-5.1281776E-2,4.4269162E-1,8.2786524E-1,-3.6779735E-2,-8.573278E-2,2.0056169E-1,3.722256E-1,8.972332E-1,2.60145E-1,5.416175E-1,-4.289336E-2,-2.3789124E-1,1.5327619E-1,3.912134E-1,-3.0124778E-1,1.3694865E-1,-5.1246624E-2,1.6664898E-1,-2.2099432E-2,1.6751331E-1,2.4593556E-1,8.66052E-1,4.1088277E-1,3.2061908E0,2.073255E0,6.3840103E-1,2.510398E-1,1.2552283E0,7.263717E-1,3.917909E-1,5.0324494E-1,1.2377989E-1,-6.1903056E-2,7.080542E-1,2.0710711E-1,4.918881E-1,4.6151397E-1,8.129573E-1,-1.4436503E-1,3.8082585E-1,6.431231E-1,1.1578523E0,1.2005672E0,2.9207082E0,3.2134502E0,4.983195E0,-5.084009E-2,1.036703E0,1.8256987E0,6.5592706E-1],"categories":[],"categories_nodes":[],"categories_segments":[],"categories_sizes":[],"default_left":[1,1,1,1,0,1,1,1,1,1,0,1,0,1,0,1,1,0,1,1,0,0,1,1,0,0,0,0,0,0,0,1,0,1,1,0,1,1,0,0,0,0,0,0,1,0,1,0,1,0,0,1,1,0,1,1,0,0,0,0,0,0,0,0,0,0,0,0,0,0,0,0,0,0,0,0,0,0,0,0,0,0,0,0,0,0,0,0,0,0,0,0,0,0,0,0,0,0,0,0,0,0,0,0,0,0,0,0,0,0,0,0,0,0,0,0,0,0,0,0,0,0,0,0,0,0,0],"id":12,"left_children":[1,3,5,7,9,11,13,15,17,19,21,23,25,27,29,31,33,35,37,39,41,43,45,47,49,51,53,55,57,59,61,63,65,67,69,71,73,75,77,79,81,83,85,87,89,91,93,95,97,99,101,103,105,107,109,111,113,115,117,119,121,123,125,-1,-1,-1,-1,-1,-1,-1,-1,-1,-1,-1,-1,-1,-1,-1,-1,-1,-1,-1,-1,-1,-1,-1,-1,-1,-1,-1,-1,-1,-1,-1,-1,-1,-1,-1,-1,-1,-1,-1,-1,-1,-1,-1,-1,-1,-1,-1,-1,-1,-1,-1,-1,-1,-1,-1,-1,-1,-1,-1,-1,-1,-1,-1,-1],"loss_changes":[1.4183059E6,7.7792456E5,1.0649865E6,5.90342E5,1.9148831E5,6.1715525E5,4.0637662E5,7.74797E5,1.02998875E5,9.1303E4,5.0968797E4,2.1316967E5,2.9580075E5,8.584769E4,4.888645E5,1.2353275E6,2.1099894E5,4.3596562E4,1.1719937E5,1.1293697E4,6.4912688E4,4.6165984E4,1.9751664E4,1.5331911E5,4.3268125E4,1.95191E5,8.704509E4,2.2383633E4,1.0287456E5,8.4187125E4,7.5935875E4,7.598845E5,3.993535E5,8.394066E4,7.324443E4,2.7559938E4,2.0107215E4,1.5046294E5,6.1338984E4,6.456709E3,1.0127239E4,6.4413E4,2.8159469E4,2.6961965E3,4.6012344E4,1.6796523E4,2.7780889E3,9.197304E4,5.885597E4,8.588367E4,3.2578227E4,1.9001194E5,1.02762375E5,9.024783E4,2.3875023E4,6.5960195E3,7.2723438E3,1.6788031E4,4.4660688E4,3.2997156E4,3.1226E4,9.180836E4,1.4648038E5,0E0,0E0,0E0,0E0,0E0,0E0,0E0,0E0,0E0,0E0,0E0,0E0,0E0,0E0,0E0,0E0,0E0,0E0,0E0,0E0,0E0,0E0,0E0,0E0,0E0,0E0,0E0,0E0,0E0,0E0,0E0,0E0,0E0,0E0,0E0,0E0,0E0,0E0,0E0,0E0,0E0,0E0,0E0,0E0,0E0,0E0,0E0,0E0,0E0,0E0,0E0,0E0,0E0,0E0,0E0,0E0,0E0,0E0,0E0,0E0,0E0,0E0,0E0,0E0],"parents":[2147483647,0,0,1,1,2,2,3,3,4,4,5,5,6,6,7,7,8,8,9,9,10,10,11,11,12,12,13,13,14,14,15,15,16,16,17,17,18,18,19,19,20,20,21,21,22,22,23,23,24,24,25,25,26,26,27,27,28,28,29,29,30,30,31,31,32,32,33,33,34,34,35,35,36,36,37,37,38,38,39,39,40,40,41,41,42,42,43,43,44,44,45,45,46,46,47,47,48,48,49,49,50,50,51,51,52,52,53,53,54,54,55,55,56,56,57,57,58,58,59,59,60,60,61,61,62,62],"right_children":[2,4,6,8,10,12,14,16,18,20,22,24,26,28,30,32,34,36,38,40,42,44,46,48,50,52,54,56,58,60,62,64,66,68,70,72,74,76,78,80,82,84,86,88,90,92,94,96,98,100,102,104,106,108,110,112,114,116,118,120,122,124,126,-1,-1,-1,-1,-1,-1,-1,-1,-1,-1,-1,-1,-1,-1,-1,-1,-1,-1,-1,-1,-1,-1,-1,-1,-1,-1,-1,-1,-1,-1,-1,-1,-1,-1,-1,-1,-1,-1,-1,-1,-1,-1,-1,-1,-1,-1,-1,-1,-1,-1,-1,-1,-1,-1,-1,-1,-1,-1,-1,-1,-1,-1,-1,-1],"split_conditions":[4.1765E-1,6.6364594E2,2.4025E4,6.982333E1,5.6E0,2.116114E2,8.012384E2,5.362068E0,2.8514174E-1,3.877E-2,7.377738E1,2.18E3,4.2288334E1,1.0605233E2,3.14E1,9.952712E2,7.787E1,1.03081E2,1E0,9.04E0,7E0,6.634742E0,8.9316666E1,2.4043172E2,5.432E0,7.5E0,1.92E1,9.4127834E-1,-3.7649E1,1.1159201E0,1.0223191E1,3.9311655E2,1.2888404E0,4.417898E2,1E3,7.4E0,7.214967E-2,1.897E2,2.9308308E3,5.4E1,3.654E-2,6.334372E0,9.299409E2,6.655E1,3.667E-2,6.634742E0,4.6323334E2,1.6926236E4,5.960588E2,1.1025097E-1,1.0379971E-1,1.96E4,2.75E0,2E0,6.81593E2,1.52E2,-3.7642E1,4.6433678E1,1.0223191E1,5.988779E-1,1.1311693E3,8.1E1,3.03E2,1.5171364E-2,2.2956267E-1,1.1107718E-1,8.677338E-1,-5.646279E-2,8.243262E-3,6.7578614E-2,3.3443075E-1,-5.6464154E-2,-8.933912E-2,-5.69379E-2,2.4544473E-3,-2.2182032E-3,2.3067716E-1,-5.1281776E-2,4.4269162E-1,8.2786524E-1,-3.6779735E-2,-8.573278E-2,2.0056169E-1,3.722256E-1,8.972332E-1,2.60145E-1,5.416175E-1,-4.289336E-2,-2.3789124E-1,1.5327619E-1,3.912134E-1,-3.0124778E-1,1.3694865E-1,-5.1246624E-2,1.6664898E-1,-2.2099432E-2,1.6751331E-1,2.4593556E-1,8.66052E-1,4.1088277E-1,3.2061908E0,2.073255E0,6.3840103E-1,2.510398E-1,1.2552283E0,7.263717E-1,3.917909E-1,5.0324494E-1,1.2377989E-1,-6.1903056E-2,7.080542E-1,2.0710711E-1,4.918881E-1,4.6151397E-1,8.129573E-1,-1.4436503E-1,3.8082585E-1,6.431231E-1,1.1578523E0,1.2005672E0,2.9207082E0,3.2134502E0,4.983195E0,-5.084009E-2,1.036703E0,1.8256987E0,6.5592706E-1],"split_indices":[70,6,133,93,120,7,7,137,2,48,91,105,105,7,119,7,2,107,134,12,115,120,1,6,11,114,120,70,105,2,122,8,59,87,51,121,2,51,110,119,45,115,6,95,4,120,85,134,133,71,73,133,125,140,5,119,105,119,122,2,7,119,107,0,0,0,0,0,0,0,0,0,0,0,0,0,0,0,0,0,0,0,0,0,0,0,0,0,0,0,0,0,0,0,0,0,0,0,0,0,0,0,0,0,0,0,0,0,0,0,0,0,0,0,0,0,0,0,0,0,0,0,0,0,0,0,0],"split_type":[0,0,0,0,0,0,0,0,0,0,0,0,0,0,0,0,0,0,0,0,0,0,0,0,0,0,0,0,0,0,0,0,0,0,0,0,0,0,0,0,0,0,0,0,0,0,0,0,0,0,0,0,0,0,0,0,0,0,0,0,0,0,0,0,0,0,0,0,0,0,0,0,0,0,0,0,0,0,0,0,0,0,0,0,0,0,0,0,0,0,0,0,0,0,0,0,0,0,0,0,0,0,0,0,0,0,0,0,0,0,0,0,0,0,0,0,0,0,0,0,0,0,0,0,0,0,0],"sum_hessian":[5.564766E6,5.106554E6,4.58212E5,4.98714E6,1.19414E5,4.27779E5,3.0433E4,2.655678E6,2.331462E6,3.0229E4,8.9185E4,2.57311E5,1.70468E5,2.1444E4,8.989E3,1.1132E6,1.542478E6,1.528149E6,8.03313E5,5.426E3,2.4803E4,3.6448E4,5.2737E4,2.55497E5,1.814E3,1.05601E5,6.4867E4,1.1767E4,9.677E3,1.107E3,7.882E3,1.078224E6,3.4976E4,1.423331E6,1.19147E5,1.287634E6,2.40515E5,1.78557E5,6.24756E5,4.21E2,5.005E3,1.0566E4,1.4237E4,3.238E3,3.321E4,4.3889E4,8.848E3,2.37561E5,1.7936E4,4.45E2,1.369E3,6.8831E4,3.677E4,4.1744E4,2.3123E4,8.555E3,3.212E3,2.815E3,6.862E3,6.58E2,4.49E2,3.54E3,4.342E3,8.74354E5,2.0387E5,9.623E3,2.5353E4,1.18189E6,2.41441E5,1.07777E5,1.137E4,3.50318E5,9.37316E5,1.47681E5,9.2834E4,1.44211E5,3.4346E4,6.22233E5,2.523E3,3E2,1.21E2,2.787E3,2.218E3,3.493E3,7.073E3,7.341E3,6.896E3,2.19E3,1.048E3,1.42E4,1.901E4,8.92E2,4.2997E4,8.219E3,6.29E2,2.08401E5,2.916E4,1.6247E4,1.689E3,1.98E2,2.47E2,1.82E2,1.187E3,6.6893E4,1.938E3,1.9003E4,1.7767E4,7.68E3,3.4064E4,2.2714E4,4.09E2,7.645E3,9.1E2,2.432E3,7.8E2,8.89E2,1.926E3,3E3,3.862E3,1.45E2,5.13E2,1.68E2,2.81E2,1.149E3,2.391E3,2.42E3,1.922E3],"tree_param":{"num_deleted":"0","num_feature":"152","num_nodes":"127","size_leaf_vector":"1"}},{"base_weights":[1.5191773E-3,-9.9677026E-2,2.2016094E0,-4.0593776E-1,3.533378E-1,3.061392E0,5.814466E-1,-4.2857426E-1,7.6503286E0,2.1509877E-1,2.3419642E0,7.2603383E0,2.7454548E0,-7.2985214E-1,2.745104E0,-4.5825863E-1,1.3899387E0,1.2794723E1,6.4103575E0,1.9311981E-2,1.6811105E0,6.2815413E0,7.806501E-1,6.187867E0,1.759446E1,2.3546257E0,4.908001E0,5.5533752E0,-7.780296E-1,2.4251668E0,1.9018557E1,-4.7356567E-1,3.0093272E0,2.9328682E0,4.539835E-1,1.1612979E1,6.955799E1,3.3804793E0,9.463907E0,-5.1553752E-2,3.2755573E0,6.864977E-1,3.6172771E0,7.39935E0,1.6631361E0,1.8992417E-1,3.3781548E0,3.7799034E0,1.1668208E1,2.932398E1,6.856614E0,2.7517376E0,5.773111E-1,5.619168E0,-7.60842E-1,3.1561735E1,4.6721907E0,-9.8251694E-1,3.1078897E-2,1.8185272E0,9.347913E0,9.187147E0,3.8167015E1,-5.0189972E-2,1.4122663E-1,4.6923514E-2,4.560654E-1,2.3134546E-1,6.793233E-1,-8.342221E-2,1.1463922E-1,8.3602256E-1,2.5426373E0,7.314037E0,6.965906E-1,-1.6504051E-1,8.804447E-1,1.8007771E0,6.0091782E-3,-1.0598625E-2,3.5908154E-1,6.084997E-1,3.962192E-2,1.5330091E-1,1.3306431E-2,6.9000757E-1,2.705084E-1,1.0120654E0,5.288248E-1,8.533208E-2,4.2646056E-1,-1.9965066E-2,2.4357288E-1,8.270642E-2,5.8735204E-1,2.1589223E-1,9.8546666E-1,3.0823464E0,8.6385727E-1,2.3763597E0,3.5059717E0,1.7441076E0,4.60834E-1,3.299712E-1,1.08491555E-1,1.7938996E-2,3.6649594E-1,2.8048912E-1,6.735701E-1,-2.1498378E-1,8.041649E-3,4.5063496E-1,3.607123E0,9.4568044E-1,2.2985744E-1,-1.0497644E-1,-5.3792107E-3,8.4338024E-2,-8.789393E-2,3.6332074E-1,4.0931925E-3,1.0896212E-1,1.3447094E0,1.8136675E0,5.364128E-1,2.107664E0,5.7309413E0],"categories":[],"categories_nodes":[],"categories_segments":[],"categories_sizes":[],"default_left":[1,0,1,1,1,0,0,1,0,1,0,0,1,0,1,1,0,0,0,1,0,0,1,1,0,0,0,0,1,1,1,1,1,1,1,1,0,1,1,1,1,1,0,0,1,0,0,1,0,0,0,0,0,0,0,0,0,1,0,1,1,0,0,0,0,0,0,0,0,0,0,0,0,0,0,0,0,0,0,0,0,0,0,0,0,0,0,0,0,0,0,0,0,0,0,0,0,0,0,0,0,0,0,0,0,0,0,0,0,0,0,0,0,0,0,0,0,0,0,0,0,0,0,0,0,0,0],"id":13,"left_children":[1,3,5,7,9,11,13,15,17,19,21,23,25,27,29,31,33,35,37,39,41,43,45,47,49,51,53,55,57,59,61,63,65,67,69,71,73,75,77,79,81,83,85,87,89,91,93,95,97,99,101,103,105,107,109,111,113,115,117,119,121,123,125,-1,-1,-1,-1,-1,-1,-1,-1,-1,-1,-1,-1,-1,-1,-1,-1,-1,-1,-1,-1,-1,-1,-1,-1,-1,-1,-1,-1,-1,-1,-1,-1,-1,-1,-1,-1,-1,-1,-1,-1,-1,-1,-1,-1,-1,-1,-1,-1,-1,-1,-1,-1,-1,-1,-1,-1,-1,-1,-1,-1,-1,-1,-1,-1],"loss_changes":[1.2386874E6,7.379563E5,3.4079688E5,5.787426E5,5.8979675E5,2.1201512E5,2.4065623E5,1.7083119E5,5.6639188E4,5.7577525E5,8.577221E5,1.23843875E5,1.25625375E5,1.5991658E4,1.6660292E5,1.6527675E5,7.340004E4,1.14971625E5,6.627628E4,4.083618E5,4.55126E5,2.0431412E5,1.5323969E5,1.3368888E5,1.3217212E5,8.8857E4,9.172881E4,9.065643E3,8.671889E3,1.3181725E5,1.158035E5,1.6564962E5,5.392378E4,4.5873094E4,2.822094E4,7.5811625E4,7.3385E3,9.822172E4,2.867498E5,3.4338738E5,3.049086E5,7.314711E4,